
\data\
ngram 1=42825

\1-grams:
-3.397861	'
-5.855743	''
-5.554713	'13
-5.855743	'20's
-5.855743	'20s
-5.554713	'30s
-5.855743	'31
-5.855743	'38
-5.855743	'40's
-5.378622	'48
-5.554713	'50
-5.855743	'50's
-5.855743	'51
-5.378622	'52
-5.855743	'53
-5.855743	'54
-5.554713	'55
-5.378622	'58
-5.855743	'60
-5.855743	'60s
-5.378622	'61
-5.855743	'76
-5.855743	'80's
-5.855743	'90s
-5.855743	'bout
-5.855743	'cept
-5.855743	'ceptin
-5.855743	'ello
-4.264678	'em
-5.855743	'emselves
-5.855743	'fess
-5.855743	'fore
-5.077592	'im
-5.855743	'low
-5.855743	'mon
-5.855743	'most
-5.855743	'n
-5.855743	'nother
-5.855743	'nough
-5.855743	'nuff
-4.952653	'round
-5.855743	'scuse
-5.855743	'stead
-5.855743	'thirties
-5.855743	'till
-5.554713	'tis
-5.855743	'way
-4.494015	0
-5.554713	0001
-5.855743	0005
-5.855743	0025
-5.855743	0039
-5.855743	0043
-5.855743	0075
-5.855743	0080
-4.901501	01
-5.855743	010
-5.855743	012
-5.855743	015
-5.855743	0154
-5.554713	016
-5.378622	02
-5.855743	024
-5.855743	025
-5.554713	027
-5.855743	028
-5.077592	03
-5.855743	035
-5.855743	036
-5.855743	03m
-5.378622	04
-5.855743	046
-4.855743	05
-5.855743	052
-5.855743	054
-5.378622	06
-5.855743	060
-5.855743	0600
-5.156773	07
-5.855743	076
-5.855743	078
-5.077592	08
-5.378622	085
-5.554713	09
-5.855743	0906
-5.855743	0t
-3.084156	1
-3.593292	10
-3.864517	100
-4.378622	1000
-4.51332	10000
-4.776562	100000
-5.378622	1000000
-5.378622	10000000
-5.855743	1000000000
-5.855743	1001
-5.855743	1005
-5.554713	101
-5.855743	1018000
-5.855743	101b
-5.554713	102
-5.554713	1020
-5.855743	102285000
-5.855743	1024
-5.554713	103
-5.554713	1030
-4.7418	104
-5.156773	1040
-5.253683	1040a
-5.855743	1044
-5.855743	1045
-5.253683	105
-5.378622	1050
-5.855743	10500
-5.855743	105000
-5.855743	10517
-5.253683	106
-5.378622	1065
-5.855743	106500
-5.554713	1066
-5.855743	1068
-5.554713	107
-4.952653	108
-5.855743	1083000
-5.378622	109
-5.855743	1093
-3.931464	11
-4.776562	110
-5.554713	1100
-5.855743	11000
-5.855743	1101
-5.077592	1105
-5.855743	1107
-5.855743	1108
-5.156773	111
-5.855743	1119
-5.855743	112
-5.253683	1120
-5.554713	113
-5.855743	1130
-5.855743	11330
-5.253683	114
-5.855743	115
-5.855743	1150
-5.855743	115000
-5.855743	1159
-5.554713	116
-5.855743	116000
-5.855743	1162
-5.855743	117
-5.855743	11744
-5.855743	1184
-5.855743	11900000
-5.378622	11th
-3.818317	12
-5.855743	12'
-4.952653	120
-5.077592	1200
-5.378622	12000
-5.855743	120000
-5.855743	1201
-5.378622	121
-5.855743	121000
-5.855743	1212
-5.855743	1212000
-5.554713	1213
-5.855743	1215
-5.855743	1218
-5.855743	12192865
-5.554713	122
-5.855743	122158
-5.855743	1223
-5.855743	1225
-5.554713	123
-5.855743	1230
-5.855743	1231
-5.253683	124
-4.855743	125
-5.554713	1250
-5.378622	12500
-5.855743	125000
-5.855743	1250000
-5.855743	1253
-5.855743	1257700
-5.855743	125th
-5.253683	126
-5.855743	126000
-5.378622	127
-5.855743	1276
-5.253683	128
-5.855743	1286
-5.855743	1290
-5.855743	1298
-5.855743	12a
-5.855743	12th
-4.156773	13
-5.077592	130
-5.855743	1300
-5.855743	1307
-5.855743	1310
-5.855743	1311
-5.855743	13200
-5.855743	132000
-5.253683	133
-5.855743	1338000
-5.855743	1343
-4.776562	135
-5.378622	137
-5.554713	138
-5.378622	139
-5.855743	1393
-5.077592	13th
-4.010645	14
-5.253683	140
-5.378622	1400
-5.855743	14000
-5.855743	140000
-5.855743	140414
-5.855743	1409
-5.855743	141
-5.855743	1418000
-5.855743	1419833
-5.554713	142
-5.855743	143
-5.855743	144
-5.378622	145
-5.554713	1450
-5.855743	1450000000
-5.554713	1453
-5.554713	147
-5.855743	147000
-5.855743	148
-5.855743	14850
-5.855743	1488
-5.554713	149
-5.855743	1492
-5.253683	14th
-3.755373	15
-4.679652	150
-4.952653	1500
-5.156773	15000
-5.554713	1500000
-5.554713	15000000
-5.554713	150000000
-5.855743	1509
-5.855743	151
-5.855743	1512
-5.855743	1514
-5.855743	1524
-5.554713	153
-5.156773	154
-5.855743	1540
-5.855743	1541991
-5.855743	1543
-5.253683	155
-5.855743	1550
-5.855743	1558
-5.554713	156
-5.554713	1565
-5.855743	157
-5.855743	1571
-5.855743	157460
-5.554713	1577
-5.554713	1579
-5.253683	158
-5.855743	1581
-5.378622	1582
-5.855743	1589
-5.855743	1590
-5.554713	1592
-5.554713	1593
-5.855743	1594
-5.855743	1595
-5.855743	1596
-5.855743	1597
-5.378622	1598
-5.855743	1599
-4.776562	15th
-4.070414	16
-4.952653	160
-4.952653	1600
-5.253683	16000
-5.554713	160000
-5.554713	1601
-5.378622	1602
-5.855743	1605
-5.554713	1607
-5.855743	1608
-5.378622	1609
-5.855743	161
-5.378622	1610
-5.378622	1611
-5.554713	1613
-5.855743	1615
-5.855743	1622
-5.554713	1624
-5.855743	162400
-5.253683	1625
-5.855743	1626
-5.554713	1628
-5.378622	1629
-5.855743	1630
-5.855743	1631
-5.253683	1632
-5.855743	1633
-5.855743	1637
-5.554713	1638
-5.554713	1639
-5.855743	164
-5.855743	1640
-5.855743	1642
-5.554713	1643
-5.855743	1644
-5.253683	165
-5.855743	1655
-5.855743	1657
-5.855743	166532
-5.855743	166736
-5.855743	167
-5.855743	1671
-5.855743	1674
-5.855743	1678
-5.378622	168
-5.855743	1680
-5.855743	1687
-5.855743	1688
-5.554713	169
-5.855743	1690
-5.855743	1692
-5.855743	1693
-5.156773	16th
-4.242959	17
-5.156773	170
-5.156773	1700
-5.378622	17000
-5.855743	17000000
-5.855743	1702
-5.253683	1707
-5.855743	1709
-5.855743	171
-5.855743	1714
-5.855743	172
-5.855743	1720
-5.855743	172000
-5.554713	1721
-5.855743	1724
-5.855743	172400
-5.855743	1727
-5.855743	1728
-5.855743	172nd
-5.554713	173
-5.855743	1730
-5.855743	1731
-5.855743	1732
-5.855743	1733
-5.855743	1745
-5.855743	1746
-5.855743	1747
-5.855743	1748
-5.855743	175
-5.855743	1750
-5.855743	175000
-5.855743	1750000
-5.855743	1751
-5.855743	1755
-5.855743	1764
-5.554713	1769
-5.855743	1770's
-5.855743	1773
-5.855743	1774
-5.156773	1776
-5.855743	1777
-5.554713	1778
-5.855743	178
-5.855743	1780
-5.855743	1781
-5.554713	1782
-5.554713	1783
-5.855743	1785
-5.554713	1786
-5.253683	1787
-5.378622	1788
-5.378622	1789
-5.378622	1791
-5.378622	1792
-5.253683	1793
-5.378622	1797
-5.855743	1799
-5.855743	17e
-4.952653	17th
-4.063352	18
-5.855743	18'5
-4.855743	180
-5.253683	1800
-5.855743	1800's
-5.855743	1800000
-5.378622	1801
-5.855743	1802
-5.378622	1803
-5.855743	1804
-5.855743	1805
-5.855743	1806
-5.855743	1807
-5.855743	1808
-5.253683	1810
-5.855743	1811
-5.253683	1812
-5.554713	1813
-5.554713	1814
-5.077592	1815
-5.855743	1816
-5.253683	1817
-5.253683	1818
-5.077592	1819
-5.554713	182
-5.554713	1820
-5.156773	1821
-5.554713	1822
-5.378622	1825
-5.855743	1826
-5.554713	1827
-5.855743	1830
-5.554713	1831
-5.010645	1832
-5.156773	1834
-5.554713	1835
-5.554713	1837
-5.855743	1838
-5.855743	184
-5.253683	1840
-5.554713	1840's
-5.855743	1841
-5.855743	1842
-5.855743	1843
-5.378622	1844
-5.156773	1845
-5.855743	1846
-5.855743	1847
-5.378622	1848
-5.554713	1849
-5.855743	185
-5.253683	1850
-5.554713	1850's
-5.855743	185000
-5.554713	1851
-5.855743	1853
-5.855743	1854
-5.554713	1855
-5.554713	1857
-5.554713	1858
-4.952653	1859
-5.855743	185th
-5.554713	186
-5.378622	1860
-5.855743	1860's
-5.077592	1861
-5.554713	1862
-5.378622	1863
-5.378622	1864
-5.077592	1865
-5.855743	1866
-5.855743	1867
-5.156773	1868
-5.855743	1869
-5.554713	187
-5.554713	1870
-5.855743	1870's
-5.855743	1871
-5.378622	1872
-5.855743	1873
-5.855743	1874
-5.156773	1875
-5.378622	1876
-5.855743	1878
-5.554713	1879
-5.855743	18792
-5.554713	188
-5.855743	1880
-5.554713	1880s
-5.378622	1881
-5.378622	1882
-5.253683	1883
-5.554713	1884
-5.554713	1885
-5.855743	1886
-5.253683	1887
-5.156773	1888
-5.855743	1889
-5.378622	189
-5.855743	1890
-5.253683	1890's
-5.855743	1890s
-5.253683	1891
-5.156773	1892
-5.554713	1893
-5.010645	1895
-5.010645	1896
-5.378622	1897
-5.378622	1898
-5.378622	1899
-5.554713	18e
-4.855743	18th
-4.311675	19
-4.7418	1900
-5.554713	1900's
-5.855743	19000
-5.855743	19000000
-5.378622	1901
-5.378622	1902
-5.554713	1903
-5.378622	1904
-5.253683	1905
-5.378622	1906
-5.253683	1907
-5.077592	1908
-5.077592	1909
-4.709615	1910
-5.378622	1911
-4.776562	1912
-4.814351	1913
-4.901501	1914
-5.378622	1915
-5.253683	1916
-4.855743	1917
-5.156773	1918
-5.156773	1919
-5.855743	192
-4.901501	1920
-4.952653	1920's
-5.378622	1920s
-5.010645	1921
-5.010645	1922
-4.952653	1923
-4.901501	1924
-5.156773	1925
-5.253683	1926
-4.625294	1927
-5.077592	1928
-5.010645	1929
-5.855743	193
-4.952653	1930
-5.010645	1930's
-5.855743	1930s
-4.952653	1931
-5.253683	1932
-5.010645	1933
-5.253683	1934
-4.901501	1935
-5.156773	1936
-4.901501	1937
-4.855743	1938
-5.077592	1939
-4.709615	1940
-5.855743	1940's
-4.814351	1941
-4.901501	1942
-4.855743	1943
-4.679652	1944
-4.709615	1945
-4.57699	1946
-4.776562	1947
-4.533524	1948
-4.625294	1949
-5.378622	195
-4.57699	1950
-5.156773	1950's
-5.554713	1950s
-4.600471	1951
-4.364381	1952
-4.457803	1953
-4.212291	1954
-4.475532	1955
-4.457803	1956
-4.183645	1957
-5.855743	1957b
-3.941929	1958
-3.847143	1959
-5.554713	196
-3.635635	1960
-4.952653	1960's
-5.855743	1960s
-3.772958	1961
-5.554713	1961's
-5.855743	1961000
-4.393345	1962
-4.855743	1963
-5.554713	1964
-5.156773	1965
-5.554713	1966
-5.855743	1967
-5.378622	1970
-5.855743	1970s
-5.855743	1971
-5.855743	1972
-5.855743	1976
-5.855743	198
-5.253683	1980
-5.855743	1981
-5.855743	1984
-5.378622	1986
-5.855743	1991
-4.855743	19th
-5.855743	1a
-3.194878	2
-5.855743	2'
-5.855743	2's
-3.802665	20
-4.192986	200
-4.625294	2000
-4.814351	20000
-5.010645	200000
-5.554713	2000000
-5.554713	20000000
-5.855743	200000000
-5.855743	20000000000
-5.855743	2002
-5.855743	2003
-5.554713	2011
-5.855743	2013
-5.554713	202
-5.855743	2022
-5.554713	2023
-4.952653	203
-5.855743	204
-5.554713	2042
-5.855743	2048
-5.554713	205
-5.554713	2051
-5.855743	2052
-5.855743	2053
-5.554713	206
-5.855743	2061
-5.855743	2063
-5.855743	207
-5.855743	208
-5.855743	209
-5.855743	2090
-4.679652	20th
-4.092315	21
-5.378622	210
-5.156773	2100
-5.554713	211
-5.855743	2118
-5.554713	213
-5.855743	2130
-5.378622	214
-5.855743	214938
-5.855743	215
-5.378622	216
-5.855743	2170
-5.855743	219
-5.378622	21st
-4.092315	22
-5.156773	220
-5.554713	22000
-5.855743	2200000
-5.554713	221
-5.855743	22111
-5.855743	2216
-5.378622	222
-5.855743	2230
-5.554713	224
-5.378622	225
-5.855743	2250
-5.855743	225000
-5.554713	226
-5.855743	2262
-5.855743	2269
-5.855743	22772
-5.378622	228
-5.855743	22807
-5.554713	229
-5.855743	2295
-5.378622	22nd
-4.192986	23
-4.776562	230
-5.554713	2300
-5.855743	230000
-5.855743	2300000
-5.554713	23000000
-5.077592	2303
-5.855743	231
-5.855743	2313
-5.554713	232
-5.554713	2322
-5.855743	2323867
-5.855743	2324
-5.855743	2325
-5.378622	233
-5.855743	2330
-5.855743	2330000
-5.855743	2332
-5.855743	2333
-5.855743	2334
-5.156773	234
-5.855743	2342
-4.855743	235
-4.776562	236
-5.077592	237
-5.554713	238
-5.554713	239
-5.855743	23a
-5.156773	23d
-5.378622	23rd
-4.04283	24
-5.156773	240
-5.855743	2400
-5.855743	2412616
-5.855743	2417
-5.855743	2418
-5.855743	242
-5.855743	2425
-5.855743	2431
-5.855743	2433
-5.855743	244
-5.855743	24400
-5.855743	2454
-5.855743	246
-5.855743	2460
-5.855743	2461000
-5.554713	247
-5.855743	2489000
-5.855743	2490
-5.855743	24926615
-5.010645	24th
-3.851422	25
-4.651623	250
-5.253683	2500
-4.901501	25000
-5.156773	250000
-5.855743	25000000
-5.554713	251
-5.554713	2512
-5.855743	253
-5.855743	253355000
-5.554713	254
-5.855743	2544
-5.855743	255
-5.855743	2557111
-5.378622	256
-5.378622	258
-5.554713	25th
-4.264678	26
-5.156773	260
-5.855743	26000000
-5.855743	261
-5.554713	265
-5.855743	26500
-5.855743	267
-5.855743	268
-5.855743	2688
-5.855743	268900
-5.855743	269
-5.554713	26th
-4.337229	27
-5.554713	270
-5.855743	2700
-5.554713	27000
-5.855743	2700877
-5.855743	2705
-5.554713	271
-5.855743	272
-5.855743	273
-5.855743	2731
-4.952653	275
-5.855743	2750
-5.855743	2758
-5.855743	278
-5.855743	278877000
-5.855743	27th
-4.475532	28
-5.077592	280
-5.554713	2800
-5.855743	2800000
-5.855743	2809
-5.855743	281
-5.855743	282
-5.855743	2825
-5.855743	283
-5.855743	285
-5.855743	2887671
-5.253683	28th
-4.44077	29
-5.855743	29000
-5.554713	292
-5.855743	294
-5.855743	2963
-5.855743	297
-5.855743	2991
-5.156773	29th
-5.855743	2a
-5.253683	2d
-5.554713	2nd
-3.378622	3
-5.855743	3's
-3.762321	30
-4.324265	300
-4.709615	3000
-5.010645	30000
-5.378622	300000
-5.554713	30000000
-5.855743	300000000
-5.855743	300th
-5.554713	303
-5.855743	306
-5.855743	307
-5.378622	30th
-4.287541	31
-5.554713	310
-5.855743	3100
-5.855743	311
-5.855743	31179816
-5.855743	312
-5.855743	314
-5.855743	31416
-5.253683	315
-5.855743	31730
-5.855743	3181
-5.855743	3190
-5.855743	31978
-5.855743	31st
-4.7418	32
-5.554713	320
-5.378622	32000
-5.855743	320tr
-5.554713	3211
-5.855743	322
-5.855743	3247
-5.253683	325
-5.855743	32589
-5.855743	327
-5.554713	328
-4.709615	33
-5.378622	330
-5.554713	3300
-5.253683	332
-5.855743	3325
-5.855743	334
-5.554713	337
-5.855743	3399
-5.855743	33d
-4.457803	34
-5.554713	340
-5.855743	3400
-5.855743	340tr
-5.855743	34220
-5.378622	343
-5.855743	344000
-5.855743	3450
-5.253683	346
-5.855743	347
-5.253683	348
-4.475532	35
-4.855743	350
-5.156773	3500
-5.378622	350000
-5.554713	3500000
-5.855743	3505o
-5.855743	350th
-4.952653	353
-5.554713	354
-5.554713	355
-5.855743	357
-5.855743	35823
-4.625294	36
-5.253683	360
-5.554713	361
-5.554713	362
-5.855743	3646
-5.855743	365
-5.855743	367
-5.855743	3675
-5.378622	368a1
-5.855743	369
-5.855743	36th
-4.651623	37
-5.855743	37000
-5.855743	37081
-5.855743	372
-5.855743	37470
-5.156773	375
-5.855743	376
-5.855743	37679
-5.855743	379900
-5.855743	37th
-4.709615	38
-5.554713	380
-5.253683	381
-5.253683	381a
-5.554713	381c
-5.855743	381c14
-5.855743	381c16
-5.855743	381c9
-5.855743	3825
-5.855743	385
-5.855743	387
-5.855743	389
-4.952653	39
-5.554713	390
-5.378622	39000
-5.855743	391
-5.554713	392
-5.855743	394
-5.554713	395
-5.855743	395000
-5.855743	398
-5.855743	3mm
-5.253683	3rd
-3.499717	4
-5.855743	4'
-4.13974	40
-4.424379	400
-5.156773	4000
-4.855743	40000
-5.855743	400000
-5.378622	40000000
-5.855743	400000000
-5.855743	401
-5.855743	402
-5.855743	405
-5.554713	407
-4.776562	41
-5.855743	410
-5.554713	412
-5.855743	4122354
-5.855743	413
-5.855743	415
-5.855743	417737
-5.855743	418
-4.533524	42
-5.378622	420
-5.855743	4200
-5.855743	42000
-5.855743	421
-5.855743	42d
-4.952653	43
-5.253683	430
-5.855743	43000
-5.855743	430000
-5.554713	430c
-5.855743	431
-5.855743	434
-5.855743	4350
-5.855743	4369
-5.010645	44
-5.855743	44000
-5.855743	44001
-5.855743	44002
-5.855743	44005
-5.855743	44006
-5.855743	44007
-5.855743	442
-5.855743	4427
-5.554713	443
-5.855743	4441
-5.554713	445
-5.554713	447
-5.855743	4499608
-4.494015	45
-4.901501	450
-5.855743	4500
-5.554713	450000
-5.554713	4500000
-5.855743	451
-5.855743	451500
-5.855743	452
-5.855743	456
-5.855743	4585
-4.901501	46
-5.855743	46000
-5.855743	462
-5.855743	4622444
-5.855743	463
-5.855743	467
-5.855743	469
-4.901501	47
-5.855743	47's
-5.855743	470
-5.855743	4700
-5.855743	471
-5.855743	47101000
-5.855743	476
-5.855743	477
-4.855743	48
-5.554713	480
-5.855743	4800
-5.855743	48000
-5.855743	48500
-5.156773	49
-5.855743	490
-5.855743	4900
-5.855743	4911
-5.855743	492
-5.855743	495
-5.855743	498
-5.855743	49ers
-4.952653	4th
-3.600471	5
-3.868972	50
-5.855743	50'
-4.424379	500
-5.855743	500's
-4.51332	5000
-5.378622	50000
-5.156773	500000
-5.554713	5000000
-5.855743	50000000
-5.855743	5014
-5.855743	5031
-5.855743	50400000
-5.855743	505
-5.855743	508
-5.855743	50th
-5.378622	51
-5.855743	510
-5.855743	511
-5.554713	512
-5.855743	514c
-5.855743	5155
-5.554713	51st
-4.679652	52
-5.855743	52's
-5.554713	520
-5.855743	525
-5.855743	52500
-5.855743	526
-5.855743	52h
-5.855743	52nd
-5.855743	52s
-5.010645	53
-5.855743	530
-5.855743	532
-5.554713	538
-5.077592	54
-5.378622	540
-5.855743	541
-5.855743	542250
-5.855743	543
-5.855743	54320
-5.855743	545
-5.855743	54865771
-5.855743	54th
-4.814351	55
-5.855743	550
-5.855743	5500
-5.554713	55000
-5.855743	553
-5.855743	55987
-4.625294	56
-5.855743	56000
-5.855743	5612
-5.855743	562
-5.554713	565
-5.855743	566
-5.855743	56a
-4.776562	57
-5.855743	570
-5.855743	573
-5.855743	57500
-5.855743	5777
-5.156773	58
-5.855743	580
-5.855743	581
-5.855743	581000
-5.855743	5835
-5.855743	5847
-5.855743	589
-5.855743	58918
-5.554713	58th
-5.253683	59
-5.855743	590000
-5.855743	59780
-5.554713	5th
-3.703455	6
-5.855743	6'
-5.855743	6'7
-4.13974	60
-5.855743	60's
-4.494015	600
-5.156773	6000
-5.253683	60000
-5.855743	600c
-5.855743	601
-5.855743	6022
-5.855743	603
-5.855743	604622
-5.554713	605
-5.855743	606
-5.554713	607
-5.855743	608
-5.855743	609
-5.156773	61
-5.855743	6100000000
-5.855743	6124
-5.855743	613
-5.855743	615
-5.855743	61st
-5.010645	62
-5.855743	625561
-4.952653	63
-5.855743	630
-5.855743	63000000
-5.855743	634517000
-5.554713	635
-5.855743	637
-5.855743	638
-5.855743	638560
-5.855743	639
-5.855743	63d
-4.814351	64
-5.855743	642
-5.855743	643
-5.855743	645
-5.855743	646
-4.554713	65
-5.855743	650
-5.554713	65000
-5.253683	66
-5.855743	66000
-5.855743	666666
-5.855743	66th
-5.554713	67
-5.855743	67000
-5.855743	675
-5.855743	6768
-5.554713	677
-5.156773	68
-5.855743	68787
-4.901501	69
-5.855743	6934
-5.855743	695
-5.855743	6a
-5.855743	6j
-5.077592	6th
-3.795045	7
-4.350593	70
-5.855743	70's
-4.679652	700
-5.554713	7000
-5.156773	70000
-5.554713	7000000
-5.855743	70000000
-5.554713	701
-5.855743	701st
-5.855743	7026
-5.855743	7034
-5.855743	704
-5.378622	707
-5.010645	7070
-5.855743	7074
-5.855743	7082
-5.855743	70th
-4.855743	71
-5.554713	710
-5.855743	710c
-5.855743	719
-4.855743	72
-5.554713	720
-5.855743	725
-5.855743	725's
-5.855743	7287
-5.554713	72nd
-5.378622	73
-5.010645	730
-5.855743	734
-5.855743	7350
-5.855743	7360187
-5.156773	74
-5.855743	740
-5.855743	740000
-5.855743	741
-5.855743	742
-5.855743	742c
-5.554713	745
-5.855743	7484268
-4.324265	75
-4.901501	750
-5.855743	7500
-5.253683	75000
-5.855743	750000
-5.855743	75000000
-5.855743	754
-5.855743	7599
-5.855743	75th
-5.077592	76
-5.855743	760
-5.855743	762
-5.855743	764
-5.554713	767
-5.156773	77
-5.855743	770
-5.855743	77389000
-5.077592	78
-5.855743	7827
-5.855743	78th
-5.554713	79
-5.855743	790
-5.855743	79400
-5.855743	795586
-5.855743	798
-5.855743	7989
-5.855743	7a
-4.814351	7th
-3.82232	8
-4.533524	80
-5.855743	80's
-4.554713	800
-5.855743	800's
-5.010645	8000
-5.554713	80000
-5.253683	800000
-5.855743	8000000
-5.554713	80738
-5.855743	80th
-5.253683	81
-5.855743	8100
-5.855743	81000
-5.855743	82
-5.855743	821220
-5.855743	823
-5.855743	8250
-5.855743	825000
-5.855743	828
-5.554713	8280
-5.378622	83
-5.378622	830
-5.855743	8313514
-5.855743	836
-5.855743	83750
-5.855743	83rd
-5.855743	840000
-5.855743	84000000
-5.855743	840503
-5.855743	842617
-4.57699	85
-5.855743	850
-5.855743	8500
-5.855743	85000
-5.855743	8555
-4.776562	86
-5.855743	869
-5.253683	87
-5.855743	870000
-5.855743	871
-5.554713	87th
-5.855743	88
-5.855743	88's
-5.855743	88000
-5.855743	883000
-5.855743	885
-5.855743	8861
-5.554713	89
-5.855743	892
-5.554713	8th
-4.056403	9
-5.855743	9'
-4.51332	90
-4.901501	900
-5.855743	90000
-5.855743	900000
-5.855743	901
-5.855743	91
-5.378622	92
-5.855743	923076
-5.855743	925
-5.855743	9273
-5.378622	93
-5.554713	930
-5.855743	9329
-5.156773	94
-5.855743	940
-5.855743	940y
-5.855743	944
-5.855743	947
-5.855743	949
-5.077592	95
-5.378622	950
-5.855743	954
-5.253683	96
-5.855743	960
-5.855743	963
-5.378622	97
-5.855743	9748000
-5.253683	98
-5.855743	9841000
-5.077592	99
-5.855743	991
-5.855743	9910741
-5.855743	9a
-5.855743	9b
-5.855743	9n
-5.010645	9th
-1.143237	</s>
-99	<s>
-5.077592	a's
-5.855743	a40
-5.855743	a5
-5.855743	aa
-5.554713	aaa
-5.855743	aaawww
-5.554713	aab
-5.855743	aah
-5.010645	aaron
-5.855743	aau
-5.855743	aau's
-5.077592	ab
-5.855743	ab1040
-5.855743	ab4500
-5.855743	ab63711
-5.554713	aback
-4.651623	abandon
-4.51332	abandoned
-5.010645	abandoning
-4.855743	abandonment
-5.855743	abaringe
-5.855743	abasement
-5.855743	abatuno
-5.554713	abbas
-5.855743	abbas's
-5.156773	abbe
-5.855743	abberations
-5.077592	abbey
-5.554713	abbot
-5.554713	abbott
-5.855743	abbreviated
-5.855743	abbreviation
-5.855743	abbreviations
-5.554713	abc
-5.855743	abdallah
-5.077592	abdomen
-5.253683	abdominal
-5.855743	abdominis
-5.855743	abduction
-5.378622	abe
-5.855743	abed
-4.600471	abel
-5.855743	abell
-5.855743	abels
-5.855743	abelson
-5.855743	aber
-5.554713	abernathy
-5.855743	abernathys
-5.253683	aberrant
-5.378622	aberration
-5.253683	aberrations
-5.378622	abetted
-5.378622	abeyance
-5.855743	abhorred
-5.855743	abhorrent
-5.077592	abide
-5.855743	abides
-5.077592	abiding
-5.554713	abigail
-5.554713	abilene
-4.7418	abilities
-4.056403	ability
-5.378622	abject
-5.855743	abjection
-5.855743	abjectly
-5.554713	ablard
-5.855743	ablated
-5.554713	ablation
-5.554713	ablaze
-3.559078	able
-5.554713	abler
-5.554713	ably
-5.855743	abner
-5.378622	abnormal
-5.855743	abnormalities
-5.855743	abnormally
-5.156773	abo
-4.494015	aboard
-5.253683	abode
-5.077592	abolish
-5.554713	abolished
-4.855743	abolition
-5.855743	abolitionist
-5.378622	abolitionists
-5.855743	aboriginal
-5.077592	aborigine
-4.952653	aborigines
-5.077592	abortion
-5.855743	abortions
-5.378622	abortive
-5.855743	abound
-5.554713	abounded
-5.855743	abounding
-5.855743	abounds
-2.641429	about
-5.855743	aboutiveness
-3.432497	above
-5.554713	aboveground
-5.855743	abra
-5.156773	abraham
-5.855743	abrams
-5.855743	abrasion
-5.554713	abreaction
-5.253683	abreast
-5.855743	abridged
-5.855743	abridgment
-4.222275	abroad
-5.855743	abroade
-5.855743	abrogated
-4.651623	abrupt
-4.625294	abruptly
-5.855743	abruptness
-5.378622	abscesses
-4.156773	absence
-5.378622	absences
-4.350593	absent
-5.855743	absented
-5.855743	absentee
-5.855743	absenteeism
-5.855743	absentia
-5.156773	absently
-5.855743	absentmindedly
-5.855743	absinthe
-4.44077	absolute
-4.533524	absolutely
-5.554713	absoluteness
-5.378622	absolutes
-5.554713	absolution
-4.776562	absorb
-4.51332	absorbed
-5.855743	absorbency
-5.855743	absorbent
-5.855743	absorber
-5.378622	absorbing
-5.855743	absorbs
-4.814351	absorption
-5.554713	absorptions
-5.855743	abstain
-5.156773	abstention
-5.855743	abstinence
-4.350593	abstract
-5.378622	abstracted
-5.855743	abstractedness
-5.554713	abstracting
-4.679652	abstraction
-5.855743	abstractionism
-5.378622	abstractionists
-5.156773	abstractions
-5.855743	abstractly
-5.855743	abstractors
-5.378622	abstracts
-5.855743	abstrusenesses
-4.651623	absurd
-5.554713	absurdities
-5.010645	absurdity
-5.855743	absurdly
-4.776562	abundance
-5.077592	abundant
-5.554713	abundantly
-4.625294	abuse
-5.156773	abused
-5.077592	abuses
-5.855743	abusive
-5.855743	abutments
-5.554713	abysmal
-5.253683	abyss
-5.855743	abyssinians
-5.378622	acacia
-5.855743	academeh
-4.13974	academic
-5.156773	academically
-5.855743	academicianship
-5.855743	academics
-5.554713	academies
-4.51332	academy
-5.855743	acadia
-5.378622	acala
-5.855743	acapulco
-5.378622	accacia
-5.855743	accademia
-5.855743	accardo
-5.855743	accede
-5.855743	acceded
-5.378622	accelerate
-4.814351	accelerated
-5.077592	accelerating
-4.679652	acceleration
-5.554713	accelerations
-5.156773	accelerator
-5.378622	accelerators
-4.651623	accelerometer
-5.010645	accelerometers
-4.901501	accent
-5.378622	accented
-5.855743	accenting
-5.156773	accents
-5.855743	accentual
-5.378622	accentuated
-5.855743	accentuates
-4.016894	accept
-5.554713	acceptability
-4.57699	acceptable
-4.192986	acceptance
-3.901501	accepted
-4.57699	accepting
-5.077592	accepts
-4.600471	access
-5.855743	accesses
-5.855743	accessibility
-5.378622	accessible
-4.952653	accessories
-5.855743	accessory
-4.393345	accident
-4.901501	accidental
-5.156773	accidentally
-5.010645	accidents
-5.253683	acclaim
-5.378622	acclaimed
-5.855743	acclaims
-5.855743	acclimatized
-5.554713	accolade
-5.855743	accolades
-4.7418	accommodate
-5.855743	accommodated
-5.554713	accommodates
-5.554713	accommodating
-5.855743	accommodation
-5.010645	accommodations
-5.855743	accomodations
-4.324265	accompanied
-5.855743	accompanies
-5.010645	accompaniment
-5.554713	accompaniments
-5.855743	accompanist
-5.855743	accompanists
-5.010645	accompany
-4.679652	accompanying
-5.554713	accomplice
-5.855743	accomplices
-4.51332	accomplish
-4.299441	accomplished
-5.855743	accomplishes
-5.554713	accomplishing
-5.010645	accomplishment
-4.855743	accomplishments
-5.010645	accord
-4.651623	accordance
-5.378622	accorded
-3.75194	according
-4.378622	accordingly
-5.855743	accordion
-5.855743	accords
-5.554713	accosted
-5.855743	accosting
-3.851422	account
-5.253683	accountability
-5.855743	accountable
-5.554713	accountant
-5.855743	accountants
-5.156773	accounted
-4.776562	accounting
-4.337229	accounts
-5.855743	accouterments
-5.010645	accreditation
-5.554713	accredited
-5.378622	accretion
-5.855743	accretions
-5.378622	accrued
-5.855743	accrues
-5.077592	accruing
-5.855743	acculturated
-5.855743	acculturation
-5.378622	accumulate
-4.855743	accumulated
-5.554713	accumulates
-5.378622	accumulating
-4.855743	accumulation
-4.324265	accuracy
-4.324265	accurate
-4.494015	accurately
-5.554713	accusation
-5.378622	accusations
-4.952653	accuse
-4.475532	accused
-5.554713	accuses
-4.952653	accusing
-5.554713	accusingly
-4.679652	accustomed
-4.651623	ace
-5.253683	aces
-5.010645	acetate
-5.378622	acetone
-5.378622	acetonemia
-5.554713	acey
-5.855743	achaeans
-5.855743	achaeans'
-5.378622	ache
-5.378622	ached
-5.855743	aches
-5.554713	acheson
-5.855743	achesons
-4.174502	achieve
-4.084891	achieved
-4.063352	achievement
-4.651623	achievements
-5.378622	achievers
-5.253683	achieves
-4.709615	achieving
-5.855743	achilles
-5.156773	aching
-4.776562	acid
-5.855743	acidity
-5.077592	acids
-5.855743	acidulous
-5.855743	ackerly
-4.814351	acknowledge
-4.814351	acknowledged
-5.554713	acknowledgement
-5.855743	acknowledges
-5.855743	acknowledgment
-5.855743	acknowledgments
-5.855743	acolyte
-5.855743	aconte
-5.855743	acorns
-5.855743	acourse
-5.855743	acoustic
-5.378622	acoustical
-5.855743	acoustically
-5.855743	acoustics
-5.554713	acquaint
-5.010645	acquaintance
-4.814351	acquainted
-5.378622	acquiesce
-5.855743	acquiesced
-5.156773	acquiescence
-5.855743	acquiesence
-4.457803	acquire
-4.475532	acquired
-5.554713	acquires
-4.855743	acquiring
-4.651623	acquisition
-5.554713	acquisitions
-5.855743	acquisitiveness
-5.554713	acquittal
-5.855743	acquitted
-4.7418	acre
-4.901501	acreage
-4.232494	acres
-5.855743	acrid
-5.855743	acrobacy
-5.855743	acrobatic
-5.855743	acrobatics
-5.855743	acrobats
-5.156773	acropolis
-3.447503	across
-4.814351	acrylic
-5.855743	acs
-3.435787	act
-4.600471	acted
-5.855743	acth
-4.107555	acting
-5.855743	actinometer
-3.424379	action
-4.077592	actions
-5.378622	activate
-5.253683	activated
-5.855743	activating
-5.077592	activation
-3.936665	active
-4.814351	actively
-4.952653	actives
-5.554713	activism
-3.834554	activities
-3.82232	activity
-4.51332	actor
-5.855743	actor's
-4.7418	actors
-5.077592	actress
-5.554713	actresses
-4.311675	acts
-3.901501	actual
-5.855743	actualities
-5.010645	actuality
-3.700407	actually
-5.855743	actuarial
-5.855743	actuarially
-5.855743	actuate
-5.855743	actuated
-5.855743	acumen
-4.814351	acute
-5.156773	acutely
-4.554713	ad
-4.679652	ada
-5.253683	ada's
-5.378622	adage
-5.378622	adagio
-5.855743	adagios
-5.554713	adair
-5.855743	adair's
-4.264678	adam
-5.554713	adam's
-5.253683	adamant
-5.855743	adamantly
-5.855743	adame
-5.855743	adamo
-4.324265	adams
-5.378622	adams'
-5.855743	adams's
-5.855743	adamson
-5.253683	adapt
-5.554713	adaptable
-5.855743	adaptaplex
-4.901501	adaptation
-5.077592	adaptations
-4.7418	adapted
-5.855743	adapter
-5.554713	adapters
-5.378622	adapting
-5.855743	adaptive
-5.010645	adc
-5.855743	adcock
-3.963649	add
-5.554713	addabbo
-3.662619	added
-5.855743	addict
-5.554713	addicted
-5.378622	addiction
-5.253683	addicts
-4.533524	adding
-5.855743	addison
-3.731892	addition
-3.814351	additional
-5.156773	additionally
-5.010645	additions
-5.378622	additive
-5.253683	additives
-5.855743	addle
-4.029668	address
-4.625294	addressed
-5.855743	addressees
-4.57699	addresses
-4.901501	addressing
-4.901501	adds
-5.855743	adduce
-5.855743	ade
-5.554713	adele
-5.156773	adelia
-5.855743	adelos
-5.378622	adenauer
-5.855743	adenauer's
-5.855743	adenomas
-5.378622	adept
-5.855743	adequacy
-4.131467	adequate
-4.7418	adequately
-5.855743	aderholds
-5.378622	adhere
-5.253683	adhered
-4.901501	adherence
-5.554713	adherent
-5.156773	adherents
-5.855743	adheres
-5.554713	adhesion
-5.156773	adhesive
-5.855743	adhesives
-5.855743	adieu
-4.901501	adios
-5.855743	adipic
-5.554713	adirondack
-5.855743	adirondacks
-4.814351	adjacent
-5.378622	adjectival
-5.855743	adjective
-5.253683	adjectives
-5.554713	adjoined
-4.7418	adjoining
-5.855743	adjoins
-5.554713	adjourned
-5.855743	adjourning
-5.378622	adjournment
-5.855743	adjourns
-5.855743	adjudged
-5.855743	adjudging
-5.855743	adjudicate
-5.378622	adjudication
-5.077592	adjunct
-5.855743	adjuncts
-4.679652	adjust
-5.855743	adjustable
-4.337229	adjusted
-4.855743	adjusting
-4.393345	adjustment
-4.625294	adjustments
-5.554713	adjusts
-5.010645	adlai
-5.554713	adler
-5.554713	admassy's
-5.378622	administer
-4.709615	administered
-5.253683	administering
-3.712729	administration
-5.156773	administrations
-4.156773	administrative
-5.855743	administratively
-4.709615	administrator
-5.156773	administrators
-5.855743	adminstration
-4.901501	admirable
-5.378622	admirably
-5.855743	admirals
-5.855743	admiralty
-4.952653	admiration
-4.901501	admire
-4.625294	admired
-5.378622	admirer
-5.554713	admirers
-5.855743	admires
-5.253683	admiring
-5.855743	admiringly
-4.952653	admissible
-4.364381	admission
-5.378622	admissions
-4.364381	admit
-5.554713	admits
-5.855743	admittance
-4.264678	admitted
-5.378622	admittedly
-5.010645	admitting
-5.855743	admixed
-5.855743	admonished
-5.855743	admonishing
-5.855743	admonishments
-5.855743	admonition
-5.378622	admonitions
-5.855743	adnan
-5.253683	ado
-5.554713	adobe
-4.709615	adolescence
-4.855743	adolescent
-5.378622	adolescent's
-5.077592	adolescents
-5.253683	adolf
-5.855743	adolphus
-5.077592	adoniram
-5.855743	adonis
-4.7418	adopt
-4.222275	adopted
-4.855743	adopting
-4.901501	adoption
-5.554713	adopts
-5.378622	adorable
-5.554713	adore
-5.554713	adored
-5.855743	adores
-5.855743	adorn
-5.855743	adorned
-5.855743	adorns
-5.855743	adrar
-5.855743	adrenal
-5.253683	adrian
-5.855743	adrianople
-5.378622	adriatic
-5.855743	adrien
-5.855743	adrift
-5.855743	adroit
-5.855743	adroitness
-4.855743	ads
-5.554713	adsorbed
-5.855743	adsorbs
-5.855743	adulation
-4.494015	adult
-5.855743	adulterated
-5.855743	adulterers
-5.855743	adulterous
-5.554713	adultery
-5.378622	adulthood
-4.533524	adults
-4.156773	advance
-4.183645	advanced
-4.855743	advancement
-5.855743	advancements
-4.679652	advances
-5.253683	advancing
-4.010645	advantage
-5.156773	advantageous
-5.855743	advantageously
-4.424379	advantages
-5.253683	advent
-5.855743	adventists'
-4.7418	adventure
-5.554713	adventurers
-4.7418	adventures
-5.855743	adventuring
-5.253683	adventurous
-5.855743	adverb
-5.554713	adverbial
-5.554713	adverbs
-5.378622	adversaries
-5.156773	adversary
-4.814351	adverse
-5.554713	adversely
-5.554713	adversity
-5.554713	advertise
-4.952653	advertised
-5.554713	advertisement
-5.378622	advertisements
-5.855743	advertiser
-5.253683	advertisers
-5.855743	advertises
-4.222275	advertising
-4.202531	advice
-5.253683	advisability
-5.855743	advisable
-4.952653	advise
-4.44077	advised
-5.855743	advisedly
-5.554713	advisement
-5.156773	adviser
-4.776562	advisers
-5.554713	advises
-5.378622	advising
-5.855743	advisor
-5.156773	advisors
-4.554713	advisory
-5.378622	advocacy
-4.7418	advocate
-5.253683	advocated
-5.855743	advocates
-5.156773	advocating
-5.554713	aec
-5.855743	aec's
-4.709615	aegean
-5.855743	aegis
-5.855743	aeon
-5.855743	aerate
-5.010645	aerated
-5.855743	aerates
-5.077592	aeration
-4.901501	aerator
-5.010645	aerial
-5.855743	aerials
-5.855743	aerobacter
-5.855743	aerobic
-5.855743	aerodynamic
-5.855743	aerogenes
-5.855743	aeronautical
-5.855743	aeronautics
-5.010645	aerosol
-5.378622	aerosolized
-5.378622	aerosols
-5.253683	aerospace
-5.855743	aeschbacher
-5.855743	aeschbacher's
-5.253683	aeschylus
-5.855743	aesthetes
-4.494015	aesthetic
-5.855743	aesthetics
-5.855743	aeternitatis
-2.905378	af
-5.554713	afar
-5.855743	affable
-4.408585	affair
-5.855743	affaire
-5.855743	affaires
-3.952653	affairs
-4.337229	affect
-5.855743	affectation
-4.350593	affected
-5.156773	affecting
-5.855743	affectingly
-4.625294	affection
-5.156773	affectionate
-5.554713	affectionately
-5.253683	affections
-4.651623	affects
-5.855743	afferent
-5.855743	affianced
-5.554713	affidavits
-5.855743	affied
-5.010645	affiliated
-5.855743	affiliates
-5.253683	affiliation
-5.156773	affiliations
-5.855743	affinities
-5.253683	affinity
-4.814351	affirm
-5.378622	affirmation
-5.855743	affirmations
-5.253683	affirmative
-5.855743	affirmatively
-5.077592	affirmed
-5.855743	affirming
-5.855743	affix
-4.7418	affixed
-5.010645	afflicted
-5.855743	affliction
-5.855743	afflictions
-5.554713	affluence
-5.855743	affluent
-4.287541	afford
-4.814351	afforded
-5.554713	affording
-5.378622	affords
-5.554713	affront
-5.855743	affronted
-5.855743	affronting
-5.378622	afghan
-5.855743	afghans
-5.855743	afield
-5.855743	afire
-5.156773	afl
-5.554713	aflame
-5.010645	afloat
-5.855743	afoot
-5.554713	aforementioned
-5.554713	aforesaid
-5.855743	aforethought
-4.13974	afraid
-5.855743	afranio
-5.554713	afresh
-4.232494	africa
-4.424379	african
-5.253683	africans
-5.855743	afrika
-5.855743	afrique
-5.378622	afro
-5.156773	aft
-2.870766	after
-5.378622	aftermath
-3.864517	afternoon
-4.651623	afternoons
-4.776562	afterward
-4.7418	afterwards
-5.855743	aftuh
-3.143094	again
-3.096831	against
-5.554713	agamemnon
-5.855743	agates
-5.554713	agatha
-5.855743	agayne
-3.505495	age
-4.44077	aged
-5.855743	agee
-5.855743	ageless
-4.084891	agencies
-4.131467	agency
-5.378622	agenda
-4.242959	agent
-5.855743	agent's
-4.324265	agents
-5.855743	ager
-4.814351	agers
-5.855743	agers'
-4.212291	ages
-5.554713	aggie
-5.855743	aggies
-5.554713	agglomerate
-5.554713	agglomeration
-5.378622	agglutination
-5.156773	agglutinin
-5.554713	agglutinins
-5.855743	aggrandisement
-5.855743	aggrandizement
-5.855743	aggravate
-5.378622	aggravated
-5.855743	aggravates
-4.952653	aggregate
-5.855743	aggregations
-4.901501	aggression
-5.554713	aggressions
-4.625294	aggressive
-5.855743	aggressively
-5.156773	aggressiveness
-5.554713	aggressor
-5.554713	aggrieved
-5.855743	aghast
-5.855743	agile
-5.378622	agility
-5.554713	agin
-5.253683	aging
-5.855743	agitate
-5.855743	agitated
-5.855743	agitating
-5.077592	agitation
-5.855743	agitator
-5.855743	agitators
-5.855743	agleam
-5.855743	agnes
-5.156773	agnese
-5.855743	agnomen
-5.855743	agnostics
-3.501635	ago
-5.855743	agoeng
-5.855743	agonale
-5.554713	agone
-5.855743	agonies
-5.855743	agonized
-5.554713	agonizes
-5.378622	agonizing
-4.901501	agony
-4.952653	agrarian
-4.222275	agree
-4.814351	agreeable
-5.855743	agreeableness
-5.855743	agreeably
-3.99242	agreed
-5.077592	agreeing
-3.873472	agreement
-4.709615	agreements
-4.814351	agrees
-5.855743	agricolas
-4.337229	agricultural
-5.855743	agriculturally
-4.533524	agriculture
-5.855743	agriculture's
-5.855743	agrippa
-5.855743	ague
-4.457803	ah
-5.855743	ah6
-5.855743	ahah
-3.847143	ahead
-5.855743	ahem
-5.855743	ahm
-5.855743	ahmad
-5.554713	ahmad's
-5.554713	ahmet
-5.855743	ahmiri
-5.855743	ahrens
-5.855743	ai
-4.952653	aia
-5.855743	aiche
-3.722204	aid
-5.855743	aid's
-5.855743	aida
-4.901501	aide
-4.814351	aided
-5.253683	aides
-5.010645	aiding
-4.457803	aids
-5.855743	aiee
-5.855743	aiken
-5.855743	aikin
-5.554713	ailey
-5.554713	ailey's
-5.554713	ailing
-5.378622	ailment
-5.077592	ailments
-4.337229	aim
-4.51332	aimed
-5.156773	aiming
-5.156773	aimless
-5.855743	aimlessly
-5.156773	aimo
-4.651623	aims
-5.855743	ainsley
-5.855743	ainsworth
-4.232494	aint
-5.855743	ainu
-5.855743	ainus
-3.470137	air
-5.010645	airborne
-4.04283	aircraft
-5.855743	aircraft's
-5.855743	airdrops
-5.554713	aired
-5.253683	airfield
-5.077592	airfields
-5.855743	airflow
-5.855743	airframe
-5.554713	airily
-5.554713	airless
-5.855743	airlift
-5.554713	airline
-5.855743	airline's
-5.156773	airlines
-5.855743	airlock
-5.253683	airmail
-5.855743	airmans
-5.855743	airmen
-5.855743	airpark
-4.855743	airplane
-4.901501	airplanes
-4.625294	airport
-5.253683	airports
-5.378622	airs
-5.855743	airspeed
-5.554713	airstrip
-5.855743	airstrips
-5.077592	airways
-5.077592	airy
-5.156773	aisle
-3.834554	aj
-5.554713	ajar
-5.855743	ajk
-5.855743	akc
-4.952653	akin
-5.855743	akita
-5.855743	akron
-5.855743	aku
-4.51332	al
-5.156773	ala
-4.600471	alabama
-5.855743	alabamans
-5.855743	alabamas
-5.855743	alabamian
-5.554713	alabaster
-5.855743	alain
-4.855743	alam
-5.855743	alamein
-5.855743	alamo
-5.855743	alamogordo
-5.253683	alan
-4.709615	alarm
-4.952653	alarmed
-5.855743	alarming
-5.554713	alarmingly
-5.855743	alarmist
-5.855743	alarms
-4.855743	alas
-4.600471	alaska
-5.253683	alastor
-5.855743	alba
-5.855743	albacore
-5.554713	albania
-5.554713	albanian
-5.554713	albanians
-4.855743	albany
-5.554713	albeit
-4.408585	albert
-5.855743	alberto
-5.855743	albicans
-5.378622	albright
-5.855743	albright's
-5.855743	albrights'
-5.077592	album
-4.855743	albumin
-5.554713	albums
-5.855743	alchemy
-5.855743	alcibiades
-4.776562	alcohol
-5.378622	alcoholic
-5.253683	alcoholics
-5.855743	alcoholism
-5.554713	alcohols
-5.554713	alcorn
-5.855743	alcott's
-5.156773	alcoves
-5.855743	alden
-5.855743	alderman
-5.855743	aldermen
-5.855743	aldo
-5.855743	aldridge
-5.855743	ale
-4.57699	alec
-5.156773	alec's
-5.554713	aleck
-5.855743	alemagna
-4.364381	alert
-5.378622	alerted
-5.253683	alerting
-5.855743	alertly
-5.554713	alertness
-5.855743	alerts
-5.855743	alessio
-4.44077	alex
-4.952653	alex's
-4.242959	alexander
-5.554713	alexander's
-5.554713	alexandre
-5.156773	alexandria
-5.855743	alexei
-5.855743	alexeyeva
-5.554713	alexis
-5.554713	alf
-5.855743	alfa
-5.855743	alfonso
-4.212291	alfred
-5.554713	alfred's
-5.378622	alfredo
-5.554713	alfresco
-5.077592	algae
-5.554713	algebra
-5.855743	algebraic
-5.253683	algebraically
-5.855743	alger
-5.855743	algeria
-5.156773	algerian
-5.855743	alginates
-5.378622	algol
-5.855743	algorithm
-5.855743	alia
-5.855743	aliah
-5.855743	alias
-4.952653	alibi
-5.855743	alibis
-4.7418	alice
-5.378622	alicia
-4.709615	alien
-5.554713	alienate
-5.253683	alienated
-4.600471	alienation
-5.554713	aliens
-5.855743	alienus
-5.378622	alight
-5.855743	align
-5.253683	aligned
-5.855743	aligning
-5.253683	alignment
-5.855743	alignments
-4.600471	alike
-5.554713	alimony
-5.855743	aliquots
-5.855743	alison
-4.12335	alive
-5.554713	alix
-5.855743	alix's
-5.855743	alizarin
-5.253683	alkali
-5.855743	alkaline
-5.855743	alkalis
-5.855743	alkaloids
-5.855743	alkylbenzenesulfonates
-2.412637	all
-5.554713	alla
-5.378622	allan
-5.554713	allay
-5.156773	allegations
-5.855743	allege
-4.855743	alleged
-5.378622	allegedly
-5.855743	alleghenies
-5.554713	allegiance
-5.855743	allegiances
-5.378622	alleging
-5.554713	allegoric
-5.378622	allegorical
-5.378622	allegory
-5.855743	allegretti
-5.554713	allegro
-5.855743	allemands
-4.600471	allen
-5.855743	allens
-5.554713	allergic
-5.855743	allergies
-5.855743	allergy
-5.156773	alleviate
-5.554713	alleviation
-5.010645	alley
-5.855743	alleys
-5.855743	alleyways
-4.600471	alliance
-5.855743	alliance's
-5.855743	alliances
-4.408585	allied
-4.378622	allies
-5.253683	alligator
-5.855743	allisons
-5.855743	alliteration
-5.855743	alliterative
-5.378622	allocable
-5.554713	allocate
-5.156773	allocated
-4.679652	allocation
-5.554713	allocations
-5.855743	allons
-5.855743	allot
-5.855743	alloted
-4.299441	allotment
-4.952653	allotments
-4.952653	allotted
-5.855743	allotting
-4.036199	allow
-5.156773	allowable
-4.7418	allowance
-4.51332	allowances
-3.980682	allowed
-4.475532	allowing
-4.600471	allows
-5.378622	alloy
-5.378622	alloys
-5.156773	allstates
-5.855743	allstates'
-5.855743	alluded
-5.855743	alludes
-5.855743	alluding
-5.855743	allurement
-5.855743	alluring
-5.378622	allusion
-5.156773	allusions
-5.855743	allusiveness
-5.077592	ally
-5.010645	alma
-5.855743	almaden
-5.253683	almagest
-5.156773	almighty
-5.855743	almond
-5.378622	almonds
-3.271412	almost
-5.855743	aloes
-5.855743	aloft
-5.855743	alokut
-3.600471	alone
-5.554713	aloneness
-3.347887	along
-4.679652	alongside
-5.378622	aloof
-5.855743	aloofness
-5.554713	alors
-4.709615	aloud
-5.554713	alpers
-5.156773	alpert
-5.855743	alperts
-5.010645	alpha
-5.855743	alphabet
-5.855743	alphabetic
-5.253683	alphabetical
-5.855743	alphabetized
-5.554713	alps
-5.855743	alreadeh
-3.468353	already
-5.554713	als
-5.554713	alsatian
-5.855743	alsatians
-5.855743	alsing
-2.869419	also
-5.378622	alsop
-5.855743	altairians
-5.156773	altar
-5.253683	altenburg
-4.709615	alter
-5.077592	alteration
-5.010645	alterations
-5.855743	altercation
-4.51332	altered
-5.156773	altering
-5.855743	alterman
-4.855743	alternate
-5.855743	alternated
-5.156773	alternately
-5.855743	alternating
-5.554713	alternation
-4.424379	alternative
-5.378622	alternatively
-4.679652	alternatives
-5.855743	alters
-5.855743	althaus
-5.554713	altho
-3.405494	although
-5.253683	altitude
-5.554713	alto
-4.393345	altogether
-5.554713	alton
-5.855743	altruism
-5.855743	altruistically
-5.855743	alum
-4.625294	aluminum
-5.855743	alumnae
-4.901501	alumni
-5.855743	alundum
-5.855743	alusik
-5.554713	alusik's
-5.855743	alva
-5.554713	alvarez
-5.855743	alvear
-4.952653	alveolar
-5.253683	alveoli
-5.855743	alveolus
-5.077592	alvin
-5.554713	alvise
-3.24402	always
-5.554713	alwin
-3.473726	am
-5.378622	ama
-5.253683	amadee
-5.855743	amadee's
-5.855743	amadeus
-5.855743	amado
-5.855743	amalgamated
-5.855743	amalgamation
-5.855743	amanuensis
-5.855743	amaral
-5.554713	amass
-5.855743	amassing
-4.51332	amateur
-5.554713	amateurish
-5.855743	amateurishness
-5.554713	amateurs
-5.855743	amatory
-5.378622	amaze
-4.814351	amazed
-4.855743	amazement
-4.57699	amazing
-5.554713	amazingly
-5.554713	amazon
-5.855743	amazons
-4.533524	ambassador
-5.077592	ambassadors
-5.378622	amber
-5.855743	ambiance
-5.855743	ambidextrous
-5.010645	ambiguities
-5.010645	ambiguity
-4.554713	ambiguous
-4.57699	ambition
-4.709615	ambitions
-4.709615	ambitious
-5.855743	ambitiously
-5.253683	ambivalence
-5.077592	ambivalent
-5.855743	ambled
-5.855743	ambler
-5.855743	ambrose
-5.855743	ambrosial
-5.077592	ambulance
-5.855743	ambulances
-5.077592	ambush
-5.554713	ambushed
-5.554713	ameaux
-5.554713	amelia's
-4.57699	amen
-5.378622	amenable
-5.855743	amend
-4.776562	amended
-5.855743	amending
-4.554713	amendment
-5.855743	amendment's
-5.010645	amendments
-5.855743	amenitskii
-3.60777	america
-4.533524	america's
-3.131467	american
-5.253683	americana
-5.855743	americanism
-3.901501	americans
-5.253683	amethystine
-5.554713	amiable
-5.855743	amicable
-5.855743	amicably
-5.855743	amicam
-5.378622	amici
-4.7418	amid
-5.855743	amide
-5.554713	amidst
-5.554713	amigo
-5.855743	amines
-5.855743	amino
-5.855743	aminobenzoic
-5.855743	aminometha
-5.855743	amis
-5.554713	amiss
-5.855743	amity
-5.253683	ammo
-5.855743	ammoniac
-5.855743	ammonium
-4.600471	ammunition
-5.554713	amonasro
-3.338547	among
-5.378622	amongst
-5.554713	amoral
-5.855743	amorality
-5.855743	amorous
-5.156773	amorphous
-5.554713	amortization
-5.554713	amortize
-5.855743	amory
-5.378622	amos
-3.646228	amount
-5.253683	amounted
-5.855743	amounting
-4.232494	amounts
-5.378622	amp
-5.855743	amphetamines
-5.855743	amphibious
-5.855743	amphitheater
-4.709615	ample
-5.554713	amplification
-5.156773	amplified
-5.156773	amplifier
-5.855743	amplifiers
-5.855743	amplify
-5.855743	amplifying
-5.253683	amplitude
-5.378622	amply
-5.855743	amputated
-5.855743	amra
-5.554713	amsterdam
-5.855743	amt
-5.855743	amulet
-5.855743	amulets
-5.554713	amuse
-5.010645	amused
-5.855743	amusedly
-5.156773	amusement
-5.554713	amusements
-4.7418	amusing
-5.554713	amusingly
-4.679652	amy
-2.327598	an
-5.855743	ana
-5.855743	anabaptist
-5.855743	anabaptists
-5.855743	anabel
-5.378622	anachronism
-5.554713	anachronisms
-5.855743	anachronistically
-4.709615	anaconda
-5.855743	anaconda's
-5.378622	anacondas
-5.855743	anaerobic
-5.855743	anaesthesia
-5.554713	analeptic
-5.253683	analogies
-4.952653	analogous
-5.554713	analogously
-5.855743	analogue
-5.855743	analogues
-4.776562	analogy
-5.554713	analysed
-4.776562	analyses
-3.868972	analysis
-5.010645	analyst
-5.378622	analyst's
-5.077592	analysts
-4.625294	analytic
-4.952653	analytical
-5.855743	analytically
-5.855743	analytrol
-5.855743	analyzable
-5.010645	analyze
-4.7418	analyzed
-5.554713	analyzer
-5.554713	analyzes
-5.077592	analyzing
-5.855743	anania
-5.855743	anaplasmosis
-5.855743	anarchic
-5.554713	anarchical
-5.554713	anarchist
-5.010645	anarchy
-5.156773	anastomoses
-5.855743	anastomosis
-5.855743	anastomotic
-5.855743	anatole
-5.855743	anatomic
-4.901501	anatomical
-5.855743	anatomically
-5.855743	anatomicals
-4.952653	anatomy
-5.855743	ancel
-5.010645	ancestor
-5.156773	ancestors
-5.253683	ancestral
-5.010645	ancestry
-4.679652	anchor
-5.855743	anchorage
-4.855743	anchored
-5.855743	anchoring
-5.554713	anchorite
-5.855743	anchoritism
-5.554713	anchors
-5.855743	anchovy
-4.084891	ancient
-5.855743	anciently
-5.855743	ancients
-5.554713	ancillary
-5.855743	ancistrodon
-5.554713	andean
-5.855743	anderlini
-5.855743	anders
-5.855743	andersen
-4.814351	anderson
-5.253683	andersons
-5.378622	andover
-5.378622	andre
-5.253683	andrea
-4.651623	andrei
-5.554713	andrei's
-5.077592	andrena
-5.378622	andrenas
-4.855743	andrew
-5.554713	andrews
-5.378622	androfski
-5.855743	andromache
-4.814351	andrus
-5.855743	andruses
-4.364381	andy
-5.253683	andy's
-5.855743	anecdotal
-4.901501	anecdote
-5.378622	anecdotes
-5.855743	anemated
-5.378622	anemia
-5.855743	anemic
-5.855743	anesthetic
-5.855743	anesthetically
-5.855743	anesthetics
-5.855743	anesthetized
-5.077592	anew
-4.651623	angel
-4.202531	angeles
-5.554713	angeles'
-5.554713	angelic
-5.855743	angelica
-5.855743	angelico
-5.253683	angelina
-5.855743	angell
-5.077592	angelo
-5.554713	angelo's
-4.51332	angels
-4.232494	anger
-5.855743	angered
-4.709615	angie
-4.156773	angle
-5.855743	angled
-4.814351	angles
-5.855743	anglia
-4.855743	anglican
-5.855743	anglicanism
-5.554713	anglicans
-5.855743	angling
-4.457803	anglo
-5.855743	anglophilia
-5.855743	anglophobia
-5.378622	angola
-5.855743	angriest
-5.010645	angrily
-4.264678	angry
-5.554713	angst
-4.952653	anguish
-5.554713	anguished
-4.776562	angular
-5.855743	anhalt
-5.855743	anhemolyticus
-5.855743	anhydrous
-5.554713	ani
-5.855743	aniline
-4.070414	animal
-4.092315	animals
-5.855743	animate
-5.378622	animated
-5.554713	animation
-5.855743	animism
-5.855743	animized
-5.378622	animosity
-5.855743	anion
-4.855743	anionic
-5.855743	anionics
-5.855743	anions
-5.554713	anise
-5.554713	aniseikonic
-5.855743	anisotropy
-5.554713	anita
-5.855743	ankara
-4.855743	ankle
-5.010645	ankles
-4.44077	ann
-5.077592	anna
-5.378622	annals
-5.855743	annamorena
-5.077592	annapolis
-4.299441	anne
-5.253683	anne's
-5.855743	annee
-5.855743	annex
-5.855743	annie
-5.077592	annihilation
-5.855743	annisberg
-4.679652	anniston
-5.855743	annistons
-5.855743	anniversaries
-4.679652	anniversary
-4.679652	announce
-3.97493	announced
-4.494015	announcement
-5.156773	announcements
-5.554713	announcer
-5.855743	announcer's
-5.855743	announcers
-5.378622	announces
-5.077592	announcing
-5.554713	annoy
-4.952653	annoyance
-5.855743	annoyances
-5.010645	annoyed
-5.077592	annoying
-5.855743	annoys
-5.554713	anns
-3.941929	annual
-4.776562	annually
-5.378622	annum
-5.855743	annunciated
-4.010645	anode
-5.855743	anomalies
-5.855743	anomalous
-5.855743	anomaly
-5.855743	anomic
-5.855743	anomie
-5.554713	anonymity
-4.651623	anonymous
-5.855743	anorexia
-5.855743	anorthic
-3.070413	another
-5.156773	another's
-5.855743	anouilh
-5.855743	anselm's
-5.855743	anselmo
-5.855743	ansley
-5.855743	anson
-5.855743	ansuh
-3.72541	answer
-5.855743	answerable
-4.077592	answered
-4.814351	answering
-4.242959	answers
-5.156773	ant
-5.554713	anta
-5.855743	antagonised
-4.901501	antagonism
-5.855743	antagonisms
-5.554713	antagonist
-5.253683	antagonistic
-5.253683	antagonists
-5.855743	antagonize
-5.855743	antarctica
-5.855743	antares
-5.253683	ante
-5.855743	anteater
-5.855743	antecedent
-5.554713	antecedents
-5.077592	antelope
-4.814351	antenna
-5.554713	antennae
-5.855743	antennas
-5.156773	anterior
-5.855743	anteriors
-5.554713	anthea
-5.855743	anthem
-5.855743	anthems
-5.378622	anthology
-4.709615	anthony
-5.855743	anthony's
-5.253683	anthropological
-5.378622	anthropologist
-5.554713	anthropologists
-5.010645	anthropology
-5.855743	anthropomorphic
-3.735169	anti
-5.855743	antibiotic
-4.901501	antibodies
-4.814351	antibody
-5.855743	antic
-4.814351	anticipate
-4.57699	anticipated
-5.554713	anticipates
-5.554713	anticipating
-4.625294	anticipation
-5.554713	anticipations
-5.855743	anticipatory
-5.855743	anticoagulation
-5.378622	antics
-5.855743	anticus
-5.855743	antidote
-5.554713	antietam
-4.855743	antigen
-5.855743	antinomians
-5.253683	antipathy
-5.855743	antiphonal
-5.855743	antipodes
-5.855743	antiquarian
-5.855743	antiquarians
-5.378622	antiquated
-4.814351	antique
-5.378622	antiques
-5.855743	antiquities
-5.554713	antiquity
-5.855743	antiredeposition
-5.077592	antiseptic
-5.855743	antisera
-5.253683	antiserum
-5.855743	antislavery
-5.855743	antisocial
-5.253683	antisubmarine
-5.855743	antithesis
-5.855743	antithetical
-5.077592	antithyroid
-5.855743	antitrust
-5.378622	antler
-5.378622	antoine's
-5.855743	antoinette
-5.554713	anton
-5.855743	antone
-5.855743	antonini
-5.253683	antonio
-5.855743	antony
-5.010645	ants
-5.855743	anvil
-5.855743	anxieties
-4.253683	anxiety
-4.408585	anxious
-5.156773	anxiously
-2.780196	any
-4.253683	anybody
-5.855743	anybody'd
-5.554713	anybody's
-5.855743	anye
-4.625294	anyhow
-5.855743	anylabel
-5.156773	anymore
-3.748533	anyone
-5.253683	anyone's
-5.855743	anyplace
-3.459544	anything
-5.855743	anytime
-4.242959	anyway
-5.855743	anyways
-4.350593	anywhere
-5.855743	anzilotti
-5.378622	aorta
-5.855743	aouelloul
-4.855743	ap
-5.855743	apache
-5.378622	apaches
-5.855743	apalachicola
-5.855743	aparicio
-4.13974	apart
-5.378622	apartheid
-3.980682	apartment
-4.651623	apartments
-5.855743	apathetic
-5.378622	apathy
-5.378622	ape
-4.952653	aperture
-5.855743	apes
-5.253683	apex
-5.554713	apiece
-5.855743	aplomb
-5.554713	apocalypse
-5.253683	apocalyptic
-5.855743	apocrypha
-5.855743	apocryphal
-5.554713	apogee
-5.554713	apollinaire
-5.253683	apollo
-5.855743	apollo's
-5.855743	apollonian
-5.378622	apologetic
-5.077592	apologetically
-5.855743	apologia
-5.855743	apologie
-5.253683	apologies
-5.855743	apologist
-5.855743	apologize
-5.156773	apologized
-5.378622	apology
-5.855743	apostates
-5.554713	apostle
-5.554713	apostles
-5.253683	apostolic
-5.378622	apothecary
-5.855743	apotheosis
-5.554713	app
-5.855743	appalachians
-5.554713	appalled
-5.010645	appalling
-5.855743	appallingly
-5.855743	appaloosas
-5.855743	appanage
-4.424379	apparatus
-5.378622	apparel
-5.855743	appareled
-4.13974	apparent
-3.795045	apparently
-5.554713	apparition
-4.107555	appeal
-4.814351	appealed
-4.776562	appealing
-4.709615	appeals
-3.806525	appear
-4.11538	appearance
-4.709615	appearances
-3.769383	appeared
-5.855743	appearin
-4.651623	appearing
-3.980682	appears
-5.554713	appease
-5.554713	appeased
-5.378622	appeasement
-5.855743	appeasing
-5.855743	appellant
-5.855743	appendages
-5.855743	appended
-4.855743	appendix
-5.855743	appendixes
-5.253683	appestat
-4.952653	appetite
-5.378622	appetites
-5.554713	appetizing
-5.855743	appian
-5.253683	applaud
-5.253683	applauded
-5.554713	applauding
-4.679652	applause
-4.901501	apple
-5.855743	appleby
-5.077592	apples
-5.855743	appleton
-5.156773	appliance
-5.010645	appliances
-5.554713	applicability
-4.651623	applicable
-4.952653	applicant
-4.901501	applicants
-4.063352	application
-4.51332	applications
-5.855743	applicator
-3.88726	applied
-4.625294	applies
-5.855743	appliques
-4.131467	apply
-4.44077	applying
-5.077592	appoint
-4.202531	appointed
-5.554713	appointee
-5.156773	appointees
-5.855743	appointing
-4.475532	appointment
-5.156773	appointments
-5.855743	appoints
-5.855743	apportion
-4.952653	apportioned
-5.010645	apportionment
-5.554713	apportionments
-5.010645	appraisal
-5.855743	appraisals
-5.253683	appraise
-5.855743	appraised
-5.855743	appraisers
-5.855743	appraising
-5.855743	appraisingly
-5.156773	appreciable
-5.010645	appreciably
-4.44077	appreciate
-4.855743	appreciated
-5.855743	appreciates
-5.855743	appreciating
-4.554713	appreciation
-5.855743	appreciations
-5.554713	appreciative
-5.554713	appreciatively
-5.554713	apprehended
-4.855743	apprehension
-5.378622	apprehensions
-5.253683	apprehensively
-4.7418	apprentice
-5.855743	apprenticed
-5.378622	apprentices
-5.554713	apprenticeship
-3.81042	approach
-5.855743	approachable
-4.253683	approached
-4.554713	approaches
-4.457803	approaching
-4.070414	appropriate
-4.855743	appropriated
-5.253683	appropriately
-5.554713	appropriateness
-5.855743	appropriates
-5.554713	appropriating
-5.156773	appropriation
-4.952653	appropriations
-4.192986	approval
-4.776562	approve
-4.287541	approved
-5.855743	approves
-5.855743	approving
-5.554713	approvingly
-4.855743	approximate
-5.253683	approximated
-4.036199	approximately
-5.010645	approximation
-5.554713	approximations
-5.855743	apricot
-4.056403	april
-5.010645	apron
-5.855743	apropos
-5.855743	apses
-4.709615	apt
-5.378622	aptitude
-5.855743	aptitudes
-5.554713	aptly
-5.855743	aqua
-5.855743	aquacutie
-5.855743	aquam
-5.855743	aqueducts
-4.7418	aqueous
-5.554713	aquidneck
-5.554713	aquinas
-5.855743	aquisition
-5.554713	arab
-5.855743	arabesque
-5.855743	arabia
-5.554713	arabian
-5.855743	arabians
-5.077592	arabic
-5.378622	arable
-5.855743	arabs
-5.855743	arabs'
-5.855743	araby
-5.855743	arak
-5.855743	aransas
-5.554713	arapacis
-5.855743	arata
-5.855743	arbeitskommando
-5.156773	arbiter
-5.156773	arbitrarily
-4.533524	arbitrary
-5.554713	arbitrate
-5.855743	arbitrated
-5.554713	arbitration
-5.378622	arbogast
-5.253683	arbor
-5.855743	arboreal
-5.156773	arbuckle
-4.287541	arc
-5.378622	arcade
-5.554713	arcades
-4.679652	arch
-4.901501	archaeological
-5.855743	archaeologists
-4.901501	archaeology
-5.156773	archaic
-5.855743	archaism
-5.855743	archaized
-5.378622	archangel
-5.855743	archangels
-4.952653	archbishop
-5.855743	archbishops'
-5.855743	archdiocese
-4.901501	arched
-5.855743	archenemy
-5.855743	archeological
-5.855743	archery
-5.010645	arches
-5.855743	archimedes
-5.855743	arching
-5.554713	archipelago
-4.625294	architect
-5.855743	architect's
-5.855743	architectonic
-5.077592	architects
-5.855743	architects'
-5.010645	architectural
-4.855743	architecture
-5.855743	architectures
-5.253683	archives
-5.855743	archtype
-5.855743	archuleta
-5.855743	arcilla
-5.855743	arco
-4.952653	arcs
-5.253683	arctic
-5.855743	arcus
-5.378622	arden
-4.776562	ardent
-5.855743	ardmore
-5.378622	ardor
-5.253683	arduous
-2.256297	are
-3.384451	area
-5.855743	area's
-3.519284	areas
-5.855743	areaways
-5.077592	arena
-5.378622	arenas
-4.337229	arent
-5.855743	arenula
-5.855743	areosol
-5.855743	arequipa
-5.855743	arf
-5.855743	argentina
-5.554713	arger
-4.814351	argiento
-5.855743	argive
-5.077592	argon
-5.855743	argonauts
-5.855743	argos
-5.855743	argot
-4.408585	argue
-4.424379	argued
-4.855743	argues
-4.952653	arguing
-4.11538	argument
-5.855743	argumentation
-4.709615	arguments
-5.855743	arhat
-5.855743	arhats
-5.554713	ariadne
-5.855743	arianism
-5.855743	arianist
-5.855743	arianists
-5.378622	aricaras
-5.554713	arid
-5.554713	aridity
-5.855743	arigato
-5.855743	arimathea
-4.424379	arise
-5.253683	arisen
-4.7418	arises
-4.814351	arising
-5.855743	aristide
-5.253683	aristocracy
-5.378622	aristocratic
-5.554713	aristocrats
-5.855743	aristotelean
-5.554713	aristotelian
-4.554713	aristotle
-5.077592	aristotle's
-5.077592	arithmetic
-5.855743	arithmetical
-5.253683	ariz
-4.952653	arizona
-4.600471	arkansas
-5.855743	arleigh
-4.855743	arlen
-4.533524	arlene
-5.855743	arlene's
-5.855743	arlens
-5.253683	arlington
-3.868972	arm
-5.378622	arm's
-5.855743	armada's
-5.855743	armadillo
-5.855743	armageddon
-5.855743	armament
-5.378622	armaments
-5.554713	armata
-5.855743	armbro
-5.253683	armchair
-5.554713	armchairs
-4.056403	armed
-5.855743	armenian
-5.855743	armentieres
-5.855743	armful
-5.378622	armhole
-5.855743	armide
-4.709615	armies
-5.855743	armisteads
-5.253683	armistice
-5.855743	armload
-5.855743	armoire
-5.855743	armond
-5.253683	armor
-5.554713	armored
-5.855743	armory
-5.855743	armory's
-5.554713	armour
-5.554713	armpit
-5.855743	armpits
-3.834554	arms
-5.156773	armstrong
-3.795045	army
-5.156773	army's
-5.855743	arnica
-4.554713	arnold
-5.554713	arnold's
-5.253683	arnolphe
-5.378622	aroma
-5.855743	aromas
-5.554713	aromatic
-5.855743	aromatick
-4.709615	arose
-3.153313	around
-5.378622	arousal
-5.156773	arouse
-4.57699	aroused
-5.554713	arouses
-5.378622	arousing
-5.077592	arp
-5.855743	arragon
-5.554713	arraigned
-5.855743	arraigning
-5.010645	arrange
-4.287541	arranged
-4.408585	arrangement
-4.364381	arrangements
-5.855743	arrangers
-5.855743	arranges
-4.651623	arranging
-4.814351	array
-5.554713	arrayed
-5.077592	arrears
-4.57699	arrest
-4.600471	arrested
-5.253683	arresting
-5.378622	arrests
-5.855743	arrington
-4.533524	arrival
-5.378622	arrivals
-4.51332	arrive
-4.084891	arrived
-5.077592	arrives
-4.709615	arriving
-5.554713	arrogance
-5.554713	arrogant
-5.855743	arrogantly
-5.855743	arrogate
-4.709615	arrow
-5.855743	arrowed
-5.855743	arrowhead
-5.855743	arrowheads
-5.156773	arrows
-5.378622	arroyo
-5.554713	arsenal
-5.855743	arsenic
-5.855743	arshinkoff
-5.855743	arside
-5.855743	arsines
-5.554713	arson
-3.57699	art
-5.554713	art's
-5.253683	arte
-5.855743	arte's
-5.855743	artemis
-5.010645	arterial
-4.651623	arteries
-5.253683	arteriolar
-5.554713	arterioles
-5.554713	arteriolosclerosis
-5.855743	arteriosclerosis
-4.156773	artery
-5.855743	artful
-5.253683	artfully
-5.855743	artfulness
-5.378622	arthritis
-4.192986	arthur
-5.855743	arthur's
-4.077592	article
-4.393345	articles
-4.952653	articulate
-5.855743	articulated
-5.855743	articulations
-4.952653	artie
-5.855743	artifacts
-5.855743	artifice
-5.855743	artificer
-4.625294	artificial
-5.855743	artificiality
-5.077592	artificially
-5.855743	artillerist
-4.814351	artillery
-5.855743	artisan
-5.554713	artisans
-4.099868	artist
-5.156773	artist's
-4.378622	artistic
-5.156773	artistically
-5.378622	artistry
-4.13974	artists
-5.077592	artists'
-5.855743	artkino
-5.554713	artless
-4.056403	arts
-5.554713	arturo
-5.855743	arty
-5.253683	arundel
-5.855743	arutunian
-5.855743	arvey
-5.855743	aryl
-5.378622	arylesterase
-5.855743	arylesterases
-2.042362	as
-5.554713	asbestos
-5.855743	ascend
-5.554713	ascended
-5.253683	ascending
-5.855743	ascent
-5.010645	ascertain
-5.855743	ascertainable
-5.378622	ascertained
-5.855743	ascetic
-5.855743	asceticism
-5.855743	asch
-5.855743	aschenbach
-5.855743	ascribe
-5.156773	ascribed
-5.855743	ascribes
-5.855743	asdic
-5.855743	aseptic
-4.7418	ash
-5.855743	asham'd
-4.709615	ashamed
-5.554713	ashen
-5.855743	asher
-5.156773	ashes
-5.554713	asheville
-5.855743	ashikaga
-5.855743	ashley
-5.855743	ashman
-5.855743	ashmolean
-5.077592	ashore
-4.253683	asia
-4.776562	asian
-5.855743	asians
-5.855743	asiatic
-4.063352	aside
-5.855743	asilomar
-5.855743	asimov's
-5.554713	asinine
-3.776562	ask
-5.855743	askance
-3.309201	asked
-5.855743	askew
-5.855743	askin
-4.11538	asking
-5.156773	askington
-5.855743	askingtons
-4.600471	asks
-4.408585	asleep
-5.855743	asme
-4.232494	aspect
-4.084891	aspects
-5.554713	aspen
-5.855743	aspencade
-5.554713	aspencades
-5.378622	asphalt
-5.554713	aspirant
-5.554713	aspirants
-5.378622	aspiration
-4.776562	aspirations
-5.378622	aspire
-5.855743	aspired
-5.855743	aspires
-5.378622	aspirin
-5.855743	aspiring
-5.855743	aspis
-5.855743	aspr
-5.156773	ass
-5.554713	ass'n
-5.855743	ass'ns'
-5.855743	assai
-5.378622	assail
-5.554713	assailant
-5.855743	assailants
-5.253683	assailed
-5.855743	assailing
-5.855743	assam
-5.156773	assassin
-5.855743	assassinated
-5.253683	assassination
-5.855743	assassins
-4.709615	assault
-5.253683	assaulted
-5.855743	assaulting
-5.253683	assaults
-5.378622	assay
-5.855743	assayed
-5.554713	assaying
-5.378622	assemblage
-5.855743	assemblages
-4.901501	assemble
-4.475532	assembled
-4.814351	assemblies
-5.253683	assembling
-4.165547	assembly
-5.378622	assent
-5.378622	assented
-5.855743	asser
-4.625294	assert
-4.651623	asserted
-5.378622	asserting
-5.010645	assertion
-5.855743	assertions
-5.253683	assertive
-5.855743	assertiveness
-5.253683	asserts
-5.378622	asses
-5.855743	assesment
-5.077592	assess
-5.010645	assessed
-4.855743	assessing
-4.533524	assessment
-5.077592	assessments
-5.554713	assessor
-5.855743	assessor's
-4.57699	assessors
-5.855743	assessors'
-5.253683	asset
-4.814351	assets
-5.855743	assiduity
-4.625294	assign
-4.156773	assigned
-5.554713	assignee
-4.952653	assigning
-4.12335	assignment
-4.600471	assignments
-5.253683	assigns
-5.554713	assimilate
-5.378622	assimilated
-5.077592	assimilation
-5.554713	assiniboia
-5.554713	assiniboine
-4.44077	assist
-3.963649	assistance
-4.337229	assistant
-4.901501	assistants
-5.156773	assisted
-5.156773	assisting
-5.855743	assists
-5.554713	assn
-4.600471	associate
-4.107555	associated
-4.679652	associates
-5.554713	associating
-3.783861	association
-4.408585	associations
-5.855743	associatively
-5.554713	assorted
-5.855743	assortment
-5.554713	assuaged
-4.107555	assume
-4.036199	assumed
-4.952653	assumes
-4.651623	assuming
-4.393345	assumption
-4.533524	assumptions
-4.57699	assurance
-5.378622	assurances
-4.311675	assure
-4.337229	assured
-5.378622	assuredly
-5.253683	assures
-4.855743	assuring
-5.554713	assyrian
-5.855743	astaires
-5.855743	astarte
-5.554713	asteria
-5.554713	asterisks
-5.855743	asteroidal
-5.855743	asters
-5.855743	asthma
-5.156773	astonished
-5.077592	astonishing
-5.077592	astonishingly
-5.253683	astonishment
-5.554713	astor
-5.554713	astoria
-5.855743	astound
-5.554713	astounded
-5.156773	astounding
-5.855743	astra
-5.855743	astral
-5.378622	astray
-5.378622	astride
-5.855743	astringency
-5.855743	astringent
-5.554713	astronaut
-5.554713	astronomer
-5.156773	astronomical
-4.533524	astronomy
-5.378622	astrophysics
-5.855743	astute
-5.855743	astwood
-5.855743	asunder
-5.378622	asw
-5.855743	asylum
-5.855743	asymmetric
-5.554713	asymmetrically
-5.855743	asymptotic
-5.855743	asymptotically
-5.554713	asynchrony
-2.17027	at
-4.651623	ate
-5.855743	aterman
-5.855743	ath
-4.709615	athabascan
-5.554713	athalie
-5.855743	athearn
-5.855743	atheistic
-5.554713	atheists
-5.855743	athena
-5.554713	athenian
-5.378622	athenians
-5.077592	athens
-5.855743	atheromatous
-5.855743	atherton
-5.010645	athlete
-5.855743	athlete's
-5.156773	athletes
-5.855743	athletes'
-4.651623	athletic
-5.855743	athleticism
-4.952653	athletics
-5.554713	atkinson
-4.364381	atlanta
-5.378622	atlanta's
-5.855743	atlantes
-4.299441	atlantic
-5.855743	atlantica
-5.554713	atlantis
-4.814351	atlas
-5.855743	atlee
-5.855743	atm
-3.980682	atmosphere
-5.253683	atmospheres
-4.952653	atmospheric
-4.350593	atom
-5.855743	atom's
-4.253683	atomic
-5.855743	atomisation
-4.287541	atoms
-5.855743	atonally
-5.855743	atone
-5.156773	atop
-5.554713	atp
-5.554713	atreus
-5.554713	atrocities
-5.378622	atrophic
-5.855743	atrophied
-5.253683	atrophy
-5.554713	att
-5.554713	atta
-4.7418	attach
-4.51332	attached
-5.855743	attaches
-5.554713	attaching
-5.156773	attachment
-5.378622	attachments
-3.842906	attack
-4.475532	attacked
-5.077592	attacker
-5.855743	attacker's
-5.855743	attackers
-4.952653	attacking
-4.600471	attacks
-5.855743	attactive
-4.651623	attain
-4.952653	attained
-5.077592	attaining
-4.952653	attainment
-5.855743	attainments
-5.855743	attains
-5.554713	attakapas
-3.916224	attempt
-4.364381	attempted
-4.600471	attempting
-4.299441	attempts
-4.174502	attend
-4.855743	attendance
-4.855743	attendant
-5.010645	attendants
-4.337229	attended
-4.533524	attending
-5.253683	attends
-3.654346	attention
-5.855743	attentions
-5.253683	attentive
-5.554713	attest
-5.253683	attested
-5.855743	attesting
-4.709615	attic
-5.855743	attica
-5.855743	attilio
-5.253683	attire
-5.855743	attired
-5.855743	attis
-3.873472	attitude
-4.212291	attitudes
-5.855743	attlee
-5.855743	attopeu
-4.107555	attorney
-5.378622	attorney's
-4.901501	attorneys
-4.600471	attract
-4.51332	attracted
-5.253683	attracting
-4.679652	attraction
-4.952653	attractions
-4.337229	attractive
-5.855743	attractively
-5.554713	attracts
-5.077592	attributable
-5.077592	attribute
-4.600471	attributed
-4.814351	attributes
-5.554713	attributing
-5.156773	attrition
-5.855743	attu
-5.378622	attuned
-5.253683	atty
-5.855743	atune
-5.855743	atwells
-5.855743	atypical
-5.855743	auberge
-5.855743	aubr
-5.855743	aubrey's
-5.554713	auburn
-5.253683	auction
-5.855743	auctioneer's
-5.378622	audacity
-5.253683	audible
-5.855743	audibly
-3.83871	audience
-4.679652	audiences
-5.077592	audio
-5.378622	audit
-5.855743	audited
-5.855743	auditing
-5.378622	audition
-5.855743	auditioning
-5.855743	auditions
-5.855743	auditor
-4.7418	auditorium
-5.253683	auditors
-5.855743	audrey
-5.156773	audubon
-5.855743	auerbach's
-5.554713	auf
-4.51332	aug
-5.855743	augen
-5.554713	augment
-4.901501	augmented
-5.855743	augmenting
-5.855743	augurs
-4.202531	august
-5.156773	augusta
-5.855743	augusta's
-5.855743	augustan
-5.855743	augustin
-5.554713	augustine
-5.855743	augustine's
-5.253683	augustus
-5.855743	aujourd'hui
-4.57699	aunt
-5.855743	aunt's
-5.378622	auntie
-5.253683	aunts
-5.855743	aura
-5.855743	aural
-5.554713	aurally
-5.554713	aurelius
-5.253683	aureomycin
-5.554713	aurora
-5.855743	auschwitz
-5.077592	auspices
-5.855743	auspicious
-5.855743	auspiciously
-5.156773	austere
-5.855743	austerely
-5.855743	austerity
-4.625294	austin
-5.855743	austins
-4.855743	australia
-5.010645	australian
-5.855743	australites
-5.253683	austria
-5.554713	austrian
-4.651623	authentic
-5.554713	authentically
-5.855743	authenticated
-5.855743	authentications
-4.952653	authenticity
-4.232494	author
-5.156773	author's
-5.077592	authoritarian
-5.554713	authoritarianism
-4.952653	authoritative
-5.855743	authoritatively
-4.299441	authorities
-3.947258	authority
-5.378622	authority's
-5.554713	authorization
-5.253683	authorizations
-5.378622	authorize
-4.311675	authorized
-5.554713	authorizes
-5.156773	authorizing
-4.554713	authors
-5.855743	authors'
-5.378622	authorship
-5.554713	autism
-4.7418	autistic
-4.475532	auto
-5.855743	autobiographic
-5.378622	autobiographical
-5.156773	autobiography
-4.901501	autocoder
-5.156773	autocollimator
-5.253683	autocracies
-5.855743	autocratic
-5.855743	autocrats
-5.378622	autofluorescence
-5.378622	autograph
-5.378622	autoloader
-5.855743	automate
-5.855743	automated
-4.287541	automatic
-4.350593	automatically
-5.077592	automation
-5.855743	automaton
-4.202531	automobile
-4.51332	automobiles
-5.010645	automotive
-5.855743	autonavigator
-4.814351	autonomic
-5.855743	autonomous
-4.600471	autonomy
-5.855743	autopsied
-5.378622	autopsy
-5.253683	autos
-5.855743	autosuggestibility
-4.554713	autumn
-5.855743	autumnal
-5.378622	auxiliaries
-5.077592	auxiliary
-4.901501	av
-5.378622	avail
-5.554713	availabilities
-4.554713	availability
-3.511351	available
-5.554713	availed
-5.855743	availing
-5.855743	avalanche
-5.855743	avaliable
-5.010645	avant
-5.554713	avarice
-5.855743	avaricious
-4.814351	ave
-5.855743	avec
-5.554713	avenge
-5.554713	avenging
-5.855743	aventine
-5.855743	aventino
-4.212291	avenue
-5.156773	avenues
-3.772958	average
-4.776562	averaged
-4.855743	averages
-4.952653	averaging
-5.554713	averell
-5.554713	aversion
-5.855743	avert
-5.378622	averted
-5.378622	averting
-5.855743	avery
-5.855743	aviary
-5.156773	aviation
-5.378622	aviator
-5.855743	aviators
-5.855743	avid
-5.855743	avidity
-5.855743	avidly
-5.855743	avis
-5.855743	aviv
-4.901501	avocado
-5.077592	avocados
-5.855743	avocation
-4.12335	avoid
-5.010645	avoidance
-4.57699	avoided
-4.855743	avoiding
-5.378622	avoids
-5.378622	aw
-4.952653	await
-4.855743	awaited
-5.010645	awaiting
-5.378622	awaits
-4.554713	awake
-5.010645	awaken
-5.378622	awakened
-5.855743	awakening
-5.855743	awakens
-4.192986	award
-4.651623	awarded
-5.378622	awarding
-4.709615	awards
-3.980682	aware
-4.364381	awareness
-5.855743	awash
-3.237695	away
-5.855743	awaye
-5.077592	awe
-5.253683	awed
-5.378622	awesome
-4.709615	awful
-4.855743	awfully
-5.855743	awfulness
-5.378622	awhile
-4.814351	awkward
-5.156773	awkwardly
-5.855743	awkwardness
-5.554713	awnings
-5.156773	awoc
-5.010645	awoke
-5.554713	awry
-5.010645	ax
-5.077592	axe
-5.010645	axes
-5.855743	axial
-5.855743	axially
-5.855743	axiological
-5.855743	axiom
-5.378622	axiomatic
-5.554713	axioms
-4.275959	axis
-5.253683	axle
-5.855743	axles
-5.855743	aya
-5.554713	aye
-5.855743	ayes
-5.554713	aylesbury
-5.855743	ayres'
-5.855743	aysshom
-5.855743	ayub
-5.554713	azalea
-5.378622	azaleas
-5.855743	azimuth
-5.554713	aztecan
-5.855743	azusa
-3.58623	b
-4.625294	b'dikkat
-5.855743	b'dikkat's
-5.253683	b's
-5.855743	b70
-5.378622	ba
-5.855743	babatunde
-5.855743	babbiting
-5.554713	babbled
-5.855743	babcock
-5.156773	babe
-5.554713	babel
-5.378622	babes
-4.855743	babies
-5.378622	babin
-4.077592	baby
-5.077592	baby's
-5.855743	babyhood
-5.855743	babylon
-5.554713	babylonian
-5.554713	babylonians
-5.855743	baccarat
-5.855743	bacchus
-5.253683	bach
-5.077592	bachelor
-5.253683	bachelors
-5.855743	baci
-5.855743	bacillus
-2.908309	back
-5.855743	backbend
-5.253683	backbone
-5.554713	backdrop
-4.424379	backed
-5.253683	backers
-4.077592	background
-5.077592	backgrounds
-4.952653	backing
-5.855743	backlash
-5.156773	backlog
-4.625294	backs
-5.855743	backside
-5.554713	backstage
-5.855743	backstairs
-5.253683	backstitch
-5.855743	backstitching
-4.554713	backward
-5.855743	backwards
-5.077592	backwoods
-5.554713	backyard
-5.554713	backyards
-4.901501	bacon
-5.010645	bacteria
-4.776562	bacterial
-3.758833	bad
-5.855743	bade
-5.554713	baden
-5.156773	badge
-5.855743	badgering
-5.855743	badges
-5.855743	badinage
-5.855743	badlands
-4.378622	badly
-5.855743	badmen
-5.855743	badminton
-5.010645	badness
-5.855743	badrawi
-5.855743	bads
-5.855743	badura
-5.156773	baer
-5.855743	baffle
-5.156773	baffled
-5.855743	bafflers
-5.253683	baffling
-4.264678	bag
-5.855743	bagatelles
-5.253683	baggage
-5.253683	baggy
-5.855743	bagh
-5.855743	bagley
-5.855743	bagpipe
-4.901501	bags
-5.855743	bah
-5.855743	bahi
-5.855743	bahia
-5.010645	bail
-5.554713	baileefe
-5.378622	bailey
-5.156773	bailiff
-5.378622	bailing
-5.378622	bailly
-5.855743	baines
-5.554713	baird
-5.554713	bait
-5.855743	baited
-5.855743	baiter
-4.651623	bake
-4.855743	baked
-4.350593	baker
-5.855743	bakersfield
-5.554713	bakery
-5.855743	bakes
-5.855743	bakhtiari
-5.253683	baking
-5.855743	baklava
-5.855743	baku
-5.855743	bal
-5.156773	balafrej
-5.554713	balaguer
-5.855743	balaguer's
-3.936665	balance
-4.494015	balanced
-5.855743	balances
-5.253683	balancing
-5.855743	balcolm
-5.554713	balconies
-5.156773	balcony
-5.156773	bald
-5.554713	balding
-5.554713	baldness
-5.378622	baldrige
-5.554713	baldwin
-5.156773	bale
-5.855743	baleful
-5.855743	balenciaga
-5.378622	bales
-5.554713	bali
-5.855743	balinese
-5.855743	balkan
-5.855743	balkanization
-5.855743	balkanize
-5.554713	balkans
-5.855743	balked
-5.855743	balkiness
-5.855743	balking
-5.855743	balks
-3.818317	ball
-4.952653	ballad
-5.077592	ballads
-5.554713	ballast
-5.554713	balled
-5.855743	ballerina
-5.855743	ballerinas
-5.554713	ballestre
-4.212291	ballet
-5.855743	balletomane
-5.253683	ballets
-5.855743	ballfields
-5.855743	ballgowns
-5.855743	balling
-4.651623	ballistic
-5.855743	ballistics
-4.855743	balloon
-5.855743	ballooning
-5.378622	balloons
-4.814351	ballot
-5.554713	ballots
-5.253683	ballplayer
-5.378622	ballplayers
-4.952653	ballroom
-4.625294	balls
-5.855743	ballyhoo
-5.855743	balm
-5.554713	balmy
-5.855743	balsams
-5.378622	baltic
-4.57699	baltimore
-5.554713	baltimore's
-5.855743	baltimorean
-5.378622	balustrade
-5.554713	balzac
-5.378622	bam
-5.855743	bambi
-5.855743	bamboo
-5.156773	ban
-5.554713	banal
-5.378622	banana
-5.855743	bananas
-5.855743	banbury
-5.156773	bancroft
-5.855743	bancroft's
-4.174502	band
-5.253683	bandage
-5.554713	bandaged
-5.378622	bandages
-5.855743	bandaging
-5.378622	banded
-5.855743	banding
-5.378622	bandit
-5.253683	bandits
-5.855743	bandoleers
-5.855743	bandon
-4.901501	bands
-5.156773	bandstand
-5.855743	bandwagon
-5.855743	bandwidth
-5.855743	baneful
-5.855743	banfield
-4.311675	bang
-5.378622	banged
-5.378622	banging
-5.855743	bangish
-5.156773	bangs
-5.855743	bani
-5.253683	banish
-5.010645	banished
-5.855743	banishes
-5.855743	banishing
-5.855743	banishment
-5.156773	banister
-5.554713	banisters
-5.855743	banjo
-3.980682	bank
-5.378622	banked
-5.077592	banker
-4.709615	bankers
-5.855743	bankhead
-5.554713	banking
-5.156773	bankrupt
-5.010645	bankruptcy
-4.324265	banks
-5.855743	banks's
-5.554713	banned
-5.010645	banner
-5.554713	banners
-5.855743	banning
-5.855743	bannnnnng
-5.156773	banquet
-5.855743	banquetings
-5.378622	banquets
-5.855743	bans
-5.855743	banshee
-5.855743	banshees
-5.253683	banter
-5.855743	bantered
-5.855743	bantu
-5.378622	bantus
-5.253683	baptism
-5.855743	baptismal
-5.855743	baptisms
-4.57699	baptist
-5.855743	baptiste
-5.855743	baptistery
-5.253683	baptists
-4.814351	baptized
-3.963649	bar
-5.855743	bar'l
-5.855743	baraclough
-5.855743	barataria
-4.952653	barbara
-5.855743	barbarian
-5.253683	barbarians
-5.855743	barbaric
-4.814351	barbecue
-5.554713	barbecued
-5.378622	barbecues
-4.776562	barbed
-5.253683	barbell
-5.010645	barber
-5.855743	barber's
-5.855743	barbital
-5.855743	barbiturate
-5.855743	barbour
-5.554713	barbs
-5.855743	barbudos
-4.600471	barco
-5.077592	barco's
-5.253683	barcus
-5.855743	barcus'
-5.554713	bard
-5.855743	bardall
-5.855743	bardell
-5.378622	barden
-5.554713	bards
-4.378622	bare
-5.077592	barefoot
-5.855743	barefooted
-4.408585	barely
-5.378622	barest
-5.855743	barflies
-5.077592	bargain
-4.625294	bargaining
-5.378622	bargains
-5.077592	barge
-5.855743	bargen
-5.378622	barges
-5.855743	barging
-4.7418	bari
-5.855743	bari's
-5.855743	baringer
-5.378622	baritone
-5.855743	barium
-4.7418	bark
-5.855743	barkeep
-4.952653	barker
-5.554713	barking
-5.156773	barley
-4.393345	barn
-5.855743	barnaba
-5.156773	barnard
-5.855743	barnard's
-5.077592	barnes
-5.855743	barnet
-4.855743	barnett
-5.010645	barney
-5.253683	barns
-5.855743	barnsful
-5.855743	barnstormer
-5.253683	barnumville
-5.855743	barnyard
-5.855743	barnyards
-5.855743	barometric
-5.855743	baron
-5.855743	baroness
-5.855743	baronial
-5.010645	baroque
-5.855743	barr
-5.855743	barrack
-5.554713	barracks
-5.156773	barrage
-5.077592	barre
-5.077592	barred
-4.44077	barrel
-4.952653	barrels
-5.010645	barren
-5.855743	barrett
-5.855743	barrette
-5.378622	barricade
-5.253683	barricades
-4.901501	barrier
-4.651623	barriers
-5.378622	barring
-5.554713	barrington
-5.855743	barrow
-5.554713	barry
-5.855743	barrymores
-4.275959	bars
-5.855743	barsacs
-5.378622	barstow
-5.156773	bartender
-5.253683	barth
-5.855743	bartha
-5.855743	bartholf
-5.554713	bartleby
-5.378622	bartlett
-5.855743	bartok
-5.855743	bartol
-5.855743	bartoli's
-4.51332	barton
-5.378622	bartons
-5.077592	bas
-5.378622	bascom
-3.926324	base
-4.174502	baseball
-5.855743	baseballight
-5.253683	baseballs
-3.806525	based
-5.554713	basel
-5.855743	baseless
-5.253683	baseman
-4.424379	basement
-5.554713	basements
-5.554713	baser
-4.533524	bases
-5.554713	bashaw
-5.554713	bashful
-5.855743	bashings
-5.855743	bashir
-3.662619	basic
-4.600471	basically
-5.855743	basics
-5.855743	basil
-5.855743	basileis
-5.554713	basils
-5.156773	basin
-5.253683	basing
-3.638259	basis
-5.855743	basked
-4.679652	basket
-4.952653	basketball
-5.554713	baskets
-5.554713	basking
-5.855743	basler
-5.554713	baslot
-5.554713	basophilic
-4.814351	bass
-5.855743	basses
-5.855743	bassi
-5.855743	bassinet
-5.855743	bassis
-5.855743	basso
-5.855743	bast
-4.814351	bastard
-5.855743	bastard's
-4.776562	bastards
-5.855743	bastianini
-5.554713	basting
-5.855743	bastion
-4.651623	bat
-5.554713	batavia
-5.156773	batch
-5.855743	batchelder
-5.554713	bateau
-5.077592	bates
-5.855743	bates'
-4.475532	bath
-5.855743	bathar
-5.378622	bathe
-5.156773	bathed
-5.855743	bathers
-4.7418	bathing
-5.855743	bathos
-5.378622	bathrobe
-4.651623	bathroom
-5.855743	bathrooms
-5.077592	baths
-5.253683	bathtub
-5.855743	bathtubs
-5.855743	bathyran
-5.554713	bathyrans
-5.010645	batista
-5.378622	batista's
-4.952653	baton
-5.010645	bats
-5.378622	battalion
-5.855743	battalions
-5.554713	batted
-5.378622	batten
-5.253683	battenkill
-4.679652	battens
-5.554713	batter
-5.855743	batter's
-5.010645	battered
-5.855743	batterie
-5.554713	batteries
-5.554713	battering
-5.855743	batters
-4.625294	battery
-4.679652	batting
-3.958116	battle
-5.156773	battlefield
-5.855743	battlefront
-5.554713	battleground
-5.855743	battlements
-5.010645	battles
-5.554713	battling
-5.855743	batwings
-5.855743	bauble
-5.855743	baudelaire
-5.554713	bauer
-5.855743	bauhaus
-5.378622	baullari
-5.554713	baum
-5.554713	bavaria
-5.378622	bawdy
-5.554713	bawh
-5.855743	bawhs
-5.554713	bawled
-5.855743	bawling
-4.148173	bay
-5.855743	bayaderka
-5.855743	bayanihan
-5.378622	bayed
-5.855743	bayerische
-5.554713	bayezit
-5.855743	baying
-5.855743	bayleefe
-5.554713	baylor
-5.855743	baylor's
-5.855743	bayly
-5.156773	bayonet
-5.554713	bayonets
-5.554713	bayou
-5.253683	bayreuth
-5.554713	bays
-5.077592	bazaar
-5.855743	bazaars
-5.554713	bbb
-5.855743	bbc
-5.855743	bbc's
-4.554713	bc
-5.855743	bcd
-5.554713	bd
-5.554713	bea
-4.099868	beach
-4.776562	beaches
-5.855743	beachhead
-5.156773	beacon
-5.855743	bead
-5.855743	beaded
-5.253683	beadle
-5.855743	beadles
-5.855743	beadles'
-5.378622	beads
-5.855743	beadsman
-5.855743	beady
-5.554713	beaker
-5.855743	beakers
-5.554713	beale
-5.554713	beall
-5.855743	beallsville
-4.600471	beam
-5.554713	beame
-5.156773	beaming
-5.855743	beamings
-4.814351	beams
-5.156773	bean
-4.901501	beans
-4.165547	bear
-5.855743	bear's
-4.51332	beard
-4.814351	bearded
-5.378622	bearden
-5.253683	beardens
-5.855743	beardless
-5.855743	beardown
-5.253683	beards
-5.855743	beardslee
-5.855743	beardsley's
-5.253683	bearer
-4.393345	bearing
-5.156773	bearings
-5.554713	bearish
-4.457803	bears
-5.010645	beast
-5.855743	beasties
-5.554713	beasts
-4.056403	beat
-4.709615	beaten
-5.253683	beatie
-5.855743	beatific
-5.855743	beatification
-4.855743	beating
-5.554713	beatings
-5.855743	beatitudes
-5.077592	beatnik
-5.253683	beatniks
-5.077592	beatrice
-5.554713	beats
-5.855743	beau
-5.855743	beauchamps
-5.010645	beauclerk
-5.554713	beaujolais
-5.855743	beaulieu
-5.554713	beaumont
-5.855743	beauteous
-5.253683	beauties
-3.81042	beautiful
-4.625294	beautifully
-5.855743	beautify
-5.855743	beautifying
-4.056403	beauty
-5.855743	beauty's
-5.855743	beaux
-5.378622	beaver
-5.855743	beavertail
-5.156773	beaverton
-5.554713	beb
-5.855743	bebop
-5.855743	becalmed
-3.50939	became
-2.955376	because
-5.855743	beccaria
-5.855743	bechhofer
-5.554713	becket
-5.253683	beckett
-5.378622	beckett's
-5.855743	beckman
-5.077592	beckoned
-5.855743	beckoning
-5.378622	beckons
-5.378622	beckstrom
-5.253683	beckworth
-3.338547	become
-3.873472	becomes
-5.855743	becomin
-4.156773	becoming
-3.755373	bed
-5.855743	bedazzled
-5.855743	bedded
-5.378622	bedding
-5.378622	bede
-5.855743	bedfast
-5.554713	bedford
-5.855743	bedground
-5.855743	bedlam
-5.855743	bedpost
-5.855743	bedraggled
-5.855743	bedridden
-4.148173	bedroom
-5.855743	bedroom's
-5.253683	bedrooms
-4.855743	beds
-5.156773	bedside
-5.554713	bedspread
-5.855743	bedsprings
-5.855743	bedstraw
-5.253683	bedtime
-4.7418	bee
-5.855743	bee's
-5.253683	beebe
-5.010645	beebread
-5.156773	beech
-5.554713	beecher
-4.364381	beef
-5.378622	beefed
-5.855743	beefore
-5.855743	beefsteak
-5.855743	beehive
-2.511941	been
-5.253683	beep
-5.378622	beeps
-4.378622	beer
-5.855743	beers
-4.7418	bees
-5.855743	beesemyers
-4.776562	beethoven
-5.855743	beethovens
-5.855743	beetles
-5.554713	beetling
-5.554713	beets
-5.554713	befall
-5.855743	befell
-5.855743	befits
-5.855743	befitting
-5.855743	befogged
-5.855743	befoh
-2.891484	before
-5.554713	beforehand
-5.855743	befouled
-5.554713	befuddled
-5.855743	befuddles
-5.855743	befuddling
-4.855743	beg
-3.432497	began
-5.554713	beggar
-5.855743	beggar's
-5.855743	beggars
-4.7418	begged
-4.855743	begging
-3.963649	begin
-5.855743	beginner
-5.554713	beginner's
-5.855743	beginners
-5.554713	beginners'
-3.697381	beginning
-5.077592	beginnings
-4.156773	begins
-5.554713	begley
-5.156773	begotten
-5.554713	begrudge
-5.855743	begs
-5.855743	beguile
-5.554713	beguiled
-5.554713	beguiling
-4.192986	begun
-5.855743	behahn
-4.600471	behalf
-5.855743	behan
-4.776562	behave
-4.776562	behaved
-5.554713	behaves
-5.253683	behaving
-3.901501	behavior
-5.554713	behavioral
-5.855743	behaviorally
-5.855743	behaviors
-5.378622	behaviour
-5.855743	beheading
-5.378622	beheld
-3.494015	behind
-5.253683	behold
-5.855743	beholds
-5.855743	behooves
-5.855743	behynde
-5.855743	beiderbecke
-5.855743	beige
-5.855743	beige's
-5.378622	bein
-3.051604	being
-5.554713	beinge
-4.299441	beings
-5.855743	beirut
-5.855743	beismortier
-5.253683	bel
-5.855743	bela
-5.554713	belaboring
-5.855743	belafonte
-5.855743	belanger
-5.554713	belasco
-5.554713	belated
-5.855743	belatedly
-5.855743	belch
-5.253683	belched
-5.554713	belching
-5.855743	belfry
-5.855743	belge
-4.814351	belgian
-4.57699	belgians
-5.554713	belgium
-5.378622	belied
-4.092315	belief
-4.554713	beliefs
-5.855743	believably
-3.598065	believe
-4.010645	believed
-5.378622	believer
-5.253683	believers
-4.299441	believes
-5.554713	believeth
-4.7418	believing
-5.855743	belittling
-4.600471	bell
-5.855743	bellamy's
-5.253683	bellboy
-5.554713	bellboys
-5.855743	belle
-5.855743	belles
-5.554713	belletch
-5.855743	belleville
-5.855743	bellhops
-5.855743	bellicosity
-5.554713	bellied
-5.554713	bellies
-5.554713	belligerence
-5.156773	belligerent
-5.855743	belligerently
-5.378622	bellini
-5.554713	bellman
-5.253683	bellow
-5.855743	bellow's
-5.077592	bellowed
-5.554713	bellowing
-5.010645	bellows
-5.010645	bells
-5.554713	bellum
-5.855743	bellwethers
-4.51332	belly
-5.855743	bellyfull
-5.554713	belmont
-4.337229	belong
-4.679652	belonged
-4.776562	belonging
-5.378622	belongings
-4.554713	belongs
-4.651623	beloved
-3.745153	below
-5.554713	belowground
-5.855743	belshazzar
-4.457803	belt
-5.554713	belted
-5.554713	belton
-5.156773	belts
-5.554713	belvidere
-5.855743	belzec
-5.855743	bemaddening
-5.855743	beman
-5.855743	bemoan
-5.855743	bemoans
-4.600471	ben
-4.324265	bench
-5.554713	benched
-5.010645	benches
-5.855743	benchmarks
-4.51332	bend
-5.010645	bending
-5.554713	bends
-4.12335	beneath
-5.378622	benedick
-5.855743	benedictine
-5.378622	benediction
-5.554713	benefactor
-5.554713	benefactor's
-5.855743	beneficence
-4.814351	beneficial
-5.378622	beneficiaries
-5.554713	beneficiary
-5.855743	beneficient
-4.107555	benefit
-5.554713	benefited
-4.350593	benefits
-5.855743	benelux
-5.855743	benesi
-5.554713	benet
-5.855743	benet's
-5.855743	benets
-5.253683	benevolence
-5.554713	benevolent
-5.253683	bengal
-5.855743	bengali
-5.554713	benighted
-5.855743	benign
-5.077592	benington
-5.855743	benita
-4.901501	benjamin
-5.855743	bennett
-5.253683	bennington
-5.253683	benny
-5.855743	benoit
-5.855743	bens
-4.651623	benson
-5.855743	bensons
-4.364381	bent
-5.554713	bentham
-5.554713	bentley
-5.855743	bentleys
-5.855743	benzedrine
-5.855743	benzell
-5.855743	benzene
-4.7418	beowulf
-5.855743	beowulf's
-5.855743	beplastered
-5.554713	bequeathed
-5.156773	bequest
-5.378622	bequests
-5.378622	berated
-5.855743	berea
-5.378622	bereavement
-5.855743	bereavements
-5.554713	bereft
-5.855743	berg's
-5.855743	bergamaschi
-5.855743	bergen
-4.709615	berger
-5.378622	berger's
-5.855743	bergs
-5.855743	bergson
-5.855743	beribboned
-5.554713	beriberi
-5.855743	beringer
-5.855743	berkeley
-5.554713	berkely
-5.855743	berkman
-5.855743	berkshires
-5.253683	berle
-4.023234	berlin
-5.855743	berliners
-5.253683	berlins
-5.855743	berlioz
-5.855743	berlitz
-5.156773	berman
-5.855743	bermans
-4.901501	bermuda
-5.156773	bern
-5.855743	bernadine's
-4.952653	bernard
-5.855743	bernardine
-5.855743	bernardo
-5.855743	bernburg
-5.855743	berne
-5.855743	bernet
-5.855743	bernhard
-5.554713	bernhardt
-5.855743	bernie
-5.855743	berniece
-5.855743	bernini
-5.855743	bernini's
-5.554713	bernoulli
-5.855743	bernstein
-5.855743	bernz
-5.855743	beronio
-5.554713	berra
-5.855743	berra's
-5.855743	berrellez
-5.554713	berries
-4.901501	berry
-5.855743	berry's
-5.855743	bert
-5.855743	berteros
-5.253683	berth
-5.156773	bertha
-5.855743	berthelier
-5.855743	bertie
-5.378622	berto
-5.855743	berto's
-5.855743	bertoia
-5.855743	berton
-5.855743	bertorelli
-5.855743	bertrand
-5.378622	beryl
-5.855743	beryllium
-5.855743	beseech
-5.010645	beset
-5.855743	besets
-5.855743	besetting
-3.99242	beside
-4.077592	besides
-5.855743	besiege
-5.855743	besieged
-5.554713	besiegers
-5.855743	besieging
-5.855743	besmirch
-5.855743	besmirched
-5.855743	besmirching
-5.855743	bespeak
-5.855743	bespeaks
-5.554713	bespectacled
-5.378622	bess
-5.554713	bessarabia
-5.855743	besset
-5.855743	bessie
-3.334605	best
-5.855743	best's
-5.855743	bested
-5.855743	bestes
-5.855743	bestial
-5.855743	bestimmung
-5.855743	bestow
-5.378622	bestowal
-5.156773	bestowed
-5.554713	bestseller
-5.855743	bestselling
-5.855743	bestubbled
-4.625294	bet
-5.378622	beta
-5.855743	betancourt
-5.855743	bete
-5.855743	betel
-5.253683	beth
-5.855743	bethel
-5.855743	bethlehem
-5.855743	bethought
-5.554713	betide
-5.253683	betray
-5.156773	betrayal
-5.077592	betrayed
-5.855743	betrayer
-5.855743	betraying
-5.554713	betrays
-5.855743	betrothed
-5.554713	bets
-5.554713	betsey
-5.855743	betsy
-3.289895	better
-5.855743	bettering
-5.554713	betterment
-5.855743	betties
-5.156773	betting
-5.253683	betty
-5.855743	betty's
-3.052969	between
-5.554713	bevel
-5.554713	beveled
-5.855743	beveling
-5.855743	bevels
-5.156773	beverage
-5.253683	beverages
-4.776562	beverly
-5.554713	bevo
-5.378622	bevy
-5.855743	bewail
-5.378622	beware
-5.855743	bewhiskered
-5.077592	bewildered
-5.855743	bewilderedly
-5.855743	bewilderingly
-5.378622	bewilderment
-5.855743	bewilders
-5.554713	bewitched
-5.855743	bewitching
-5.855743	bexar
-5.156773	bey
-5.554713	beyeler
-3.668222	beyond
-5.554713	bg
-5.855743	bgs
-5.855743	bhoy
-5.378622	bi
-5.554713	bianco
-5.010645	bias
-5.855743	biased
-5.855743	biases
-5.554713	bib
-5.855743	bibb
-4.11538	bible
-5.855743	bibles
-4.600471	biblical
-5.855743	biblically
-5.855743	bibliographical
-5.855743	bibliographies
-5.554713	bibliography
-5.855743	bibliophiles
-5.855743	bicameral
-5.855743	bicarbonate
-5.855743	bicep
-5.378622	biceps
-5.855743	bich
-5.855743	biches
-5.378622	bickering
-5.855743	biconcave
-5.077592	bicycle
-5.554713	bicycles
-4.600471	bid
-5.855743	bidder
-5.554713	bidders
-5.855743	biddies
-5.077592	bidding
-5.855743	biddle
-5.855743	bide
-5.077592	bids
-5.855743	bien
-5.855743	biennial
-5.855743	biennium
-4.952653	bienville
-5.855743	bierce
-5.855743	bietnar
-5.855743	bifocal
-5.554713	bifocals
-5.855743	bifutek
-3.334605	big
-4.364381	bigger
-4.494015	biggest
-5.855743	bigoted
-5.554713	bigotry
-5.855743	bigots
-5.855743	bijouterie
-5.855743	bikinis
-5.554713	bilateral
-5.378622	bile
-5.554713	bilge
-5.855743	bilharziasis
-5.855743	bilinear
-5.855743	bilingual
-5.554713	bilked
-3.7418	bill
-5.855743	billboard
-5.554713	billboards
-5.554713	billed
-5.855743	billets
-5.855743	billiard
-5.378622	billie
-5.554713	billiken
-5.554713	billikens
-5.253683	billing
-5.855743	billings
-4.049563	billion
-5.010645	billions
-5.855743	billowed
-5.855743	billows
-4.165547	bills
-4.494015	billy
-5.378622	biltmore
-5.855743	bimini
-5.855743	bimolecular
-5.855743	bimonthly
-4.952653	bin
-5.253683	bind
-5.554713	binders
-4.533524	binding
-5.855743	bindle
-5.554713	binds
-5.855743	bing
-5.855743	binge
-5.855743	bingles
-5.855743	bini
-5.554713	binoculars
-4.408585	binomial
-5.554713	bins
-5.855743	binuclear
-5.156773	bio
-5.554713	biochemical
-5.855743	biographer
-5.855743	biographers
-5.378622	biographical
-4.814351	biography
-5.855743	biologic
-4.600471	biological
-5.855743	biologically
-5.855743	biologist
-5.554713	biologists
-5.156773	biology
-5.554713	biophysical
-5.855743	biophysicist
-5.855743	biopsies
-5.554713	biopsy
-5.855743	biosynthesized
-5.855743	bipartisan
-5.855743	biplane
-5.855743	biracial
-5.554713	birch
-5.855743	birches
-4.364381	bird
-5.855743	bird's
-5.855743	birdbath
-5.253683	birdie
-5.253683	birdied
-5.554713	birdies
-5.855743	birdlike
-4.131467	birds
-5.554713	birds'
-5.855743	birdwhistell
-5.855743	birdwood
-5.378622	birefringence
-5.855743	birger
-5.855743	birgit
-5.855743	birgitta
-5.855743	birifw
-5.378622	birkhead
-4.855743	birmingham
-5.855743	birnbaum
-4.04283	birth
-5.855743	birthcontrol
-4.679652	birthday
-5.855743	birthed
-5.156773	birthplace
-5.855743	birthright
-5.378622	births
-5.554713	biscayne
-5.855743	biscuit
-5.156773	biscuits
-4.625294	bishop
-5.855743	bishopry
-5.077592	bishops
-5.855743	bishops'
-5.554713	bishopsgate
-5.855743	bismark
-5.855743	bison
-5.156773	bisque
-3.896702	bit
-4.952653	bitch
-4.855743	bite
-5.855743	biter
-5.010645	bites
-5.156773	biting
-4.776562	bits
-5.855743	bits'
-5.077592	bitten
-4.156773	bitter
-5.554713	bitterest
-4.651623	bitterly
-4.625294	bitterness
-5.855743	bitters
-5.855743	bittersweet
-5.156773	bivouac
-4.901501	biwa
-5.855743	bix
-5.378622	biz
-5.156773	bizarre
-5.378622	bizerte
-5.855743	bizet's
-5.855743	bjerre's
-5.855743	blaber
-3.541876	black
-5.077592	black's
-5.378622	blackberry
-5.855743	blackbirds
-5.554713	blackboard
-5.253683	blacked
-5.378622	blackened
-5.855743	blackening
-5.855743	blackest
-5.554713	blackfeet
-5.855743	blacking
-5.554713	blackjack
-5.855743	blackmail
-5.855743	blackmailed
-5.554713	blackmailer
-4.709615	blackman
-5.378622	blackmer
-5.156773	blackness
-5.156773	blackout
-5.378622	blacks
-5.554713	blacksmith
-5.855743	blackstone
-5.378622	blackwell
-5.554713	blackwells
-4.776562	blade
-4.814351	blades
-5.554713	blaine
-5.855743	blair
-5.253683	blake
-5.378622	blakey
-4.378622	blame
-5.010645	blamed
-5.554713	blaming
-5.554713	blanchard
-5.855743	blanchard's
-4.51332	blanche
-5.855743	blanche's
-5.855743	blanched
-5.253683	blanching
-5.554713	bland
-5.855743	blandly
-5.855743	blandness
-4.7418	blank
-4.408585	blanket
-5.855743	blanketed
-4.855743	blankets
-5.554713	blanks
-5.855743	blanton
-5.855743	blared
-5.855743	blaring
-5.378622	blasingame
-5.855743	blasphemed
-5.554713	blasphemies
-5.253683	blasphemous
-5.554713	blasphemy
-4.679652	blast
-5.855743	blastdown
-5.253683	blasted
-5.554713	blasting
-5.253683	blasts
-5.855743	blatancy
-5.554713	blatant
-4.952653	blatz
-5.855743	blatz's
-5.855743	blauberman
-5.855743	blaustein
-5.010645	blaze
-5.554713	blazed
-5.855743	blazer
-5.077592	blazing
-5.554713	bldg
-5.156773	bleached
-5.253683	bleachers
-5.855743	bleaching
-4.952653	bleak
-5.378622	bleakly
-5.554713	bleary
-5.855743	bleat
-5.855743	bleating
-5.855743	bleats
-5.855743	blebs
-5.855743	bleckley
-5.378622	bled
-5.554713	bleed
-4.679652	bleeding
-5.855743	bleedings
-5.855743	bleeker
-5.855743	bleeps
-5.554713	blemish
-5.855743	blemishes
-4.901501	blend
-5.253683	blended
-5.855743	blending
-5.554713	blends
-5.156773	blenheim
-4.901501	bless
-4.7418	blessed
-4.901501	blessing
-5.378622	blessings
-5.378622	blest
-5.554713	blevins
-5.855743	blevins'
-4.814351	blew
-5.554713	blight
-5.378622	blighted
-5.855743	blimp
-4.174502	blind
-5.253683	blinded
-5.855743	blindfolded
-4.952653	blindly
-4.855743	blindness
-5.378622	blinds
-5.253683	blink
-5.156773	blinked
-5.855743	blinkers
-5.378622	blinking
-5.855743	blips
-5.378622	bliss
-5.253683	blissful
-5.554713	blissfully
-5.378622	blister
-5.855743	blistered
-5.554713	blisters
-5.554713	blithe
-5.554713	blithely
-5.378622	blitz
-5.855743	blitzes
-5.010645	blizzard
-5.855743	blizzards
-5.010645	bloat
-5.554713	bloated
-5.554713	blob
-4.855743	bloc
-5.554713	bloch
-4.063352	block
-4.651623	blockade
-5.554713	blockading
-5.855743	blockages
-4.776562	blocked
-5.855743	blockhouse
-5.554713	blocking
-4.337229	blocks
-5.554713	blocky
-5.855743	blois
-5.855743	bloke
-5.855743	blokes
-5.855743	blomdahl
-4.855743	blond
-4.554713	blonde
-5.554713	blonde's
-5.855743	blondes
-3.795045	blood
-5.156773	blooded
-5.855743	bloodedly
-5.554713	bloodhounds
-5.378622	bloodless
-5.855743	bloodlust
-5.855743	bloodroot
-5.855743	bloods
-5.378622	bloodshed
-5.855743	bloodshot
-5.855743	bloodspots
-5.855743	bloodstained
-5.855743	bloodstains
-5.253683	bloodstream
-5.010645	bloody
-4.855743	bloom
-5.253683	bloomed
-5.855743	bloomfield
-4.901501	blooming
-5.378622	blooms
-5.855743	bloops
-5.010645	blossom
-5.855743	blossomed
-5.010645	blossoms
-4.952653	blot
-5.378622	blots
-5.378622	blotted
-5.855743	blotting
-5.855743	blouse
-5.855743	blouses
-4.378622	blow
-5.156773	blower
-5.855743	blowers
-5.855743	blowfish
-4.57699	blowing
-4.776562	blown
-4.952653	blows
-5.855743	blowup
-5.855743	blubber
-5.378622	bludgeon
-3.697381	blue
-5.855743	blueberries
-5.855743	blueberry
-5.855743	bluebird
-5.855743	bluebonnets
-5.855743	bluebook
-5.855743	bluebush
-5.855743	bluefish
-5.855743	blueprint
-5.378622	blueprints
-4.494015	blues
-5.855743	bluestocking
-4.952653	bluff
-5.253683	bluffs
-5.855743	bluing
-5.554713	bluish
-5.554713	blum
-5.378622	blumberg
-5.855743	blume
-5.855743	blumenthal
-5.855743	blunder
-5.855743	blundered
-5.855743	blunderings
-5.855743	blunders
-4.901501	blunt
-5.855743	blunted
-5.855743	blunter
-5.077592	bluntly
-5.554713	bluntness
-5.855743	blunts
-5.378622	blur
-5.156773	blurred
-5.855743	blurry
-5.378622	blurted
-5.554713	blush
-5.077592	blushed
-5.855743	blushes
-5.253683	blushing
-5.855743	bluster
-5.855743	blustered
-5.855743	blustery
-5.855743	bluthenzweig
-5.855743	blutwurst
-5.253683	blvd
-5.855743	blyth
-5.855743	bmews
-5.855743	bmt
-5.855743	bo'suns
-5.010645	boa
-5.855743	boadicea
-5.855743	boal
-5.855743	boar
-3.531461	board
-5.156773	board's
-5.253683	boarded
-5.253683	boarding
-5.855743	boardinghouses
-4.275959	boards
-5.077592	boast
-5.077592	boasted
-5.855743	boastfully
-5.554713	boasting
-5.855743	boastings
-5.554713	boasts
-4.04283	boat
-5.855743	boat's
-5.855743	boatel
-5.855743	boatels
-5.855743	boaters
-5.855743	boathouses
-4.57699	boating
-5.855743	boatload
-5.855743	boatloads
-5.554713	boatman
-5.855743	boatmen
-4.183645	boats
-5.855743	boatsmen
-5.378622	boatswain
-5.554713	boatyards
-5.855743	boaz
-4.311675	bob
-5.855743	bob's
-5.554713	bobbed
-4.554713	bobbie
-5.855743	bobbie's
-5.855743	bobbin
-5.378622	bobbing
-5.855743	bobbins
-5.855743	bobbles
-5.554713	bobbsey
-4.51332	bobby
-5.855743	bock
-5.855743	bockwurst
-4.600471	bod
-5.855743	bod's
-5.855743	bodenheim
-5.855743	bodes
-5.855743	bodhisattva
-5.554713	bodice
-5.253683	bodied
-4.077592	bodies
-5.010645	bodily
-5.554713	bodin
-5.855743	bodleian
-3.459544	body
-5.554713	body's
-5.156773	bodybuilder
-5.554713	bodybuilders
-5.855743	bodybuilding
-5.855743	bodyweight
-5.855743	boehmer
-5.554713	boeing
-5.855743	boeotian
-5.855743	bog
-5.855743	bogartian
-5.077592	bogey
-5.554713	bogeyed
-5.554713	bogeys
-5.855743	bogged
-5.855743	boggled
-5.855743	boggs
-5.855743	bogies
-5.378622	bogus
-5.554713	bogy
-5.855743	bohart
-5.855743	bohemian
-5.855743	bohlen
-5.855743	boies
-4.776562	boil
-4.776562	boiled
-5.378622	boiler
-5.855743	boilers
-4.901501	boiling
-5.554713	boils
-5.855743	bois
-5.855743	boisbriant
-5.855743	boissoneault
-5.855743	boisterous
-5.855743	boites
-5.855743	boland
-4.625294	bold
-5.554713	bolder
-5.855743	boldest
-5.077592	boldly
-5.378622	boldness
-5.855743	bolet
-5.554713	bolger
-5.855743	bolingbroke
-5.855743	bolingbroke's
-5.554713	boliou
-5.855743	bolivar
-5.855743	bolivia
-5.554713	bolker
-5.855743	bolo
-5.554713	bologna
-5.855743	bolovens
-5.554713	bolsheviks
-5.855743	bolshevism
-5.855743	bolshevistic
-5.855743	bolshoi
-5.554713	bolster
-5.855743	bolstered
-5.855743	bolstering
-4.776562	bolt
-5.077592	bolted
-5.855743	bolting
-5.855743	bolts
-5.855743	boltzmann
-4.324265	bomb
-5.855743	bombarding
-5.855743	bombardment
-5.855743	bombastic
-5.855743	bombay
-5.554713	bombed
-5.077592	bomber
-5.855743	bomber's
-4.57699	bombers
-5.855743	bombers'
-5.156773	bombing
-5.554713	bombings
-5.378622	bombproof
-4.324265	bombs
-5.253683	bombus
-5.554713	bon
-5.855743	bona
-5.554713	bonanza
-5.855743	bonaparte
-5.554713	bonaventure
-4.212291	bond
-5.378622	bondage
-5.378622	bonded
-5.554713	bondi
-5.855743	bonding
-4.275959	bonds
-5.855743	bondsman
-5.855743	bondsmans
-4.299441	bone
-5.554713	boned
-5.855743	bonenfant
-4.57699	bones
-5.855743	bonfiglio
-5.378622	bonfire
-5.855743	bonfires
-5.156773	bong
-5.855743	bongo
-5.855743	bonheur
-5.855743	bonhoeffer
-5.855743	bonhoffer
-5.253683	boniface
-5.855743	boniface's
-5.855743	bonito
-5.855743	bonjour
-5.156773	bonn
-5.855743	bonne
-5.156773	bonner
-5.378622	bonnet
-5.855743	bonnie
-5.378622	bonnor
-5.378622	bonns
-5.554713	bontempo
-5.554713	bonus
-5.077592	bony
-5.554713	bonzes
-5.855743	boo
-5.855743	boobify
-5.855743	booboo
-5.156773	booby
-5.554713	boogie
-3.60289	book
-5.378622	book's
-5.554713	bookcase
-5.010645	booked
-5.378622	booker
-5.855743	bookers
-5.554713	bookies
-5.077592	booking
-5.855743	bookings
-5.855743	bookish
-5.156773	bookkeeping
-5.855743	booklet
-5.554713	booklets
-5.855743	booklists
-3.947258	books
-5.855743	bookseller
-5.855743	bookshelf
-5.554713	bookshelves
-5.855743	bookwalter
-4.814351	boom
-5.855743	boomed
-5.855743	boomerang
-5.855743	boomerangs
-5.855743	booming
-5.855743	boomtown
-5.855743	boon
-5.554713	boone
-5.855743	boorish
-5.855743	boors
-5.554713	boos
-4.7418	boost
-5.554713	boosted
-5.855743	booster
-5.378622	boosting
-5.855743	boosts
-4.7418	boot
-5.855743	booted
-4.952653	booth
-5.855743	boothby
-5.378622	booths
-5.554713	bootle
-5.855743	bootle's
-5.855743	bootlegger
-5.554713	bootleggers
-5.855743	bootlegging
-4.600471	boots
-5.378622	booty
-5.253683	booze
-5.554713	bop
-5.855743	borak
-5.855743	borates
-5.855743	borax
-5.855743	bordeau
-5.554713	bordeaux
-5.855743	bordel
-4.554713	borden
-5.855743	bordens
-4.57699	border
-5.554713	bordered
-5.156773	bordering
-5.855743	borderlands
-5.378622	borderline
-4.814351	borders
-5.855743	bordner
-4.51332	bore
-4.7418	bored
-4.814351	boredom
-5.855743	borer
-5.554713	bores
-5.554713	borglum
-5.156773	boring
-5.010645	boris
-5.378622	boris'
-5.855743	borland
-3.795045	born
-4.901501	borne
-5.855743	borneo
-5.855743	bornholm
-5.855743	boron
-5.156773	borough
-5.554713	boroughs
-5.855743	borrioboola
-5.855743	borromini
-5.554713	borromini's
-4.901501	borrow
-4.7418	borrowed
-5.554713	borrower
-5.010645	borrowing
-5.855743	borrows
-5.855743	bosch
-5.855743	bosco
-5.077592	bosis
-5.855743	bosler
-5.855743	bosley
-4.952653	bosom
-5.855743	bosoms
-5.253683	bosphorus
-4.57699	boss
-5.378622	boss's
-5.855743	bossed
-5.156773	bosses
-5.855743	bossman
-5.855743	bostitch
-4.11538	boston
-5.855743	bostonian
-5.855743	bostonians
-5.855743	bostons
-5.855743	botanical
-5.554713	botanists
-5.554713	botany
-3.048208	both
-4.57699	bother
-4.7418	bothered
-5.156773	bothering
-5.378622	bothers
-5.855743	bottega
-5.855743	bottineau
-4.023234	bottle
-5.378622	bottled
-5.554713	bottleneck
-5.855743	bottlenecks
-4.679652	bottles
-5.855743	bottling
-3.97493	bottom
-5.378622	bottomed
-5.855743	bottomless
-5.010645	bottoms
-5.855743	botulinal
-5.855743	botulinum
-5.855743	bouanahsha
-5.554713	boucher
-5.554713	bouffant
-5.855743	bouffe
-5.554713	bough
-5.378622	boughs
-4.174502	bought
-5.855743	bougie
-5.010645	boulder
-5.378622	boulders
-4.855743	boulevard
-5.554713	boulevards
-5.855743	boulez
-5.855743	boulle
-5.156773	boun
-4.952653	bounce
-4.709615	bounced
-4.901501	bouncing
-5.855743	bouncy
-4.202531	bound
-4.7418	boundaries
-4.709615	boundary
-4.901501	bounded
-5.554713	bounding
-5.554713	boundless
-4.855743	bounds
-5.554713	bounty
-5.253683	bouquet
