
\data\
ngram 1=97684

\1-grams:
-6.768088	bout
-5.768088	'
-6.768088	''cause
-6.467059	''nigga
-6.768088	''ye
-6.768088	'01
-5.864998	'03
-6.467059	'04
-5.726696	'06
-6.166028	'07
-6.768088	'07's
-6.768088	'08
-6.467059	'09
-6.768088	'19naughtyiii'
-6.768088	'20s
-6.768088	'22
-6.768088	'25
-6.768088	'3'
-6.768088	'30's
-6.467059	'38
-5.989937	'4
-6.467059	'40
-6.768088	'45
-6.768088	'56
-6.467059	'57
-6.290967	'6
-6.768088	'60's
-6.768088	'62
-6.467059	'63
-5.864998	'64
-6.166028	'65
-6.467059	'66
-6.768088	'67
-6.467059	'68
-6.166028	'69
-6.768088	'7
-6.768088	'70
-6.768088	'70's
-6.768088	'70s
-6.768088	'72
-5.989937	'73
-6.768088	'73's
-6.069118	'74
-5.989937	'75
-6.166028	'76
-6.768088	'77
-6.467059	'78
-5.813846	'79
-6.467059	'80
-6.467059	'80's
-5.591997	'80s
-5.989937	'81
-5.813846	'82
-5.688907	'83
-5.591997	'84
-5.276727	'85
-6.467059	'85er
-5.177024	'86
-6.768088	'86er
-5.489335	'87
-5.32093	'88
-5.188305	'89
-6.768088	'89s
-6.290967	'9
-6.290967	'90's
-6.290967	'90s
-5.425666	'91
-5.262938	'92
-5.144839	'93
-5.211786	'94
-5.22402	'95
-6.768088	'95started
-5.425666	'96
-6.768088	'96with
-5.406361	'97
-5.086847	'98
-6.768088	'98def
-5.236609	'99
-5.387877	'a
-5.864998	'a'
-6.467059	'a's
-6.768088	'abuse
-6.768088	'adams
-6.467059	'ah
-6.467059	'aight
-6.768088	'aint
-6.768088	'aka
-6.768088	'ali'
-6.768088	'aliiivee'
-5.92299	'all
-6.768088	'alright'
-6.768088	'am
-6.768088	'amen
-6.768088	'amerikkka's
-6.768088	'another
-6.768088	'any
-6.768088	'aow'
-6.768088	'apl
-6.768088	'appen
-6.768088	'arch
-6.768088	'as'
-6.290967	'ave
-6.768088	'ay
-6.467059	'aye
-6.467059	'b
-5.864998	'b'
-6.768088	'b's
-6.768088	'baahhh'
-5.92299	'baby
-6.768088	'babymother
-6.768088	'bacdafucup'
-6.768088	'badabing'
-6.768088	'badaboom'
-6.768088	'ballin
-6.166028	'bama
-6.467059	'bambino'
-6.768088	'ban
-6.768088	'baud
-5.445869	'bauds
-6.768088	'bay
-6.768088	'bazz
-6.768088	'be
-6.467059	'beat
-6.768088	'beautiful
-6.768088	'been
-6.768088	'beeyatch'
-6.768088	'benz
-6.768088	'berreepp'
-6.768088	'beware'
-6.768088	'bezeled
-6.768088	'bezle
-6.768088	'bg's'
-5.864998	'big
-6.467059	'biggie'
-6.768088	'bill
-6.768088	'binos
-6.768088	'bird
-6.290967	'bitch
-6.768088	'bling
-6.768088	'bo's
-6.069118	'body
-6.768088	'boes
-6.768088	'boks
-6.467059	'bonjour'
-6.768088	'boom
-6.768088	'born
-6.768088	'bos
-6.768088	'boss'
-3.609123	'bout
-6.768088	'bout'a
-6.467059	'boutbass
-6.467059	'bove
-6.768088	'bow
-5.654145	'bows
-6.768088	'boy
-6.467059	'boyz
-6.768088	'braveheart'
-6.768088	'break
-5.768088	'bridge
-6.467059	'brina
-6.768088	'brinks'
-6.290967	'brooklyn
-6.768088	'bs
-6.768088	'bs'
-6.768088	'bubbles'
-6.768088	'buked
-6.768088	'burb
-6.166028	'burban
-5.563969	'burbs
-6.768088	'bus
-6.768088	'buse
-6.768088	'but
-6.768088	'buy'
-6.768088	'bye
-6.768088	'bye'
-6.768088	'bylon
-6.166028	'c'
-6.467059	'cain
-5.155305	'caine
-6.768088	'cake'
-6.768088	'cal
-6.290967	'california
-6.166028	'came
-6.768088	'cammy
-6.166028	'can
-6.768088	'candy'
-5.654145	'cane
-6.768088	'cant
-6.768088	'caper
-6.768088	'capes
-6.768088	'cappucino'
-6.467059	'card
-6.467059	'cardi
-5.654145	'case
-6.290967	'cash
-6.467059	'casian
-6.290967	'casue
-6.768088	'caue
-3.194985	'cause
-6.467059	'causehe
-6.768088	'causei
-6.467059	'causin
-6.768088	'caution
-6.768088	'ccumulated
-6.768088	'ce
-6.467059	'cedes
-6.768088	'cent
-5.591997	'cept
-6.768088	'certs
-5.144839	'cha
-6.768088	'chainsaw'
-6.768088	'chea
-5.92299	'check
-6.768088	'chessboxin
-6.467059	'chette
-6.768088	'cho
-6.768088	'chocolat'
-6.768088	'choushi
-5.290967	'chu
-6.768088	'ciane
-6.768088	'ciate
-6.069118	'cid
-6.768088	'clash
-5.768088	'clef
-6.768088	'click
-6.768088	'climaxing'
-6.768088	'cock
-6.768088	'coke
-6.768088	'cola
-6.768088	'cold
-5.92299	'come
-6.069118	'comin
-6.768088	'common
-6.768088	'computer
-6.768088	'conda
-6.768088	'coo
-6.768088	'cord
-6.290967	'core
-4.644237	'cos
-6.768088	'cough'
-6.768088	'coup
-6.768088	'course
-6.290967	'couse
-6.768088	'cowboy'
-5.989937	'coz
-6.768088	'cracker'
-6.768088	'creased
-6.768088	'creepin
-6.768088	'crep'
-6.467059	'crime
-5.726696	'cris
-6.768088	'crook'
-5.027726	'cross
-6.768088	'crosstown
-6.768088	'crucify
-6.467059	'crush'
-6.768088	'cry'
-6.768088	'cuase
-6.768088	'cup'
-6.768088	'curs
-5.813846	'cus
-6.768088	'cutty
-4.421736	'cuz
-6.467059	'd
-6.467059	'd'
-6.768088	'da
-5.989937	'daddy
-6.467059	'daddy's
-6.768088	'dallions
-6.069118	'damn
-6.768088	'dary
-5.989937	'dat
-6.467059	'de
-5.989937	'dear
-6.467059	'deep
-6.768088	'deez
-6.768088	'def'
-5.989937	'dem
-6.290967	'den
-6.290967	'dere
-6.768088	'dermis
-6.768088	'dese
-6.467059	'diculous
-6.467059	'did
-6.768088	'didas
-6.166028	'dis
-6.768088	'disco
-6.768088	'disco'
-6.768088	'disit's
-6.768088	'dnuos
-5.768088	'do
-6.768088	'doctor
-6.768088	'dog'
-5.989937	'donna
-6.069118	'dont
-6.768088	'doo
-6.768088	'dose
-6.768088	'dove
-6.467059	'down
-6.768088	'drag'
-6.768088	'draulics
-5.989937	'dre
-6.768088	'dreadhead'
-6.768088	'dres
-6.768088	'dressed
-4.93558	'dro
-6.768088	'dro'ed
-6.467059	'drug
-6.768088	'dude
-6.290967	'dunn
-6.290967	'e
-6.290967	'e'
-6.768088	'eal
-6.768088	'ease
-6.768088	'eavy
-6.768088	'eazy'est
-6.768088	'eef
-6.467059	'ell
-6.768088	'ello
-2.903459	'em
-6.768088	'em'
-6.768088	'emcee'
-6.768088	'emfuck
-5.92299	'emm
-6.467059	'emnone
-6.768088	'emone
-6.467059	'empty
-6.768088	'ems
-6.768088	'emstraighten
-6.768088	'emthere's
-6.768088	'emthis
-6.768088	'ends
-5.236609	'er
-6.768088	'erb
-6.467059	'ere
-6.768088	'erv
-6.768088	'etic
-6.467059	'ever
-6.768088	'every
-6.768088	'everybody
-6.768088	'excuse
-6.768088	'exit
-6.166028	'ey
-6.290967	'f'
-6.467059	'f's
-5.262938	'face
-6.467059	'fact
-6.768088	'fair
-6.768088	'fat
-6.768088	'father
-6.467059	'fectionate
-6.768088	'fedi
-6.768088	'feed
-6.768088	'fein
-6.467059	'fen
-6.768088	'fesco
-6.069118	'fess
-6.166028	'fessin
-6.768088	'fete'
-6.768088	'fetti
-6.768088	'fien
-6.768088	'fiend
-6.467059	'fies
-6.768088	'figga
-6.768088	'finna
-6.768088	'fist
-6.768088	'fits
-6.768088	'fluence
-5.53764	'fo
-6.467059	'foe
-6.768088	'foo
-6.768088	'fool
-5.336725	'for
-6.290967	'ford
-4.262938	'fore
-6.768088	'forget
-6.166028	'forgive
-6.768088	'formance
-5.989937	'fraid
-6.768088	'fransisco
-6.768088	'fredwreck'
-6.768088	'freeze'
-6.768088	'freezing'
-6.467059	'fridge
-6.467059	'fridgerator
-6.768088	'frigerator
-6.166028	'frisco
-6.290967	'fro
-6.467059	'fros
-5.425666	'fuck
-6.768088	'fuck'
-6.768088	'fuckin
-6.768088	'fucks
-6.768088	'funky
-6.467059	'fy
-6.768088	'g
-5.077892	'g'
-6.467059	'g's
-5.654145	'gain
-5.211786	'gainst
-6.768088	'gaitor
-6.768088	'game'
-6.768088	'gangster'
-6.768088	'gangstress'
-6.467059	'gar
-6.768088	'gator
-6.290967	'gators
-6.768088	'gave
-6.768088	'gee
-6.768088	'gene
-6.768088	'gents
-6.069118	'get
-6.768088	'ghetto
-6.768088	'ghini
-6.467059	'gimme
-6.768088	'ginnin
-6.467059	'girlfriend'
-6.768088	'glaciers'
-6.768088	'gladly'
-5.387877	'gnac
-6.290967	'gnaced
-6.290967	'gnacreload
-6.069118	'go
-6.467059	'god
-6.467059	'goddamn
-6.768088	'goin
-5.445869	'gon
-6.166028	'gone
-6.768088	'goo
-6.467059	'good
-6.768088	'goodbye'
-6.768088	'goodies'
-6.166028	'goose
-6.768088	'got'
-6.768088	'gracias'
-6.768088	'graphs
-6.768088	'greatest
-6.768088	'guantanamera'
-6.467059	'guilty
-6.768088	'guitar'
-6.768088	'gun
-6.467059	'gwan
-6.768088	'h'
-6.768088	'halers
-6.768088	'hallelujah'
-6.768088	'hammer
-6.768088	'hard
-6.768088	'hateness'
-6.768088	'hates
-6.290967	'have
-6.768088	'haves'
-6.768088	'hay'
-6.069118	'he
-6.768088	'he's
-4.591997	'head
-6.768088	'headbanger'
-6.290967	'heart
-6.768088	'heartless
-6.768088	'hell
-6.768088	'hello
-6.467059	'helloooo
-6.768088	'hens
-6.768088	'her
-6.768088	'here's
-5.989937	'hey
-6.467059	'hey'
-6.768088	'heyyy'
-6.768088	'hi
-5.989937	'hi'
-6.290967	'high
-6.768088	'higher
-6.768088	'hind
-6.768088	'hinds
-6.290967	'hip
-6.768088	'hit
-6.290967	'ho
-6.069118	'ho'
-6.467059	'hoe'
-6.768088	'hong
-5.155305	'hood
-6.768088	'hood's
-6.166028	'hoods
-6.768088	'hoody
-6.467059	'hora
-6.467059	'hov
-6.768088	'hova
-6.768088	'hovah
-5.864998	'how
-6.768088	'how'
-6.768088	'humdinger'
-5.211786	'i
-6.166028	'i'll
-5.813846	'i'm
-6.768088	'i've
-6.467059	'ice
-6.467059	'id
-5.92299	'if
-6.768088	'iiiiiii
-6.166028	'ill
-6.768088	'illin
-5.199887	'im
-6.768088	'iminals
-6.290967	'imthey
-6.069118	'in
-6.467059	'ish
-6.768088	'istol
-6.290967	'it
-6.467059	'it's
-6.467059	'itty
-6.768088	'izm
-5.92299	'j'
-6.768088	'j'espere
-6.768088	'j's
-6.768088	'ja
-5.989937	'jack
-6.768088	'jackin
-6.768088	'jamas
-6.768088	'jayed
-5.92299	'jects
-6.768088	'jesus
-6.768088	'jimmy'
-6.768088	'jo
-6.467059	'joe'
-6.768088	'ju
-6.768088	'julio
-6.290967	'just
-5.563969	'k
-6.290967	'kast
-6.768088	'kastthe
-6.290967	'kay
-6.768088	'ketchup'
-6.290967	'kick
-6.467059	'kid'
-6.768088	'kill
-6.467059	'kim
-6.768088	'king
-6.768088	'kirk
-5.654145	'kiss
-6.768088	'knaw'sayin
-6.768088	'knock
-6.768088	'knockin
-6.768088	'know
-6.768088	'knowledge
-6.768088	'knowledgin
-6.467059	'krayzie's
-6.467059	'ku
-6.069118	'l
-6.290967	'la
-5.077892	'lac
-5.813846	'lacs
-6.768088	'lah
-6.768088	'land
-6.768088	'later'
-6.467059	'lationships
-6.768088	'latoya'
-6.768088	'law
-6.467059	'lax
-6.768088	'lax'
-6.768088	'le
-6.467059	'leatherface'
-6.768088	'leave
-6.768088	'lectric
-6.768088	'lejo
-5.353115	'less
-6.768088	'let
-6.467059	'let's
-6.768088	'lex
-6.768088	'lice
-6.768088	'lier
-6.768088	'life
-6.768088	'lifetime'
-6.768088	'ligion
-6.768088	'like
-6.768088	'likwidation
-5.813846	'lil
-6.768088	'line
-6.768088	'live
-5.13462	'll
-5.199887	'llac
-6.166028	'llacs
-6.069118	'lo
-6.768088	'locate
-5.989937	'lone
-6.166028	'long
-6.768088	'look
-6.768088	'looks
-6.768088	'lord
-6.768088	'lou
-6.768088	'lous
-6.467059	'love
-6.768088	'lovely
-6.467059	'low
-6.768088	'luh'
-6.768088	'lux
-6.768088	'lympics
-6.467059	'lyte
-5.989937	'm
-6.768088	'mack'
-6.768088	'mafioso'
-6.768088	'magine
-6.768088	'major
-6.467059	'mal
-6.768088	'male'
-6.768088	'malorie'
-6.768088	'mama'
-6.768088	'man
-6.768088	'marrados
-6.768088	'massacre'
-6.467059	'masu
-6.768088	'mati's
-5.989937	'matic
-6.467059	'matta
-6.768088	'maybe
-5.813846	'me
-6.768088	'me'
-6.768088	'meeny
-5.864998	'mega
-6.467059	'memba
-5.155305	'member
-6.768088	'menace'
-6.768088	'mendous
-6.768088	'mental
-6.768088	'merci'
-6.467059	'merica's
-6.768088	'merican
-6.768088	'method
-6.467059	'mezcal
-6.768088	'mic
-6.768088	'michael
-6.768088	'mickey'
-6.768088	'mid
-6.768088	'midnight
-6.768088	'migos
-6.768088	'mind
-6.768088	'mine'll
-6.768088	'misdemeanor'
-6.768088	'missiled'
-6.467059	'mit
-6.768088	'mitri's
-6.768088	'mo
-6.768088	'mon
-6.768088	'money'
-6.768088	'montz
-5.989937	'more
-6.768088	'morn
-6.768088	'morrow
-6.768088	'mos
-6.467059	'most
-6.768088	'mot'
-6.467059	'mr
-5.989937	'my
-4.423697	'n
-6.768088	'nac
-6.768088	'nah
-6.768088	'nah'
-6.768088	'nail
-6.768088	'nali
-5.688907	'nam
-6.768088	'nappin
-6.768088	'nati
-6.768088	'natti
-6.467059	'nba
-5.92299	'ne
-6.467059	'neath
-6.467059	'neck
-6.768088	'negative'
-6.069118	'nem
-6.768088	'nemesis'
-6.768088	'nemic
-6.768088	'net
-6.467059	'never
-6.467059	'new
-6.467059	'nice
-6.768088	'niew
-6.768088	'nificent
-6.290967	'nigga
-6.768088	'niggas
-6.467059	'niggaz
-5.864998	'nile
-6.467059	'nilla
-6.290967	'nique
-6.467059	'nit
-6.768088	'nites
-5.92299	'no
-5.864998	'no'
-6.467059	'nobody
-6.069118	'noid
-5.864998	'nolia
-6.768088	'nomous
-6.467059	'not
-5.336725	'nother
-6.768088	'nothin
-6.467059	'nots'
-5.864998	'nough
-6.768088	'nova
-6.290967	'now
-6.768088	'nuf
-5.114876	'nuff
-6.768088	'number
-6.768088	'nuns
-6.467059	'nus
-6.768088	'nback
-5.864998	'o
-5.768088	'o'
-6.290967	'o's
-6.768088	'oeur
-6.768088	'off'
-6.768088	'og'
-5.768088	'oh
-6.768088	'oh'
-6.768088	'ok
-6.768088	'okay'
-5.92299	'ol
-6.768088	'ola
-6.069118	'ole
-6.768088	'ollars
-6.467059	'oman
-6.290967	'on
-6.768088	'one
-6.768088	'onna
-6.768088	'ood
-6.768088	'ooh
-6.768088	'ooooooooooh'
-6.768088	'ooops'
-6.768088	'ordinary'
-6.467059	'orty
-5.864998	'otta
-6.768088	'ouch'
-6.768088	'ouh
-6.768088	'ouisiana
-6.467059	'our
-6.768088	'ours'
-6.768088	'ouse
-6.768088	'out
-6.768088	'over'
-6.768088	'ow
-6.768088	'ow'
-6.467059	'p
-6.768088	'p'
-6.768088	'pablo'
-4.71501	'pac
-6.768088	'pac's
-6.768088	'packin
-6.768088	'pallegic
-6.768088	'panic'
-6.768088	'pappy
-6.768088	'pappy'
-6.768088	'pared
-6.768088	'peace
-6.768088	'peace'
-6.768088	'peer
-6.768088	'phere
-6.290967	'piece
-6.768088	'pink
-6.768088	'pinky
-6.768088	'pint
-6.768088	'pizznac
-6.467059	'planet
-6.768088	'plaud
-6.768088	'played'
-5.92299	'please
-6.768088	'pleasing'
-6.467059	'plug
-6.768088	'poison
-6.768088	'pologize
-5.387877	'pon
-5.813846	'pone
-6.768088	'ponics
-6.768088	'poo
-6.768088	'poor'
-6.768088	'pop
-6.768088	'pops'
-6.467059	'port
-6.768088	'ports
-6.768088	'posdnuos'
-5.654145	'pose
-5.188305	'posed
-6.768088	'possed
-6.768088	'posta
-6.768088	'power
-6.768088	'power'
-6.768088	'preciate
-6.467059	'preme
-6.768088	'presents
-6.768088	'pressure
-6.768088	'prime'
-6.768088	'psst
-6.768088	'pu
-6.768088	'puffy'
-6.768088	'pull
-6.768088	'pups'
-6.768088	'pushsin
-6.768088	'put
-6.768088	'queen
-6.768088	'quence
-6.467059	'quicker
-6.768088	'quipped
-6.768088	'quips
-6.290967	'r
-6.768088	'r'
-6.768088	'r's
-6.768088	'rari
-6.467059	'raris
-6.290967	'rarri
-6.768088	'rarris
-6.768088	'rat
-6.768088	'ratti
-6.768088	'rauszureden
-6.768088	'rberwachsen
-6.069118	're
-5.989937	'ready
-6.768088	'real
-6.768088	'reasonable
-6.768088	'remember
-6.768088	'renzes
-6.768088	'return
-6.467059	'rewind
-6.290967	'rhyming
-6.768088	'ribbit'
-6.768088	'ribean
-6.768088	'rican
-6.768088	'ricky
-6.768088	'right
-6.768088	'riginal
-6.467059	'rilla
-5.813846	'riq
-6.768088	'rm
-6.768088	'rock
-6.768088	'roin
-6.467059	'roll
-6.768088	'rome
-6.768088	'ron
-6.768088	'roni
-6.768088	'rossa
-6.768088	'rot
-4.164944	'round
-6.768088	'rounddoin
-6.768088	'roundhouse
-6.768088	'roundtowm
-6.768088	'rounnd
-6.768088	'rrrr
-5.654145	'ru
-6.768088	'runter
-6.467059	'rush
-6.768088	'ry
-5.387877	's
-6.768088	's'
-6.768088	'sa
-6.467059	'sace
-6.768088	'sached
-6.768088	'sama's
-6.768088	'sane
-6.467059	'sauks
-6.768088	'sault
-6.166028	'say
-6.768088	'scalines
-6.768088	'scape
-6.290967	'scarface'
-6.768088	'scraper
-5.864998	'scuse
-6.768088	'see
-6.467059	'self
-6.768088	'sess
-6.290967	'set
-6.768088	'shaggalackfragganack'
-6.768088	'shake
-6.290967	'shaw
-6.768088	'she'
-6.467059	'she's
-6.768088	'sherm
-6.290967	'sho
-6.768088	'shook
-6.768088	'shooting
-6.768088	'shop
-6.768088	'shotta'
-6.290967	'should
-6.768088	'shoulder
-6.467059	'shroom
-6.467059	'shrooms
-6.768088	'sht
-6.768088	'shut
-6.768088	'si
-6.768088	'side
-6.768088	'silent
-6.768088	'singadapuerta'
-6.768088	'singamasones'
-6.768088	'singar'
-6.768088	'sire
-6.768088	'sis
-6.467059	'sizzlean
-6.768088	'skettlebam
-6.768088	'skull
-6.768088	'skunk'
-6.290967	'sleep
-6.768088	'slow
-6.768088	'snatch
-6.768088	'so
-6.768088	'soft
-6.768088	'someday
-6.290967	'sophie'
-6.467059	'soulja'
-6.768088	'souljah'
-5.262938	'specially
-5.864998	'spect
-6.768088	'spective
-6.768088	'spic
-6.768088	'splainin
-6.069118	'spose
-5.406361	'sposed
-6.768088	'squito
-6.768088	'ssociate
-6.768088	'stack
-6.290967	'stan
-6.768088	'stand
-6.467059	'stang
-6.768088	'stay
-6.768088	'stay'
-5.336725	'stead
-6.768088	'stol
-6.768088	'stola
-6.768088	'stone
-6.290967	'stop
-6.768088	'stop'
-6.768088	'substance
-6.768088	'suck
-6.768088	'sucker
-6.768088	'sug'
-6.768088	'suit
-6.768088	'sum
-5.989937	'sup
-6.768088	'supreme
-6.768088	'surprise
-6.768088	'swimming
-6.768088	'swimwear'
-6.768088	'syndicate
-5.989937	't
-6.467059	't'
-6.467059	'ta
-5.864998	'tack
-6.768088	'take
-6.768088	'tal
-6.768088	'tan
-6.768088	'tards
-6.768088	'tasha
-6.467059	'task'
-6.467059	'tate
-6.467059	'tear
-6.768088	'tec
-6.768088	'tected
-6.768088	'tegra
-6.290967	'tel
-6.768088	'tell
-6.768088	'tellies
-6.768088	'ternal
-6.768088	'ternally
-6.768088	'tesants
-6.768088	'thanks
-6.768088	'thanks'
-6.290967	'that
-5.813846	'that's
-5.53764	'the
-6.467059	'them
-6.467059	'there
-6.768088	'there's
-6.467059	'they
-5.989937	'this
-6.768088	'tho
-5.813846	'thou
-6.768088	'though
-5.989937	'thug
-6.768088	'thuggish
-6.768088	'thus
-6.768088	'tibs
-6.290967	'tic
-5.425666	'tics
-3.69437	'til
-6.768088	'tilary
-4.282367	'till
-6.467059	'tillery
-6.768088	'times
-6.768088	'tinuous
-5.726696	'tis
-6.467059	'to
-6.768088	'today'
-6.768088	'tomorrow'
-6.768088	'tonight
-6.467059	'touch
-6.768088	'tract
-6.768088	'treat
-6.768088	'trolling
-6.768088	'tucky
-6.768088	'tude
-6.467059	'tudes
-6.768088	'turn
-6.768088	'turt
-6.768088	'tuss
-6.768088	'twan
-6.166028	'twas
-5.654145	'tween
-6.467059	'uh
-5.489335	'um
-6.768088	'un
-6.768088	'uns
-6.768088	'ups
-6.768088	'urr
-6.768088	'urt
-6.768088	'uzi
-6.768088	'v
-6.768088	'v'
-6.768088	'van
-6.768088	'vantage
-6.768088	'vator
-6.467059	've
-6.768088	'velt
-5.768088	'vette
-6.768088	'vette's
-6.768088	'vettes
-6.768088	'view
-5.864998	'ville
-6.768088	'villes
-6.166028	'vine
-6.768088	'vito
-6.768088	'void
-6.768088	'von
-6.768088	'w'
-6.768088	'wait
-6.467059	'walk
-6.467059	'wanna
-6.768088	'wanted'
-6.467059	'wassup
-6.768088	'watch
-6.768088	'wax
-6.467059	'way
-5.768088	'we
-6.768088	'weesiana
-6.768088	'west
-6.467059	'westside'
-6.768088	'whaaat'
-6.768088	'whassup'
-5.512816	'what
-5.989937	'what'
-5.768088	'what's
-6.768088	'whattup
-6.768088	'whattup'
-6.768088	'when
-6.290967	'where
-6.768088	'where's
-5.864998	'who
-6.166028	'who's
-6.768088	'whoa
-6.768088	'whoomp
-6.290967	'why
-6.768088	'why'
-6.467059	'whys'
-6.768088	'wicked'
-6.768088	'wild
-6.768088	'wm
-6.069118	'wood
-6.768088	'woof'
-6.768088	'word'
-6.768088	'word's
-6.768088	'work
-6.768088	'wow'
-6.768088	'wrong
-6.467059	'x
-6.290967	'x'
-6.768088	'xcuse
-6.768088	'xecs
-6.768088	'xplore
-5.53764	'ya
-6.290967	'yac
-6.768088	'yacheck'n
-5.864998	'yah
-6.069118	'ye
-6.768088	'yea
-5.92299	'yeah
-6.467059	'yeah'
-5.989937	'yes
-6.166028	'yes'
-5.563969	'yo
-5.813846	'you
-6.467059	'you're
-6.290967	'your
-6.768088	'yukon
-6.768088	'yummy'
-6.467059	'zack
-6.768088	'zae
-6.467059	'ze
-6.768088	'zeen
-6.768088	'zilla
-6.768088	'zinos
-6.467059	'zo
-6.768088	'zook
-6.768088	'zook'll
-6.768088	'zy
-4.331926	0
-5.621961	0's
-6.467059	00
-5.92299	000
-6.768088	0069
-5.92299	007
-5.813846	01
-6.768088	02
-6.768088	03
-6.467059	033
-6.166028	04
-6.768088	05
-6.768088	052
-6.768088	059
-6.768088	05x
-6.069118	06
-6.290967	07
-6.290967	075x
-6.768088	08
-6.768088	0html
-6.768088	0o
-6.467059	0px
-6.768088	0s
-3.036097	1
-6.768088	1'9
-5.489335	1's
-3.798673	10
-6.290967	10'll
-5.095991	10's
-4.484787	100
-6.768088	100'000
-5.768088	100's
-5.654145	1000
-6.768088	1000's
-5.654145	10000
-5.768088	100000
-6.768088	1000th
-6.467059	1001
-6.768088	1007
-6.467059	100gs
-5.989937	100k
-6.768088	100th
-5.621961	101
-6.768088	101's
-6.467059	1010
-6.768088	101045
-6.768088	10128
-6.069118	1015
-6.467059	10151
-6.768088	1019
-6.069118	102
-6.467059	1020
-6.768088	1022
-5.989937	103
-6.768088	1030
-6.166028	10304
-6.768088	1033
-6.467059	1034
-6.768088	1035
-6.768088	10360
-6.768088	103rd
-6.290967	104
-6.467059	1040
-6.768088	10473
-6.069118	105
-5.654145	106
-6.467059	106th
-6.768088	109
-6.768088	10911
-6.768088	1095
-6.768088	1099's
-6.768088	10as
-6.768088	10cc
-6.768088	10cube
-6.768088	10g's
-6.467059	10ice
-6.768088	10pack
-5.864998	10s
-6.768088	10t
-5.467059	10th
-5.406361	10x
-6.768088	10you
-4.572189	11
-6.768088	11'
-5.425666	11's
-5.813846	110
-6.467059	1100
-6.768088	1100's
-6.467059	1106
-6.290967	110th
-6.290967	1115
-5.155305	112
-6.768088	11206
-6.768088	11233
-5.211786	1130
-6.768088	1132
-6.768088	1133
-6.166028	1135pm
-6.768088	113th
-6.768088	1140
-6.768088	1145
-6.166028	115
-6.768088	11500
-6.467059	1159
-6.768088	116
-6.290967	116th
-6.768088	117
-5.92299	118
-6.290967	118th
-6.166028	119
-6.290967	11s
-5.688907	11th
-6.467059	11x
-6.768088	11x13
-4.133611	12
-5.688907	12's
-5.445869	120
-5.654145	1200
-6.467059	1200's
-6.467059	1200s
-6.768088	1201
-6.768088	1210
-6.768088	1210's
-6.768088	1212
-6.768088	1215
-6.768088	1217to
-6.768088	1218
-6.768088	121st
-6.768088	1220
-6.768088	1228
-6.467059	122nd
-5.654145	123
-6.166028	1230
-6.768088	1233
-6.166028	1234
-6.768088	123412
-6.768088	1234567
-6.467059	1234567890
-6.467059	123rd
-6.290967	125
-6.768088	125000
-6.467059	1255
-6.768088	1259
-6.069118	125th
-6.467059	125x
-6.768088	129
-6.768088	1292
-6.768088	1295
-6.768088	1298
-6.768088	12a
-6.768088	12am
-6.768088	12it's
-6.768088	12play
-6.768088	12s
-5.353115	12th
-5.654145	12x
-4.870461	13
-6.768088	13's
-5.989937	130
-6.768088	1300
-6.467059	131
-6.768088	133
-6.768088	133x
-6.768088	134
-6.768088	134th
-6.467059	135
-6.768088	135th
-6.768088	1365
-6.467059	139
-6.467059	139th
-5.353115	13th
-6.290967	13x
-4.955175	14
-6.166028	14's
-5.989937	140
-6.467059	140th
-6.467059	141
-6.768088	141st
-6.768088	14278
-6.768088	142nd
-6.768088	143
-6.768088	1437
-6.166028	144
-6.166028	144000
-6.768088	145
-6.166028	145th
-6.290967	146
-6.768088	149
-6.768088	1491
-6.768088	14k'd
-5.768088	14th
-5.989937	14x
-4.60672	15
-5.445869	15's
-5.489335	150
-5.92299	1500
-6.768088	1500s
-6.467059	1504
-5.262938	151
-6.768088	151's
-6.768088	15141312111098765432
-6.768088	1519
-6.768088	151bacardi
-6.768088	151st
-6.768088	152
-6.467059	152nd
-6.768088	153
-6.768088	1545
-6.166028	1555
-6.768088	155th
-5.989937	159
-6.768088	1595
-6.768088	159th
-5.989937	15s
-5.621961	15th
-5.445869	15x
-4.535092	16
-5.512816	16's
-6.768088	160
-6.768088	1600
-5.989937	1605
-6.768088	161
-6.768088	1616
-6.768088	1629
-6.768088	163rd
-5.989937	165
-6.768088	166
-6.467059	168
-6.768088	1695
-5.813846	16th
-5.305691	16x
-4.768088	17
-6.069118	17's
-6.290967	170
-6.768088	1700's
-6.768088	1718
-6.768088	1747
-6.290967	175
-6.467059	175x
-6.768088	1763
-6.768088	1775
-5.53764	17th
-6.467059	17x
-4.804301	18
-5.989937	18's
-5.688907	180
-6.768088	180's
-6.290967	1800
-6.467059	1801
-6.467059	1803
-6.768088	1812
-6.768088	1825
-6.467059	183
-6.069118	183rd
-6.768088	1848
-6.768088	1849
-6.290967	185
-6.768088	186000
-6.768088	1865
-4.591997	187
-6.166028	187's
-6.290967	187000
-5.813846	1874
-6.768088	1874fm
-6.069118	187um
-6.768088	187umfollows
-6.290967	188
-6.768088	18blaaaaaaaaaaaaa
-6.768088	18k
-6.768088	18s
-5.768088	18th
-6.467059	18x
-4.989937	19
-6.290967	19's
-5.989937	190
-6.768088	1900th
-6.768088	1911
-6.166028	192
-6.768088	1920
-6.768088	1928
-6.467059	1933
-6.768088	1945
-6.768088	195
-6.768088	1950
-6.768088	1952
-6.768088	1958
-6.290967	1960
-6.768088	1960's
-6.467059	1962
-6.467059	1966
-6.467059	1967
-6.768088	1968
-6.768088	1969
-6.290967	1970
-6.768088	1970's
-6.768088	1970s
-6.467059	1971
-6.467059	1972
-6.467059	1973
-6.768088	1974
-6.166028	1975
-6.768088	1975's
-6.768088	1976
-6.768088	1977
-6.768088	1978
-6.290967	1979
-5.864998	1980
-6.768088	1980's
-6.166028	1981
-6.069118	1982
-5.92299	1983
-6.069118	1984
-5.726696	1985
-5.654145	1986
-5.654145	1987
-5.726696	1988
-5.92299	1989
-6.768088	199
-5.276727	1990
-6.166028	1990's
-5.591997	1991
-5.813846	1992
-5.353115	1993
-5.621961	1994
-5.467059	1995
-5.813846	1996
-5.53764	1997
-6.467059	1997with
-5.688907	1998
-5.052085	1999
-6.768088	1999's
-6.768088	19naughty4
-5.989937	19th
-6.768088	1ad
-6.768088	1aiyyo
-6.768088	1am
-6.768088	1another
-6.768088	1big
-6.768088	1coldhard
-6.768088	1dat
-6.768088	1did
-6.467059	1et
-6.768088	1four
-6.768088	1g
-6.768088	1it's
-6.768088	1kurupt
-6.768088	1lord
-6.768088	1ls
-6.768088	1man
-5.989937	1nce
-6.768088	1noreaga
-6.768088	1o
-6.467059	1ook
-6.467059	1ookin
-6.166028	1px
-6.069118	1s
-6.768088	1scarface
-6.768088	1shhhnigga
-4.454221	1st
-6.768088	1tupac
-6.768088	1turk
-6.768088	1well
-6.467059	1where
-4.751055	1x
-6.768088	1xits
-6.768088	1yo
-3.075859	2
-6.768088	2'
-6.768088	2'much
-6.768088	2'night
-6.768088	2'o
-5.32093	2's
-4.069118	20
-5.027726	20's
-6.768088	20'z
-5.155305	200
-4.530043	2000
-6.166028	2000's
-5.688907	20000
-6.768088	2000herrn
-5.211786	2001
-6.290967	2001'll
-6.768088	2001html
-6.768088	2001off
-5.53764	2002
-5.654145	2003
-6.069118	2004
-6.290967	2005
-6.768088	2005's
-5.467059	2006
-6.166028	2007
-6.768088	2008
-6.467059	2009
-6.768088	200c
-6.069118	2010
-6.467059	2012
-6.768088	2014
-6.467059	202
-6.467059	2020
-6.768088	2027
-6.467059	2028
-6.768088	203
-6.768088	2030
-6.768088	2032
-6.768088	2033
-6.166028	2045
-6.768088	205
-6.768088	2050
-6.768088	205th
-6.467059	2080
-6.290967	20k
-6.768088	20mill
-5.53764	20s
-5.92299	20th
-6.768088	20x
-6.768088	20years
-4.881598	21
-6.069118	210
-5.353115	211
-6.166028	211's
-5.92299	212
-5.563969	213
-6.467059	213's
-6.768088	213s
-5.768088	215
-6.069118	219
-5.22402	21st
-4.83359	22
-6.768088	22'd
-5.069118	22's
-6.467059	220
-6.768088	220000
-6.768088	2210
-6.467059	222
-6.768088	2222
-6.768088	2223
-5.768088	223
-5.813846	223's
-6.467059	223'sll
-6.467059	225
-6.290967	225x
-5.768088	226
-6.467059	227
-6.069118	22nd
-5.864998	22s
-5.199887	23
-5.591997	23's
-6.290967	230
-6.768088	2307
-6.467059	2324
-6.069118	235
-5.813846	23rd
-6.290967	23s
-6.768088	23x
-4.469235	24
-6.768088	24'd
-5.077892	24's
-6.768088	240
-6.166028	241
-6.467059	2422
-6.768088	244
-6.768088	245
-6.768088	246
-6.768088	247
-6.768088	24hours
-6.768088	24hours7
-6.768088	24k
-5.621961	24s
-6.166028	24th
-6.467059	24x
-4.63455	25
-6.166028	25's
-5.768088	250
-6.768088	250's
-6.768088	25000
-6.768088	252
-6.467059	254
-6.768088	255yeah
-6.467059	25s
-5.53764	25th
-5.768088	25x
-5.353115	26
-5.864998	26's
-6.768088	260
-6.768088	26000
-6.768088	264
-6.768088	26s
-5.445869	27
-6.768088	275
-6.467059	27th
-5.262938	28
-6.768088	28's
-5.989937	280
-6.467059	28032004
-6.768088	284389
-6.768088	288
-6.166028	28th
-5.654145	29
-6.768088	290
-6.768088	29th
-6.768088	2ah
-6.768088	2b
-6.768088	2c
-6.768088	2ce
-6.768088	2com
-6.166028	2day
-6.768088	2dazbad
-6.290967	2did
-6.467059	2dirt
-6.768088	2do
-5.467059	2g
-5.989937	2g's
-5.864998	2gether
-6.768088	2hell
-6.768088	2hello
-6.768088	2how
-6.290967	2i'm
-6.768088	2ing
-6.166028	2k
-6.768088	2kurupt
-5.688907	2low
-6.768088	2mack
-6.768088	2me
-6.768088	2morrow
-6.768088	2morrows
-5.060518	2na
-6.768088	2na's
-6.166028	2nah
-4.566691	2nd
-5.768088	2night
-5.864998	2nite
-6.768088	2no
-6.166028	2oh
-6.768088	2ooh
-4.142776	2pac
-6.467059	2pac'll
-6.166028	2pac's
-6.768088	2pacalpyse
-5.563969	2pacalypse
-6.768088	2pacanyone
-6.768088	2pacjo
-6.768088	2paclypse
-6.467059	2pacvaried
-6.768088	2pc
-6.768088	2s
-6.768088	2this
-6.768088	2tupac
-6.768088	2way
-6.768088	2wayne
-6.768088	2we
-6.768088	2well
-6.166028	2where
-6.467059	2wice
-6.768088	2wildstyle
-3.287938	2x
-4.989937	2x's
-6.768088	2x2
-6.768088	2xja
-6.290967	2xmaster
-5.989937	2xs
-6.768088	2xwhat
-6.768088	2yeah
-6.768088	2you
-3.385171	3
-6.768088	3'
-5.489335	3's
-4.480287	30
-5.654145	30's
-6.768088	30'sthe
-5.199887	300
-5.077892	3000
-6.467059	30000
-6.467059	3001
-6.768088	300z
-6.768088	301
-6.768088	301's
-6.768088	30303
-6.768088	304
-6.467059	305
-6.467059	306
-6.768088	308
-6.768088	30k
-6.290967	30s
-6.768088	30th
-6.467059	30x
-5.512816	31
-6.069118	310
-6.467059	311
-6.467059	312
-5.726696	3121
-5.489335	313
-6.467059	313's
-5.92299	315
-6.467059	315s
-6.768088	318
-6.768088	319914
-5.768088	31st
-5.290967	32
-5.989937	32's
-6.166028	320
-6.768088	3210
-6.768088	323
-6.290967	325
-6.768088	328
-6.768088	32nd
-6.290967	32s
-6.290967	32x
-5.290967	33
-5.989937	330
-6.768088	3300
-6.768088	333333
-6.768088	334
-6.768088	335
-6.069118	336
-6.768088	337
-6.768088	339
-6.290967	33rd
-5.591997	34
-6.768088	3421
-6.768088	3456
-6.467059	34alright
-6.768088	34b
-6.166028	34th
-5.276727	35
-5.591997	350
-6.768088	350'
-6.768088	35000
-6.768088	350k
-6.467059	352
-6.768088	355
-5.262938	357
-6.290967	35th
-6.768088	35x
-4.93558	36
-5.105331	360
-6.768088	360hard
-6.768088	360o
-5.621961	365
-5.489335	369
-6.467059	36d
-6.467059	36th
-6.768088	36x
-5.688907	37
-6.768088	37's
-6.768088	3796
-4.887275	38
-5.813846	38's
-6.768088	38'sll
-5.035695	380
-5.512816	380's
-6.290967	380s
-6.768088	380z
-6.768088	3830
-6.768088	3833
-6.768088	388
-6.768088	38s
-6.768088	38specialist
-6.768088	38th
-5.864998	39
-6.768088	396
-6.768088	399
-6.467059	3999
-6.467059	39th
-6.768088	3a
-6.768088	3am
-5.591997	3d
-6.768088	3doracell
-6.768088	3dq
-6.768088	3gs's
-6.290967	3h
-6.768088	3high
-6.768088	3ing
-6.467059	3k
-6.467059	3l
-6.768088	3lord
-5.654145	3lw
-6.768088	3m7
-6.768088	3malik
-6.768088	3n57
-6.768088	3p
-6.768088	3pm
-6.768088	3po
-4.487055	3rd
-6.768088	3s
-6.768088	3turk
-6.467059	3where
-6.467059	3wish
-4.004661	3x
-5.353115	3x's
-6.768088	3x3
-6.768088	3yb
-3.592867	4
-6.290967	4'
-5.236609	4's
-3.991387	40
-6.768088	40'
-6.768088	40'd
-5.012214	40's
-5.13462	400
-6.166028	4000
-6.768088	40000
-6.768088	401
-6.467059	403
-6.166028	404
-6.467059	405
-6.768088	406
-6.768088	4080
-6.166028	409
-6.768088	40ah
-6.768088	40cal
-6.768088	40d
-6.768088	40or
-6.467059	40ounce
-6.768088	40ounces
-6.768088	40oz
-5.512816	40s
-6.768088	40s'
-6.768088	40secs
-6.467059	40th
-6.768088	40the
-6.768088	40z
-5.688907	41
-5.387877	411
-6.768088	411845059
-6.768088	412
-6.467059	415
-6.768088	4180
-6.768088	41k
-5.591997	41st
-5.864998	42
-5.512816	420
-6.768088	420's
-6.768088	42000
-6.768088	4209
-6.467059	421
-6.768088	427
-6.768088	429
-5.989937	43
-5.989937	430
-6.768088	431
-6.768088	432
-6.768088	439
-4.776863	44
-6.768088	44'
-5.425666	44's
-6.768088	444
-6.467059	44d
-6.166028	44s
-6.467059	44th
-4.505638	45
-5.370149	45's
-5.864998	450
-6.768088	45000
-6.166028	454
-6.768088	455
-6.467059	456
-6.768088	458
-6.768088	459
-6.768088	45er
-6.166028	45s
-5.864998	45th
-6.768088	45x
-5.768088	46
-6.768088	46993
-5.114876	47
-6.069118	47's
-6.768088	470
-6.768088	47th
-5.387877	48
-6.768088	48'er
-6.768088	480
-6.768088	4800
-6.768088	48th
-6.290967	49
-6.290967	49's
-6.768088	490
-6.768088	49000
-6.768088	494
-6.467059	495
-6.768088	498
-6.768088	49999
-6.467059	49er
-6.768088	49th
-6.768088	4a
-6.768088	4bid
-6.768088	4bm
-6.768088	4d
-6.768088	4ever
-6.467059	4get
-6.768088	4gets
-6.768088	4giveness
-6.768088	4ked
-6.768088	4mil
-6.768088	4mless
-6.768088	4pac
-6.768088	4play
-6.768088	4repeat
-6.069118	4rm
-6.467059	4s
-6.768088	4serious
-6.290967	4tay
-4.989937	4th
-6.768088	4wayne
-3.746486	4x
-6.768088	4x'
-5.621961	4x's
-6.768088	4x4
-6.768088	4xa
-6.768088	4xgold
-6.467059	4xthrow
-3.764197	5
-6.768088	5'
-6.768088	5'10
-6.467059	5'11
-6.768088	5'2
-6.768088	5'3
-6.290967	5'4
-6.166028	5'5
-6.467059	5'6
-6.768088	5'6''
-6.768088	5'6no
-6.467059	5'7
-6.768088	5'8
-6.290967	5'9
-6.768088	5'd
-6.768088	5'ers
-5.563969	5's
-3.818699	50
-6.768088	50'000
-5.370149	50's
-4.823606	500
-6.467059	500's
-5.406361	5000
-5.864998	50000
-6.290967	500000
-6.768088	5001
-6.467059	500s
-6.768088	501
-6.467059	501's
-6.290967	502
-5.92299	504
-6.768088	505
-6.768088	508
-6.768088	50k
-6.069118	50s
-5.864998	50th
-5.688907	51
-6.290967	510
-6.768088	514
-6.290967	515
-5.864998	5150
-5.989937	516
-6.166028	51st
-5.688907	52
-6.768088	520
-6.768088	520's
-6.768088	523
-6.768088	525
-6.467059	528
-6.290967	52nd
-6.467059	53
-6.467059	530
-6.768088	535i
-5.864998	54
-6.768088	54'
-6.768088	54's
-6.166028	540
-6.467059	5411
-6.768088	5417
-6.768088	543210
-6.768088	544
-6.290967	546
-6.768088	54ers
-6.290967	54th
-5.563969	55
-5.92299	550
-6.768088	552
-6.166028	555
-6.768088	557
-5.813846	55th
-5.864998	56
-6.166028	560
-6.467059	560's
-6.768088	5678
-6.467059	56th
-5.813846	57
-6.768088	575
-6.768088	5765421
-6.290967	57th
-6.069118	58
-6.768088	58's
-6.290967	580
-6.768088	580's
-6.768088	584
-6.768088	58th
-5.768088	59
-6.768088	596
-6.290967	599
-6.768088	5995
-6.768088	5996
-6.768088	5999
-6.467059	59th
-6.768088	5and
-6.467059	5bizzy
-6.768088	5e
-6.768088	5glock
-6.768088	5h
-6.768088	5jikan
-6.467059	5o
-6.467059	5s
-6.768088	5s's
-6.768088	5stop
-4.711184	5th
-6.768088	5ths
-6.768088	5thve
-6.768088	5wayne
-4.84901	5x
-6.768088	5xs
-3.889567	6
-6.290967	6'
-6.768088	6'1
-6.768088	6'3
-6.467059	6'4
-6.467059	6'8
-6.768088	6'in
-6.467059	6'n
-5.813846	6's
-4.898857	60
-5.989937	60's
-5.0199	600
-6.768088	600's
-6.467059	6000
-6.768088	60000
-6.467059	60091
-6.768088	603
-6.467059	605
-6.768088	60k
-6.290967	60s
-6.768088	60s'
-6.768088	60th
-6.768088	61
-6.768088	610
-6.467059	612
-5.92299	615
-6.768088	618
-6.768088	61st
-6.467059	62
-6.069118	62's
-6.467059	622
-6.768088	629
-6.768088	62nd
-6.768088	63
-6.467059	630
-6.768088	634
-5.262938	64
-6.768088	64'
-5.989937	64's
-6.768088	64000
-5.370149	6430
-6.768088	645
-6.467059	64s
-6.768088	64th
-6.467059	64x
-5.726696	65
-6.467059	650
-6.768088	650's
-6.768088	6545
-6.467059	655
-6.290967	659
-5.813846	66
-6.768088	661
-6.768088	664
-5.989937	666
-6.768088	6666
-6.069118	67
-5.864998	68
-6.768088	68'll
-6.768088	68th
-5.32093	69
-6.768088	69's
-6.768088	69ed
-6.768088	69ers
-6.768088	6am
-6.467059	6c
-6.768088	6feet
-6.768088	6ft
-6.768088	6l
-6.768088	6r
-6.768088	6rub
-6.768088	6s
-5.370149	6th
-6.467059	6v
-4.83867	6x
-6.768088	6x's
-6.768088	6x9's
-4.053759	7
-5.92299	7's
-5.425666	70
-6.768088	70'
-5.199887	70's
-5.621961	700
-6.467059	700's
-6.768088	70000
-6.768088	703
-6.768088	703's
-6.768088	704
-6.768088	706
-6.467059	707
-6.467059	708
-6.768088	709
-6.768088	70s
-6.768088	70s'
-6.290967	71
-6.467059	710
-5.864998	711
-6.290967	713
-6.290967	714
-6.290967	715
-6.768088	71664
-5.688907	718
-6.768088	718's
-6.290967	72
-6.768088	720
-6.768088	725
-6.166028	73
-5.290967	730
-6.768088	735
-6.768088	7365
-6.768088	73rd
-5.512816	74
-6.467059	74'
-5.864998	740
-5.92299	745
-5.989937	747
-6.467059	74th
-5.688907	75
-6.768088	750
-6.768088	750's
-6.768088	75000
-6.768088	75th
-6.768088	75x
-6.069118	76
-6.467059	760
-6.768088	7654321
-6.768088	76th
-5.864998	77
-6.768088	77'
-6.768088	777
-6.768088	77th
-6.166028	78
-6.768088	781
-6.768088	79th
-6.768088	7am
-6.768088	7days
-5.425666	7even
-6.768088	7it's
-6.768088	7s
-5.22402	7th
-6.768088	7universally
-6.290967	7up
-5.069118	7x
-6.768088	7x's
-4.088661	8
-6.768088	8'll
-5.688907	8's
-4.738705	80
-4.982759	80's
-5.262938	800
-6.768088	8000
-6.768088	8010
-6.768088	804
-6.467059	805
-6.768088	8073
-5.621961	808
-6.166028	808's
-6.768088	808s
-6.768088	80k
-5.768088	80s
-6.768088	80s'
-6.166028	81
-6.768088	810
-6.768088	812th
-6.467059	815
-6.467059	818's
-6.768088	82
-6.467059	82'
-6.467059	8216cause
-6.768088	827
-5.864998	83
-6.290967	83'
-6.467059	830
-6.166028	83rd
-5.768088	84
-6.467059	84'
-6.467059	84's
-6.768088	843
-6.768088	84s
-6.768088	84th
-5.370149	85
-5.467059	850
-6.768088	850's
-6.768088	850i
-6.768088	85170
-6.768088	85er
-6.166028	85th
-5.406361	86
-6.768088	86'd
-6.768088	86ed
-6.768088	86ing
-6.768088	86th
-5.512816	87
-6.467059	87'
-6.467059	87th
-5.445869	88
-6.467059	88'
-6.768088	88's
-6.768088	8826
-6.467059	88er
-6.069118	88th
-5.813846	89
-6.467059	89's
-6.768088	8900
-6.768088	899
-5.654145	8b
-6.467059	8ball
-6.768088	8get
-6.768088	8mm
-6.768088	8off
-6.768088	8reaching
-6.768088	8s
-5.086847	8th
-6.467059	8ths
-4.410154	8x
-6.166028	8x's
-6.768088	8xpete
-3.847444	9
-6.768088	9'000
-6.768088	9'll
-4.997237	9's
-4.730662	90
-6.768088	90'
-5.105331	90's
-5.387877	900
-6.069118	9000
-6.467059	90210
-6.768088	903
-6.768088	905
-6.768088	908's
-6.768088	909
-6.467059	90it's
-5.768088	90s
-5.726696	91
-6.768088	91'
-6.768088	9101112
-4.904766	911
-6.069118	915
-6.768088	918
-6.768088	919
-5.53764	92
-6.467059	92'
-5.92299	923
-6.069118	929
-6.768088	929'n
-6.768088	9293and
-6.467059	92nd
-5.276727	93
-6.166028	93'
-6.768088	930
-6.069118	931
-6.467059	933
-6.467059	93rd
-5.199887	94
-6.166028	94'
-6.768088	940
-5.114876	95
-6.166028	950
-6.166028	9500
-6.768088	954
-6.768088	956
-6.069118	95th
-5.370149	96
-6.768088	96'
-6.768088	96fine
-6.467059	96please
-6.768088	96th
-5.32093	97
-6.467059	97'
-6.768088	975
-6.768088	9755
-6.768088	97e
-4.982759	98
-6.768088	98'
-6.166028	98's
-6.768088	987
-6.768088	987654321
-6.467059	98th
-4.664285	99
-6.467059	99'
-6.768088	99's
-6.467059	995
-6.069118	999
-6.768088	9999
-6.768088	99th
-5.688907	9mm
-6.768088	9new
-6.768088	9nickel
-5.864998	9s
-5.22402	9th
-5.621961	9x
-6.768088	9yeah
-0.7859462	</s>
-99	<s>
-6.768088	`95
-6.768088	`bout
-6.069118	`cause
-6.768088	`click'
-6.467059	`cuz
-6.768088	`hey
-6.290967	`home
-6.768088	`ll
-6.768088	`round
-6.768088	`s
-6.768088	`yo
-5.445869	a'
-6.290967	a'cryin
-6.166028	a'fallin
-6.768088	a'groovin
-6.768088	a'gwan
-5.768088	a'ight
-6.467059	a'int
-6.290967	a'k
-6.768088	a'la
-6.768088	a'm
-6.768088	a'nating
-6.467059	a'right
-6.768088	a'rollin
-5.199887	a's
-6.768088	a'sin
-6.768088	a'spark
-6.768088	a'tall
-6.467059	a'time
-6.467059	a'ttention
-5.864998	a'yo
-6.768088	a0plus
-6.768088	a1
-6.768088	a7
-5.425666	aa
-5.035695	aaa
-6.768088	aaaaa
-6.768088	aaaaaaaa
-6.467059	aaaaaaaaaaaaaaaa
-6.768088	aaaaaaaaaaaaaaaaaaaaaaaaare
-6.768088	aaaaaaaaaaaaaaaahhhhhhhhhhhhh
-6.768088	aaaaaaaaaaaaaaah
-6.768088	aaaaaaaaaaaaah
-6.069118	aaaaaaaaaaaah
-5.563969	aaaaaaaaah
-6.768088	aaaaaaaahhhhh
-6.768088	aaaaaaaahhhhhhhhhhhhh
-6.768088	aaaaaaahhh
-6.768088	aaaaaaahhhhh
-6.768088	aaaaaahh
-6.768088	aaaaaahhhh
-6.768088	aaaaaahhhhh
-6.768088	aaaaaahhhhhhh
-6.768088	aaaaaass
-6.768088	aaaaaghhh
-5.621961	aaaaah
-6.290967	aaaaahhhhh
-6.467059	aaaagh
-5.336725	aaaah
-6.768088	aaaahhh
-6.768088	aaaahhhaaaaa
-6.768088	aaaahhhhh
-5.445869	aaaahhhhhhhh
-6.768088	aaaaoooo
-6.768088	aaaaoooowwww
-6.768088	aaaassss
-6.768088	aaaggh
-4.823606	aaah
-6.768088	aaahechoes
-6.166028	aaahh
-6.069118	aaahhh
-6.467059	aaahhhh
-6.166028	aaahhhhhh
-6.768088	aaahun
-6.768088	aaahuuumm
-6.768088	aaand
-6.768088	aaaooo
-6.768088	aaaye
-6.768088	aaayyyyoooow
-6.768088	aabout
-6.768088	aachoo
-6.768088	aagh
-4.790365	aah
-6.768088	aah's
-5.199887	aahh
-6.290967	aahhh
-6.768088	aahhhhhhhhhhh
-6.768088	aahoo
-6.768088	aahs
-6.768088	aahw
-6.768088	aaieeahaaa
-6.467059	aaight
-6.290967	aaint
-6.768088	aalikeness
-4.92299	aaliyah
-5.989937	aaliyah's
-6.768088	aaliyahs
-6.768088	aalyiah
-6.768088	aamn
-5.864998	aan
-5.989937	aand
-5.989937	aaow
-6.768088	aap
-6.768088	aarggh
-5.445869	aaron
-6.467059	aarow
-6.768088	aarrgh
-6.467059	aaugh
-6.768088	aauhhh
-6.768088	aave
-6.467059	aawwwwwww
-6.467059	aayyeah
-5.188305	ab
-6.768088	ab'
-6.768088	ab'dish
-6.467059	aba
-6.768088	abab
-6.768088	abacadabra
-6.768088	aback
-6.467059	abacus
-6.768088	abaddon
-6.290967	abajo
-6.768088	aband'
-5.305691	abandon
-6.768088	abandonado
-6.768088	abandonarte
-6.166028	abandonded
-5.22402	abandoned
-6.768088	abandonedly
-6.768088	abandonin
-6.290967	abandoning
-6.768088	abandonment
-6.467059	abara
-6.768088	abard
-6.768088	abariginies
-6.467059	abate
-6.768088	abated
-6.768088	abatement
-6.768088	abatemo
-6.768088	abates
-6.768088	abattoir
-6.467059	abba
-6.768088	abbacca's
-5.864998	abbot
-6.768088	abbots
-6.069118	abbott
-6.467059	abbreviate
-6.467059	abbreviated
-6.166028	abbreviation
-6.467059	abbreviations
-6.290967	abby
-6.768088	abbys
-5.768088	abc
-5.989937	abc's
-6.768088	abcd
-6.467059	abck
-6.768088	abcs
-6.467059	abd
-5.489335	abdomen
-6.467059	abdominal
-6.467059	abdominals
-6.768088	abdornen
-6.768088	abdrul
-6.069118	abduct
-5.989937	abducted
-6.768088	abductin
-5.989937	abduction
-6.290967	abductions
-5.445869	abdul
-6.768088	abduler
-6.768088	abdulla
-6.467059	abdullah
-5.813846	abe
-6.467059	abednago
-6.768088	abednego
-5.305691	abel
-6.467059	abels
-6.768088	abenaa
-6.290967	abend
-6.768088	abendego
-6.290967	abends
-6.768088	abenteuer
-5.211786	aber
-6.768088	aberdeen
-6.768088	aberdine
-6.768088	abernathy
-6.467059	abg
-6.467059	abgeben
-6.768088	abgecheckt
-6.069118	abgehauen
-6.768088	abgeschlossen
-6.768088	abgestumpft
-6.467059	abhngig
-6.290967	abi
-5.425666	abide
-6.467059	abides
-6.768088	abidin
-6.069118	abiding
-6.467059	abiertas
-6.467059	abierto
-5.989937	abilities
-5.077892	ability
-6.768088	abilty
-5.864998	abismo
-6.768088	abitch
-6.467059	abite
-6.768088	abk
-6.768088	ablar
-5.864998	ablaze
-6.768088	ablazeand
-4.283789	able
-6.768088	able's
-6.768088	ablejacks
-6.768088	ablin
-6.768088	ablo
-6.768088	abner
-6.290967	abnorm
-5.768088	abnormal
-6.768088	abnormally
-6.467059	abnoxious
-5.027726	aboard
-6.768088	abobo
-6.290967	abode
-6.069118	abolish
-6.290967	abolished
-6.768088	abolishing
-6.768088	abomidable
-6.467059	abominable
-6.768088	abominabol
-6.467059	abominal
-6.768088	abominate
-6.768088	abominated
-5.813846	abomination
-6.768088	abonded
-6.768088	abondonas
-6.768088	abondoned
-6.768088	aboout
-6.768088	abord
-6.768088	aborigine
-6.768088	aboriginol
-6.768088	abornmal
-5.406361	abort
-5.726696	aborted
-6.768088	aborter
-6.467059	abortin
-6.166028	aborting
-5.095991	abortion
-5.591997	abortions
-6.768088	abot
-6.166028	abou
-6.290967	abound
-2.713016	about
-5.92299	about'cha
-6.768088	about'chu
-6.768088	about'll
-6.768088	about's
-6.768088	abouta
-6.768088	aboutah
-6.768088	aboutbass
-6.768088	aboutbassi
-6.768088	aboutcha
-6.768088	aboutfo
-6.768088	abouti'll
-6.768088	aboutoooh
-6.768088	aboutqueens
-5.726696	abouts
-6.467059	aboutthis
-6.768088	aboutyeah
-3.982759	above
-6.768088	abput
-6.290967	abr
-6.768088	abr's
-5.353115	abra
-5.654145	abracadabra
-6.768088	abracadra
-6.768088	abrade
-6.768088	abrae
-6.768088	abrah'
-5.467059	abraham
-6.768088	abrakadaba
-6.768088	abram
-6.768088	abran
-6.768088	abrao
-6.290967	abrasan
-6.768088	abrasar
-6.069118	abrasion
-6.069118	abrasive
-6.768088	abrasure
-6.768088	abrazaras
-6.467059	abrazarte
-6.166028	abrazndome
-6.290967	abrazo
-6.166028	abre
-6.467059	abreast
-6.768088	abrest
-6.768088	abreu
-6.467059	abria
-6.768088	abridged
-6.768088	abriendo
-6.467059	abrir
-5.406361	abroad
-6.768088	abrochrombie
-6.768088	abrother
-6.768088	abru
-5.813846	abrupt
-6.768088	abrupting
-5.989937	abruptly
-6.069118	abs
-6.768088	abscence
-6.768088	absctract
-5.726696	absence
-6.768088	absences
-5.654145	absent
-6.290967	absentee
-6.768088	absicht
-6.768088	absitzen
-5.53764	absolut
-5.336725	absolute
-6.768088	absolute's
-4.955175	absolutely
-6.768088	absolutestarted
-6.467059	absolutley
-6.467059	absolutly
-6.768088	absolutpeach
-6.467059	absolved
-6.768088	absolvement
-5.114876	absorb
-5.726696	absorbed
-6.290967	absorbin
-6.467059	absorbing
-6.768088	absorbs
-6.768088	absotively
-6.768088	absoultely
-6.768088	abst'act
-6.768088	abstain
-6.290967	abstanding
-6.768088	abstinance
-6.467059	abstinence
-6.290967	abstinent
-4.910756	abstract
-6.768088	abstract's
-6.467059	abstraction
-6.768088	abstracts
-6.768088	abstractyou
-4.989937	absurd
-6.768088	absurdities
-6.467059	absurditive
-6.467059	absurdity
-6.768088	absurdo
-6.069118	abu
-6.768088	abudance
-6.768088	abuela
-6.768088	abuelas
-6.768088	abullet
-6.768088	abullshtcorn
-5.563969	abundance
-5.726696	abundant
-6.290967	abundantly
-6.768088	abusas
-4.644237	abuse
-6.768088	abuse'
-5.155305	abused
-5.621961	abuser
-5.864998	abusers
-6.467059	abuses
-5.370149	abusin
-5.621961	abusing
-5.621961	abusive
-6.768088	abusiverelationreclusive
-6.467059	abut
-6.768088	abvised
-6.768088	abysmal
-6.768088	abysmally
-4.997237	abyss
-6.467059	abyssinian
-6.768088	abyssmal
-6.768088	abzuflln
-6.768088	abzukriegen
-5.069118	ac
-5.654145	ac'
-6.768088	ac'll
-5.92299	ac's
-5.813846	acab
-5.989937	acaba
-6.768088	acabando
-6.467059	acabao
-6.467059	acabar
-6.768088	acabaron
-6.768088	acabe
-5.621961	acabo
-6.290967	academic
-6.768088	academics
-5.688907	academy
-6.768088	acapell
-5.621961	acapella
-6.768088	acapellas
-6.768088	acapello
-6.768088	acapells
-6.768088	acappella
-5.989937	acapulco
-6.768088	acarciame
-6.467059	acariciar
-6.768088	acariciarlo
-6.768088	acas
-6.768088	acasion
-6.467059	acc
-5.768088	accapella
-6.768088	accapoco
-6.768088	accapted
-6.768088	accel
-5.563969	accelerate
-6.768088	accelerated
-6.467059	acceleratin
-6.467059	acceleration
-6.467059	accelerator
-5.406361	accent
-5.92299	accents
-4.535092	accept
-5.989937	acceptable
-5.989937	acceptance
-5.236609	accepted
-6.166028	acceptin
-5.768088	accepting
-6.768088	acception
-6.467059	accepts
-6.768088	accerting
-6.290967	accesory
-5.155305	access
-6.467059	accessories
-6.768088	accessory
-6.768088	acci
-6.768088	acciden
-5.124636	accident
-5.864998	accidental
-5.813846	accidentally
-6.166028	accidently
-5.726696	accidents
-6.768088	accion
-6.467059	acclaim
-5.621961	acclaimed
-6.768088	acclain
-6.768088	accolade
-6.166028	accolades
-6.768088	accolate
-6.768088	accomadations
-6.467059	accommodate
-6.290967	accommodated
-6.768088	accomodated
-6.768088	accomodation
-6.768088	accomodations
-5.92299	accompanied
-6.768088	accompanies
-6.069118	accompany
-5.726696	accomplice
-6.768088	accomplices
-5.53764	accomplish
-5.654145	accomplished
-6.768088	accomplishing
-6.290967	accomplishments
-6.768088	accompliss
-5.467059	accord
-6.768088	accordian
-5.813846	accordin
-5.22402	according
-5.813846	accordingly
-6.290967	accordion
-6.290967	accords
-6.768088	accosted
-4.843809	account
-6.290967	account's
-5.813846	accountable
-5.621961	accountant
-5.864998	accountants
-6.467059	accounted
-6.768088	accountin
-5.166028	accounts
-6.768088	accoustic
-6.768088	accoutants
-6.768088	accoutrements
-6.768088	accredit
-6.768088	accrete
-6.768088	accriminate
-6.069118	accross
-6.768088	accumalation
-6.768088	accumstomed
-5.989937	accumulate
-6.290967	accumulated
-6.467059	accumulates
-6.467059	accumulatin
-6.166028	accumulating
-6.768088	accumulation
-6.768088	accupuncture
-6.467059	accur
-5.92299	accuracy
-5.262938	accurate
-6.768088	accurately
-6.768088	accure
-6.768088	accurs
-6.166028	accusation
-6.166028	accusations
-5.425666	accuse
-5.166028	accused
-6.768088	accuser
-6.768088	accusin
-5.989937	accusing
-5.92299	accustomed
-6.768088	acd's
-4.520115	ace
-6.768088	ace'
-6.768088	ace's
-6.069118	aced
-6.467059	acende
-6.768088	acepta
-5.768088	aceptar
-6.467059	acepto
-5.92299	acerca
-6.768088	acerco
-5.32093	aces
-6.768088	acetone
-6.768088	acetown
-6.467059	aceyalone
-6.768088	acg's
-6.290967	ach
-6.768088	achava
-5.166028	ache
-6.768088	ache'
-6.768088	achebe
-6.768088	achecome
-6.290967	acheive
-6.290967	acheived
-6.467059	acheivements
-6.768088	acher
-6.768088	achers
-5.406361	aches
-6.290967	achie
-6.768088	achiest
-6.768088	achievable
-4.91683	achieve
-5.864998	achieved
-6.467059	achievement
-6.768088	achievements
-6.290967	achiever
-6.768088	achievers
-6.768088	achieves
-6.069118	achievin
-6.467059	achieving
-6.768088	achievments
-6.768088	achiga
-6.166028	achika
-6.166028	achilles
-5.445869	achin
-6.768088	achine
-5.177024	aching
-6.768088	achive
-6.768088	achivements
-6.768088	achman
-6.768088	achmed
-6.290967	acho
-6.768088	acholic
-6.467059	achoo
-6.768088	achtung
-5.989937	achy
-4.692542	acid
-6.768088	acidents
-6.768088	acidest
-6.467059	acidic
-6.768088	acidy
-6.467059	acin
-5.489335	ack
-6.768088	ack's
-6.768088	ackavelie
-6.768088	ackgnowledges
-6.290967	ackin
-6.768088	ackle
-6.768088	ackniculous
-6.768088	ackninckulous
-5.13462	acknowledge
-6.166028	acknowledged
-6.768088	acknowledgement
-6.768088	acknowledgin
-6.768088	acknowledging
-6.467059	acknowledgment
-6.768088	acknowlege
-6.768088	ackowledge
-6.768088	ackra
-5.989937	ackrite
-6.768088	acktin
-6.768088	acky
-6.768088	aclick
-6.768088	acme
-6.069118	acne
-6.768088	acolla
-6.768088	acolyte
-6.768088	acomoya
-6.467059	acompaa
-6.768088	acompanan
-6.768088	acomplice
-6.467059	acomplish
-6.467059	acomplished
-6.768088	acomplishes
-6.768088	acopoqo
-6.768088	acordado
-6.768088	acordar
-6.768088	acordasse
-6.768088	acordia
-6.290967	acorn
-6.290967	acorns
-6.768088	acostumbr
-6.768088	acostumbraron
-6.768088	acourt
-6.467059	acousiastic
-5.726696	acoustic
-5.92299	acoustics
-6.768088	acp
-6.467059	acpedic
-6.768088	acqua
-6.467059	acquaint
-5.864998	acquaintance
-5.688907	acquainted
-6.768088	acquantin
-5.768088	acquire
-5.688907	acquired
-6.467059	acquirin
-6.768088	acquisite
-6.069118	acquisition
-6.768088	acquisitions
-6.467059	acquit
-6.768088	acquitances
-6.467059	acquited
-5.864998	acquitted
-5.406361	acre
-6.768088	acre's
-6.768088	acreamin
-6.768088	acred
-6.467059	acredita
-4.961909	acres
-6.768088	acrlico
-6.768088	acro
-5.864998	acrobat
-5.92299	acrobatic
-6.290967	acrobatical
-6.069118	acrobatics
-5.864998	acrobats
-6.768088	acronyms
-6.768088	acroos
-6.768088	acropalis
-6.166028	acropolis
-6.768088	acropoly
-6.768088	acros
-3.91683	across
-6.768088	acrossboat
-6.467059	acrossed
-6.768088	acrosss
-6.768088	acruasss
-6.768088	acrylic
-6.768088	acrylin
-6.290967	acryllic
-6.768088	acryllics
-6.467059	acs
-6.768088	acscents
-6.768088	acsent
-3.481183	act
-6.768088	act'n
-6.069118	act's
-6.467059	acta
-6.768088	actaully
-5.387877	acted
-6.768088	acteur
-3.84901	actin
-4.265661	acting
-6.467059	actingfly
-6.467059	actinlike
-4.08957	action
-6.768088	actional
-6.768088	actionpunkhootchie
-4.768088	actions
-5.305691	activate
-5.591997	activated
-6.768088	activater
-6.290967	activates
-6.467059	activatin
-6.290967	activation
-6.768088	activations
-5.864998	activator
-5.591997	active
-6.768088	actively
-6.290967	activism
-5.688907	activist
-6.166028	activists
-5.813846	activities
-5.621961	activity
-6.768088	actlike
-5.035695	actor
-6.467059	actor's
-5.077892	actors
-6.768088	actors'll
-6.768088	actra
-5.249575	actress
-5.768088	actresses
-4.660879	acts
-4.989937	actual
-6.467059	actualities
-5.726696	actuality
-6.768088	actualized
-4.781317	actually
-6.467059	actuation
-6.768088	actue
-6.768088	acuerdate
-6.467059	acuerdo
-6.467059	acum
-6.768088	acupulco
-6.069118	acupuncture
-6.768088	acupunctures
-6.768088	acupunture
-5.512816	acura
-5.864998	acuras
-6.467059	acuray
-6.768088	acusacion
-6.768088	acustic
-5.92299	acute
-6.467059	acutely
-6.467059	acvtivatin
-4.135631	ad
-4.961909	adam
-5.726696	adam's
-6.290967	adamant
-6.768088	adament
-5.406361	adams
-6.290967	adamsville
-5.188305	adapt
-6.768088	adaptation
-6.768088	adapted
-6.768088	adapter
-6.290967	adaptin
-6.467059	adapting
-6.166028	adaption
-6.467059	adaptor
-6.467059	adapts
-6.768088	adavanced
-6.768088	aday
-6.768088	adays
-6.768088	adbide
-6.768088	adbomen
-4.389691	add
-6.768088	addalecent
-6.768088	addalicent
-6.768088	addalicient
-6.290967	addams
-5.188305	added
-6.768088	addequate
-6.290967	adder
-6.166028	addic
-6.768088	addicition
-4.875994	addict
-4.419784	addicted
-5.012214	addiction
-5.989937	addictions
-5.445869	addictive
-5.290967	addicts
-6.768088	addicttoo
-6.467059	addidas
-5.387877	addin
-5.621961	adding
-5.336725	addition
-5.813846	additional
-6.768088	additions
-6.768088	additive
-6.467059	additives
-6.768088	additude
-6.166028	addlibs
-4.781317	address
-5.813846	addressed
-6.290967	addresses
-5.864998	addressin
-5.864998	addressing
-5.53764	adds
-6.768088	addy
-6.768088	ade
-6.768088	adebesi
-6.768088	adecrative
-6.768088	adefo
-6.768088	adelphia
-6.768088	ademas
-6.768088	adems
-6.768088	adentrarme
-6.467059	adentro
-6.290967	adequate
-6.768088	ader
-6.768088	adevarat
-6.768088	adex
-6.768088	adhear
-6.467059	adhere
-6.768088	adhered
-6.768088	adhering
-5.591997	adi
-6.467059	adianta
-6.768088	adibin
-6.768088	adict
-6.768088	adicto
-6.768088	adida's
-4.809047	adidas
-6.768088	adiddas
-6.768088	adieau
-6.166028	adieu
-6.467059	adieux
-5.768088	adina
-6.768088	adio
-5.353115	adios
-6.768088	adire
-5.92299	adis
-6.768088	adivce
-6.768088	adivino
-5.591997	adjacent
-6.166028	adjective
-5.989937	adjectives
-6.768088	adjetives
-6.768088	adjoining
-6.467059	adjouned
-5.92299	adjourned
-6.467059	adjournedcourt's
-6.467059	adjourns
-5.13462	adjust
-6.768088	adjustable
-5.989937	adjusted
-6.166028	adjustin
-5.864998	adjusting
-6.467059	adjustment
-6.467059	adjustments
-6.768088	adjusts
-5.813846	adlib
-6.768088	adlibbin
-5.445869	adlibs
-6.768088	adllics
-6.768088	adman
-5.92299	administer
-6.467059	administered
-6.768088	administra
-6.467059	administratin
-6.069118	administration
-6.467059	administrative
-6.768088	administrators
-6.768088	adminster
-5.726696	admiration
-5.052085	admire
-5.92299	admired
-6.467059	admirer
-5.591997	admirin
-6.467059	admiring
-6.069118	admission
-6.768088	admissions
-6.768088	admissor
-4.293872	admit
-6.768088	admitin
-6.290967	admits
-6.768088	admitt
-5.864998	admitted
-6.467059	admittedly
-6.467059	admittin
-6.069118	admitting
-6.768088	admoney
-5.768088	adn
-6.290967	ado
-6.768088	adobe
-6.290967	adobo
-6.467059	adofo
-6.768088	adolecents
-6.166028	adolecsent
-5.989937	adolescence
-6.290967	adolescense
-5.370149	adolescent
-5.654145	adolescents
-6.467059	adolesencents
-6.768088	adolesent
-6.069118	adolf
-6.467059	adolfo
-6.166028	adolpho
-6.768088	adolsence
-6.768088	adonai
-6.768088	adonde
-6.768088	adope
-6.768088	adopoted
-5.92299	adopt
-5.813846	adopted
-6.467059	adoption
-6.467059	ador
-6.069118	adorable
-6.768088	adoral
-6.768088	adorar
-6.768088	adorarlo
-6.768088	adoration
-4.664285	adore
-5.489335	adored
-6.768088	adorer
-6.467059	adores
-6.768088	adoring
-6.768088	adorn
-6.768088	adorned
-6.768088	adorning
-6.768088	adorns
-6.166028	adoro
-5.864998	adrenalin
-4.875994	adrenaline
-6.467059	adrenaline's
-6.768088	adrenilin
-6.768088	adrenoline
-6.166028	adress
-5.989937	adressin
-6.768088	adrian
-6.768088	adrianfor
-6.768088	adrienne
-5.989937	adrift
-6.768088	adriiian
-6.768088	adrinallin
-6.467059	adrissa
-5.353115	adrock
-6.768088	adrock's
-5.621961	ads
-6.768088	adt
-6.768088	adu
-6.768088	adul
-6.768088	adulay
-6.768088	adulescens
-5.654145	adult
-6.768088	adulteratin
-6.768088	adulterer
-6.166028	adultery
-6.166028	adulthood
-6.768088	adultry
-5.864998	adults
-6.768088	advaced
-6.467059	advakid
-4.730662	advance
-6.768088	advanceable
-5.144839	advanced
-6.768088	advanced'n
-5.813846	advancement
-6.290967	advancements
-5.425666	advances
-6.467059	advancin
-5.864998	advancing
-6.768088	advancment
-4.790365	advantage
-6.467059	advantages
-6.768088	advent
-6.768088	adventitious
-6.768088	advents
-5.406361	adventure
-5.445869	adventures
-6.166028	adventurous
-6.467059	adverb
-6.768088	adverbs
-5.13462	adversaries
-5.621961	adversary
-6.768088	adverse
-5.989937	adversities
-5.726696	adversity
-5.989937	advertise
-5.92299	advertisement
-6.768088	advertisements
-6.290967	advertisers
-6.069118	advertisin
-6.069118	advertising
-6.768088	advesaries
-6.768088	advesary
-4.53764	advice
-6.768088	advice's
-6.467059	advil
-6.768088	advils
-6.768088	advirsaries
-5.236609	advise
-5.290967	advised
-6.768088	advisement
-6.768088	advisers
-6.467059	advisin
-6.467059	advising
-6.166028	advisor
-6.290967	advisors
-5.864998	advisory
-5.864998	advocate
-6.768088	advocate's
-6.768088	advocated
-6.768088	advocates
-6.768088	advocating
-6.467059	ae
-6.166028	aegean
-6.768088	aegeans
-6.768088	aeiou's
-5.563969	aeiyo
-6.290967	aem
-6.768088	aen
-6.768088	aeorta
-6.768088	aerators
-6.290967	aerial
-6.768088	aero
-6.467059	aerobic
-6.467059	aerobics
-6.467059	aerodynamic
-6.467059	aerodynamically
-6.467059	aerolight
-6.768088	aeronautics
-6.768088	aeronauts
-6.290967	aeroplane
-6.467059	aeroplanes
-6.768088	aeroplanin
-6.768088	aeropostale
-6.768088	aeropostle
-6.290967	aerosmith
-6.166028	aerosol
-6.768088	aerostotles
-6.768088	aersol
-5.813846	aes
-6.768088	aesip
-4.6158	aesop
-6.768088	aesop's
-6.768088	aesthetics
-6.768088	aethesist
-5.563969	af
-6.768088	afake
-5.211786	afar
-6.768088	afeared
-6.768088	afecta
-6.768088	afecto
-6.768088	afella
-5.654145	afeni
-6.467059	afer
-6.768088	afetados
-6.768088	afeto
-5.989937	aff
-6.467059	affadavit
-4.678184	affair
-6.768088	affair's
-5.591997	affairs
-5.095991	affect
-5.445869	affected
-5.989937	affectin
-5.864998	affecting
-4.813846	affection
-5.92299	affectionate
-6.467059	affectionately
-5.989937	affections
-6.290967	affective
-6.768088	affectivly
-5.591997	affects
-6.768088	affelious
-6.290967	affended
-6.768088	affendin
-6.768088	affentice
-6.768088	affiar
-5.512816	afficial
-6.768088	afficianado
-6.768088	afficiando
-6.768088	affidavit
-6.768088	affilate
-6.768088	affilated
-6.768088	affileated
-6.768088	affiles
-6.768088	affili
-6.768088	affiliance
-5.813846	affiliate
-5.387877	affiliated
-5.621961	affiliates
-6.768088	affiliatin
-5.621961	affiliation
-6.768088	affiliets
-6.768088	affilions
-6.467059	affilliations
-6.768088	affily
-6.467059	affirmation
-6.467059	affirmations
-5.813846	affirmative
-6.768088	affleck
-6.768088	affliation
-6.768088	afflict
-6.069118	afflicted
-6.768088	afflictin
-6.768088	afflicting
-5.768088	affliction
-6.768088	afflictions
-4.493931	afford
-6.768088	afford'em
-5.726696	affordable
-6.467059	affordably
-6.768088	affordin
-5.813846	affraid
-6.467059	affronted
-6.768088	affwaun
-6.768088	afgan
-6.768088	afganistan
-6.467059	afghan
-6.768088	afghanastani
-5.813846	afghanistan
-6.768088	afghanstan
-6.768088	afghany
-6.768088	afhganistan
-6.768088	afi
-6.467059	aficans
-6.768088	aficionado
-6.768088	afilamos
-6.768088	afilliated
-6.166028	aflame
-5.813846	afloat
-6.768088	afogar
-6.768088	afool
-6.768088	aforementioned
-6.768088	afour
-6.768088	afourtuniado
-6.768088	afractus
-3.974298	afraid
-6.768088	afraight
-6.768088	afrail
-6.768088	afrente
-6.768088	afriad
-4.755251	africa
-6.166028	africa's
-6.467059	africaengland
-4.71501	african
-6.467059	africanos
-5.336725	africans
-5.177024	afrika
-6.768088	afrika's
-6.768088	afrikabababa
-5.989937	afrikan
-4.759489	afro
-6.768088	afro's
-6.768088	afrobatic
-5.989937	afrocentric
-6.467059	afrocentricity
-6.768088	afrocome
-6.467059	afrodesiac
-5.864998	afrodisiac
-6.768088	afrolistic
-6.768088	afrom
-6.768088	afronaut
-5.370149	afros
-6.467059	aft
-5.864998	afta
-3.355292	after
-6.768088	afterbirth
-6.768088	afterburn
-6.768088	afterdollars
-6.467059	afterglow
-6.768088	afterhours
-5.467059	afterlife
-6.768088	afterlude
-4.83867	aftermath
-6.768088	aftermath'll
-6.290967	aftermath's
-4.942014	afternoon
-6.069118	afternoons
-6.290967	afterparties
-6.166028	afterparty
-6.768088	afterpaty
-5.989937	afterplay
-6.768088	afterschool
-6.467059	aftershave
-6.166028	aftershock
-6.290967	aftershocks
-6.768088	aftershow
-6.467059	afterthought
-6.768088	afterw
-5.813846	afterwards
-6.768088	afterworld
-6.768088	aftro
-5.53764	afu
-6.467059	afuera
-6.290967	afure
-6.768088	afuretekuru
-5.591997	ag
-6.768088	agacha
-3.111128	again
-6.768088	againabout
-6.467059	againagain
-6.768088	againand
-6.768088	againas
-6.768088	againcant
-6.768088	againfuck
-6.290967	againg
-6.768088	againhold
-6.768088	againi
-6.768088	againist
-6.768088	againlet
-6.467059	againmy
-6.768088	againnnn
-6.768088	againnnnnnn
-6.768088	againoh
-6.768088	againround
-6.069118	agains
-6.768088	againskills
-3.744836	against
-6.467059	againt
-6.768088	againthere's
-6.768088	againtimbaland
-6.467059	againwha
-6.768088	againyo
-6.069118	agaisnt
-6.467059	agaist
-5.92299	agallah
-6.768088	agao
-6.768088	agaony
-6.768088	agari
-6.467059	agarra
-6.768088	agarrando
-6.768088	agarre
-6.290967	agarro
-6.467059	agatha
-6.768088	agayn
-6.768088	agayne
-6.768088	agbar
-4.105331	age
-6.768088	agead
-6.768088	agean
-5.813846	aged
-6.768088	ageiathic
-6.768088	ageice
-6.768088	agein
-6.768088	ageing
-5.989937	ageless
-6.768088	agem
-6.768088	agena
-6.467059	agencies
-5.864998	agency
-5.249575	agenda
-5.92299	agenda's
-6.768088	agendas
-4.79496	agent
-6.768088	agent's
-5.425666	agents
-6.467059	ager
-6.467059	ageru
-5.069118	ages
-6.467059	agetai
-6.166028	agg
-5.864998	aggie
-6.467059	agginy
-6.768088	aggrandized
-5.864998	aggravate
-5.489335	aggravated
-6.768088	aggravatin
-6.467059	aggravating
-6.069118	aggravation
-6.467059	aggravations
-6.768088	aggregavation
-6.467059	aggresion
-6.467059	aggresive
-6.768088	aggresor
-6.768088	aggressins
-5.353115	aggression
-6.768088	aggressionary
-6.467059	aggressions
-5.406361	aggressive
-6.467059	aggressor
-6.166028	aggrevated
-6.290967	aggrevation
-6.768088	aggrivate
-6.467059	aggrivated
-6.768088	aggrivation
-6.768088	aggro
-6.166028	aggy
-5.92299	agh
-6.768088	aghhhh
-5.813846	aghhhhhh
-6.768088	aghost
-6.290967	agian
-6.768088	agil
-5.768088	agile
-6.768088	agilities
-5.688907	agility
-6.290967	agin
-5.989937	aging
-6.768088	aginst
-6.768088	agirl
-6.768088	agita
-6.290967	agitate
-5.864998	agitated
-6.768088	agitates
-6.467059	agitating
-6.768088	agitation
-6.768088	agitndose
-5.989937	aglow
-6.290967	agnostic
-6.768088	agnostics
-4.183757	ago
-6.290967	agona
-6.768088	agonies
-6.768088	agonizaba
-5.114876	agony
-6.467059	agony's
-6.768088	agonyfor
-6.467059	agoobilonians
-6.768088	agood
-5.489335	agora
-6.768088	agostra
-6.768088	agotan
-6.768088	agra
-6.768088	agrassia
-6.768088	agration
-6.768088	agravated
-4.654145	agree
-5.290967	agreed
-6.768088	agreeded
-6.467059	agreein
-6.290967	agreeing
-5.768088	agreement
-6.768088	agreement's
-6.069118	agrees
-6.768088	agressin
-6.467059	agression
-6.768088	agressions
-5.989937	agressive
-6.768088	agressiveis
-6.768088	agrial
-6.768088	agriculture
-6.290967	aground
-6.768088	agrue
-6.768088	agry
-5.989937	agua
-6.467059	aguant
-6.768088	aguanta
-6.467059	aguantas
-6.290967	aguanto
-6.768088	aguardiente
-6.768088	aguas
-6.768088	ague
-6.768088	aguess
-6.290967	aguilar
-6.768088	aguiler
-6.069118	aguilera
-6.768088	agve
-6.768088	agwan
-3.359848	ah
-6.768088	ah'ight
-6.768088	ah's
-4.859603	aha
-6.467059	ahaaa
-6.290967	ahab
-5.989937	ahah
-5.512816	ahaha
-5.989937	ahahah
-6.069118	ahahaha
-6.467059	ahahahah
-6.290967	ahahahaha
-6.768088	ahahahahah
-6.467059	ahahahahaha
-6.768088	ahahahahahaha
-6.768088	ahahahhaha
-6.467059	ahaheheheh
-6.768088	ahahha
-6.768088	ahahhahhah
-6.768088	ahahhh
-6.768088	ahahhhhhh
-6.467059	ahahu
-6.768088	ahahwwww
-6.768088	ahalreadyfo
-6.768088	ahaowwhahaooho
-6.768088	ahaowwhwwww
-6.467059	ahay
-6.768088	ahe
-4.021454	ahead
-6.467059	aheade
-6.290967	aheh
-6.467059	ahehe
-6.467059	aheheh
-5.768088	ahem
-3.968748	ahh
-6.467059	ahh's
-6.768088	ahhaahahah
-6.768088	ahhaha
-6.290967	ahhahaha
-6.467059	ahhahhhahh
-5.92299	ahhahhhh
-4.489335	ahhh
-5.92299	ahhhahhh
-6.768088	ahhhdadidaaaaa
-4.83867	ahhhh
-5.467059	ahhhhh
-5.336725	ahhhhhh
-5.621961	ahhhhhhh
-5.688907	ahhhhhhhh
-5.813846	ahhhhhhhhh
-6.166028	ahhhhhhhhhh
-6.768088	ahhhhhhhhhhh
-6.768088	ahhhhhhhhhhhhhhhhh
-6.768088	ahhhhhhhhhhhhoooooooowww
-6.467059	ahhhhhhhiii've
-6.768088	ahhhhhhhuuu
-6.768088	ahhhhhice
-6.768088	ahhhhhwww
-6.768088	ahhhiiii
-6.768088	ahhhowooooo
-6.768088	ahhhs
-6.768088	ahhhsss
-6.768088	ahhi
-6.768088	ahhla
-6.768088	ahhohuhhahahhhh
-6.768088	ahhoohh
-6.768088	ahhs
-6.768088	ahhwhat
-6.768088	ahhwooahhhaaa
-6.768088	ahhyeah
-5.864998	ahi
-6.768088	ahight
-6.467059	ahit
-6.768088	ahizzead
-5.989937	ahja
-6.768088	ahjay
-6.768088	ahkmar
-6.768088	ahlayin
-6.467059	ahmad
-6.768088	ahmeen
-6.768088	ahmir
-6.768088	ahnds
-6.768088	ahng
-6.768088	ahno
-6.467059	aho
-6.768088	ahogado
-6.768088	ahoh
-5.53764	ahold
-6.768088	aholics
-6.768088	ahome
-4.893027	ahora
-6.768088	ahought
-5.864998	ahoy
-6.768088	ahpotraphe
-6.768088	ahran
-5.563969	ahs
-6.768088	ahtmla
-6.768088	ahuahauah
-5.768088	ahuh
-6.467059	ahve
-6.768088	ahw
-6.467059	ahwhat
-6.768088	ahwhattup
-5.236609	ai
-6.768088	ai's
-6.768088	aiaint
-4.664285	aid
-6.768088	aid's
-6.467059	aida
-6.467059	aide
-6.467059	aided
-6.768088	aider
-6.768088	aiding
-4.609726	aids
-6.768088	aidya
-6.768088	aieeeeeeeeeeeee
-6.768088	aiena
-6.768088	aient
-6.768088	aies
-6.768088	aieyo
-4.066521	aight
-6.768088	aightwhat
-5.027726	aiight
-6.166028	aiii
-6.166028	aiiight
-6.166028	aiiiiiyo
-6.467059	aiiiite
-6.768088	aiiiiyo
-6.768088	aiiiiyy
-6.768088	aiiir
-6.467059	aiint
-6.069118	aiite
-5.654145	aiiyo
-6.768088	aik
-6.768088	aikido
-6.467059	aikman
-6.290967	ail
-6.768088	ailes
-6.467059	ailey
-6.467059	ailing
-6.467059	ailment
-6.768088	ailments
-4.174802	aim
-5.92299	aim's
-6.768088	aimant
-6.467059	aime
-5.077892	aimed
-6.768088	aimee
-6.768088	aimers
-5.0199	aimin
-5.249575	aiming
-5.92299	aimless
-5.425666	aims
-5.425666	ain
-6.768088	ain't
-6.467059	ain`t
-6.768088	ainb't
-5.989937	ainda
-6.768088	ainee
-6.768088	ainn
-2.385495	aint
-5.53764	aint'
-6.768088	aint'no
-6.768088	aint't
-6.768088	ainti
-6.768088	aintnaughty
-6.290967	aints
-6.467059	aintsta
-6.467059	aintthat
-6.768088	aintwalked
-6.768088	aintyou
-6.467059	ainy
-6.768088	aiprendate
-3.632956	air
-5.989937	air's
-6.290967	airbag
-6.290967	airbags
-5.621961	airborne
-6.069118	airbrush
-6.166028	airbrushed
-6.768088	aircondition
-5.654145	aircraft
-5.425666	aire
-5.989937	aired
-6.768088	aires
-6.768088	airfare
-6.467059	airfields
-6.768088	airfole
-6.166028	airforce
-6.768088	airforce's
-6.768088	airif
-6.768088	airim
-5.768088	airin
-6.166028	airing
-6.768088	airless
-6.768088	airlight
-6.166028	airline
-6.768088	airliners
-6.166028	airlines
-6.768088	airmax
-6.768088	airness
-5.249575	airplane
-5.563969	airplanes
-5.188305	airplay
-6.768088	airpo't
-6.768088	airporrt
-5.095991	airport
-6.166028	airports
-6.768088	airraah
-5.425666	airs
-6.768088	airsac
-6.467059	airstrike
-5.726696	airtight
-5.989937	airtime
-6.467059	airtouched
-6.768088	airturnin
-6.768088	airwalks
-6.768088	airwave
-5.489335	airwaves
-6.290967	airway
-6.290967	airways
-5.989937	airy
-6.768088	aisha
-6.768088	aishiruite
-5.188305	aisle
-6.069118	aisles
-6.290967	ait
-6.166028	aite
-6.166028	aitsu
-6.467059	aiwa
-5.199887	aiy
-6.768088	aiya
-6.768088	aiyahh
-6.768088	aiyeee
-4.561263	aiyo
-5.654145	aiyoo
-6.290967	aiyy
-3.823113	aiyyo
-6.768088	aiyyochorus
-6.290967	aiyyoo
-6.467059	aiyyy
-6.768088	aiyyyeah
-6.768088	aiyyyo
-6.768088	aiyyyyy
-6.768088	aiyyyyyyyyyyyyyyo
-5.621961	aj
-5.563969	ajax
-6.768088	ajay
-6.768088	ajouter
-6.768088	ajuta
-4.339954	ak
-6.768088	ak'
-5.989937	ak'in
-6.290967	ak'll
-6.768088	ak'nel
-5.043813	ak's
-6.768088	ak40
-6.768088	ak47
-4.530043	aka
-6.290967	akai
-6.768088	akato
-5.768088	akbar
-6.768088	aked
-5.989937	akeem
-6.768088	akes
-6.768088	akg
-6.768088	akhbar
-6.768088	aki
-6.467059	akickdoe
-5.813846	akil
-6.166028	akin
-6.768088	akineyle
-5.92299	aking
-5.989937	akinyele
-6.768088	akinyle
-6.768088	akir
-6.467059	akiramenai
-6.290967	akiramenaide
-6.768088	akiramerareru
-6.768088	akiramezu
-6.768088	akirts
-6.768088	akis
-6.768088	akisane
-6.768088	akitas
-6.467059	akki
-6.768088	aklers
-6.768088	akmed
-6.768088	aknowledge
-6.467059	ako'y
-5.177024	akon
-6.467059	akoo
-6.768088	akquan
-6.069118	akroyd
-5.512816	aks
-5.92299	akshun
-6.166028	aksion
-6.467059	aktion
-6.768088	akwardest
-6.768088	akwardly
-6.768088	akwards
-6.768088	akyroid
-6.768088	akzeptiert
-4.262938	al
-5.621961	ala
-6.768088	alabam
-6.768088	alabam'
-5.114876	alabama
-6.290967	alabaster
-6.768088	alabuys
-6.768088	alacrity
-5.688907	aladdin
-6.290967	aladdins
-6.768088	alagator
-6.768088	alah
-5.813846	alaikum
-6.768088	alain
-6.768088	alaine
-6.069118	alakazam
-6.768088	alakazoo
-6.768088	alake
-6.768088	alalalalalalal
-6.467059	alamae
-6.768088	alambama
-6.467059	alameda
-5.043813	alamo
-6.768088	alamo'll
-6.768088	alamoney
-5.726696	alan
-6.290967	alana
-6.768088	alando
-6.467059	alanta
-6.467059	alantic
-4.583397	alarm
-6.768088	alarm's
-5.236609	alarmed
-5.989937	alarmin
-5.726696	alarming
-6.467059	alarmingly
-5.305691	alarms
-5.92299	alas
-5.688907	alaska
-6.069118	alaskan
-6.768088	alassi
-6.467059	alavie
-6.768088	alaza
-6.768088	alazae
-5.989937	alazay
-6.768088	alazay's
-6.768088	alaze
-6.290967	alazhay
-5.989937	alba
-6.768088	alba's
-6.768088	albakerque
-6.768088	albanein
-6.768088	albania
-6.768088	albans
-5.92299	albany
-6.166028	albee
-6.768088	albee's
-6.768088	albeit
-5.406361	albert
-6.768088	albert's
-6.166028	alberta
-6.768088	alberto
-6.768088	albi
-5.726696	albin
-5.92299	albino
-6.768088	albinos
-6.768088	alboum's
-4.042994	album
-5.864998	album's
-6.768088	albumandi
-4.809047	albums
-6.768088	albums'
-6.069118	albuquerque
-6.768088	alc
-6.768088	alcaholic
-6.768088	alcana
-6.768088	alcancei
-6.768088	alcanzando
-6.768088	alcanzar
-6.768088	alcaseltzer's
-5.688907	alcatraz
-6.768088	alcatrez
-6.467059	alchahol
-6.166028	alchemist
-5.688907	alchemy
-6.768088	alchohol
-6.768088	alchoholic
-6.768088	alchoholing
-6.768088	alchohols
-6.290967	alchol
-6.467059	alcholic
-6.290967	alcholics
-6.768088	alchoooool
-5.864998	alchy
-6.768088	alcindor
-6.768088	alco
-6.768088	alcoba
-6.768088	alcohlic
-4.70363	alcohol
-6.768088	alcoholer
-5.177024	alcoholic
-6.290967	alcoholic's
-5.370149	alcoholics
-6.768088	alcoholism
-6.768088	alcohols
-6.467059	ald
-6.768088	aldermen
-6.768088	aldin
-6.768088	aldo
-5.353115	ale
-6.467059	alec
-6.768088	alecart
-6.768088	alecis
-6.768088	aleem
-6.768088	alegandome
-6.768088	alegiance
-6.768088	alegra
-6.768088	alegres
-5.591997	alegria
-6.768088	alehze
-6.768088	alehze`
-6.768088	alejado
-6.467059	alejar
-6.290967	alejaras
-6.768088	alejarme
-6.768088	alejarte
-6.768088	alejas
-6.467059	alejes
-6.768088	alejndome
-6.768088	alemar
-6.768088	alenki
-4.707391	alert
-6.768088	alert's
-6.768088	alerta
-6.768088	alertchuck
-5.813846	alerted
-6.768088	alertin
-6.290967	alerting
-6.768088	alertness
-6.768088	alertno
-6.768088	alerto
-6.768088	alerts
-6.768088	alesis
-5.512816	alex
-5.864998	alexander
-6.768088	alexandro
-6.069118	alexi
-6.069118	alexis
-6.768088	alezah
-6.467059	alezay
-6.069118	aleze
-6.768088	alf
-5.989937	alfa
-6.069118	alfalfa
-6.467059	alfored
-6.768088	alfre
-5.768088	alfred
-6.069118	algado
-5.813846	algebra
-6.768088	algebraic
-6.768088	algebrate
-6.290967	algn
-5.387877	algo
-5.726696	alguien
-6.290967	algum
-6.768088	alguma
-6.290967	algun
-6.768088	alguna
-6.768088	algunas
-6.467059	algunos
-6.467059	alguns
-6.467059	alhezay
-4.640984	ali
-6.768088	alia
-4.997237	alias
-6.290967	aliases
-6.768088	aliasi
-5.249575	alibi
-6.467059	alibi's
-6.467059	alibies
-5.688907	alibis
-5.621961	alice
-6.467059	alice's
-5.654145	alicia
-6.768088	alicious
-6.768088	alicks
-5.199887	alien
-6.768088	alienable
-6.768088	alienaeno
-6.290967	alienate
-6.290967	alienated
-6.768088	alienating
-6.768088	alienation
-6.768088	alienators
-5.387877	aliens
-6.768088	aliento
-6.768088	aligator
-6.768088	aligators
-6.768088	aligence
-6.290967	alight
-6.768088	alighten
-6.768088	aliging
-6.467059	aligist
-5.768088	align
-6.290967	aligncenter
-5.989937	aligned
-6.768088	alignin
-6.768088	alignleft
-5.768088	alignment
-6.768088	alignments
-6.768088	alignright
-4.961909	alike
-6.069118	alikes
-6.467059	aliment
-6.467059	alimoca
-6.768088	alimoni
-6.290967	alimony
-6.768088	alisae
-6.768088	alisah
-6.290967	alison
-6.768088	alistic
-6.768088	alition
-5.654145	alittle
-6.768088	ality
-6.768088	ality's
-3.815296	alive
-6.768088	alive'
-6.467059	alivein
-6.768088	aliviado
-6.768088	aliviar
-6.768088	alivio
-6.768088	aliya
-6.768088	aliyah's
-6.290967	alizae
-6.768088	alizarin
-6.768088	alizate
-6.768088	alizbig
-5.004661	alize
-6.290967	alize'
-6.768088	alizealize
-6.290967	alka
-6.768088	alkadiene
-6.166028	alkahol
-6.768088	alkaholic
-5.043813	alkaholik
-5.060518	alkaholiks
-6.768088	alkaholistics
-6.768088	alkahols
-6.290967	alkaline
-6.768088	alkalines
-6.768088	alkaoliks
-6.768088	alkapella
-6.069118	alkie
-5.989937	alkies
-6.069118	alkohol
-6.768088	alkoholic
-6.768088	alkoholik
-2.180366	all
-6.467059	all12
-5.22402	alla
-5.406361	alladat
-6.768088	alladin
-6.768088	alladocious
-6.768088	allagain
-4.512816	allah
-6.768088	allah'll
-5.211786	allah's
-6.467059	allahu
-6.290967	allan
-6.467059	allante
-6.768088	allassy
-6.768088	allatha
-6.768088	allathat
-6.768088	allawishes
-6.467059	allay'all
-6.768088	allayzae
-6.467059	allazae
-6.768088	allazay
-6.768088	allcome
-6.467059	alld
-6.768088	allday
-5.069118	alle
-6.768088	alled
-6.467059	alledged
-6.768088	alleen
-6.467059	allegation
-6.290967	allegations
-6.467059	allegba
-6.768088	allegeble
-5.92299	alleged
-6.467059	allegedly
-5.144839	allegiance
-6.768088	allegible
-6.467059	allegience
-6.768088	allegory
-6.768088	allegrando
-6.768088	allegria
-6.768088	allegro
-5.445869	allein
-5.688907	alleine
-6.768088	alleinstehende
-6.768088	alleluia
-6.768088	allem
-5.199887	allen
-6.768088	allene
-6.768088	aller
-6.768088	allerersten
-5.621961	allergic
-6.768088	allerging
-6.768088	allergy
-6.768088	allerstoutste
-4.772453	alles
-5.989937	alleviate
-6.290967	alleviated
-4.525051	alley
-6.768088	alleybag
-6.768088	alleycat
-5.262938	alleys
-5.989937	alleyway
-5.813846	alleyways
-6.768088	alleyz
-6.166028	allez
-6.166028	allfrumtha
-6.467059	allfrumthai
-6.768088	allget
-5.92299	allgoin
-6.069118	alli
-6.768088	alliah
-5.305691	alliance
-6.768088	alliby
-5.864998	allie
-6.768088	allied
-6.768088	alliegance
-6.768088	allience
-5.768088	allies
-6.768088	alligat
-5.077892	alligator
-5.591997	alligators
-6.768088	alligiance
-6.467059	allineed
-6.768088	allines
-6.768088	allisade
-6.768088	allison
-6.290967	alll
-5.864998	allll
-5.92299	alllll
-5.864998	allllll
-5.489335	alllllll
-6.768088	allllllll
-6.166028	alllllllll
-6.166028	allllllllll
-6.768088	alllllllllllll
-6.290967	alllright
-6.166028	allmenn
-6.768088	allmy
-6.467059	allnever
-6.467059	allnight
-6.768088	allocate
-6.290967	allot
-6.768088	allota
-6.768088	alloted
-6.768088	allotted
-6.467059	allover
-4.699903	allow
-6.768088	allow'n
-6.069118	allowance
-6.768088	allowances
-4.746899	allowed
-6.290967	allowin
-5.864998	allowing
-5.688907	allows
-6.768088	alloy
-6.290967	alloys
-6.768088	allready
-6.768088	allred
-5.052085	allright
-6.768088	allrite
-5.768088	alls
-6.768088	allso
-6.768088	allsort'
-6.768088	allstar
-6.290967	allstars
-6.768088	allstarsyeahyeah
-6.768088	allstreet
-6.290967	allt
-6.467059	alltag
-6.768088	alltagstrott
-6.768088	allthen
-6.768088	allude
-6.768088	alluding
-6.467059	allure
-6.768088	alluring
-6.768088	allusion
-6.768088	allustrious
-6.768088	alluva
-5.864998	allways
-6.768088	allwayz
-6.768088	allwe
-6.768088	allwhats
-6.768088	allwhen
-5.688907	ally
-6.768088	allyeah
-6.768088	alm
-5.353115	alma
-6.768088	almafon
-6.069118	almanac
-6.768088	almanacs
-6.768088	almight
-5.13462	almighty
-6.768088	almighty707rick
-6.768088	almohada
-5.726696	almond
-6.768088	almonds
-4.113912	almost
-6.768088	almustafa
-6.290967	alochol
-6.290967	aloe
-6.768088	aloeveralese
-6.768088	aloha
-6.467059	alomar
-6.768088	alomnd
-6.290967	alona
-6.768088	alond
-3.428438	alone
-6.768088	alone'
-6.467059	alone'll
-6.467059	alone's
-6.290967	alonei
-6.768088	alonely
-3.887847	along
-6.768088	along's
-6.768088	alongeverybody
-6.768088	alonggg
-6.290967	alongggg
-6.467059	alongs
-5.726696	alongside
-6.768088	alongthe
-6.467059	alonnnne
-6.166028	alonzo
-6.069118	aloof
-6.768088	aloofness
-6.768088	aloooone
-6.290967	aloooong
-6.768088	alooooooong
-6.768088	alooooooooone
-6.768088	aloooooooooong
-6.467059	alors
-4.325609	alot
-5.864998	alota
-5.305691	alotta
-5.53764	aloud
-6.467059	alovin
-6.768088	alp
-5.177024	alpha
-5.53764	alphabet
-6.166028	alphabetic
-6.069118	alphabetical
-6.166028	alphabetically
-6.467059	alphabetics
-6.467059	alphabets
-6.768088	alphanumerical
-6.768088	alphas
-6.467059	alphastation
-5.489335	alpine
-6.467059	alpines
-6.768088	alpinesfishesjvc's
-6.768088	alpinista
-5.726696	alpo
-6.768088	alqaeda
-3.82807	already
-6.290967	alreay
-6.467059	alrededor
-6.768088	alredy
-6.768088	alrevez
-6.768088	alri
-3.620721	alright
-6.768088	alrightdont
-6.768088	alrightfillfill
-6.768088	alrightokay
-6.768088	alrightthatz
-6.768088	alrightwe'll
-6.290967	alrighty
-6.290967	alrightyeah
-5.004661	als
-6.768088	alsatian
-6.768088	alseep
-4.316302	also
-5.726696	alston
-6.768088	alsy
-5.864998	alt
-6.768088	alta
-6.768088	altanta
-5.768088	altar
-6.768088	altbierbowle
-6.290967	alte
-5.425666	alter
-6.768088	alteration
-6.768088	alterations
-6.069118	altercation
-6.290967	altercations
-5.591997	altered
-6.768088	altering
-6.768088	alterior
-6.069118	alternate
-6.768088	alternated
-6.768088	alternates
-6.166028	alternating
-6.768088	alternation
-5.688907	alternative
-6.768088	alternator
-6.467059	alters
-6.768088	althea
-6.768088	altho'
-4.412063	although
-6.467059	altima
-6.768088	altimers
-6.768088	altimeter
-5.654145	altitude
-6.768088	altitudes
-6.768088	altmain
-5.92299	alto
-5.864998	altogether
-6.768088	alton
-6.768088	altruistic
-6.768088	altschul
-6.768088	altschuls
-6.467059	alttyxobg
-6.768088	altuays
-6.768088	altune
-6.768088	alturas
-6.768088	alumbrando
-6.768088	alumina
-6.768088	aluminim
-6.467059	aluminium
-5.370149	aluminum
-5.654145	alumni
-6.467059	alumnus
-6.768088	alussinojenas
-6.768088	alv
-6.467059	alva
-6.768088	alvarado
-6.768088	alvarez
-6.467059	alveate
-6.768088	alveerdersain
-6.069118	alvin
-6.768088	alwa
-6.290967	alwaaaaays
-6.768088	alwas
-6.768088	alwasy
-5.726696	alway
-6.768088	alway's
-3.10941	always
-6.768088	always'll
-6.768088	always's
-5.563969	alwayz
-6.166028	alwyas
-6.768088	aly
-6.768088	alyrics
-6.768088	alyson
-6.467059	alyssa
-6.768088	alz
-6.768088	alzan
-6.768088	alzheimer
-6.290967	alzheimer's
-6.768088	alzheimers
-6.768088	alzhmiers
-3.238915	am
-6.768088	am'
-6.768088	am's
-5.406361	ama
-6.768088	ama's
-6.768088	amabas
-6.768088	amable
-6.768088	amaco
-6.467059	amadeus
-5.989937	amadou
-6.768088	amaduous
-6.768088	amage
-6.768088	amal
-6.467059	amalgam
-6.768088	amalgamates
-6.768088	amalgamating
-6.768088	amalgams
-6.467059	amamantan
-6.290967	amame
-6.768088	amamzed
-6.166028	amanda
-6.768088	amanda's
-6.069118	amando
-6.467059	amandonos
-5.813846	amanecer
-6.768088	amaneces
-6.768088	amani
-5.864998	amante
-6.768088	amantes
-6.768088	amantics
-5.22402	amar
-6.768088	amarett
-6.467059	amaretta
-6.290967	amarettas
-5.864998	amaretto
-6.166028	amargo
-6.768088	amarias
-6.467059	amarillo
-6.069118	amarnos
-6.768088	amarrados
-5.813846	amarte
-6.768088	amaru
-5.654145	amas
-6.768088	amass
-6.768088	amassed
-6.768088	amaste
-5.086847	amateur
-5.276727	amateurs
-6.290967	amatuer
-6.768088	amatuers
-6.768088	amatullah
-6.768088	amature
-6.768088	amatures
-6.768088	amaz
-4.955175	amaze
-4.91683	amazed
-5.726696	amazement
-5.768088	amazes
-4.83359	amazin
-4.478054	amazing
-5.512816	amazingly
-5.813846	amazon
-6.768088	amazons
-6.768088	amb's
-5.813846	ambassador
-5.688907	amber
-6.768088	ambercrombie
-5.92299	ambiance
-6.768088	ambiancenever
-6.768088	ambiants
-6.768088	ambicin
-6.166028	ambidextrous
-6.166028	ambience
-6.768088	ambient
-6.768088	ambiente
-6.768088	ambiguity
-6.290967	ambiguous
-5.13462	ambition
-5.53764	ambitions
-6.768088	ambitionz
-5.591997	ambitious
-6.166028	ambivalence
-6.768088	amble
-6.768088	ambro
-6.768088	ambrosia
-4.875994	ambulance
-6.069118	ambulances
-6.768088	ambulancia
-6.768088	ambulant
-6.467059	ambulence
-5.467059	ambush
-6.768088	ambush'll
-6.290967	ambushed
-6.768088	ambushes
-6.290967	amd
-5.989937	ame
-6.768088	amelia
-6.768088	ameliorate
-6.768088	amemome
-5.0199	amen
-6.166028	amend
-6.768088	amending
-5.92299	amendment
-6.290967	amendment's
-6.290967	amendments
-5.53764	amends
-6.467059	ameng
-6.768088	amensia
-6.768088	ameration
-6.768088	amereti
-6.768088	ameretta
-4.331926	america
-4.823606	america's
-6.768088	america'smost
-6.467059	americaa
-6.768088	americaaa
-4.378922	american
-6.768088	americana
-6.768088	americanizado
-6.467059	americano
-6.768088	americanos
-5.591997	americans
-5.989937	americas
-6.768088	americatribe
-6.768088	americaz
-6.768088	americe
-6.467059	americon
-5.654145	amerie
-6.768088	amerigo
-6.467059	amerika
-5.864998	amerikaz
-6.768088	ameriken
-6.069118	amerikkka
-5.989937	amerikkka's
-6.768088	amerikkkaz
-6.768088	amerrican
-5.989937	amerykhan
-6.768088	ames
-6.069118	ameteur
-6.768088	amethyst
-6.467059	amex
-5.92299	amg
-6.768088	amg's
-6.768088	amgs
-6.467059	amhad
-6.768088	amherst
-5.768088	ami
-6.768088	amibitions
-6.768088	amicable
-6.768088	amical
-5.989937	amid
-5.489335	amidst
-6.166028	amiga
-5.290967	amigo
-5.249575	amigos
-6.768088	amigosfat
-5.13462	amil
-6.768088	amillion
-6.768088	amily
-5.0199	amin
-6.467059	amina
-6.768088	amina's
-6.768088	amine
-6.768088	amino
-6.768088	aminos
-6.768088	amirap
-6.768088	amis
-6.768088	amish
-6.467059	amiss
-6.290967	amistad
-6.768088	amistad's
-6.290967	amity
-5.591997	amityville
-6.166028	amityvilllle
-6.768088	amke
-6.768088	amm
-6.768088	ammalances
-6.768088	amman
-6.768088	ammbiene
-6.467059	ammended
-6.768088	ammends
-6.166028	ammex
-6.768088	amminition
-4.768088	ammo
-6.768088	ammo'
-6.768088	ammoe
-5.864998	ammonia
-6.768088	ammonos
-6.768088	ammorate
-6.768088	ammulate
-6.467059	ammunation
-6.768088	ammunisation
-6.467059	ammunission
-4.893027	ammunition
-6.467059	ammunitiongo
-6.467059	ammunitions
-6.768088	ammunitionwe
-6.768088	ammuntion
-6.768088	amn
-6.768088	amndote
-6.768088	amneisa
-5.290967	amnesia
-6.467059	amnesty
-6.768088	amnis
-6.768088	amny
-5.512816	amo
-6.768088	amoco
-6.768088	amoeba
-6.768088	amok
-6.768088	amon
-4.904766	among
-4.660879	amongst
-6.768088	amongsta
-6.467059	amonia
-6.768088	amonia's
-4.389691	amor
-6.768088	amorarita
-5.621961	amore
-6.290967	amores
-6.467059	amoretta
-6.768088	amorettos
-6.768088	amorous
-6.290967	amos
-6.467059	amotherfuckin
-6.768088	amound
-6.768088	amoung
-6.768088	amoungst
-6.768088	amounst
-4.692542	amount
-6.467059	amountin
-5.077892	amounts
-5.92299	amour
-6.768088	amourettas
-6.768088	amoxacilin
-6.768088	amoxins
-4.828569	amp
-6.768088	amp'd
-6.768088	ampacomby
-5.370149	ampb
-5.236609	amped
-6.768088	ampedence
-6.467059	ampel
-6.166028	ampex
-6.467059	amphatimens
-6.768088	amphetamine
-5.989937	amphetamines
-6.768088	amphetimene
-6.467059	amphibian
-6.768088	amphibians
-6.768088	amphibious
-6.166028	ampin
-6.768088	amping
-5.654145	ample
-6.768088	ampler
-5.813846	amplified
-5.813846	amplifier
-6.069118	amplifiers
-6.467059	amplifies
-6.768088	amplifires
-6.768088	amplifore
-6.069118	amplify
-6.467059	ampm
-6.069118	ampr
-6.467059	ampr's
-5.406361	amps
-6.768088	ampsa
-6.467059	ampt
-5.989937	amputate
-6.290967	amputated
-6.768088	amputation
-6.768088	amputators
-6.290967	ams
-5.305691	amsterdam
-6.467059	amthe
-6.467059	amtrack
-6.768088	amtracks
-5.864998	amtrak
-6.290967	amtraks
-5.688907	amuck
-6.166028	amuk
-6.768088	amumbles
-6.768088	amung
-6.768088	amurk
-5.53764	amuse
-5.489335	amused
-5.563969	amusement
-6.768088	amusementsee
-6.467059	amuses
-6.166028	amusin
-6.069118	amusing
-5.621961	amy
-2.974298	an
-5.92299	ana
-6.467059	anacin
-5.512816	anaconda
-6.290967	anacondas
-6.768088	anad
-6.768088	anaheim
-6.768088	anakin
-5.92299	anal
-6.768088	analist
-6.290967	analize
-5.512816	analog
-6.290967	analogy
-6.768088	analong
-6.768088	analoo
-6.166028	analyse
-6.768088	analysed
-6.768088	analysin
-6.467059	analysing
-5.813846	analysis
-5.92299	analyst
-5.989937	analytical
-6.768088	analytically
-6.768088	analyticscom
-4.818698	analyze
-5.989937	analyzed
-6.166028	analyzer
-6.768088	analyzes
-5.989937	analyzin
-5.654145	analyzing
-6.768088	analzing
-6.768088	anamanam
-6.768088	anamocity
-6.768088	ananda
-6.768088	ananomous
-6.467059	ananswer
-6.768088	ananymous
-6.768088	anarchie
-6.768088	anarchism
-6.768088	anarchistic
-6.768088	anarcho
-5.445869	anarchy
-6.768088	anartica
-6.768088	anasin
-6.290967	anastasia
-6.467059	anastesia
-6.768088	anastetics'll
-5.445869	anata
-6.768088	anatomical
-6.768088	anatomically
-5.249575	anatomy
-6.768088	anaxe
-6.768088	anblick
-6.290967	anbody
-6.768088	anboom
-6.768088	anc
-6.467059	ance
-6.768088	ancent
-6.768088	ancester
-6.290967	ancestor
-6.768088	ancestor's
-5.512816	ancestors
-6.768088	ancestors'
-6.467059	ancestral
-6.166028	ancestry
-6.768088	ancha
-5.406361	anchor
-6.290967	anchored
-5.92299	anchors
-6.768088	anchorwoman
-4.864998	ancient
-6.069118	ancients
-6.768088	ancy
-6.166028	and'll
-6.166028	and're
-5.688907	and's
-6.768088	and1
-6.768088	anda
-6.166028	andale
-6.768088	andaluces
-6.166028	andan
-6.290967	andand
-6.768088	andante
-6.166028	andar
-6.768088	andas
-6.768088	andauernd
-6.768088	andbow
-6.768088	andbut
-6.069118	andele
-6.768088	ander'
-6.768088	ander'n
-5.92299	andere
-5.406361	anderen
-6.467059	anderes
-6.768088	andern
-5.92299	anders
-5.989937	anderson
-5.768088	andes
-6.768088	andexact
-6.467059	andf
-6.768088	andgot
-6.768088	andhalf
-6.768088	andhey
-6.768088	andi
-6.768088	andi'm
-6.768088	andi've
-6.768088	andidote
-6.768088	andif
-6.768088	andit's
-6.166028	andmy
-6.768088	andnow
-6.467059	ando
-4.707391	andre
-6.467059	andre's
-6.768088	andre3000
-6.768088	andreas
-6.290967	andreasson
-6.290967	andres
-5.989937	andretti
-5.591997	andrew
-6.467059	andrew's
-6.768088	andrews
-6.467059	androgenous
-6.768088	androgynous
-6.467059	android
-6.290967	androids
-6.768088	andromeda
-5.591997	ands
-6.768088	andsmoke
-6.467059	andthe
-6.768088	andwait
-5.489335	andy
-6.768088	andyour
-6.069118	ane
-6.166028	anecdote
-6.768088	anecdotes
-6.768088	anectomy
-6.768088	anee
-6.768088	anelope
-6.768088	anemia
-5.864998	anemic
-6.768088	anestheptic
-6.166028	anesthesia
-6.467059	anesthetic
-6.768088	anesthetics
-6.467059	aneurisms
-5.425666	anew
-6.290967	anfang
-5.425666	ang
-6.768088	angaline
-6.069118	ange
-6.768088	angealan
-4.115842	angel
-5.305691	angela
-6.467059	angeldust
-6.768088	angelduster
-4.961909	angeles
-6.768088	angelettie
-6.768088	angelgod
-5.563969	angelic
-6.768088	angelica
-6.768088	angelical
-5.92299	angelina
-6.768088	angelino
-6.768088	angelino's
-6.768088	angelinos
-6.290967	angelique
-6.768088	angelita
-6.290967	angelo
-6.467059	angelogen
-6.768088	angelou
-6.768088	angelou's
-4.328756	angels
-6.290967	angels'
-6.768088	angelskillaplease
-6.768088	angemerkt
-6.768088	angenehmen
-4.484787	anger
-6.768088	anger's
-6.467059	angers
-6.768088	anges
-6.768088	angesichts
-6.768088	angestrengt
-6.467059	anghellic
-5.489335	angie
-6.768088	angie's
-6.768088	angilina
-6.768088	angina
-6.768088	angl
-4.910756	angle
-6.768088	angle's
-6.768088	angled
-6.768088	anglers
-5.114876	angles
-6.768088	anglin
-6.069118	anglo
-6.768088	ango
-5.864998	angola
-6.768088	angoula
-6.768088	angrier
-6.467059	angriest
-6.467059	angrily
-4.726696	angry
-5.768088	angst
-6.467059	anguila
-6.768088	anguilla
-5.726696	anguish
-6.768088	angular
-6.768088	angushing
-6.290967	anh
-6.166028	anhelo
-6.768088	anhiliation
-6.290967	ani
-6.768088	ani'
-6.467059	ani't
-6.768088	anie
-6.290967	anigga
-6.768088	anika
-6.768088	anim
-6.768088	anima
-6.768088	animado
-6.768088	animais
-4.644237	animal
-6.467059	animalism
-6.069118	animalistic
-4.83867	animals
-6.768088	animals'
-6.467059	animate
-5.512816	animated
-6.768088	animateur
-5.864998	animation
-6.467059	animator
-6.467059	anime
-5.726696	animosity
-6.768088	anistedic
-6.768088	anistic
-6.768088	aniston
-5.989937	anit
-5.290967	anita
-6.768088	anitfreeze
-6.467059	anj
-6.768088	ank
-6.768088	anka
-6.768088	ankh
-6.768088	ankhs
-5.249575	ankle
-5.124636	ankles
-6.069118	anklet
-6.467059	anklets
-6.768088	anko
-6.768088	anky
-6.768088	anlegen
-6.768088	anmbition
-6.768088	anmerkung
-5.445869	ann
-5.387877	anna
-6.768088	anna's
-6.467059	annabelle
-6.768088	annamette
-5.425666	anne
-6.768088	annekdote
-6.768088	annervirsary
-6.768088	annette
-6.768088	annex
-6.768088	annheiser
-6.768088	annhilate
-6.467059	annhilation
-6.467059	anni
-6.768088	annialate
-4.989937	annie
-6.768088	annihalation
-5.53764	annihilate
-6.166028	annihilated
-5.989937	annihilating
-5.813846	annihilation
-6.467059	annihilator
-6.768088	annihlates
-6.768088	annihliate
-6.768088	anniversaries
-5.989937	anniversary
-6.166028	annnnn
-6.768088	annnnnnd
-5.864998	annoint
-6.290967	annointed
-6.467059	annointin
-6.768088	annointing
-6.467059	annouced
-6.768088	annoucing
-5.563969	announce
-6.166028	announced
-5.654145	announcement
-5.467059	announcer
-6.768088	announcer's
-6.467059	announcers
-6.467059	announces
-6.166028	announcin
-6.768088	announcment
-5.768088	annoy
-6.768088	annoyance
-5.53764	annoyed
-6.768088	annoyin
-5.92299	annoying
-6.768088	annoys
-6.768088	anns
-5.688907	annual
-6.290967	annually
-6.768088	annuit
-6.768088	annulment
-6.290967	ano
-6.768088	anoche
-6.768088	anochecer
-6.768088	anohter
-6.467059	anoint
-6.467059	anointed
-6.768088	anointing
-6.467059	anoints
-6.768088	anomics
-6.768088	anon
-6.768088	anonimos'
-6.768088	anonym
-6.768088	anonymity
-5.563969	anonymous
-6.768088	anonymously
-6.768088	anorexia
-6.069118	anorexic
-6.768088	anormous
-6.467059	anos
-6.768088	anoter
-6.768088	anoth
-4.870461	anotha
-6.768088	anotha'
-6.467059	anothe
-3.148995	another
-6.069118	another's
-6.768088	anotheran
-6.768088	anotherhow
-6.290967	anothers
-6.768088	anotoher
-6.768088	anought
-6.768088	anouncement
-6.768088	anouther
-6.467059	anova
-6.768088	anover
-6.768088	anoy
-6.290967	anruf
-5.864998	ans
-6.467059	ansa
-6.290967	ansaars
-6.467059	ansd
-6.768088	anselm
-6.467059	ansia
-6.768088	ansias
-6.166028	ansiedad
-6.467059	ansiedaduh
-6.467059	ansion
-6.467059	anslem
-6.467059	ansom
-6.768088	anson
-4.12365	answer
-5.654145	answer's
-6.768088	answerbig
-5.249575	answered
-5.768088	answerin
-5.22402	answering
-6.768088	answerit
-6.768088	answerrrrrrrrrrrrrrrr
-4.644237	answers
-6.768088	answerscratch
-6.768088	answrs
-4.813846	ant
-6.768088	ant'
-6.768088	anta
-6.467059	antacid
-6.768088	antagonist
-6.768088	antagonistic
-6.768088	antagonists
-6.768088	antagonity
-6.768088	antagonizer
-6.290967	antagonizing
-6.768088	antarctic
-6.467059	antartic
-6.768088	antartica
-6.768088	antaxion
-5.069118	ante
-6.768088	antecdote
-6.768088	antecdotes
-6.768088	antedote
-6.467059	antee
-6.768088	anteing
-6.467059	antelope
-6.768088	antelopes
-6.768088	antenae
-5.563969	antenna
-6.768088	antenna's
-6.290967	antennae
-5.688907	antennas
-6.768088	anteojitos
-6.768088	antera
-6.768088	antere
-5.726696	antes
-6.768088	antetion
-4.904766	anthem
-5.813846	anthems
-6.768088	anther
-6.467059	anthill
-6.768088	anthistetic
-6.166028	anthology
-5.387877	anthony
-6.768088	anthony's
-5.512816	anthrax
-6.290967	anthropologists
-6.290967	anthropology
-4.854275	anti
-6.768088	antibiotic
-6.768088	antibiotically
-6.467059	antibiotics
-6.768088	antibodies
-6.768088	antibody
-6.768088	antic
-6.768088	anticeptive
-6.290967	antichrist
-6.768088	antici
-5.768088	anticipate
-5.654145	anticipated
-6.768088	anticipaten
-5.768088	anticipatin
-5.425666	anticipating
-5.387877	anticipation
-6.768088	anticpating
-6.069118	antics
-6.768088	antics'll
-6.768088	antidisestblishmentarianism
-6.768088	antidope
-5.425666	antidote
-6.768088	antidote's
-6.768088	antidotes
-6.768088	anties
-6.290967	antifreeze
-6.768088	antigamente
-6.768088	antigua
-6.467059	antihistamine
-6.467059	antihistamines
-6.768088	antilla
-6.768088	antilogical
-6.768088	antilze
-6.290967	antimatter
-6.768088	antipersperant
-6.467059	antiquated
-6.768088	antiquating
-5.688907	antique
-6.290967	antiques
-6.166028	antiseptic
-6.768088	antiseptics
-6.166028	antisocial
-6.768088	antithesis
-6.768088	antlanta
-6.768088	anto
-6.467059	antoher
-5.989937	antoine
-6.768088	antoine's
-6.069118	antoinette
-6.467059	anton
-6.768088	antonina
-6.069118	antonio
-6.290967	antonym
-6.069118	antonyms
-6.768088	antretti
-6.768088	antrhax
-5.489335	ants
-6.467059	antsy
-6.290967	antwan
-6.768088	antwone
-6.290967	antwort
-6.768088	anukis
-6.768088	anumbis
-5.236609	anus
-6.768088	anus'll
-5.688907	anutha
-6.768088	anuva
-6.768088	anvertrauen
-6.768088	anvi
-5.92299	anvil
-6.166028	anvils
-6.467059	anwar
-6.467059	anwser
-6.166028	anxieties
-5.591997	anxiety
-6.290967	anxiety's
-5.188305	anxious
-6.290967	anxiously
-6.467059	anxiousness
-3.409583	any
-6.768088	anya
-6.768088	anyboby
-3.989937	anybody
-6.768088	anybody'd
-6.768088	anybody'll
-5.989937	anybody's
-5.621961	anyday
-6.768088	anyen
-5.32093	anyhow
-6.768088	anyhowdown
-6.768088	anyhows
-6.768088	anymo
-6.768088	anymo'
-4.275328	anymore
-6.290967	anymoremore
-6.768088	anymorenoyeahsay
-4.311723	anyone
-5.813846	anyone's
-5.654145	anyplace
-5.445869	anythang
-6.768088	anythen
-5.92299	anythin
-3.631051	anything
-6.768088	anything'll
-5.92299	anything's
-6.768088	anythingfor
-6.467059	anythings
-6.768088	anythinh
-4.51041	anytime
-6.768088	anytime's
-6.768088	anyting
-4.097843	anyway
-6.768088	anywayabout
-6.768088	anywayhe
-5.425666	anyways
-6.467059	anywayz
-4.475832	anywhere
-6.768088	anywhere's
-6.768088	anywhurr
-6.768088	anzufangen1993
-6.768088	anzug
-6.768088	anzunehmen
-6.768088	anzupissen
-6.768088	anzuschaun
-5.688907	ao
-6.768088	aobut
-6.166028	aoi
-6.768088	aok
-5.864998	aol
-6.768088	aon
-6.768088	aoooooo
-6.768088	aooooooh
-6.768088	aoooowwww
-6.768088	aooww
-6.467059	aoowww
-6.768088	aoowwwwwhhhhhhhhhhhhhhh
-6.768088	aoowwwwwowwwww
-6.467059	aoowwwwww
-6.768088	aoranza
-6.768088	aorta
-6.467059	aortic
-6.069118	aos
-6.768088	aotearoa
-6.768088	aound
-6.290967	aow
-6.768088	aowowowowowowowowowowowo
-6.290967	aoww
-6.768088	aowwhwhwaa
-6.069118	aowww
-6.069118	aowwww
-6.290967	aowwwwww
-6.290967	aowwwwwww
-6.768088	aowwwwwwwwawowwwwww
-6.768088	aowwwwwwwwww
-6.768088	aowwwwwwwwwwwww
-6.768088	aowwwwwwwwwwwwwww
-5.276727	ap
-6.768088	ap'
-6.768088	ap's
-5.353115	apache
-6.768088	apacionado
-6.768088	apag
-6.467059	apaga
-6.768088	apalled
-6.467059	apalling
-6.768088	apalls
-6.467059	apanha
-6.467059	apapacharte
-6.768088	aparece
-6.166028	aparecio
-6.768088	aparrel
-4.047929	apart
-5.864998	apartheid
-4.755251	apartment
-6.768088	apartment'
-5.654145	apartments
-6.768088	apartno
-6.069118	apathy
-6.768088	apathy's
-5.92299	apb
-6.768088	apbanith
-6.768088	apd
-5.489335	ape
-6.768088	ape's
-6.768088	apearent
-6.768088	apellido
-6.768088	apemen
-6.166028	apenas
-6.768088	apendes
-6.768088	aper
-6.768088	aperk
-4.887275	apes
-6.467059	apesar
-6.768088	apetaitis
-6.768088	apetece
-6.768088	apetite
-6.768088	apettite
-5.92299	apex
-6.768088	aphids
-6.768088	aphliated
-6.768088	aphrike
-5.864998	aphrodisiac
-6.166028	aphrodisiacs
-6.768088	aphrodisiatic
-5.864998	aphrodite
-5.989937	apiece
-6.768088	apitta
-5.425666	apl
-6.768088	aplasta
-6.768088	aplasto
-6.768088	aplaudem
-6.768088	aplde
-5.92299	apldeap
-6.768088	aplenty
-6.768088	aplico
-6.467059	aplogise
-6.768088	aplogizies
-6.768088	apltraum
-6.768088	apnea
-6.290967	apocalipse
-5.177024	apocalypse
-5.864998	apocalyptic
-6.768088	apocaplypse
-6.467059	apocolypse
-6.768088	apogee
-6.768088	apoi
-6.768088	apoli'
-6.467059	apoligetic
-5.989937	apoligies
-6.768088	apoligize
-6.768088	apoligized
-6.467059	apoligizin
-6.768088	apollin
-5.060518	apollo
-6.768088	apollogize
-6.467059	apollonia
-6.768088	apollos
-6.467059	apologetic
-5.236609	apologies
-6.768088	apologing
-6.768088	apologise
-4.742783	apologize
-5.989937	apologized
-6.069118	apologizes
-6.467059	apologizing
-5.262938	apology
-6.768088	apolster
-6.069118	apon
-6.768088	aposse
-6.768088	apostei
-5.512816	apostle
-6.467059	apostle's
-5.768088	apostles
-6.290967	apostles'
-6.467059	apostrophe
-6.768088	apostrophes
-6.768088	aposttles
-6.768088	apouse
-6.768088	apoyo
-6.768088	app
-6.768088	appachino
-6.768088	appalachian
-6.467059	appalachians
-6.768088	appaling
-6.467059	appalled
-6.768088	appallin
-6.166028	appalling
-6.467059	appalls
-6.290967	appalonia
-6.768088	apparant
-6.467059	apparantly
-6.768088	apparat'
-5.305691	apparatus
-5.445869	apparel
-6.768088	apparels
-5.467059	apparent
-5.387877	apparently
-6.768088	apparition
-6.768088	apparitions
-6.768088	apparrel
-6.290967	appartment
-6.768088	appause
-4.566691	appeal
-6.166028	appealed
-5.864998	appealin
-5.591997	appealing
-6.768088	appeals
-6.768088	appealsex
-4.696207	appear
-6.467059	appear'd
-5.32093	appearance
-5.813846	appearances
-5.199887	appeared
-6.290967	appearence
-6.768088	appearences
-6.467059	appearently
-5.92299	appearin
-6.467059	appearing
-4.91683	appears
-6.467059	appearw
-6.467059	appease
-6.768088	appeasin
-6.467059	appeasing
-6.768088	appeciation
-6.768088	appellation
-6.467059	appendages
-6.768088	appendin
-6.069118	appendix
-6.467059	appendixit's
-6.467059	apperal
-6.768088	apperance
-6.768088	apperatus
-6.467059	appetit
-5.086847	appetite
-6.768088	appetite'll
-6.069118	appetites
-6.768088	appetitie
-6.768088	appetitite
-6.290967	appetizer
-6.768088	appetizers
-6.467059	appettite
-6.768088	appiled
-6.768088	appitite
-5.370149	applaud
-6.768088	applaude
-6.768088	applauded
-6.768088	applaudin
-6.768088	applaudless
-6.166028	applauds
-5.004661	applause
-6.768088	applaused
-4.43565	apple
-6.166028	apple's
-6.768088	applebaum
-6.467059	applebottom
-6.768088	applebottoms
-5.563969	applebum
-6.768088	applection
-6.768088	applegate
-6.768088	applehead
-6.768088	appleheads
-6.768088	applejacks
-6.768088	applepie
-5.406361	apples
-6.290967	applesauce
-6.069118	appleseed
-6.768088	appleton
-6.069118	appletree
-5.726696	appliance
-6.467059	appliances
-6.290967	applicable
-6.768088	applicant
-6.768088	applicants
-5.467059	application
-6.467059	applications
-5.489335	applied
-6.768088	applier
-5.688907	applies
-6.768088	applilcation
-6.768088	applo
-6.768088	appluad
-6.768088	appluade
-4.92299	apply
-5.768088	applyin
-5.989937	applying
-6.768088	appoach
-6.467059	appoint
-6.069118	appointed
-5.621961	appointment
-6.768088	appologetic
-6.467059	appologize
-6.768088	appologizin
-6.768088	appology
-6.768088	appose
-6.768088	appraisal
-6.166028	appraised
-6.768088	appraisers
-6.768088	appraisin
-6.467059	appraoch
-6.768088	appraochin
-6.768088	appre
-6.768088	appreaciate
-4.618869	appreciate
-5.512816	appreciated
-6.069118	appreciates
-6.467059	appreciatin
-5.387877	appreciation
-6.467059	appreciative
-6.290967	apprehend
-6.768088	apprehended
-6.768088	apprehension
-6.768088	apprehensive
-5.813846	apprentice
-6.768088	apprentices
-6.768088	appretice
-6.768088	apprieciate
-4.454221	approach
-6.768088	approach'em
-5.211786	approached
-6.467059	approacher
-5.654145	approaches
-5.353115	approachin
-5.370149	approaching
-6.768088	approchin
-5.864998	appropriate
-6.768088	appropriately
-6.768088	approuch
-5.726696	approval
-5.489335	approve
-5.768088	approved
-6.768088	approven
-6.768088	approves
-6.768088	approvesand
-6.467059	approximate
-5.989937	approximately
-6.768088	apr
-6.467059	aprehend
-6.467059	aprend
-6.768088	aprenda
-6.467059	aprender
-6.467059	aprendere
-6.467059	aprendi
-6.768088	aprendo
-6.768088	apres
-6.467059	apretado
-5.199887	april
-6.768088	aprils
-6.768088	aprin
-6.768088	apritame
-6.290967	aproach
-6.467059	aproaches
-5.688907	apron
-6.768088	aprons
-6.467059	aproval
-6.768088	aproveitando
-6.768088	aproximate
-6.768088	aprty
-6.768088	apt
-6.768088	aptitude
-6.768088	apu
-6.768088	aq
-5.489335	aqu
-5.621961	aqua
-6.768088	aquaduct
-6.768088	aquafina
-6.768088	aquafresh
-6.290967	aquainted
-6.768088	aquaman
-6.768088	aquamen
-6.768088	aquaproof
-6.768088	aquarious
-6.467059	aquarium
-6.768088	aquarium's
-5.290967	aquarius
-6.166028	aquariuses
-6.768088	aquaruis
-6.290967	aquatic
-6.768088	aqueduct
-5.726696	aquel
-6.166028	aquela
-6.768088	aquelesque
-6.166028	aquella
-6.290967	aquello
-6.290967	aquellos
-6.290967	aquemini
-4.929239	aqui
-6.768088	aquinas
-6.467059	aquire
-6.290967	aquired
-6.768088	aquit
-6.768088	aquitted
-5.166028	ar
-5.726696	ar's
-6.768088	ar15
-6.768088	araaab
-5.370149	arab
-6.290967	arabia
-5.53764	arabian
-5.989937	arabians
-5.688907	arabic
-6.166028	arabics
-5.864998	arabs
-6.768088	araccis
-6.768088	arachnaphobia
-6.768088	arachnid
-6.768088	arachnids
-6.290967	arafat
-6.467059	araignment
-6.768088	araise
-6.768088	aralias
-6.768088	arange
-6.768088	arastifa
-6.467059	aray
-6.768088	araya
-6.069118	arbeit
-6.768088	arbeite
-6.768088	arbitrary
-6.768088	arbitron
-6.467059	arboles
-6.768088	arbor
-6.768088	arby's
-5.726696	arc
-5.813846	arcade
-6.768088	arcadian
-6.768088	arcane
-6.768088	arced
-6.768088	arceologist
-5.262938	arch
-6.768088	archaelogists
-6.768088	archaeological
-6.768088	archaic
-6.467059	archang
-6.768088	archangel
-6.768088	archangels
-6.166028	archbishop
-6.166028	arched
-6.768088	archeological
-6.467059	archeologists
-5.92299	archer
-6.290967	archers
-6.768088	archery
-5.768088	arches
-6.166028	archie
-6.467059	archin
-6.768088	arching
-5.353115	architect
-5.92299	architects
-6.768088	architectual
-6.290967	architecture
-6.768088	archival
-6.467059	archive
-5.726696	archives
-5.989937	archors
-6.768088	archrival
-6.768088	arco
-6.290967	arctic
-6.768088	arctie
-6.768088	ardachoke
-6.768088	ardcore
-6.768088	arde
-6.768088	arden
-6.768088	ardens
-6.467059	ardent
-6.166028	arder
-6.768088	ardiendo
-6.768088	ardig
-6.768088	ardjo
-2.758638	are
-6.768088	are'
-6.768088	are'a
-6.467059	are's
-4.31477	area
-6.290967	area's
-6.768088	arean
