
\data\
ngram 1=2301
ngram 2=6855
ngram 3=70

\1-grams:
-3.888741	'd	-0.04310469
-3.888741	'er	-0.04597616
-3.888741	'im	-0.04580777
-3.888741	'n	-0.04597616
-3.888741	'round	-0.04152008
-2.888741	10	-0.02316484
-3.41162	100	-0.04457095
-3.286681	105	-0.04089598
-3.286681	110	-0.04287867
-3.41162	115	-0.04299169
-3.286681	120	-0.04366922
-3.286681	125	-0.02073315
-3.286681	130	-0.02493555
-3.41162	135	-0.04349994
-3.286681	140	-0.03781909
-3.286681	145	-0.0331047
-2.934499	15	-0.02019753
-3.286681	150	-0.04140668
-3.286681	155	-0.03696052
-3.286681	160	-0.04225651
-3.888741	165	-0.0451898
-3.286681	170	-0.04163346
-3.286681	175	-0.03339364
-3.286681	180	-0.03119291
-3.286681	185	-0.0421433
-3.286681	190	-0.04299169
-3.41162	195	-0.04015724
-2.888741	20	-0.1378613
-3.587711	200	-0.04552698
-3.41162	205	-0.0436128
-3.41162	210	-0.04117977
-3.41162	215	-0.04038467
-3.41162	220	-0.04513358
-3.41162	225	-0.04400759
-3.587711	230	-0.04513357
-3.888741	235	-0.04524602
-3.587711	240	-0.03604283
-3.587711	245	-0.04417667
-3.043643	25	-0.02787078
-3.587711	250	-0.04197341
-3.587711	255	-0.04417667
-3.587711	260	-0.04236969
-3.587711	265	-0.04344349
-3.587711	270	-0.04412031
-3.587711	275	-0.04428935
-3.888741	280	-0.04468353
-3.587711	285	-0.02991369
-3.587711	290	-0.04010035
-3.587711	295	-0.04327412
-2.934499	30	-0.03049562
-3.888741	300	-0.04563932
-3.587711	305	-0.04535842
-3.587711	310	-0.04575163
-3.888741	315	-0.04563932
-3.587711	320	-0.04485235
-3.888741	325	-0.04507735
-3.587711	330	-0.04321765
-3.587711	335	-0.04468353
-3.888741	340	-0.04569548
-3.888741	345	-0.04592004
-3.043643	35	-0.0564072
-3.888741	350	-0.04530222
-3.888741	355	-0.04310469
-3.888741	360	-0.0353533
-3.888741	365	-0.04597616
-3.888741	370	-0.04349994
-3.888741	375	-0.04541462
-3.888741	380	-0.04597616
-3.888741	385	-0.04457095
-3.888741	390	-0.04597616
-3.888741	395	-0.04473981
-2.934499	40	-0.03495056
-3.888741	400	-0.04575163
-3.888741	415	-0.04597616
-3.888741	420	-0.04457095
-3.888741	425	-0.04592004
-3.888741	435	-0.0353533
-3.888741	445	-0.04157677
-2.985651	45	-0.04287867
-3.888741	450	-0.04597616
-2.985651	5	-0.0344322
-3.11059	50	-0.06567271
-3.11059	55	-0.07189945
-3.189771	60	-0.03992968
-3.11059	65	-0.04321765
-3.11059	70	-0.0688711
-3.043643	75	-0.03264201
-3.11059	80	-0.04134995
-3.286681	85	-0.03014656
-3.286681	90	-0.0286307
-3.189771	95	-0.03975893
-1.272791	</s>
-99	<s>	-0.1318682
-3.888741	abhorrence	-0.0222175
-3.888741	abide	-0.04558316
-3.587711	abode	-0.04304819
-2.774798	about	-0.03290487
-3.888741	above	-0.04333059
-3.587711	accept	-0.0382763
-3.888741	accepts	-0.04157677
-3.888741	accompany	-0.04152008
-3.888741	accordance	-0.04597616
-3.888741	accorded	-0.03610025
-3.888741	account	-0.0407256
-3.888741	accursed	-0.04417667
-3.587711	accusation	-0.03333586
-3.888741	acquainted	-0.0436128
-3.888741	across	-0.04597616
-3.587711	act	-0.02162436
-3.888741	acted	-0.04597616
-3.888741	action	-0.04597616
-3.888741	actions	-0.0454708
-3.888741	activity	-0.04586391
-3.888741	acts	-0.04524602
-3.888741	adam	-0.04580777
-3.888741	adjured	-0.03610025
-3.888741	advise	-0.04507735
-3.587711	advised	-0.01966124
-3.888741	adzes	-0.04597616
-3.888741	affair	-0.04513358
-3.888741	affairs	-0.04344349
-3.888741	affirms	-0.04316117
-3.888741	afford	-0.04597616
-3.888741	afraid	-0.0222175
-3.587711	after	-0.03529578
-3.888741	afterward	-0.04597616
-3.189771	again	-0.07547583
-3.41162	against	-0.03523827
-3.888741	aggravate	-0.04417667
-3.587711	agree	-0.1765556
-3.286681	agreed	-0.04021411
-3.888741	ah	-0.04597616
-3.888741	aid	-0.04597616
-3.587711	air	-0.0454708
-3.587711	alarm	-0.03552578
-3.587711	alexander	-0.0423131
-3.888741	alexandria	-0.0222175
-3.888741	alight	-0.04597616
-2.847348	alison	-0.03636642
-3.888741	alison—	-0.04428936
-2.2075	all	-0.009436406
-3.888741	allege	-0.04535843
-3.286681	allow	-0.01516634
-3.888741	allowed	-0.04597616
-3.888741	alms	-0.04575163
-3.888741	alone	-0.04586391
-3.587711	along	-0.04592003
-3.888741	aloud	-0.0222175
-3.587711	alphabet	-0.04383843
-3.888741	already	-0.04157677
-3.11059	also	-0.04259598
-3.888741	also—with	-0.04597616
-3.888741	altar	-0.0407256
-3.888741	although	-0.04592004
-3.888741	altogether	-0.04580777
-3.888741	always	-0.04586391
-3.189771	am	-0.04406396
-3.888741	am'rous	-0.04434569
-3.888741	amen	-0.04157677
-3.888741	amity	-0.04530222
-3.286681	among	-0.04569548
-3.888741	ample	-0.04586391
-3.888741	amputation	-0.0222175
-2.684621	an	-0.04355638
-3.888741	ancestry	-0.0222175
-3.888741	anguished	-0.04597616
-3.888741	announces	-0.04575163
-3.888741	annoyed	-0.0407256
-3.41162	another	-0.04117977
-3.888741	answered	-0.04580777
-3.11059	answers	-0.03757356
-3.888741	antichrist	-0.04597616
-2.888741	any	-0.06569231
-3.888741	anymore	-0.0222175
-3.41162	anyone	-0.04242628
-3.587711	anything	-0.03350915
-3.587711	apart	-0.04580777
-3.888741	apostles'	-0.04502111
-3.587711	apparel	-0.04372563
-3.888741	apparent	-0.0222175
-3.888741	appeal	-0.0222175
-3.587711	appear	-0.04518979
-3.587711	apple	-0.02061417
-3.888741	apple's	-0.04586391
-3.888741	apprentice	-0.04597616
-3.888741	approached	-0.04152008
-3.888741	ardres	-0.04575163
-2.888741	are	-0.04174681
-3.888741	arguments	-0.04468353
-3.888741	aright	-0.0222175
-3.888741	arising	-0.04569548
-3.888741	arles	-0.04558316
-3.286681	arms	-0.1118689
-3.189771	around	-0.08612415
-3.888741	arrange	-0.04513358
-3.587711	arranged	-0.04406395
-3.587711	arrives	-0.04299169
-3.888741	artfully	-0.04592004
-3.888741	artfulness	-0.04197342
-1.991114	as	-0.07634519
-3.888741	aside	-0.04507735
-3.888741	ask	-0.04592004
-3.41162	asked	-0.03564074
-3.41162	asks	-0.0372469
-3.888741	ass	-0.04597616
-3.888741	assail	-0.04580777
-3.888741	assemble	-0.04428936
-3.888741	assistance	-0.04451464
-3.587711	assume	-0.04502111
-3.888741	assuming	-0.04496486
-3.888741	assurance	-0.0353533
-3.888741	assured	-0.04597616
-3.888741	astray	-0.04400758
-2.426343	at	-0.1223633
-3.888741	attempts	-0.04597616
-3.587711	attire	-0.02168371
-3.888741	auberée	-0.0353533
-3.888741	aught	-0.04597616
-3.888741	avail	-0.0222175
-3.888741	averse	-0.04558316
-3.888741	awaits	-0.04152008
-3.888741	aware	-0.04586391
-2.888741	away	-0.1243711
-3.888741	awful	-0.04597616
-3.888741	awhile	-0.04563932
-3.888741	axes	-0.04597616
-2.742613	back	-0.09828562
-3.888741	backwards	-0.04586391
-3.587711	bad	-0.04580777
-3.888741	baffled	-0.04242628
-3.888741	baked	-0.04597616
-3.41162	balls	-0.04445834
-3.888741	bamboozled	-0.0353533
-3.888741	ban	-0.0454708
-3.888741	band	-0.04310469
-3.888741	banquet	-0.04580777
-3.587711	bare	-0.04541462
-3.888741	barging	-0.0222175
-3.888741	barley	-0.04597616
-3.888741	barons—	-0.04580777
-3.888741	barrabam	-0.04597616
-3.888741	barrel	-0.0222175
-3.888741	based	-0.04580777
-3.888741	basis	-0.04597616
-3.888741	batch	-0.04597616
-3.41162	bath	-0.01570819
-3.888741	bathe	-0.04586391
-3.888741	bathed	-0.04597616
-3.888741	bathtub	-0.04597616
-3.888741	battered	-0.04490861
-3.888741	bawds	-0.0222175
-3.888741	bayeux	-0.04575163
-3.587711	bear	-0.04541462
-3.888741	bears	-0.04496486
-3.888741	beast	-0.04496486
-3.888741	beat	-0.04152008
-3.587711	beaten	-0.02215822
-3.587711	beating	-0.03964505
-3.587711	beautiful	-0.02198034
-3.888741	beautifully	-0.0222175
-3.888741	beauty	-0.04197342
-2.985651	because	-0.06279087
-3.888741	becauseshe	-0.0454708
-3.888741	become	-0.04502111
-2.684621	bed	-0.09967673
-3.888741	bedding	-0.04197342
-3.888741	bedroom	-0.04440201
-3.888741	beds	-0.0222175
-3.587711	bedtime	-0.04524601
-2.546318	been	-0.03790274
-3.888741	beeswax	-0.04592004
-2.742613	before	-0.1108201
-3.888741	befouls	-0.04592004
-3.41162	began	-0.04558316
-3.587711	begged	-0.03981585
-3.888741	begins	-0.04586391
-3.888741	begs	-0.04597616
-3.888741	beguiled	-0.04575163
-3.888741	behave	-0.0436128
-3.888741	behaved	-0.0454708
-3.587711	behavior	-0.04157677
-3.888741	behavior's	-0.04592004
-3.888741	behaviors	-0.0222175
-3.189771	behind	-0.09412795
-3.587711	being	-0.04592003
-3.888741	beldame	-0.04507735
-3.286681	believe	-0.04457095
-3.888741	believed	-0.04434569
-3.888741	belong	-0.04462724
-3.41162	belt	-0.0373614
-3.888741	bends	-0.03987277
-3.888741	benedico	-0.0222175
-3.888741	benefit	-0.04248285
-3.587711	beside	-0.03148311
-3.888741	besides	-0.04468353
-3.587711	best	-0.0407824
-3.888741	bestow	-0.0222175
-3.888741	bet	-0.04524602
-3.888741	betrothed	-0.04586391
-3.189771	better	-0.04722513
-3.189771	between	-0.03587056
-3.286681	beyond	-0.1161005
-3.888741	bidden	-0.0222175
-3.888741	big	-0.04592004
-3.888741	binds	-0.04586391
-3.587711	birth	-0.04445833
-2.41162	bishop	-0.05502364
-3.189771	bishop's	-0.1004714
-3.286681	bit	-0.04203006
-3.587711	bite	-0.04146338
-3.587711	bitter	-0.04451464
-3.888741	bittern	-0.04597616
-3.587711	black	-0.0458639
-3.888741	blades	-0.04558316
-3.888741	blazing	-0.04248285
-3.41162	blessed	-0.03235258
-3.41162	blessing	-0.03454745
-3.888741	blessèd	-0.04597616
-3.888741	blind	-0.04152008
-3.587711	blond	-0.04580777
-3.888741	bloodred	-0.04479609
-3.587711	blows	-0.04423301
-3.888741	blue	-0.04541462
-3.888741	board	-0.04586391
-3.286681	body	-0.04186013
-3.888741	bone	-0.0407256
-3.888741	bones	-0.04592004
-3.888741	book	-0.0454708
-3.888741	booming	-0.04597616
-3.587711	bore	-0.04575163
-3.587711	born	-0.04569548
-3.286681	both	-0.03873304
-3.888741	bother	-0.04580777
-3.888741	bought	-0.04575163
-3.888741	bowels	-0.04462724
-3.888741	bower	-0.04597616
-3.888741	bowing	-0.04592004
-3.888741	box	-0.04580777
-3.888741	boy's	-0.04586391
-3.888741	bread	-0.04592004
-3.41162	breast	-0.07771391
-3.41162	bred	-0.03741864
-3.286681	bring	-0.03592799
-3.888741	broken	-0.04580777
-3.888741	brook	-0.04310469
-3.888741	brothel	-0.04569548
-2.658292	brother	-0.3584639
-3.888741	brothers	-0.04580777
-3.888741	brothers'	-0.04597616
-3.11059	brought	-0.05042051
-3.888741	bruised	-0.04592004
-3.888741	brush	-0.04597616
-3.888741	buck	-0.0222175
-3.888741	budding	-0.04586391
-3.888741	built	-0.04462724
-3.888741	bump	-0.03610025
-3.888741	bundled	-0.04597616
-3.888741	burn	-0.04473981
-3.888741	burning	-0.04597616
-3.888741	burrow	-0.04586391
-3.587711	business	-0.04592003
-2.344673	but	-0.004955228
-3.888741	butcher	-0.04586391
-3.41162	buy	-0.04423302
-2.089401	by	-0.1216395
-3.888741	cakes	-0.04597616
-3.888741	calais	-0.04502111
-3.888741	call	-0.04592004
-3.189771	called	-0.05830631
-3.888741	calling	-0.04524602
-2.847348	came	-0.03448984
-2.742613	can	-0.05718348
-3.888741	candle	-0.04580777
-3.888741	candles	-0.04597616
-3.11059	cannot	-0.09001326
-3.286681	cant	-0.04440202
-3.41162	cape	-0.04507735
-3.587711	capons	-0.0458639
-3.888741	caraway	-0.0222175
-3.11059	care	-0.02822167
-3.587711	cared	-0.03246837
-3.888741	carefree	-0.04592004
-3.587711	careful	-0.04100951
-3.41162	cares	-0.04197342
-3.888741	carp	-0.04597616
-3.587711	carried	-0.04535842
-3.888741	carries	-0.04530222
-3.587711	carrying	-0.04580777
-3.587711	carved	-0.04434568
-3.41162	carver	-0.0436128
-3.888741	carvings	-0.0222175
-3.41162	case	-0.03552578
-3.888741	cases	-0.04597616
-3.888741	cast	-0.04152008
-3.41162	catch	-0.04485236
-3.286681	caught	-0.01822794
-3.888741	caused	-0.04468353
-3.888741	cavort	-0.04586391
-3.888741	cellar	-0.04597616
-3.888741	certain	-0.04580777
-3.888741	certainly	-0.04535843
-3.888741	chair	-0.04575163
-3.41162	chamber	-0.04299169
-3.587711	change	-0.04276561
-3.888741	chanted	-0.04157677
-3.888741	chapel	-0.04597616
-2.684621	chaplain	-0.02769581
-3.587711	chaplains	-0.04485235
-3.888741	charge	-0.04569548
-3.888741	charges	-0.0407256
-3.888741	charlatan	-0.04349994
-3.888741	charm	-0.04592004
-3.888741	chartrain	-0.04592004
-3.888741	chatter	-0.04597616
-3.587711	cheap	-0.04406395
-3.587711	chest	-0.04417667
-3.888741	chicken	-0.04580777
-3.11059	child	-0.03385552
-3.888741	chimed	-0.04597616
-3.888741	chin	-0.04496486
-3.888741	chisels	-0.04597616
-3.587711	choose	-0.0458639
-3.888741	chosen	-0.04592004
-3.888741	christ	-0.04592004
-3.41162	church	-0.02156501
-3.888741	churl	-0.0407256
-3.888741	cinnamon	-0.04597616
-3.888741	citterns	-0.04597616
-3.888741	city	-0.04597616
-3.888741	clad	-0.04333059
-3.888741	clamoring	-0.04468353
-3.888741	clasped	-0.0407256
-3.888741	class	-0.04558316
-3.888741	clay	-0.04428936
-3.888741	clear	-0.0222175
-3.888741	clearly	-0.04592004
-3.286681	clergy	-0.04530223
-3.888741	clergyman	-0.04575163
-3.888741	clergymen	-0.0222175
-3.888741	cleric	-0.04586391
-3.888741	clerical	-0.04597616
-3.888741	clerics	-0.04395121
-3.41162	clerk	-0.04563932
-3.587711	clever	-0.0417468
-3.888741	climb	-0.04535843
-3.587711	cloak	-0.04513357
-3.888741	cloaks	-0.04535843
-3.587711	cloister	-0.03454744
-3.11059	close	-0.06193791
-3.888741	closer	-0.03610025
-3.888741	closes	-0.04569548
-3.41162	cloth	-0.1122892
-3.888741	clothed	-0.04535843
-2.888741	clothes	0.005372822
-3.888741	clothing	-0.04558316
-3.888741	coarse	-0.04597616
-3.189771	coat	-0.03350916
-3.587711	cock	-0.02215822
-3.888741	coffers	-0.04592004
-3.888741	coins	-0.04310469
-3.888741	collateral	-0.0222175
-2.633468	come	-0.04815689
-3.888741	comely	-0.04575163
-3.587711	comes	-0.04423301
-3.888741	comforted	-0.03610025
-3.888741	comfy	-0.04513358
-3.41162	command	-0.02061418
-3.888741	commanded	-0.04457095
-3.888741	commands	-0.04569548
-3.888741	comments	-0.04152008
-3.888741	common	-0.04586391
-3.888741	commoners	-0.04597616
-3.587711	community	-0.02198034
-3.888741	companion	-0.03987277
-3.587711	company	-0.02192103
-3.888741	compare	-0.04592004
-3.888741	compelled	-0.04507735
-3.888741	competence	-0.04597616
-3.888741	complaint	-0.04417667
-3.587711	completely	-0.04575163
-3.888741	comply	-0.04552699
-3.888741	con	-0.04597616
-3.888741	conceal	-0.04597616
-3.888741	concealed	-0.04575163
-3.888741	concerning	-0.04597616
-3.888741	conduct	-0.04197342
-3.888741	confers	-0.03610025
-3.888741	confess	-0.04597616
-3.587711	confession	-0.04157677
-3.888741	confidence	-0.04597616
-3.888741	conflagration	-0.0451898
-3.888741	confrere	-0.04586391
-3.587711	confreres	-0.02215822
-3.888741	confusedly	-0.04597616
-3.888741	congratulations	-0.04597616
-3.888741	conniving	-0.04530222
-3.888741	consecrated	-0.0222175
-3.888741	consent	-0.04597616
-3.888741	consider	-0.04592004
-3.587711	consideration	-0.04558316
-3.888741	contented	-0.04513358
-3.888741	contents	-0.04580777
-3.888741	contents—	-0.04597616
-3.888741	continued	-0.03987277
-3.888741	contradict	-0.0454708
-3.888741	contradiction	-0.0222175
-3.888741	contrariwise	-0.04586391
-3.888741	contrary	-0.04530222
-3.888741	contrition	-0.0222175
-3.587711	converted	-0.01570819
-3.41162	convinced	-0.02511222
-3.888741	cools	-0.03987277
-3.888741	cord	-0.04597616
-3.888741	cordelier	-0.0222175
-3.888741	corn	-0.04541462
-3.888741	corrected	-0.04597616
-3.587711	costly	-0.02162436
-2.658292	could	-0.07361025
-3.888741	couldnt	-0.04502111
-3.888741	counsel	-0.04552699
-3.888741	count	-0.04451464
-3.888741	counted	-0.04597616
-3.888741	countermands	-0.04569548
-3.888741	courier	-0.04597616
-3.286681	court	-0.04316118
-3.888741	coustenz	-0.04558316
-3.888741	cover	-0.0454708
-3.888741	cowed	-0.04586391
-3.286681	created	-0.03953116
-3.587711	creature	-0.02061417
-3.587711	creatures	-0.04592003
-3.888741	credo	-0.04592004
-3.888741	crevice	-0.04507735
-3.587711	cried	-0.0458639
-3.888741	crier	-0.04457095
-3.587711	cries	-0.1225704
-3.587711	cross	-0.04333058
-3.888741	crowbar	-0.03987277
-3.888741	crowed	-0.04597616
-3.888741	crown	-0.04586391
-3.587711	crucified	-0.04203004
-3.888741	crucifige	-0.04597616
-3.587711	crucifix	-0.04061199
-3.888741	crucifixes	-0.0353533
-3.888741	cruelly	-0.04597616
-3.888741	crusty	-0.04597616
-3.888741	cry	-0.04440201
-3.888741	crying	-0.04597616
-3.888741	cumin	-0.0222175
-3.888741	cunning	-0.04597616
-3.11059	cunt	-0.06353997
-3.888741	cunts	-0.04310469
-3.888741	cup	-0.04310469
-3.888741	curled	-0.04473981
-3.888741	currency	-0.0222175
-3.888741	curtain	-0.0222175
-3.888741	curtained	-0.04597616
-3.286681	curtains	-0.1153137
-3.888741	cushions	-0.04440201
-3.286681	cut	-0.1054145
-3.888741	cuts	-0.04597616
-3.888741	cutting	-0.04592004
-3.888741	cwm	-0.0222175
-3.587711	cyr	-0.04378203
-3.888741	dace	-0.04440201
-3.888741	dais	-0.0222175
-3.888741	dam	-0.04580777
-3.888741	damnation	-0.0222175
-3.888741	damned	-0.04597616
-3.888741	dancing	-0.04586391
-3.888741	dapple	-0.04597616
-3.286681	dark	-0.04569548
-2.888741	daughter	-0.0481744
-3.587711	daughter's	-0.04552698
-3.888741	daunted	-0.04316117
-3.888741	dawdle	-0.04541462
-2.985651	day	-0.04095275
-3.286681	days	-0.07700767
-3.587711	dead	-0.0454708
-3.587711	deal	-0.04282214
-3.888741	dealt	-0.04592004
-2.985651	dear	-0.008794267
-3.888741	dearly	-0.04569548
-3.587711	death	-0.0458639
-3.888741	debauched	-0.04597616
-3.888741	debauches	-0.0222175
-3.888741	debt	-0.04423302
-3.888741	deceit	-0.04592004
-3.587711	deceitful	-0.0423131
-3.587711	deceived	-0.03333586
-3.888741	decision	-0.0407256
-3.888741	decked	-0.04597616
-3.888741	decree	-0.04558316
-3.888741	decreed	-0.0222175
-3.888741	deed	-0.04580777
-3.888741	deeds	-0.04586391
-3.888741	deep	-0.04597616
-3.888741	defense	-0.0222175
-3.888741	deference	-0.0222175
-3.888741	defied	-0.03987277
-3.888741	deigned	-0.04597616
-3.286681	delay	-0.0421433
-3.587711	delight	-0.02215822
-3.888741	delights	-0.04597616
-3.888741	delivered	-0.04558316
-3.888741	demand	-0.0222175
-3.888741	demeanor	-0.04569548
-3.888741	demoiselle	-0.03610025
-3.888741	demonstrated	-0.04310469
-3.888741	denier	-0.0222175
-2.888741	denise	-0.06393337
-3.888741	denise's	-0.04597616
-3.587711	dennis	-0.04299169
-3.888741	deny	-0.03610025
-3.888741	depended	-0.04569548
-3.189771	desire	-0.01690989
-3.888741	desired	-0.04586391
-3.888741	desist	-0.0222175
-3.888741	destiny	-0.04575163
-3.888741	destroyed	-0.04580777
-3.587711	details	-0.04338704
-3.888741	detects	-0.04507735
-3.286681	devil	-0.07513811
-3.587711	devils	-0.04191677
-3.888741	devotedly	-0.04563932
-3.587711	devour	-0.04327412
-2.742613	did	-0.07704506
-3.888741	didnt	-0.04468353
-3.888741	die	-0.04563932
-3.888741	died	-0.04428936
-3.888741	dieu	-0.04434569
-3.587711	different	-0.03621504
-3.888741	din	-0.04552699
-3.286681	dine	-0.2743789
-3.587711	dinner	-0.02025707
-3.888741	dinner's	-0.04541462
-3.888741	dinners	-0.04597616
-3.888741	dinnertime	-0.04440201
-3.888741	dire	-0.04597616
-3.888741	directed	-0.04468353
-3.888741	direction	-0.0222175
-3.888741	directs	-0.04597616
-3.888741	disapproved	-0.04592004
-3.888741	disclosed	-0.04434569
-3.888741	discover	-0.04333059
-3.41162	disdain	-0.11868
-3.587711	disgrace	-0.01660977
-3.888741	disgraced	-0.04575163
-3.888741	disguised	-0.04502111
-3.888741	dishonest	-0.0407256
-3.888741	dismay	-0.04597616
-3.888741	dismissed	-0.0222175
-3.888741	dispel	-0.04417667
-3.587711	distress	-0.02215822
-3.888741	distributed	-0.04575163
-3.888741	disturbed	-0.04349994
-3.888741	divine	-0.04586391
-3.888741	dixit	-0.04597616
-2.320539	do	-0.1056143
-3.41162	does	-0.1392901
-3.587711	doesnt	-0.04592003
-3.888741	doing	-0.0353533
-3.888741	domino	-0.04597616
-3.888741	dominus	-0.04597616
-3.888741	donation	-0.04592004
-3.587711	donations	-0.03529578
-3.189771	done	-0.008060042
-3.41162	dont	-0.04383844
-3.888741	doomsday	-0.04316117
-3.11059	door	-0.02132749
-3.888741	dormouse	-0.04468353
-3.888741	dotage	-0.04552699
-3.888741	douai	-0.04597616
-3.41162	double	-0.03523827
-3.587711	doubt	-0.02198034
-3.888741	dour	-0.0222175
-2.587711	down	-0.08397288
-3.888741	draft	-0.04597616
-3.888741	drags	-0.04569548
-3.888741	drank	-0.04597616
-3.888741	drape	-0.03610025
-3.888741	drapery	-0.04580777
-3.888741	drawn	-0.0451898
-3.587711	dress	-0.0454708
-3.888741	dressed	-0.0436128
-3.189771	dresses	-0.06091385
-3.888741	drew	-0.03610025
-2.847348	drink	-0.1845242
-3.587711	drinking	-0.04395121
-3.888741	drivel	-0.0222175
-3.888741	drop	-0.0451898
-3.888741	ducks	-0.04597616
-3.587711	due	-0.02150564
-3.888741	dug	-0.04580777
-3.888741	dump	-0.04530222
-3.888741	duping	-0.03987277
-3.888741	dwell	-0.04502111
-3.888741	dwelling	-0.0454708
-3.888741	dwelt	-0.04530222
-3.286681	each	-0.09042725
-3.888741	eager	-0.04580777
-3.888741	early	-0.04563932
-2.985651	earth	-0.1090533
-3.888741	earthly	-0.04569548
-3.587711	ease	-0.1904384
-3.888741	easily	-0.04597616
-3.41162	eat	-0.04473982
-3.888741	eaten	-0.04333059
-3.888741	edge	-0.04586391
-3.888741	education	-0.0222175
-3.888741	efforts	-0.04524602
-3.888741	eh	-0.04349994
-3.888741	either	-0.04563932
-3.888741	elated	-0.03610025
-3.888741	elite	-0.04597616
-3.41162	else	-0.04417668
-3.888741	embraces	-0.04406396
-2.934499	empty	-0.9761852
-3.189771	end	-0.003937639
-3.888741	ended	-0.04157677
-3.888741	endowed	-0.04597616
-3.587711	endurance	-0.1765556
-3.888741	enemy	-0.04592004
-3.888741	enfranchised	-0.04586391
-3.888741	england	-0.04592004
-3.888741	engraved	-0.03610025
-3.41162	enough	-0.04349994
-3.888741	enough—it	-0.04597616
-3.888741	ensnared	-0.04597616
-3.888741	enter	-0.04569548
-3.888741	enters	-0.04597616
-3.286681	entertainers	-0.03930328
-3.888741	entire	-0.04592004
-3.888741	entourage	-0.0222175
-3.888741	equally	-0.04485235
-3.888741	ere	-0.04586391
-3.888741	escaping	-0.04490861
-3.888741	eschew	-0.04592004
-3.888741	estate	-0.04597616
-3.888741	estates	-0.0451898
-3.888741	eternal	-0.04597616
-3.888741	eum	-0.04586391
-3.888741	eustace	-0.04569548
-3.888741	eustace's	-0.04580777
-3.587711	even	-0.0458639
-3.043643	ever	-0.06251803
-2.985651	every	-0.04214329
-3.587711	everyone	-0.04304819
-2.985651	everything	-0.05839247
-3.888741	everywhere	-0.04580777
-3.888741	evidence	-0.0222175
-3.587711	exactly	-0.03901824
-3.587711	excellent	-0.04496486
-3.41162	except	-0.04580778
-3.888741	exclaims	-0.04440201
-3.888741	excommunicated	-0.04242628
-3.888741	exemplifies	-0.04586391
-3.888741	exemplum	-0.04530222
-3.888741	exercised	-0.03987277
-3.888741	exerted	-0.0436128
-3.587711	expect	-0.03690321
-3.888741	expected	-0.0222175
-3.888741	expecting	-0.04552699
-3.888741	expects	-0.04597616
-3.888741	expertise	-0.0222175
-3.888741	explained	-0.04541462
-3.888741	explains	-0.04569548
-3.888741	explanation	-0.04406396
-3.888741	exposure	-0.0222175
-3.888741	eye	-0.04592004
-3.888741	eyed	-0.04575163
-3.41162	eyes	-0.1082999
-3.41162	fable	-0.02156501
-3.286681	fabliau	-0.02037614
-3.888741	fabliaux	-0.0222175
-3.888741	fabric	-0.0222175
-3.888741	fac	-0.04597616
-3.189771	face	-0.00916091
-3.888741	facedown	-0.04580777
-3.41162	fact	-0.03495056
-3.41162	fail	-0.04366922
-3.888741	failure	-0.04597616
-2.934499	fair	-0.03901825
-3.587711	fairest	-0.0458639
-3.189771	faith	-0.09275649
-3.888741	fallen	-0.0222175
-3.888741	falls	-0.04440201
-3.888741	false	-0.04597616
-3.888741	fancied	-0.0353533
-3.587711	far	-0.03970199
-3.587711	fared	-0.04575163
-3.888741	farms	-0.0454708
-3.888741	farted	-0.03610025
-3.189771	fashion	-0.01702988
-3.286681	fast	-0.08779841
-3.888741	fasting	-0.04417667
-3.587711	fat	-0.04214329
-3.888741	fated	-0.04558316
-3.587711	father	-0.0406688
-3.888741	favor	-0.04597616
-3.888741	fear	-0.04597616
-3.888741	feast	-0.04451464
-3.888741	feather	-0.04597616
-3.587711	fed	-0.04440201
-3.888741	feeding	-0.0436128
-3.888741	feeling	-0.04597616
-3.587711	feels	-0.04236969
-3.286681	feet	-0.02198035
-3.888741	feigning	-0.0454708
-3.888741	feint	-0.04586391
-3.41162	fell	-0.0436128
-3.888741	fellows	-0.04592004
-3.286681	felt	-0.03627244
-3.888741	fend	-0.04580777
-3.888741	fetch	-0.04580777
-3.888741	few	-0.04535843
-3.888741	fidgeted	-0.04400758
-3.888741	fiery	-0.04580777
-3.41162	fifteen	-0.3893491
-3.888741	figure	-0.04507735
-3.587711	figures	-0.02180239
-3.587711	filled	-0.03564073
-3.888741	filles	-0.04597616
-3.888741	filling	-0.04597616
-3.888741	filthy	-0.04563932
-3.888741	finalize	-0.04592004
-3.043643	find	-0.1018844
-2.80956	fine	-0.04072561
-3.888741	finery	-0.0222175
-3.587711	finest	-0.0454708
-3.888741	finis	-0.0222175
-3.189771	fire	-0.04214329
-3.888741	fires	-0.04597616
-3.043643	first	-0.04208668
-3.41162	fish	-0.02037614
-3.888741	fists	-0.0222175
-3.41162	fit	-0.04451464
-3.888741	fit—	-0.04400758
-3.888741	fix	-0.04597616
-3.888741	flak	-0.04316117
-3.888741	flame	-0.04580777
-3.888741	flanks	-0.0222175
-3.888741	flapping	-0.04597616
-3.888741	flax	-0.0222175
-3.888741	fleece	-0.0222175
-3.888741	flight	-0.0222175
-3.888741	flock's	-0.04597616
-3.888741	flour	-0.04592004
-3.587711	flower	-0.02209894
-3.888741	flowers	-0.04597616
-3.587711	flushed	-0.03587055
-3.888741	foisted	-0.04152008
-3.888741	fold	-0.04473981
-3.888741	folderol	-0.04575163
-3.587711	folk	-0.04344349
-3.888741	follow	-0.04502111
-3.888741	fondness	-0.04310469
-3.587711	food	-0.04191677
-3.41162	fool	-0.04203005
-3.888741	foolish	-0.0454708
-3.587711	forbade	-0.04089597
-3.888741	forbid	-0.04541462
-3.587711	forbidden	-0.04225651
-3.587711	forbids	-0.0394742
-3.888741	forget	-0.04580777
-3.888741	forgives	-0.04592004
-3.888741	forgot	-0.04468353
-3.888741	formed	-0.04524602
-3.888741	forsake	-0.04580777
-3.888741	forthwith	-0.04552699
-3.888741	fortnight	-0.04428936
-3.888741	forty	-0.04597616
-3.888741	forward	-0.04592004
-3.888741	fouchier	-0.04428936
-3.11059	found	-0.02540651
-3.587711	four	-0.04569548
-3.888741	frame	-0.04479609
-3.587711	francis	-0.04535842
-3.888741	franciscans	-0.04451464
-3.587711	free	-0.04412031
-3.888741	french	-0.04597616
-3.587711	fresh	-0.04569548
-3.888741	fret	-0.04558316
-2.934499	friar	-0.04163346
-3.888741	friar's	-0.04586391
-3.888741	friars	-0.04592004
-3.888741	friday	-0.04440201
-3.043643	friend	-0.01654973
-3.888741	friendship	-0.04597616
-3.888741	fright	-0.04580777
-2.397379	from	-0.06110413
-3.189771	front	-0.03125097
-3.888741	fruit	-0.04406396
-3.888741	frying	-0.04597616
-3.888741	fucking	-0.04541462
-3.888741	fucks	-0.03610025
-3.888741	fulfill	-0.04575163
-3.888741	fulfilled	-0.0353533
-3.286681	full	-0.01019808
-3.888741	fully	-0.04597616
-3.286681	fun	-0.04106627
-3.286681	fur	-0.1161005
-3.888741	furrow	-0.0222175
-3.888741	furs	-0.04586391
-3.587711	further	-0.04575163
-3.888741	gaffe	-0.0454708
-3.888741	gain	-0.04485235
-3.888741	gall	-0.04580777
-3.888741	galore	-0.04592004
-3.888741	game	-0.04400758
-3.888741	gaming	-0.04597616
-3.888741	ganders	-0.04597616
-3.587711	garlic	-0.0458639
-3.888741	garments	-0.04597616
-3.888741	gathered	-0.04597616
-2.888741	gave	-0.03437457
-3.888741	gay	-0.04157677
-3.888741	gelded	-0.04242628
-3.587711	generous	-0.04580777
-3.888741	genitalia	-0.04558316
-3.888741	gentian	-0.0222175
-3.888741	gentle	-0.04592004
-3.888741	gently	-0.04417667
-3.888741	george	-0.04507735
-2.71265	get	-0.0151061
-3.11059	gets	-0.04112302
-3.888741	gibbet	-0.0454708
-3.888741	gift	-0.04569548
-3.286681	gifts	-0.01918401
-3.888741	ginger	-0.04541462
-3.888741	gird	-0.04597616
-2.633468	girl	-0.05453137
-3.888741	girlfriend's	-0.04558316
-3.41162	girls	-0.04457095
-3.888741	girth	-0.04333059
-3.888741	gisors	-0.04563932
-2.633468	give	-0.09512943
-2.985651	given	-0.05839247
-3.888741	gives	-0.03610025
-3.888741	giving	-0.04457095
-3.41162	glad	-0.03844764
-3.587711	gladly	-0.03953116
-3.888741	glance	-0.04597616
-3.888741	glossed	-0.04597616
-3.888741	glowed	-0.04597616
-3.888741	glowing	-0.04597616
-2.50853	go	-0.08405964
-3.587711	goat	-0.03275773
-2.457377	god	0.0002268143
-3.11059	god's	-0.04479608
-3.043643	goes	-0.01582851
-3.189771	going	-0.04242628
-3.888741	gold	-0.0222175
-3.043643	gone	-0.1003496
-2.566522	good	-0.03844763
-3.189771	goose	-0.03598542
-3.11059	got	-0.07807961
-3.888741	govern	-0.04563932
-3.41162	grace	-0.01080701
-3.888741	gracious	-0.04597616
-3.888741	grand	-0.04496486
-3.888741	grant	-0.04592004
-3.888741	granted	-0.0222175
-3.888741	grate	-0.04597616
-3.888741	gray	-0.04597616
-2.888741	great	-0.06972688
-3.888741	greatest	-0.04575163
-3.888741	green	-0.04507735
-3.587711	greeting	-0.04530222
-3.888741	grief	-0.04479609
-3.587711	grieved	-0.04575163
-3.888741	grieves	-0.0436128
-3.888741	grouse	-0.0353533
-3.41162	grow	-0.04485236
-3.888741	growing	-0.03610025
-3.888741	grumbling	-0.0353533
-3.888741	guard	-0.03610025
-3.888741	guess	-0.04541462
-3.888741	guffawed	-0.04417667
-3.888741	guide	-0.04597616
-3.888741	guile	-0.04569548
-3.888741	guillaume	-0.04597616
-3.587711	gulp	-0.1992467
-3.888741	gulping	-0.0454708
-3.587711	gusto	-0.01954198
-3.41162	habit	-0.02013797
-2.225983	had	-0.05135017
-3.888741	hag	-0.0454708
-3.41162	hair	-0.04524602
-3.888741	haired	-0.0454708
-3.888741	half	-0.04400758
-3.888741	hall	-0.04575163
-3.888741	hammers	-0.04597616
-2.934499	hand	-0.04062676
-3.888741	handle	-0.04597616
-3.189771	hands	-0.03472026
-3.587711	hang	-0.04400758
-3.888741	hanged	-0.04597616
-3.41162	hanging	-0.04575163
-3.587711	happened	-0.03523826
-3.41162	happy	-0.04259598
-3.888741	hardened	-0.04597616
-3.888741	hardly	-0.04597616
-3.587711	harlots	-0.04558316
-3.587711	harm	-0.03896121
-3.888741	harness	-0.04575163
-3.888741	harrowing	-0.0436128
-2.473768	has	-0.08818844
-3.888741	haste	-0.04468353
-3.888741	hatchway	-0.04597616
-3.888741	hate	-0.04597616
-3.888741	hateful	-0.04592004
-3.888741	hats	-0.04479609
-2.172738	have	-0.03696495
-3.41162	having	-0.04152009
-3.888741	hawthorn	-0.04592004
-1.614583	he	-0.1751519
-2.41162	he'd	-0.1048837
-2.80956	he'll	-0.1037326
-2.658292	he's	-0.03856181
-2.888741	head	-0.07572912
-3.888741	heaped	-0.0454708
-2.985651	hear	-0.06783783
-2.985651	heard	-0.1384382
-3.41162	hearing	-0.04186013
-2.847348	heart	-0.0294476
-3.587711	hearted	-0.04592003
-3.888741	heartily	-0.04597616
-3.888741	hearty	-0.04597616
-3.888741	heat	-0.04569548
-3.888741	heavenly	-0.04580777
-3.587711	heavy	-0.04462724
-3.888741	heavyhearted	-0.04558316
-3.587711	heels	-0.04592003
-3.587711	held	-0.0394742
-3.888741	hell	-0.0222175
-3.189771	help	-0.2125324
-3.587711	helps	-0.02192103
-3.888741	helter	-0.04597616
-3.888741	hemmed	-0.04248285
-3.41162	henceforth	-0.04044151
-1.645703	her	0.01522946
-3.888741	herb	-0.04541462
-3.888741	herbs	-0.04157677
-2.633468	hercelot	-0.01537291
-2.934499	here	-0.01074615
-3.41162	here's	-0.04282215
-3.888741	hermit	-0.04417667
-3.888741	herod	-0.04597616
-3.286681	herself	-0.04445834
-3.888741	hesitation	-0.04552699
-3.888741	hey	-0.04597616
-3.41162	hidden	-0.1122892
-3.189771	hide	-0.01978048
-3.888741	hides	-0.04580777
-3.888741	hiding	-0.04417667
-3.189771	high	-0.06300869
-1.985651	him	0.02222537
-3.286681	himself	-0.07817751
-3.888741	him—you	-0.04524602
-3.888741	hinder	-0.04597616
-3.888741	hire	-0.0451898
-1.851314	his	-0.07989988
-3.888741	holds	-0.04580777
-3.888741	hole	-0.0222175
-3.587711	holiness	-0.04383843
-3.11059	holy	-0.09108204
-2.888741	home	-0.08266007
-3.888741	homestead	-0.04569548
-3.587711	honest	-0.04417667
-3.587711	honor	-0.04445833
-3.888741	hooks	-0.04597616
-3.888741	hoping	-0.04541462
-3.888741	hordes	-0.04552699
-3.888741	horse	-0.04580777
-3.587711	hot	-0.03529578
-3.587711	hour	-0.04406395
-2.985651	house	-0.02434612
-2.80956	how	-0.05050791
-3.587711	however	-0.04552698
-3.888741	hunchbacked	-0.04597616
-3.587711	hundred	-0.04558316
-3.888741	hung	-0.04597616
-3.888741	hunted	-0.0436128
-3.888741	hurried	-0.04586391
-3.587711	hurries	-0.04535842
-3.888741	hurry	-0.04592004
-3.888741	hurt	-0.0222175
-3.41162	husband	-0.04428936
-3.587711	husband's	-0.04563932
-3.888741	hypocrite	-0.04597616
-3.888741	hysterical	-0.04597616
-3.043643	i'd	-0.0979384
-2.633468	i'll	-0.1234191
-2.658292	i've	-0.08514608
-3.888741	idea	-0.04406396
-2.457377	if	-0.08790126
-3.888741	ill	-0.04423302
-3.888741	image	-0.04552699
-3.888741	images	-0.0353533
-3.41162	immediately	-0.04338705
-3.888741	impart	-0.0222175
-3.888741	implement	-0.04434569
-3.888741	implicated	-0.04310469
-3.888741	imposed	-0.04597616
-3.888741	incline	-0.04440201
-3.888741	incomplete	-0.04248285
-3.286681	indeed	-0.03477784
-3.888741	indulged	-0.03987277
-3.587711	infamy	-0.02203964
-3.888741	information	-0.04586391
-3.888741	ing	-0.04597616
-3.888741	ingratiating	-0.04575163
-3.888741	inhabit	-0.04592004
-3.888741	inheritance	-0.04586391
-3.888741	injurious	-0.04597616
-3.888741	inquire	-0.04502111
-3.888741	inquiring	-0.04535843
-3.888741	insanity	-0.04575163
-3.286681	inside	-0.0557327
-3.888741	insisted	-0.0407256
-3.888741	inspection	-0.04586391
-3.888741	install	-0.03610025
-3.888741	installment	-0.04597616
-3.286681	instead	-0.07865375
-3.888741	intelligent	-0.0353533
-3.888741	intending	-0.04468353
-3.888741	intends	-0.04563932
-3.888741	intense	-0.04569548
-3.888741	intent	-0.04575163
-3.888741	intention	-0.04597616
-3.888741	interest	-0.04558316
-3.888741	intimidated	-0.04558316
-2.80956	into	-0.01948235
-3.888741	irate	-0.0353533
-3.888741	irked	-0.04434569
-3.587711	isnt	-0.04518979
-2.774798	it's	-0.1138282
-3.888741	itches	-0.0451898
-3.286681	its	-0.04490862
-3.888741	jewelry	-0.04592004
-3.888741	job	-0.0353533
-3.888741	joined	-0.04597616
-3.11059	joy	-0.04685521
-3.587711	joyful	-0.04569548
-3.888741	judaea	-0.04592004
-3.888741	jug	-0.04563932
-3.587711	jumps	-0.04146338
-2.742613	just	-0.1262708
-3.286681	keep	-0.03333586
-3.888741	keeping	-0.04440201
-3.189771	kept	-0.02933098
-3.888741	keys	-0.04597616
-3.888741	kid	-0.04316117
-3.888741	killed	-0.04586391
-3.888741	kin	-0.04434569
-3.888741	kind	-0.04541462
-3.888741	kindled	-0.04428936
-3.888741	kindling	-0.04597616
-3.587711	king	-0.02025707
-3.888741	kith	-0.04417667
-3.888741	kneels	-0.04592004
-3.888741	knees	-0.04575163
-2.888741	knew	-0.05154619
-3.888741	knife	-0.0222175
-3.41162	knight	-0.02505334
-3.888741	knight's	-0.04592004
-3.043643	knights	-0.06867541
-3.11059	know	-0.02997191
-3.41162	known	-0.04496487
-3.888741	labors	-0.04597616
-3.888741	laceration	-0.04513358
-2.587711	lady	-0.07106927
-3.888741	lady'd	-0.04569548
-3.41162	lady's	-0.04535843
-3.286681	laid	-0.04406396
-3.888741	lamb's	-0.04597616
-3.888741	lambasted	-0.04333059
-3.888741	land	-0.0407256
-3.888741	lands	-0.04563932
-3.41162	large	-0.04524602
-3.189771	last	-0.0386189
-3.888741	late	-0.04575163
-3.888741	laugh	-0.04558316
-3.587711	laughing	-0.04575163
-3.888741	laughter	-0.04575163
-3.888741	launched	-0.04535843
-3.888741	lavish	-0.04597616
-3.888741	lavishly	-0.04597616
-3.888741	lawrence—	-0.04586391
-3.888741	lax	-0.04597616
-3.189771	lay	-0.04310469
-3.888741	le	-0.04597616
-3.587711	lead	-0.0458639
-3.888741	leads	-0.1904384
-3.888741	leaf	-0.04597616
-3.587711	league	-0.04157677
-3.888741	leaned	-0.04490861
-3.286681	learned	-0.04490862
-3.41162	least	-0.039702
-3.888741	leather	-0.04580777
-2.934499	leave	-0.07168157
-3.888741	leave—	-0.04586391
-3.587711	leaving	-0.03541079
-3.888741	lecherous	-0.04400758
-3.11059	led	-0.08067691
-2.985651	left	-0.04126009
-3.888741	leggings	-0.04580777
-3.888741	leisure	-0.04597616
-3.888741	length	-0.04434569
-3.888741	lengthy	-0.04597616
-3.587711	less	-0.03981585
-2.985651	let	-0.07521413
-3.587711	let's	-0.04214329
-3.587711	liar	-0.0458639
-3.888741	licorice	-0.04597616
-3.043643	lie	-0.05452177
-3.888741	lies	-0.0454708
-3.043643	life	-0.08189936
-3.888741	lifted	-0.04597616
-3.587711	lifts	-0.04423301
-3.11059	light	-0.02007841
-3.888741	liked	-0.04502111
-3.286681	likewise	-0.02880587
-3.888741	lined	-0.04597616
-3.888741	linen	-0.0222175
-3.888741	linger	-0.04417667
-3.41162	little	-0.04541462
-3.11059	live	-0.0375903
-3.189771	lived	-0.03764752
-3.587711	lives	-0.0423131
-3.286681	living	-0.04231311
-3.888741	loathing	-0.0222175
-3.888741	loathsome	-0.04400758
-3.888741	located—he	-0.04597616
-3.888741	location	-0.04434569
-3.888741	lock	-0.04552699
-3.888741	locked	-0.04507735
-3.888741	loft	-0.04502111
-2.985651	long	-0.06870209
-3.286681	longer	-0.04333059
-3.189771	look	-0.04112303
-3.286681	looked	-0.04231311
-3.888741	looking	-0.04575163
-3.888741	looks	-0.0436128
-3.888741	loons	-0.0222175
-3.888741	loose	-0.04502111
-3.888741	loosed	-0.04563932
-2.934499	lord	-0.03638719
-3.888741	lord's	-0.04586391
-3.587711	lords	-0.02144626
-3.189771	lost	-0.02669907
-3.888741	lot	-0.0222175
-3.888741	loud	-0.04428936
-3.189771	love	0.001975451
-3.587711	loved	-0.04412031
-3.043643	lovely	-0.04383844
-3.888741	lovemaking	-0.04558316
-3.41162	lover	-0.0212681
-3.888741	loves	-0.03610025
-3.587711	low	-0.04580777
-3.888741	luck	-0.04592004
-3.888741	lucky	-0.04310469
-3.888741	lump	-0.04597616
-3.888741	lunatic	-0.04597616
-3.888741	lust	-0.04457095
-3.888741	lying	-0.04597616
-3.888741	ma'am	-0.04248285
-2.934499	madame	-0.317371
-2.546318	made	-0.04468401
-3.888741	made—	-0.0353533
-3.888741	madness	-0.04597616
-3.888741	magnificent	-0.04428936
-3.11059	mahauld	-0.05781557
-3.41162	maid	-0.08748632
-3.286681	maiden	-0.04248286
-3.888741	maidenhead	-0.04569548
-3.888741	maintain	-0.04592004
-2.50853	make	-0.008484546
-3.41162	makes	-0.04140668
-3.587711	making	-0.03472025
-2.742613	man	-0.03001354
-3.888741	manner	-0.0407256
-3.587711	mans	-0.04569548
-3.888741	mantle	-0.04530222
-3.286681	many	-0.04412032
-3.043643	marian	-0.05462319
-3.888741	marians	-0.04552699
-3.587711	marian—	-0.03518073
-3.888741	market	-0.04400758
-3.888741	marks	-0.04507735
-3.41162	married	-0.04569548
-3.888741	martyrdom	-0.04541462
-3.888741	marvel	-0.04248285
-3.41162	master	-0.1423888
-3.41162	matter	-0.04225651
-3.888741	mattocks	-0.04597616
-3.888741	mattress	-0.04597616
-2.847348	may	-0.07480608
-3.888741	mayhem	-0.04558316
-3.888741	meal	-0.04597616
-3.286681	mean	-0.04169014
-3.888741	meaning	-0.04592004
-3.587711	meant	-0.04378203
-3.587711	meet	-0.04395121
-3.888741	meeting	-0.04152008
-3.888741	melodious	-0.04552699
-3.888741	member	-0.0222175
-3.888741	members	-0.0222175
-3.888741	memory	-0.04152008
-3.41162	men	-0.09334278
-3.189771	menhould	-0.1063418
-3.888741	meo	-0.0222175
-3.587711	merchandise	-0.04163346
-3.286681	merchant	-0.1114151
-3.888741	mercy	-0.03610025
-3.888741	mere	-0.04597616
-3.888741	merit	-0.04552699
-3.888741	mess	-0.04535843
-3.888741	message	-0.04152008
-3.888741	messes	-0.04558316
-3.888741	messing	-0.04580777
-3.888741	met	-0.04496486
-3.286681	might	-0.0408392
-3.888741	mightily	-0.04310469
-3.888741	milan	-0.04344349
-3.888741	mill	-0.0222175
-3.189771	mind	-0.02013797
-3.888741	minds	-0.0454708
-3.587711	mine	-0.04513357
-3.587711	minor	-0.04383843
-3.888741	minstrels	-0.04569548
-3.888741	minstrelsy	-0.0222175
-3.888741	miracles	-0.0222175
-3.888741	mirth	-0.0222175
-3.888741	misgivings	-0.04242628
-3.888741	mishap	-0.04541462
-3.587711	miss	-0.199809
-3.888741	missing	-0.03610025
-3.888741	mistresses	-0.04592004
-3.888741	modestly	-0.04592004
-3.888741	modesty	-0.0222175
-3.189771	money	-0.0898224
-3.888741	mongrel	-0.04580777
-3.888741	monk	-0.04316117
-3.888741	moral	-0.04597616
-2.527013	more	-0.1877677
-3.587711	morning	-0.04496486
-3.888741	mortally	-0.04597616
-3.043643	most	-0.04490862
-2.658292	mother	-0.061878
-3.41162	mother's	-0.04457095
-3.587711	mount	-0.02203964
-3.587711	moves	-0.03964505
-3.888741	moving	-0.0222175
-3.888741	mr	-0.0222175
-2.742613	much	-0.04622841
-3.888741	muck	-0.0222175
-3.888741	mulling	-0.04580777
-3.888741	mum	-0.0222175
-2.742613	must	-0.03246838
-3.888741	myself	-0.04597616
-3.888741	naked	-0.04157677
-3.286681	name	-0.03975893
-3.888741	nature	-0.03610025
-3.587711	near	-0.04552698
-3.888741	nearest	-0.04597616
-3.888741	necessary	-0.04558316
-3.587711	neck	-0.04558316
-3.11059	need	-0.04524601
-3.888741	needed	-0.04310469
-3.888741	neednt	-0.04597616
-3.587711	needs	-0.04282214
-3.888741	neighborliness	-0.04575163
-3.286681	neither	-0.04541462
-3.043643	never	-0.04406396
-3.41162	new	-0.02209894
-3.888741	newly	-0.04597616
-3.587711	next	-0.04558316
-3.888741	nice	-0.04417667
-3.888741	niggardly	-0.04592004
-2.934499	night	-0.02430687
-3.888741	nine	-0.04580777
-3.888741	ninny	-0.0353533
-2.172738	no	-0.1888478
-3.189771	noble	-0.04518981
-3.888741	noblewoman	-0.0222175
-3.587711	nobly	-0.04530222
-3.888741	nobody	-0.04586391
-3.888741	noise	-0.04457095
-3.41162	none	-0.04496487
-3.888741	nonpareil	-0.04530222
-3.888741	nonsense	-0.04597616
-2.774798	nor	-0.05947622
-3.888741	normand	-0.04333059
-3.888741	noses	-0.0222175
-2.181171	not	-0.02484035
-3.043643	nothing	-0.02769522
-3.888741	novice	-0.04462724
-2.473768	now	-0.06562294
-3.888741	nurse	-0.04310469
-3.888741	nursed	-0.04597616
-3.888741	nurture	-0.04524602
-3.888741	o	-0.04580777
-3.587711	obeyed	-0.01171881
-3.888741	objection	-0.04530222
-3.888741	obligation	-0.04552699
-3.888741	occasion	-0.04524602
-3.888741	occurred	-0.0407256
-2.71265	off	-0.0003371164
-3.888741	offense	-0.04248285
-3.888741	offer	-0.04597616
-3.888741	offered	-0.03987277
-3.888741	offers	-0.04580777
-3.888741	office	-0.04597616
-3.11059	often	-0.04186012
-3.587711	oh	-0.04440201
-3.888741	oise	-0.04592004
-2.609987	old	-0.2483685
-3.888741	omer	-0.0222175
-3.888741	omission	-0.04406396
-3.888741	omitting	-0.04569548
-3.888741	omnia	-0.04597616
-3.189771	once	-0.04186013
-2.41162	one	-0.0183981
-3.888741	onions	-0.04569548
-3.043643	only	-0.04276562
-3.888741	onto	-0.04597616
-3.286681	open	-0.04569548
-3.888741	opened	-0.04473981
-3.888741	openhanded	-0.04468353
-3.587711	openly	-0.02215822
-3.888741	opposition	-0.04428936
-2.370227	or	-0.03164136
-3.41162	order	-0.04428936
-3.888741	ordered	-0.04597616
-3.189771	orders	-0.07230774
-3.888741	ordination	-0.0222175
-3.888741	ornaments	-0.0222175
-2.80956	other	-0.07057449
-3.888741	other's	-0.04586391
-3.587711	others	-0.04310468
-3.888741	otherwise	-0.04597616
-3.888741	ought	-0.04586391
-2.934499	our	-0.08851795
-2.426343	out	-0.04756223
-3.888741	outside	-0.04592004
-3.286681	over	-0.032005
-3.888741	overcoat	-0.04597616
-3.888741	overflowed	-0.04597616
-3.888741	overhead	-0.0222175
-3.888741	overseer	-0.0222175
-3.888741	overtaxing	-0.03987277
-3.888741	overwrought	-0.04563932
-3.587711	owe	-0.04485235
-3.888741	owed	-0.04592004
-3.888741	owes	-0.0222175
-3.11059	own	-0.04378203
-3.888741	pages	-0.03987277
-3.888741	paid	-0.03610025
-3.587711	pair	-0.04563932
-3.888741	pal	-0.0222175
-3.888741	palm	-0.03610025
-3.888741	pan	-0.04428936
-3.888741	parable	-0.04457095
-3.888741	paramour	-0.04530222
-3.888741	parchment	-0.04197342
-3.888741	pardon	-0.04597616
-3.888741	parent	-0.0222175
-3.888741	parents	-0.04310469
-3.888741	paris	-0.04586391
-3.888741	parish	-0.04580777
-3.888741	part	-0.0222175
-3.587711	pass	-0.02132749
-3.888741	passed	-0.04580777
-3.11059	passion	-0.2061526
-3.888741	passions	-0.04395121
-3.888741	past	-0.0222175
-3.888741	pasties	-0.04586391
-3.888741	patently	-0.04597616
-3.888741	patience	-0.04569548
-3.587711	paul	-0.04338704
-3.11059	pay	-0.03787626
-3.888741	pea	-0.04592004
-3.888741	peace	-0.0222175
-3.888741	peas	-0.04597616
-3.189771	peasant	-0.04349994
-3.888741	peasant's	-0.04563932
-3.888741	peasantry	-0.0222175
-3.189771	peasants	-0.04203005
-3.888741	pedigree	-0.0222175
-3.888741	peels	-0.04597616
-3.888741	pen	-0.04580777
-3.888741	penis	-0.04592004
-3.888741	penitence	-0.0222175
-3.587711	penny	-0.04423301
-2.888741	people	-0.03873303
-3.587711	pepper	-0.04592003
-3.888741	peppered	-0.04597616
-3.888741	per	-0.04597616
-3.888741	perceive	-0.03610025
-3.888741	perceived	-0.0222175
-3.888741	perfect	-0.0454708
-3.888741	perform	-0.04513358
-3.888741	performers	-0.04310469
-3.587711	permission	-0.02156501
-3.888741	permit	-0.04592004
-3.888741	perturb	-0.04597616
-3.41162	peter	-0.04282215
-3.888741	pheasant	-0.04597616
-3.888741	picnic	-0.04552699
-3.888741	piebald	-0.04597616
-3.888741	pieces	-0.04597616
-3.888741	piercing	-0.04597616
-3.888741	pile	-0.04597616
-3.286681	pit	-0.04417668
-3.888741	pity	-0.04569548
-2.888741	place	-0.05398105
-3.41162	placed	-0.02944759
-3.587711	plain	-0.02162436
-3.888741	plan	-0.0222175
-3.888741	plank	-0.04597616
-3.587711	plate	-0.04299169
-3.888741	pleads	-0.0407256
-3.888741	pleasance	-0.04457095
-3.888741	pleasant	-0.04563932
-3.888741	pleasantly	-0.0222175
-3.286681	please	-0.09060591
-3.888741	pleased	-0.04152008
-3.286681	pleasure	-0.04485236
-3.888741	pled	-0.0222175
-3.888741	pledge	-0.04524602
-3.888741	pledges	-0.04434569
-3.286681	plenty	-0.05579294
-3.888741	plotted	-0.04592004
-3.888741	polished	-0.0451898
-3.888741	pontoise	-0.04597616
-3.286681	poor	-0.02043566
-3.888741	poorer	-0.04502111
-3.888741	pose	-0.04580777
-3.587711	position	-0.04535842
-3.587711	possess	-0.02138688
-3.587711	possessed	-0.02192103
-3.888741	possible	-0.04597616
-3.888741	post	-0.04597616
-3.888741	posterior	-0.04597616
-3.888741	posthaste	-0.04400758
-3.888741	potbellied	-0.04592004
-3.888741	pottage	-0.04592004
-3.587711	pound	-0.04428935
-3.888741	pounded	-0.04502111
-3.888741	pounding	-0.04152008
-3.11059	pounds	-0.135314
-3.888741	poured	-0.04592004
-3.888741	pray	-0.04451464
-3.888741	prayed	-0.04451464
-3.41162	prayer	-0.02150565
-3.888741	preaching	-0.04580777
-3.888741	precepts	-0.04597616
-3.587711	precious	-0.0412365
-3.888741	prelate	-0.04524602
-3.587711	prelate's	-0.04507734
-3.888741	preoccupied	-0.04597616
-3.888741	prepare	-0.0222175
-3.888741	prepared	-0.04524602
-3.888741	prescription	-0.04507735
-3.888741	presence	-0.04597616
-3.888741	present	-0.04592004
-3.888741	press	-0.04580777
-3.888741	pretense	-0.04597616
-3.888741	pretext	-0.04586391
-3.888741	prevent	-0.04152008
-3.888741	pridefulness	-0.04558316
-2.082561	priest	-0.06554427
-3.587711	priest's	-0.04575163
-3.888741	priestly	-0.04597616
-3.41162	priests	-0.04134996
-3.888741	probity	-0.0222175
-3.888741	proceed	-0.04451464
-3.888741	procure	-0.04592004
-3.888741	professional	-0.04597616
-3.888741	profit	-0.0407256
-3.888741	profligates	-0.04597616
-3.888741	profounder	-0.04569548
-3.888741	prolong	-0.04440201
-3.587711	promise	-0.03975892
-3.587711	promised	-0.0458639
-3.888741	promptly	-0.04597616
-3.888741	pronounce	-0.04468353
-3.888741	proper	-0.04457095
-3.587711	propose	-0.04569548
-3.888741	proposed	-0.04586391
-3.587711	protection	-0.04575163
-3.888741	protestation	-0.04417667
-3.888741	proud	-0.04597616
-3.888741	proverb	-0.04457095
-3.41162	provided	-0.009710308
-3.888741	provins	-0.04580777
-3.888741	provision	-0.0222175
-3.888741	pruning	-0.04597616
-3.587711	psalter	-0.0358131
-3.888741	pull	-0.04310469
-3.888741	pullets	-0.04580777
-3.888741	punishment	-0.03987277
-3.888741	pure	-0.04502111
-3.888741	purge	-0.04575163
-3.888741	purple	-0.04597616
-3.286681	purse	-0.009038735
-3.888741	pushed	-0.04580777
-3.888741	pushes	-0.04333059
-2.847348	put	-0.02522998
-3.587711	putting	-0.04575163
-3.888741	qualities	-0.04490861
-3.888741	quantities	-0.04597616
-3.888741	question	-0.04152008
-3.888741	questioned	-0.04152008
-3.888741	quick	-0.04597616
-3.888741	quicker	-0.04502111
-3.286681	quickly	-0.02097098
-3.888741	quietly	-0.04592004
-3.11059	quite	-0.04535842
-3.888741	race	-0.04569548
-3.41162	raise	-0.04428936
-3.587711	raised	-0.03981585
-3.888741	ran	-0.0454708
-3.888741	rare	-0.04310469
-3.888741	rarity	-0.04597616
-3.888741	rascal	-0.04597616
-3.888741	reach	-0.04597616
-3.888741	read	-0.04569548
-3.587711	readily	-0.04445833
-3.587711	reading	-0.04440201
-3.189771	ready	-0.04231311
-3.888741	real	-0.04563932
-3.888741	really	-0.04535843
-3.587711	reason	-0.04502111
-3.888741	reassurance	-0.04507735
-3.888741	reassure	-0.04580777
-3.888741	rebel	-0.04248285
-3.888741	rebuke	-0.04569548
-3.888741	received	-0.03610025
-3.888741	reckless	-0.0222175
-3.888741	recluse	-0.04406396
-3.888741	recreation	-0.04400758
-3.888741	reeds	-0.04524602
-3.888741	refrain	-0.04575163
-3.888741	refutation	-0.04592004
-3.888741	regret	-0.04552699
-3.888741	rejoinder	-0.04242628
-3.888741	related	-0.04569548
-3.888741	relent	-0.0454708
-3.888741	relieved	-0.04333059
-3.888741	remain	-0.04586391
-3.888741	remains	-0.04575163
-3.888741	reminding	-0.04152008
-3.888741	remove	-0.04563932
-3.888741	renegade	-0.04242628
-3.888741	rents	-0.04592004
-3.587711	replied	-0.03078629
-3.286681	replies	-0.0337401
-3.888741	reply	-0.04586391
-3.888741	reproached	-0.04152008
-3.888741	reproof	-0.04457095
-3.587711	require	-0.04055517
-3.888741	resemble	-0.04569548
-3.888741	resound	-0.04597616
-3.888741	resounded	-0.03987277
-3.888741	respect	-0.04502111
-3.888741	respite	-0.04580777
-3.888741	rest	-0.0454708
-3.888741	rested	-0.04462724
-3.888741	return	-0.04524602
-3.888741	returned	-0.04513358
-3.286681	reward	-0.04225651
-3.587711	rhyme	-0.04552698
-3.41162	ribs	-0.04417668
-3.587711	rich	-0.04513357
-3.888741	riches	-0.0222175
-3.41162	ride	-0.03235258
-3.587711	riding	-0.04378203
-2.774798	right	-0.05072176
-3.888741	righteous	-0.04457095
-3.888741	rightful	-0.04597616
-3.888741	rightfully	-0.04417667
-3.888741	rights	-0.04569548
-3.888741	ripped	-0.03987277
-3.888741	river	-0.04597616
-3.888741	road	-0.0222175
-3.888741	robe	-0.04513358
-3.888741	roger	-0.04597616
-3.888741	roof	-0.0222175
-3.286681	room	-0.02079262
-3.888741	rose	-0.03610025
-3.888741	rotten	-0.1997528
-3.888741	round	-0.04597616
-3.888741	route	-0.04242628
-3.888741	rule	-0.04457095
-3.41162	running	-0.04563932
-3.888741	rutebeuf	-0.04597616
-3.888741	rutting	-0.04592004
-3.888741	sad	-0.04597616
-2.370227	said	0.01089522
-2.633468	saint	-0.1310189
-3.587711	saints	-0.04575163
-3.587711	sake	-0.02215822
-3.888741	salvation	-0.04563932
-3.587711	same	-0.04462724
-3.888741	sanction	-0.04586391
-3.587711	sat	-0.04349993
-3.888741	sate	-0.04580777
-3.888741	satisfaction	-0.04569548
-3.888741	satisfied	-0.04597616
-3.41162	save	-0.04434569
-3.888741	saving	-0.04569548
-3.888741	savior	-0.04580777
-3.189771	saw	-0.03339364
-2.658292	say	-0.03746928
-3.888741	saying	-0.04310469
-2.473768	says	-0.04243699
-3.888741	scarcely	-0.0454708
-3.888741	scared	-0.04248285
-3.888741	scene	-0.0222175
-3.888741	scholars	-0.04440201
-3.888741	score	-0.0222175
-3.888741	scorn	-0.04597616
-3.888741	scorned	-0.04400758
-3.888741	scraps	-0.04597616
-3.888741	screwed	-0.04597616
-3.888741	scriptures	-0.04507735
-3.888741	sculpted	-0.04592004
-3.888741	sculptures	-0.04592004
-3.888741	search	-0.03987277
-3.888741	searched	-0.04428936
-3.888741	seat	-0.0222175
-3.888741	second	-0.04597616
-3.41162	secret	-0.04490862
-3.888741	sector	-0.04552699
-3.888741	secula	-0.0222175
-3.888741	seculorum	-0.04597616
-2.80956	see	-0.02689816
-3.286681	seeing	-0.09657833
-3.888741	seek	-0.04580777
-3.888741	seeks	-0.04597616
-3.888741	seemly	-0.03610025
-3.587711	seems	-0.04451464
-3.587711	seen	-0.03604283
-3.888741	sees	-0.0222175
-3.888741	selection	-0.04395121
-3.888741	self	-0.04586391
-3.888741	selling	-0.0454708
-3.888741	sends	-0.04592004
-3.888741	senlis	-0.0353533
-3.587711	sense	-0.04270907
-3.888741	sent	-0.03610025
-3.888741	separation	-0.0222175
-3.587711	sermon	-0.0340286
-3.41162	serve	-0.04383844
-3.888741	served	-0.04485235
-3.41162	service	-0.03621505
-2.888741	set	-0.03715149
-3.888741	sets	-0.04440201
-3.888741	sewn	-0.04473981
-3.888741	sex	-0.0222175
-3.888741	shady	-0.0454708
-3.888741	shafts	-0.04434569
-3.888741	shaken	-0.04597616
-3.888741	shaking	-0.04428936
-3.41162	shall	-0.04355637
-3.888741	shameful	-0.04592004
-3.888741	shamefully	-0.0222175
-3.587711	shapely	-0.04541462
-3.587711	sharing	-0.04569548
-3.888741	sharp	-0.04597616
-3.888741	sharpened	-0.04597616
-3.888741	sharpening	-0.04597616
-1.915613	she	-0.08439157
-2.847348	she'd	-0.06038366
-3.189771	she'll	-0.04321766
-2.847348	she's	-0.0392463
-3.888741	sheepskin	-0.04485235
-3.888741	sheets	-0.04586391
-3.888741	shelter	-0.04440201
-3.888741	shift	-0.04597616
-3.888741	shillings	-0.04597616
-3.888741	shines	-0.04597616
-3.888741	shiny	-0.04597616
-3.41162	shit	-0.0212681
-3.888741	shock	-0.04597616
-3.587711	shoes	-0.04552698
-3.888741	shop	-0.04507735
-3.286681	short	-0.02073314
-3.11059	should	-0.03850472
-3.888741	shouldnt	-0.04575163
-3.41162	show	-0.03730416
-3.888741	shows	-0.0436128
-3.888741	shred	-0.0454708
-3.888741	shrieks	-0.04485235
-3.888741	shut	-0.04473981
-3.286681	side	-0.04265254
-3.888741	sifted	-0.04597616
-3.888741	sighs	-0.04468353
-3.41162	sight	-0.02186172
-3.587711	sign	-0.2002582
-3.888741	silly	-0.04592004
-3.587711	silver	-0.04580777
-3.043643	simon	-0.03287342
-3.888741	simons	-0.04597616
-3.888741	simple	-0.04586391
-3.587711	sin	-0.01750949
-3.11059	since	-0.02499444
-3.888741	sing	-0.04597616
-3.888741	sins	-0.04586391
-3.189771	sir	-0.01426175
-3.286681	sire	-0.03833342
-3.888741	sister	-0.04417667
-3.888741	sit	-0.04485235
-3.587711	sits	-0.1169269
-3.888741	sitting	-0.04597616
-3.888741	sixty	-0.04569548
-3.888741	skelter	-0.0436128
-3.888741	skill	-0.04434569
-3.888741	skillfully	-0.0353533
-3.587711	sleep	-0.04299169
-3.888741	slighted	-0.04569548
-3.888741	slightest	-0.04597616
-3.888741	slow	-0.04597616
-3.587711	sly	-0.04152008
-3.888741	slyly	-0.04592004
-3.888741	small	-0.04592004
-3.888741	smart	-0.0222175
-3.888741	snare	-0.04592004
-2.332438	so	-0.06455424
-3.888741	soft	-0.04597616
-3.888741	soissons	-0.04586391
-3.189771	sold	-0.1280045
-3.888741	solemn	-0.04597616
-2.934499	some	-0.1307649
-2.985651	someone	-0.04180347
-3.888741	someplace	-0.04569548
-3.286681	something	-0.04163346
-3.587711	somewhere	-0.04552698
-3.043643	son	-0.05498394
-3.888741	songs	-0.04440201
-3.888741	sons	-0.04597616
-2.985651	soon	-0.1728808
-3.587711	sooner	-0.04496486
-3.888741	sore	-0.04597616
-3.888741	sorrowful	-0.04597616
-3.587711	sort	-0.04575163
-3.888741	sought	-0.04597616
-3.043643	soul	-0.01341576
-3.888741	souls'	-0.04592004
-3.888741	sour	-0.04597616
-3.888741	sown	-0.04597616
-3.888741	space	-0.04580777
-3.888741	spacious	-0.04597616
-3.41162	spade	-0.03472026
-3.888741	spades	-0.0454708
-3.189771	speak	-0.04208668
-3.587711	speaking	-0.0407824
-3.888741	speech	-0.04586391
-3.888741	speedily	-0.04569548
-3.888741	spell	-0.0222175
-3.41162	spend	-0.03552578
-3.41162	spent	-0.04316118
-3.888741	spice	-0.0407256
-3.888741	spied	-0.03987277
-3.888741	spine	-0.04575163
-3.888741	spirit	-0.04524602
-3.888741	spite	-0.04333059
-3.888741	spoke	-0.04310469
-3.888741	spoken	-0.04485235
-3.587711	spot	-0.04569548
-3.888741	spots	-0.04592004
-3.888741	spread	-0.0451898
-3.888741	squats	-0.04490861
-3.888741	squatted	-0.04490861
-3.888741	squirrel	-0.04535843
-3.888741	stack	-0.0222175
-3.888741	stairs	-0.04580777
-3.587711	standing	-0.04563932
-3.587711	stands	-0.04451464
-3.888741	staring	-0.04440201
-3.587711	start	-0.04406395
-3.587711	started	-0.0458639
-3.587711	starting	-0.04580777
-3.888741	starts	-0.04597616
-3.888741	state	-0.04310469
-3.888741	stated	-0.04502111
-3.587711	states	-0.03558326
-3.888741	statues	-0.04597616
-3.888741	statuette	-0.04597616
-3.11059	stay	-0.04010035
-3.587711	stayed	-0.04524601
-3.888741	stays	-0.04552699
-3.587711	steed	-0.03472025
-3.41162	steps	-0.0890394
-3.587711	sterling	-0.04592003
-3.888741	stick	-0.0353533
-3.888741	sticks	-0.04558316
-3.888741	stiffening	-0.04248285
-3.888741	stiffer	-0.03610025
-3.888741	stifled	-0.04597616
-3.189771	still	-0.02469987
-3.888741	stingy	-0.04563932
-3.888741	stipend	-0.04310469
-3.888741	stirred	-0.0222175
-3.888741	stitching	-0.04524602
-3.888741	stock	-0.04157677
-3.888741	stocked	-0.04485235
-3.888741	stole	-0.0454708
-3.587711	stone	-0.04552698
-3.587711	stood	-0.01750949
-3.888741	stopped	-0.04597616
-3.888741	storage	-0.04597616
-3.888741	store	-0.0451898
-3.888741	stores	-0.04592004
-3.888741	stories	-0.04535843
-3.888741	storms	-0.04440201
-3.587711	story	-0.04502111
-3.41162	straight	-0.04473982
-3.587711	straightaway	-0.03466266
-3.888741	strains	-0.0222175
-3.888741	straits	-0.04597616
-3.587711	straw	-0.03953116
-3.587711	straws	-0.01948234
-3.587711	stray	-0.04242627
-3.888741	strayed	-0.04428936
-3.888741	street	-0.04242628
-3.888741	streets	-0.04580777
-3.888741	strength	-0.04597616
-3.41162	stretched	-0.3880557
-3.888741	strict	-0.04597616
-3.41162	struck	-0.08948362
-3.888741	strut	-0.0222175
-3.888741	stuffed	-0.03987277
-3.888741	stumble	-0.04513358
-3.587711	sturdy	-0.04575163
-3.888741	stylish	-0.04485235
-3.888741	suave	-0.04597616
-3.888741	subpoena	-0.0222175
-3.888741	subpoenaed	-0.03610025
-3.888741	subterfuge	-0.04592004
-3.888741	subvert	-0.04575163
-2.888741	such	-0.04372563
-3.888741	suckle	-0.04524602
-3.587711	suffer	-0.02209894
-3.888741	suffers	-0.0454708
-3.41162	suit	-0.04338705
-3.888741	suitor	-0.04597616
-3.888741	summer	-0.04597616
-3.888741	summon	-0.03610025
-3.41162	summoned	-0.03753309
-3.587711	supplied	-0.0344322
-3.587711	support	-0.01171881
-3.888741	supports	-0.04580777
-3.888741	supposed	-0.04468353
-3.286681	sure	-0.032005
-3.888741	surely	-0.04310469
-3.888741	surly	-0.04597616
-3.888741	surpassed	-0.04597616
-3.587711	suspended	-0.04152008
-3.888741	suspension	-0.03987277
-3.888741	swampy	-0.04597616
-3.41162	swear	-0.04451465
-3.41162	swears	-0.04259598
-3.888741	sweep	-0.0454708
-3.189771	sweet	-0.1079867
-3.888741	sweetheart's	-0.04434569
-3.587711	swore	-0.04282214
-3.888741	sworn	-0.04535843
-3.888741	swung	-0.04440201
-3.41162	table	-0.04231311
-3.888741	tabors	-0.04597616
-3.888741	tail	-0.04333059
-3.888741	tailored	-0.04580777
-2.658292	take	-0.07882875
-3.11059	taken	-0.1099664
-2.934499	takes	-0.1797304
-3.286681	taking	-0.04535843
-3.888741	tale	-0.04242628
-3.888741	talk	-0.0454708
-3.587711	talking	-0.04580777
-3.888741	taper	-0.0353533
-3.888741	task	-0.04597616
-3.888741	taste	-0.04575163
-3.888741	teach	-0.03610025
-3.888741	teaches	-0.04569548
-3.888741	teaching	-0.04597616
-3.888741	tear	-0.04580777
-3.888741	tears	-0.04406396
-3.888741	teeth	-0.04597616
-2.658292	tell	-0.09034158
-2.888741	tells	-0.2030225
-3.587711	ten	-0.0451898
-3.41162	tenderly	-0.11868
-3.888741	terrain	-0.0222175
-3.888741	terrified	-0.04242628
-3.888741	text	-0.04507735
-3.888741	thames	-0.04552699
-2.633468	than	-0.04330857
-2.985651	that's	-0.04010035
-2.426343	their	-0.05788449
-2.50853	them	-0.01967553
-3.888741	themselves	-0.04434569
-2.397379	then	-0.02820355
-2.490801	there	-0.08365192
-3.11059	there's	-0.1804905
-3.888741	therefore	-0.04575163
-3.41162	thereupon	-0.02892262
-3.189771	these	-0.04513358
-2.473768	they	-0.06924431
-3.11059	they'd	-0.04502111
-3.888741	they'll	-0.04468353
-3.286681	they're	-0.04569548
-3.888741	they've	-0.04597616
-3.888741	thing	-0.04563932
-3.888741	thing's	-0.04592004
-3.41162	things	-0.04208668
-3.189771	think	-0.2117919
-3.189771	thinking	-0.01906461
-3.286681	thinks	-0.03368238
-3.888741	third	-0.04597616
-3.888741	thirty	-0.0222175
-2.255272	this	-0.0435832
-3.11059	those	-0.04106627
-3.11059	though	-0.06029536
-3.043643	thought	-0.003628425
-3.41162	thoughts	-0.0344322
-3.888741	thrashings	-0.04507735
-3.888741	threatening	-0.04597616
-3.189771	three	-0.0434435
-3.587711	threw	-0.03970199
-3.888741	throat	-0.04563932
-2.847348	through	-0.07394353
-3.888741	throughout	-0.04580777
-3.286681	thus	-0.04535843
-3.888741	tidy	-0.04597616
-3.888741	tied	-0.04473981
-3.888741	tight	-0.04507735
-3.888741	tightly	-0.04597616
-2.934499	till	-0.04709463
-3.888741	tilled	-0.04586391
-2.633468	time	-0.008298915
-3.286681	times	-0.03362465
-3.888741	tips	-0.04597616
-3.888741	tirelessly	-0.04440201
-3.587711	tithes	-0.0458639
-3.888741	to't	-0.04597616
-3.587711	today	-0.04203005
-3.888741	together	-0.04552699
-2.934499	told	-0.08521438
-3.888741	tomorrow	-0.0222175
-3.888741	tongue	-0.0222175
-3.587711	tonight	-0.0421999
-3.41162	tonsured	-0.03512321
-2.847348	too	-0.1370552
-2.684621	took	-0.01237262
-3.888741	tool	-0.04558316
-3.587711	tools	-0.04552698
-3.41162	top	-0.04502111
-3.888741	topic	-0.04406396
-3.888741	tore	-0.04592004
-3.888741	torments	-0.04406396
-3.888741	torn	-0.04592004
-3.888741	tortures	-0.04597616
-3.888741	toss	-0.04468353
-3.888741	tossed	-0.04490861
-3.888741	totally	-0.04597616
-3.888741	touch	-0.03610025
-3.888741	touches	-0.0222175
-3.888741	tow	-0.04597616
-3.888741	toward	-0.04152008
-3.043643	town	-0.03793344
-3.888741	townspeople	-0.04524602
-3.888741	tradition	-0.0222175
-3.888741	train—	-0.04580777
-3.888741	transgression	-0.04417667
-3.888741	transition	-0.04597616
-3.888741	trap	-0.04580777
-3.888741	treasure	-0.04592004
-3.888741	treasured	-0.04580777
-3.41162	treat	-0.03816205
-3.888741	treatment	-0.0454708
-3.888741	tree	-0.0222175
-3.587711	trees	-0.0458639
-3.888741	trembling	-0.04597616
-3.888741	trenchant	-0.04597616
-3.888741	tricked	-0.04586391
-3.888741	trickery	-0.0222175
-3.888741	tricky	-0.04541462
-3.888741	trip	-0.04507735
-3.888741	trollops	-0.04597616
-3.587711	trouble	-0.02174306
-3.888741	trough	-0.0222175
-3.888741	troupers	-0.04417667
-3.41162	true	-0.04496487
-3.587711	truly	-0.02215822
-3.189771	trust	-0.01780899
-3.587711	truth	-0.03345139
-3.587711	try	-0.03472025
-3.888741	tumbled	-0.04242628
-3.587711	tunic	-0.04592003
-3.587711	turn	-0.0454708
-3.11059	turned	-0.02304653
-3.888741	turning	-0.04586391
-3.587711	turns	-0.04563932
-3.888741	tutored	-0.03610025
-3.587711	twelfth	-0.04152008
-3.888741	twelve	-0.04580777
-3.888741	twist	-0.04597616
-2.71265	two	-0.04112303
-3.587711	tête	-0.02215822
-3.888741	ugly	-0.04597616
-3.888741	unaffected	-0.04575163
-3.888741	unbinds	-0.03610025
-3.888741	unclad	-0.04552699
-3.888741	unclothed	-0.04152008
-3.587711	under	-0.03975892
-3.888741	understood	-0.04485235
-3.888741	undertake	-0.0222175
-3.888741	undertook	-0.04597616
-3.888741	undoubtedly	-0.0222175
-3.888741	unfamiliar	-0.04597616
-3.888741	unfitting	-0.04524602
-3.888741	ungrateful	-0.04569548
-3.888741	union	-0.04490861
-3.888741	unkind	-0.04468353
-3.41162	unless	-0.03148312
-3.888741	unmarried	-0.0222175
-3.888741	unquiet	-0.04575163
-3.189771	until	-0.06175197
-3.888741	untrue	-0.04507735
-2.527013	up	0.00512024
-2.888741	upon	-0.2048106
-3.888741	urged	-0.03610025
-3.888741	urgently	-0.04490861
-3.587711	urging	-0.03067004
-3.043643	us	-0.04417668
-3.286681	use	-0.0212681
-3.587711	used	-0.04552698
-3.888741	utmost	-0.04597616
-3.888741	vain	-0.04597616
-3.888741	valuable	-0.04417667
-3.888741	value	-0.04569548
-3.888741	varmints	-0.04440201
-2.847348	very	-0.06874175
-3.587711	vestments	-0.04191677
-3.888741	vexed	-0.04558316
-3.587711	view	-0.04428935
-3.888741	vilify	-0.04468353
-3.888741	violating	-0.04569548
-3.888741	violes	-0.04592004
-3.189771	virgin	-0.07559492
-3.888741	virginity	-0.0222175
-3.888741	virile	-0.04597616
-3.888741	virtue	-0.04597616
-3.888741	virtuous	-0.04597616
-3.587711	voice	-0.04575163
-3.888741	vow	-0.0407256
-3.888741	vulgarity	-0.04558316
-3.888741	wagon	-0.04597616
-3.189771	wait	-0.01074616
-3.888741	waited	-0.04507735
-3.888741	waiting	-0.04242628
-3.888741	waits	-0.04575163
-3.888741	waking	-0.04597616
-3.41162	walking	-0.04412032
-3.888741	walks	-0.04440201
-3.888741	wandering	-0.04597616
-3.286681	want	-0.04191678
-3.286681	wanted	-0.08911481
-3.888741	wanton	-0.04457095
-3.888741	wants	-0.04395121
-3.888741	warrant	-0.04592004
-2.031409	was	-0.02341114
-3.286681	wasnt	-0.07479699
-3.888741	wasnt—it	-0.04197342
-3.587711	wasted	-0.04428935
-3.587711	water	-0.1765556
-3.888741	waterfowl	-0.04569548
-2.633468	way	-0.04226036
-3.888741	ways	-0.0454708
-3.888741	we'll	-0.04310469
-3.888741	we're	-0.04558316
-3.888741	we've	-0.04575163
-3.888741	weak	-0.04592004
-3.41162	wealth	-0.03833342
-3.888741	wealthy	-0.04575163
-3.41162	wear	-0.04457095
-3.888741	wearied	-0.04597616
-3.888741	weather's	-0.04592004
-3.587711	wed	-0.1765556
-3.587711	week	-0.04378203
-3.888741	weeping	-0.04592004
-3.888741	weighed	-0.04592004
-3.888741	welcome	-0.04575163
-2.566522	well	-0.07841346
-3.888741	wench	-0.04597616
-2.658292	went	-0.0544609
-3.888741	wept	-0.04535843
-2.742613	were	-0.03907528
-2.235528	what	-0.06390962
-3.043643	whatever	-0.02775375
-3.888741	wheat	-0.04592004
-3.888741	wheedle	-0.04580777
-2.370227	when	-0.1213811
-3.888741	whenever	-0.03610025
-2.71265	where	-0.06215481
-3.888741	whereas	-0.04597616
-3.888741	whether	-0.04541462
-3.888741	whetting	-0.04592004
-2.658292	which	-0.05280191
-2.985651	while	-0.06413084
-3.888741	whim	-0.04569548
-3.41162	white	-0.04535843
-3.888741	whiter	-0.04502111
-2.172738	who	-0.09103003
-3.587711	who'd	-0.04468353
-3.888741	who'll	-0.04468353
-3.11059	who's	-0.03913227
-3.587711	who've	-0.04378203
-3.587711	whoever	-0.0454708
-3.587711	whole	-0.04592003
-2.774798	whom	-0.0770407
-3.587711	whomever	-0.04535842
-3.587711	whores	-0.04355637
-3.043643	whose	-0.08314037
-2.934499	why	-0.02552419
-3.587711	wickedly	-0.0458639
-3.888741	wickedness	-0.04586391
-3.888741	wide	-0.0222175
-2.80956	wife	-0.06225059
-2.383591	will	-0.01521847
-3.587711	william	-0.04253941
-3.888741	willingly	-0.04417667
-3.888741	wind	-0.04597616
-3.888741	window	-0.04558316
-3.043643	wine	-0.02909768
-3.888741	wines	-0.04507735
-3.888741	wink	-0.0222175
-3.888741	winked	-0.04440201
-3.888741	winning	-0.04502111
-3.587711	wise	-0.0203166
-3.587711	wish	-0.04389482
-3.587711	wished	-0.04327412
-3.888741	wishes	-0.04569548
-3.888741	withdraw	-0.04575163
-3.888741	withdrew	-0.0222175
-3.888741	withers	-0.03987277
-3.888741	within	-0.04592004
-2.774798	without	-0.06916089
-3.587711	witness	-0.09949505
-3.888741	woe	-0.04552699
-3.41162	wolf	-0.09771489
-2.473768	woman	-0.01029221
-2.888741	womans	-0.0821837
-3.587711	women	-0.04479608
-3.888741	womens	-0.04580777
-3.888741	won	-0.04580777
-3.888741	wonderful	-0.04507735
-3.888741	wondrous	-0.04597616
-2.934499	wont	-0.04499153
-3.888741	wood	-0.0222175
-3.888741	wool	-0.04530222
-2.80956	word	-0.09397742
-3.41162	words	-0.0406688
-3.888741	wore	-0.04586391
-3.41162	work	-0.04316118
-3.888741	workmanship	-0.04468353
-3.888741	workshop	-0.0451898
-3.888741	world	-0.04597616
-3.888741	world's	-0.04597616
-3.888741	worm	-0.04344349
-3.888741	worn	-0.04440201
-3.587711	worse	-0.04349993
-3.41162	worth	-0.04423302
-3.41162	worthy	-0.04383844
-2.457377	would	-0.0193799
-3.41162	wouldnt	-0.04417668
-3.888741	woven	-0.04597616
-3.888741	wraps	-0.04563932
-3.888741	wrenched	-0.04541462
-3.587711	wretch	-0.04541462
-3.888741	wretched	-0.04597616
-3.888741	writ	-0.04580777
-3.888741	wrongfully	-0.04580777
-3.888741	year	-0.03610025
-3.888741	yearning	-0.0222175
-3.888741	yell	-0.04563932
-3.587711	yes	-0.04417667
-3.888741	yet	-0.04597616
-3.286681	you'd	-0.04451465
-2.847348	you'll	-0.08378666
-3.587711	you're	-0.0458639
-2.934499	you've	-0.07093549
-3.11059	young	-0.06697848
-3.587711	yours	-0.04259598
-3.41162	yourself	-0.04355637
-3.888741	zedoary	-0.04552699
-3.888741	à	-0.04592004

\2-grams:
-0.9975348	'd no
-0.9975348	'er install
-0.9975348	'im 150
-0.9975348	'n fists
-0.9975348	'round him
-1.997535	10 but
-1.997535	10 close
-1.997535	10 feast
-1.997535	10 garlic
-1.997535	10 he
-1.997535	10 no
-1.997535	10 peasants
-1.997535	10 she
-1.997535	10 suffer
-1.997535	10 wife
-1.474656	100 burning
-1.474656	100 hoping
-1.474656	100 make
-1.599595	105 as
-1.599595	105 buy
-1.599595	105 she'll
-1.599595	105 wasnt
-1.599595	110 has
-1.599595	110 seeing
-1.599595	110 there
-1.599595	110 treasure
-1.474656	115 i've
-1.474656	115 pledges
-1.474656	115 so
-1.599595	120 believe
-1.599595	120 except
-1.599595	120 let
-1.599595	120 would
-1.599595	125 he
-1.599595	125 her
-1.599595	125 priest
-1.599595	125 you'll
-1.605527	130 having
-1.605527	130 he
-1.582269	130 her
-1.605527	130 missing
-1.474656	135 make
-1.474656	135 put
-1.474656	135 upon
-1.599595	140 as
-1.599595	140 location
-1.599595	140 priest
-1.599595	140 wanton
-1.599595	145 do
-1.599595	145 duping
-1.599595	145 he
-1.599595	145 quietly
-1.951777	15 but
-1.951777	15 entertainers
-1.951777	15 good
-1.951777	15 he
-1.951777	15 or
-1.951777	15 she
-1.951777	15 speaking
-1.951777	15 this
-1.951777	15 would
-1.599595	150 cloister
-1.599595	150 if
-1.599595	150 no
-1.599595	150 questioned
-1.599595	155 gladly
-1.599595	155 not
-1.599595	155 she
-1.599595	155 without
-1.599595	160 gift
-1.599595	160 know
-1.599595	160 what
-1.599595	160 where
-0.9975348	165 off
-1.599595	170 but
-1.599595	170 chaplain
-1.599595	170 lady
-1.599595	170 whose
-1.599595	175 based
-1.599595	175 he
-1.599595	175 if
-1.599595	175 led
-1.599595	180 before
-1.599595	180 he
-1.599595	180 nor
-1.599595	180 what
-1.599595	185 chaplain
-1.599595	185 now
-1.599595	185 them
-1.599595	185 unless
-1.599595	190 fifteen
-1.599595	190 if
-1.599595	190 old
-1.599595	190 she'll
-1.474656	195 now
-1.474656	195 what
-1.474656	195 when
-1.997535	20 crucifix
-1.997535	20 cunt
-1.131261	20 he
-0.7503186	20 she
-1.997535	20 we're
-1.997535	20 weak
-1.997535	20 woman
-1.298565	200 benedico
-1.298565	200 hear
-1.474656	205 at
-1.474656	205 him—you
-1.474656	205 nor
-1.474656	210 so
-1.474656	210 this
-1.474656	210 whose
-1.474656	215 she
-1.474656	215 wish
-1.474656	215 you'd
-1.474656	220 gave
-1.474656	220 henceforth
-1.474656	220 serve
-1.474656	225 off
-1.474656	225 swear
-1.474656	225 than
-1.298565	230 arguments
-1.298565	230 two
-0.9975348	235 much
-1.298565	240 her
-1.298565	240 magnificent
-1.298565	245 oh
-1.298565	245 then
-1.842633	25 about
-1.842633	25 he
-1.842633	25 him
-1.842633	25 nature
-1.842633	25 or
-1.842633	25 shaking
-1.842633	25 shut
-1.298565	250 but
-1.298565	250 do
-1.298565	255 saint
-1.298565	255 two
-1.298565	260 all
-1.298565	260 which
-1.298565	265 but
-1.298565	265 came
-1.298565	270 facedown
-1.298565	270 when
-1.298565	275 money
-1.298565	275 says
-0.9975348	280 make
-1.298565	285 he
-1.298565	285 she
-1.298565	290 she
-1.298565	290 you'll
-1.298565	295 could
-1.298565	295 will
-1.951777	30 before
-1.951777	30 cinnamon
-1.951777	30 he
-1.951777	30 let's
-1.951777	30 mother
-1.951777	30 see
-1.951777	30 speak
-1.951777	30 thing
-1.951777	30 will
-0.9975348	300 nothing
-1.298565	305 gently
-1.298565	305 through
-1.298565	310 room
-1.298565	310 touch
-0.9975348	315 whose
-1.298565	320 place
-1.298565	320 she'd
-0.9975348	325 i've
-1.298565	330 had	-0.05251528
-1.298565	330 plenty
-1.298565	335 also
-1.298565	335 than
-0.9975348	340 who's
-0.9975348	345 pound
-1.843579	35 as
-1.843579	35 everyone
-1.843579	35 friar
-1.843579	35 rule
-1.843579	35 standing
-1.271753	35 who
-1.843579	35 you'll
-0.9975348	350 without
-0.9975348	355 who
-0.9975348	360 he
-0.9975348	365 self
-0.9975348	370 what
-0.9975348	375 alison
-0.9975348	380 worm
-0.9975348	385 now
-0.9975348	390 dawdle
-0.9975348	395 up
-1.951777	40 among
-1.951777	40 do
-1.951777	40 girls
-1.951777	40 most
-1.951777	40 now
-1.951777	40 remove
-1.951777	40 she
-1.951777	40 those
-1.951777	40 went
-0.9975348	400 behind
-0.9975348	415 stick
-0.9975348	420 they
-0.9975348	425 seen
-0.9975348	435 he
-0.9975348	445 as
-1.900625	45 being
-1.900625	45 girl
-1.900625	45 heard
-1.900625	45 however
-1.900625	45 must
-1.900625	45 pruning
-1.900625	45 unless
-1.900625	45 while
-0.9975348	450 whenever
-1.900625	5 all
-1.900625	5 clergy
-1.900625	5 god
-1.900625	5 has
-1.900625	5 if
-1.900625	5 night
-1.900625	5 no
-1.900625	5 put
-1.792219	50 falls
-1.792219	50 him
-1.136078	50 if
-1.792219	50 quite
-1.792219	50 started
-1.792219	50 until
-0.9094121	55 he
-1.775686	55 she
-1.775686	55 shoes
-1.775686	55 so
-1.775686	55 them
-1.696505	60 equally
-1.696505	60 he'll
-1.696505	60 orders
-1.696505	60 priest
-1.696505	60 they
-1.775686	65 bishop
-1.775686	65 counted
-1.775686	65 maiden
-1.775686	65 sitting
-1.775686	65 that's
-1.775686	65 those
-1.802619	70 cut
-1.802619	70 day
-1.096278	70 face
-1.802619	70 from
-1.802619	70 how
-1.802619	70 not
-1.842633	75 before
-1.842633	75 careful
-1.842633	75 he
-1.842633	75 keeping
-1.842633	75 pray
-1.842633	75 they
-1.842633	75 worthy
-1.775686	80 all
-1.775686	80 clergy
-1.775686	80 name
-1.775686	80 place
-1.775686	80 two
-1.775686	80 who've
-1.599595	85 faith
-1.599595	85 he
-1.599595	85 him
-1.599595	85 these
-1.601206	90 down
-1.594795	90 he
-1.601206	90 sermon
-1.601206	90 she
-1.696505	95 bishop
-1.696505	95 but
-1.696505	95 from
-1.696505	95 just
-1.696505	95 mess
-2.371658	<s> 10
-3.618874	<s> 100
-3.618874	<s> 105
-2.7526	<s> 110
-3.618874	<s> 125
-3.618874	<s> 130
-2.7526	<s> 145
-2.371658	<s> 15
-2.7526	<s> 155
-3.618874	<s> 160
-2.7526	<s> 170
-3.618874	<s> 175
-3.618874	<s> 185
-3.618874	<s> 190
-3.618874	<s> 195
-3.618874	<s> 20
-2.7526	<s> 215
-3.618874	<s> 220
-2.7526	<s> 225
-2.371658	<s> 25
-3.618874	<s> 255
-3.618874	<s> 275
-3.618874	<s> 280
-3.618874	<s> 295
-2.371658	<s> 30
-3.618874	<s> 300
-3.618874	<s> 325
-3.618874	<s> 335
-3.618874	<s> 35
-3.618874	<s> 375
-3.618874	<s> 380
-3.618874	<s> 385
-3.618874	<s> 40
-3.618874	<s> 420
-3.618874	<s> 425
-3.618874	<s> 435
-2.371658	<s> 45
-2.7526	<s> 5
-3.618874	<s> 55
-2.371658	<s> 65
-2.7526	<s> 70
-2.371658	<s> 75
-3.618874	<s> 80
-3.618874	<s> 85
-3.618874	<s> adam
-3.618874	<s> after
-3.618874	<s> against
-3.618874	<s> ah
-2.378342	<s> alison
-2.368888	<s> all
-3.618874	<s> allege
-3.618874	<s> although
-3.618874	<s> am
-2.537962	<s> an
-3.618874	<s> another
-2.120658	<s> as
-3.618874	<s> ask
-2.7526	<s> at
-3.618874	<s> better
-3.618874	<s> between
-2.261754	<s> bishop
-1.772415	<s> brother	-0.5636294
-2.7526	<s> but
-2.211669	<s> by	-0.005574303
-2.7526	<s> cant
-3.618874	<s> careful
-2.120658	<s> chaplain
-3.05363	<s> chaplains
-3.618874	<s> clergy
-3.618874	<s> clerk
-3.618874	<s> come
-3.618874	<s> contrariwise
-3.618874	<s> credo
-3.618874	<s> crucified
-3.618874	<s> cunt
-3.618874	<s> dear
-3.618874	<s> death
-2.7526	<s> devil
-2.371054	<s> do
-3.618874	<s> dont
-3.618874	<s> eh
-1.667097	<s> empty	0
-3.618874	<s> entertainers
-3.618874	<s> eschew
-3.618874	<s> everything
-3.618874	<s> fabliau
-3.618874	<s> fair
-2.50558	<s> faith
-3.618874	<s> father
-3.618874	<s> foolish
-3.618874	<s> franciscans
-2.547749	<s> friar
-3.618874	<s> generous
-3.053533	<s> girl
-2.547234	<s> go
-2.374735	<s> god
-3.011311	<s> going
-3.618874	<s> gulp
-2.970528	<s> had
-3.618874	<s> happy
-2.21698	<s> have	-0.02149838
-1.159713	<s> he	-0.01238326
-2.217527	<s> he'd	0.003832368
-2.7526	<s> he's
-3.053601	<s> hearing
-2.386647	<s> her
-2.082305	<s> hercelot	4.531629e-05
-3.036522	<s> here
-1.774393	<s> his
-2.377775	<s> how
-2.936154	<s> husband
-3.618874	<s> hypocrite
-3.618874	<s> i'd
-1.718249	<s> i'll	0.03138648
-3.05363	<s> i've
-2.217476	<s> if
-2.7526	<s> indeed
-2.7526	<s> it's
-3.618874	<s> just
-3.618874	<s> king
-1.920616	<s> lady	-0.005790422
-3.618874	<s> lady's
-3.618874	<s> let
-3.039223	<s> let's
-3.618874	<s> lock
-3.04437	<s> look
-2.547742	<s> lord
-2.372123	<s> madame	0.09010736
-3.0526	<s> make
-2.7526	<s> many
-3.618874	<s> marian
-3.618874	<s> master
-2.7526	<s> mean
-3.618874	<s> must
-2.217549	<s> no
-2.377544	<s> now
-3.618874	<s> nurse
-2.217527	<s> old	-0.5967545
-2.7526	<s> once
-3.053591	<s> one
-2.7526	<s> other
-3.036689	<s> our
-3.618874	<s> over
-3.618874	<s> parish
-2.7526	<s> peasant
-3.053569	<s> peasants
-3.618874	<s> per
-3.618874	<s> poor
-3.618874	<s> possessed
-1.431703	<s> priest	0.008539087
-3.053569	<s> priests
-3.618874	<s> put
-3.045362	<s> right
-3.618874	<s> same
-3.618874	<s> say
-3.618874	<s> second
-3.618874	<s> seeing
-3.618874	<s> seemly
-1.707564	<s> she	0.03556235
-2.7526	<s> she's
-3.618874	<s> shiny
-2.371658	<s> since
-3.038532	<s> sir
-3.618874	<s> so
-2.7526	<s> some
-2.7526	<s> sturdy
-3.618874	<s> surely
-3.618874	<s> sweetheart's
-3.618874	<s> table
-3.042131	<s> take
-2.546719	<s> tell
-3.618874	<s> terrified
-2.540094	<s> that's
-1.770144	<s> then
-3.618874	<s> there's
-3.618874	<s> thereupon
-3.618874	<s> these
-2.061814	<s> they
-2.378334	<s> this
-3.618874	<s> those
-2.7526	<s> though
-3.044085	<s> three
-2.7526	<s> thus
-3.618874	<s> today
-3.618874	<s> tonsured
-3.618874	<s> townspeople
-3.618874	<s> trollops
-3.618874	<s> truly
-2.261754	<s> two
-2.261754	<s> upon	-0.2716593
-3.618874	<s> very
-2.95449	<s> was
-3.036277	<s> wasnt
-3.618874	<s> wasnt—it
-3.618874	<s> we'll
-2.378611	<s> what
-2.546877	<s> whatever
-2.7526	<s> when
-3.618874	<s> where
-3.618874	<s> while
-2.493843	<s> who
-2.499187	<s> why
-3.618874	<s> william
-3.618874	<s> within
-3.618874	<s> without
-3.053571	<s> woman
-3.053617	<s> word
-3.618874	<s> wretched
-3.051209	<s> you'll
-2.521312	<s> you've
-0.9975348	abhorrence </s>
-0.9975348	abide day
-1.298565	abode ginger
-1.298565	abode who
-1.245204	about all
-2.111478	about coat
-2.111478	about fairest
-2.111478	about he
-2.111478	about her
-2.111478	about hercelot
-2.111478	about merchant
-2.111478	about no
-2.111478	about priest
-2.111478	about roger
-2.111478	about those
-2.111478	about without
-0.9975348	above all
-1.298565	accept she
-1.298565	accept this
-0.9975348	accepts as
-0.9975348	accompany him
-0.9975348	accordance direction
-0.9975348	accorded her
-0.9975348	account she
-0.9975348	accursed when
-1.298565	accusation but
-1.298565	accusation he
-0.9975348	acquainted this
-0.9975348	across withers
-1.298565	act </s>
-1.298565	act upon
-0.9975348	acted toward
-0.9975348	action subpoenaed
-0.9975348	actions are
-0.9975348	activity none
-0.9975348	acts just
-0.9975348	adam created
-0.9975348	adjured her
-0.9975348	advise tell
-1.298565	advised </s>
-1.298565	advised this
-0.9975348	adzes chisels
-0.9975348	affair chaplain
-0.9975348	affairs had
-0.9975348	affirms not
-0.9975348	afford profounder
-0.9975348	afraid </s>
-1.298565	after him
-1.298565	after his
-0.9975348	afterward defied
-0.8302309	again </s>
-1.696505	again disclosed
-1.696505	again or
-1.696505	again starts
-1.474656	against feather
-1.474656	against him
-1.474656	against his
-0.9975348	aggravate when
-0.4322909	agree </s>
-1.599595	agreed 180
-1.599595	agreed likewise
-1.599595	agreed promptly
-1.599595	agreed she
-0.9975348	ah woe
-0.9975348	aid assistance
-1.298565	air couldnt
-1.298565	air takes
-1.298565	alarm her
-1.298565	alarm people
-1.298565	alexander priest
-1.298565	alexander rich
-0.9975348	alexandria </s>
-0.9975348	alight filling
-2.038927	alison </s>
-1.172654	alison by
-2.038927	alison get
-2.038927	alison he'd
-2.038927	alison hercelot
-2.038927	alison i've
-2.038927	alison kept
-2.038927	alison needed
-2.038927	alison whom
-2.038927	alison whose
-0.9975348	alison— then
-1.781272	all </s>
-2.681919	all brothers
-2.681919	all but
-2.681919	all creatures
-2.681919	all curtains
-2.681919	all delights
-1.815645	all details
-2.681919	all disdain
-2.681919	all finery
-2.681919	all gifts
-2.681919	all good
-1.815172	all he
-2.681919	all her
-2.681919	all his
-2.681919	all hurry
-2.681919	all irate
-2.681919	all lands
-2.681919	all lax
-2.044544	all long
-2.681919	all looked
-2.681919	all men
-2.681919	all minstrels
-2.681919	all money
-2.681919	all night
-2.681919	all only
-2.681919	all others
-2.681919	all own
-2.681919	all pages
-1.815645	all people
-1.815645	all right
-2.681919	all sat
-2.681919	all she
-1.815645	all their
-2.681919	all them
-2.681916	all there
-2.681919	all they
-1.815423	all this	-0.03798416
-2.681919	all till
-2.681919	all us
-2.681919	all while
-2.681919	all women
-0.9975348	allege he'll
-1.599595	allow </s>
-1.599595	allow anyone
-1.599595	allow but
-1.599595	allow him
-0.9975348	allowed dancing
-0.9975348	alms last
-0.9975348	alone shall
-1.298565	along decision
-1.298565	along route
-0.9975348	aloud </s>
-1.298565	alphabet he'll
-1.298565	alphabet if
-0.9975348	already as
-1.775686	also an
-1.775686	also created
-1.775686	also ducks
-1.775686	also hats
-1.775686	also one
-1.775686	also told
-0.9975348	also—with train—
-0.9975348	altar she
-0.9975348	although you're
-0.9975348	altogether 190
-0.9975348	always tenderly
-1.696505	am 210
-1.696505	am compelled
-1.696505	am hermit
-1.696505	am now
-1.696505	am poor
-0.9975348	am'rous bishop
-0.9975348	amen as
-0.9975348	amity nor
-1.599595	among entourage
-1.599595	among husband's
-1.599595	among images
-1.599595	among trees
-0.9975348	ample suit
-0.9975348	amputation </s>
-2.201655	an ample
-2.201655	an apple
-2.201655	an awful
-2.201655	an end
-2.201655	an entire
-2.201655	an excellent
-2.201655	an herb
-2.201655	an incline
-2.201655	an ingratiating
-2.201655	an installment
-2.201655	an mans
-2.201655	an objection
-2.201655	an old
-2.201655	an open
-2.201655	an ordination
-2.201655	an unfamiliar
-0.9975348	ancestry </s>
-0.9975348	anguished sorrowful
-0.9975348	announces she'll
-0.9975348	annoyed she
-1.474656	another day
-1.474656	another man
-1.474656	another priest
-0.9975348	answered they're
-1.181235	answers </s>
-1.781771	answers agree
-1.781771	answers back
-1.781771	answers him
-1.781771	answers i'll
-1.781771	answers if
-0.9975348	antichrist holds
-1.997535	any girl
-1.997535	any hawthorn
-1.997535	any less
-1.131261	any man
-1.997535	any nor
-1.997535	any one
-1.997535	any other
-1.997535	any time
-1.997535	any way
-0.9975348	anymore </s>
-1.474656	anyone 20
-1.474656	anyone 310
-1.474656	anyone who
-1.298565	anything he
-1.298565	anything will
-1.298565	apart 225
-1.298565	apart battered
-0.9975348	apostles' way
-1.298565	apparel has
-1.298565	apparel two
-0.9975348	apparent </s>
-0.9975348	appeal </s>
-1.298565	appear before
-1.298565	appear intending
-1.298565	apple </s>
-1.298565	apple if
-0.9975348	apple's worth
-0.9975348	apprentice artfully
-0.9975348	approached him
-0.9975348	ardres between
-1.997535	are all
-1.997535	are clothes
-1.997535	are contrary
-1.997535	are damned
-1.997535	are ended
-1.997535	are evidence
-1.997535	are going
-1.997535	are lover
-1.997535	are slighted
-1.997535	are thinking
-0.9975348	arguments make
-0.9975348	aright </s>
-0.9975348	arising gets
-0.9975348	arles because
-1.599595	arms around
-0.7333208	arms stretched	0.3324186
-1.599595	arms was
-1.696505	around as
-0.8302309	around her	-0.028654
-1.696505	around house
-1.696505	around until
-0.9975348	arrange an
-1.298565	arranged when
-1.298565	arranged whole
-1.298565	arrives at
-1.298565	arrives there
-0.9975348	artfully carved
-0.9975348	artfulness was
-2.896875	as 20
-2.896875	as advise
-2.896875	as another
-2.896875	as any
-2.896875	as best
-2.896875	as bishop
-2.896875	as buck
-2.896875	as case
-2.896875	as chaplain
-2.896875	as charge
-2.896875	as clerics
-2.896875	as commanded
-2.896875	as cover
-2.896875	as desire
-2.896875	as fast
-2.896875	as gay
-2.030601	as god
-2.896875	as great
-2.030601	as have
-1.533345	as he	0.0008563846
-2.896875	as he's
-2.030601	as her
-2.015712	as his
-2.896875	as holy
-2.030601	as if
-2.896875	as knights
-2.896875	as know
-2.896875	as laughing
-2.896875	as long
-2.896875	as merchandise
-2.888148	as mother
-2.030601	as much	-0.03482907
-2.896875	as no
-2.896875	as occasion
-2.896875	as paris
-2.896875	as pleasant
-2.896875	as please
-2.896875	as pledge
-2.896875	as pretext
-2.030601	as priest
-2.896875	as rebel
-2.896875	as rhyme
-1.539741	as she
-2.030601	as someone
-1.539755	as soon	-0.5526161
-2.896875	as taking
-1.649659	as they
-2.896875	as took
-2.030601	as trust
-2.896875	as virgin
-2.274796	as was
-1.398659	as well	-0.3478264
-2.896875	as wife
-2.896875	as william
-2.887102	as would
-0.9975348	aside went
-0.9975348	ask agree
-1.474656	asked 180
-1.474656	asked fur
-1.474656	asked her
-1.474656	asks him
-1.474656	asks this
-1.474656	asks will
-0.9975348	ass backwards
-0.9975348	assail maiden
-0.9975348	assemble then
-0.9975348	assistance would
-1.298565	assume he's
-1.298565	assume pose
-0.9975348	assuming old
-0.9975348	assurance he
-0.9975348	assured salvation
-0.9975348	astray so
-0.9623678	at all	-0.01476275
-2.460584	at bishop's
-2.460584	at court
-2.460584	at every
-2.460584	at figure
-2.460584	at first
-2.460584	at her
-2.460584	at him
-1.222148	at his
-2.460584	at knight's
-1.213368	at last
-2.460584	at least
-2.460584	at length
-2.460584	at once
-2.460584	at peace
-2.460584	at prayer
-2.460584	at putting
-2.460584	at start
-2.460584	at third
-2.460584	at time
-2.460584	at wealth
-0.9975348	attempts offer
-1.298565	attire </s>
-1.298565	attire wont
-0.9975348	auberée he
-0.9975348	aught concerning
-0.9975348	avail </s>
-0.9975348	averse 5
-0.9975348	awaits him
-0.9975348	aware tonsured
-0.7503186	away </s>
-1.997535	away bishop
-1.997535	away by
-1.997535	away exactly
-1.131261	away from
-1.997535	away girls
-1.997535	away table
-0.9975348	awful gaffe
-0.9975348	awhile us
-0.9975348	axes cutting
-2.146782	back 'er
-2.146782	back 135
-2.146782	back </s>
-1.280508	back down
-2.146782	back front
-1.539783	back his
-0.8995661	back home
-2.146782	back into
-2.146782	back our
-2.146782	back ribs
-2.146782	back where
-0.9975348	backwards little
-1.298565	bad grace
-1.298565	bad luck
-0.9975348	baffled priest
-0.9975348	baked sifted
-1.474656	balls citterns
-1.474656	balls cock
-1.474656	balls there
-0.9975348	bamboozled he
-0.9975348	ban such
-0.9975348	band who
-0.9975348	banquet laid
-1.298565	bare 40
-1.298565	bare behavior
-0.9975348	barging </s>
-0.9975348	barley wheat
-0.9975348	barons— merchant
-0.9975348	barrabam aloud
-0.9975348	barrel </s>
-0.9975348	based merchant
-0.9975348	basis guess
-0.9975348	batch small
-1.474656	bath </s>
-1.474656	bath she
-1.474656	bath where
-0.9975348	bathe bath
-0.9975348	bathed tears
-0.9975348	bathtub kneels
-0.9975348	battered down
-0.9975348	bawds </s>
-0.9975348	bayeux think
-1.298565	bear 10
-1.298565	bear separation
-0.9975348	bears old
-0.9975348	beast old
-0.9975348	beat him
-1.298565	beaten </s>
-1.298565	beaten lambasted
-1.298565	beating fun
-1.298565	beating his
-1.298565	beautiful </s>
-1.298565	beautiful beyond
-0.9975348	beautifully </s>
-0.9975348	beauty was
-1.900625	because bishop
-1.900625	because from
-1.900625	because her
-1.034351	because one
-1.900625	because they're
-1.900625	because whim
-1.900625	because woman
-0.9975348	becauseshe knew
-0.9975348	become saint
-0.9544386	bed </s>
-1.335381	bed behind
-2.201655	bed best
-1.335381	bed curtains
-2.201655	bed down
-2.201655	bed fit
-2.201655	bed lovemaking
-2.201655	bed menhould
-2.201655	bed no
-2.201655	bed ready
-2.201655	bed tonight
-2.201655	bed up
-0.9975348	bedding was
-0.9975348	bedroom their
-0.9975348	beds </s>
-1.298565	bedtime he'll
-1.298565	bedtime try
-2.340195	been better
-2.340195	been born
-2.340195	been carved
-2.340195	been caught
-2.340195	been consecrated
-2.340195	been cordelier
-2.340195	been dead
-2.340195	been disgraced
-2.340195	been fully
-2.340195	been given
-2.340195	been heaped
-1.769743	been her
-2.340195	been knight
-2.340195	been living
-2.340195	been promised
-2.340195	been set
-2.340195	been struck
-2.340195	been such
-2.340195	been tricked
-2.340195	been vexed
-2.340195	been womans
-2.340195	been yearning
-0.9975348	beeswax pepper
-2.145164	before altar
-2.145164	before bedtime
-0.8979475	before bishop
-2.145164	before eyes
-1.27889	before he	-0.05196563
-2.145164	before him
-1.559366	before knew
-2.145164	before she's
-2.145164	before someone
-2.145164	before turn
-2.145164	before who
-0.9975348	befouls fairest
-1.474656	began cry
-1.474656	began look
-1.474656	began pound
-1.298565	begged bishop
-1.298565	begged him
-0.9975348	begins swear
-0.9975348	begs pleads
-0.9975348	beguiled virgin
-0.9975348	behave this
-0.9975348	behaved great
-1.298565	behavior life
-1.298565	behavior was
-0.9975348	behavior's disgrace
-0.9975348	behaviors </s>
-0.8302309	behind bed	-0.03672574
-1.696505	behind curtain
-1.696505	behind she
-1.696505	behind which
-1.298565	being intelligent
-1.298565	being sad
-0.9975348	beldame mother
-1.599595	believe acquainted
-1.599595	believe hate
-1.599595	believe lie
-1.599595	believe take
-0.9975348	believed one
-0.9975348	belong there
-1.474656	belt he'd
-1.474656	belt his
-1.474656	belt man
-0.9975348	bends his
-0.9975348	benedico </s>
-0.9975348	benefit by
-1.298565	beside her
-1.298565	beside him
-0.9975348	besides them
-1.298565	best as
-1.298565	best can
-0.9975348	bestow </s>
-0.9975348	bet before
-0.9975348	betrothed married
-1.129373	better </s>
-1.696978	better off
-1.696978	better tool
-1.696978	better wed
-1.696978	better were
-1.696505	between calais
-1.696505	between her
-1.696505	between river
-1.696505	between themselves
-1.696505	between wagon
-1.599595	beyond compare
-1.599595	beyond doubt
-0.7333208	beyond endurance	0.1431031
-0.9975348	bidden </s>
-0.9975348	big deal
-0.9975348	binds habit
-1.298565	birth accursed
-1.298565	birth if
-2.476044	bishop bishop
-2.476044	bishop by
-2.476044	bishop did
-2.476044	bishop feels
-2.476044	bishop felt
-1.60977	bishop forbids
-2.476044	bishop got
-1.60977	bishop had
-2.476044	bishop heard
-2.476044	bishop heartily
-2.475868	bishop her
-2.476044	bishop i'll
-2.476044	bishop knew
-2.439641	bishop lived
-1.60977	bishop made
-2.476044	bishop mightily
-2.476044	bishop often
-2.476044	bishop relent
-1.60977	bishop says
-2.476044	bishop set
-2.476044	bishop she
-2.476044	bishop spot
-2.476044	bishop takes
-2.475981	bishop went
-1.608026	bishop who
-0.8302309	bishop's court
-1.696505	bishop's given
-1.696505	bishop's subpoena
-1.696505	bishop's words
-1.599595	bit an
-1.599595	bit front
-1.599595	bit said
-1.599595	bit take
-1.298565	bite apple
-1.298565	bite as
-1.298565	bitter cup
-1.298565	bitter woman
-0.9975348	bittern pheasant
-1.298565	black blue
-1.298565	black hearted
-0.9975348	blades 45
-0.9975348	blazing by
-1.474656	blessed by	-0.05453183
-1.474656	blessed her
-1.474656	blessed hour
-1.474656	blessing her
-1.474656	blessing must
-1.474656	blessing right
-0.9975348	blessèd deed
-0.9975348	blind him
-1.298565	blond hair
-1.298565	blond haired
-0.9975348	bloodred made
-1.298565	blows those
-1.298565	blows woman
-0.9975348	blue put
-0.9975348	board fifteen
-1.599595	body anyone
-1.599595	body by
-1.599595	body cunt
-1.599595	body rich
-0.9975348	bone she
-0.9975348	bones blows
-0.9975348	book 10
-0.9975348	booming yell
-1.298565	bore 125
-1.298565	bore nursed
-1.298565	born ardres
-1.298565	born noble
-1.599595	both 180
-1.599595	both commoners
-1.599595	both his
-1.599595	both two
-0.9975348	bother dark
-0.9975348	bought sold
-0.9975348	bowels there
-0.9975348	bower whiter
-0.9975348	bowing low
-0.9975348	box open
-0.9975348	boy's tonsured
-0.9975348	bread plate
-0.8281972	breast </s>
-1.521775	breast contrition
-1.521775	breast growing
-1.474656	bred as
-1.474656	bred noblewoman
-1.474656	bred was
-1.599595	bring 235
-1.599595	bring her
-1.599595	bring message
-1.599595	bring statuette
-0.9975348	broken inside
-0.9975348	brook no
-0.9975348	brothel though
-2.228304	brother </s>
-1.657644	brother dear
-0.4526182	brother denise	0.01502562
-2.228304	brother denise's
-2.228304	brother do
-2.228304	brother i'll
-2.228304	brother our
-0.7300879	brother simon
-0.9975348	brothers living
-0.9975348	brothers' songs
-1.782166	brought all
-1.782166	brought gifts
-1.17942	brought her
-1.782166	brought him
-1.782166	brought one
-1.782166	brought yourself
-0.9975348	bruised beaten
-0.9975348	brush drapery
-0.9975348	buck </s>
-0.9975348	budding breast
-0.9975348	built there
-0.9975348	bump her
-0.9975348	bundled 395
-0.9975348	burn up
-0.9975348	burning fires
-0.9975348	burrow placed
-1.298565	business arrange
-1.298565	business prepare
-2.542122	but adjured
-2.542122	but am
-2.542122	but bittern
-2.541783	but fair
-2.542122	but fool
-2.542122	but girl
-2.542122	but give
-2.542122	but god
-2.539284	but have
-1.669573	but he
-2.542122	but he'd
-2.542122	but here's
-2.542122	but his
-2.542122	but inside
-2.542122	but lady
-2.542122	but many
-1.674667	but no
-2.542122	but not
-2.542122	but now
-2.542122	but old
-2.542122	but priest
-2.542122	but she
-2.542122	but she'd
-2.542122	but since
-2.542122	but spoke
-2.542122	but they
-2.542122	but they've
-2.542122	but took
-2.542122	but went
-2.542122	but were
-2.542122	but when
-2.542122	but why
-2.542122	but wont
-0.9975348	butcher struck
-1.474656	buy daughter
-1.474656	buy good
-1.474656	buy zedoary
-2.802303	by 145
-2.802303	by 155
-2.802303	by 40
-2.802303	by all
-2.802303	by bathtub
-2.202117	by bishop
-2.802303	by both
-2.802303	by con
-2.802303	by dark
-2.802303	by devils
-1.936029	by faith	0.01220757
-2.802303	by find
-1.304087	by god
-2.802303	by god's
-2.802303	by grate
-2.802303	by great
-2.802303	by guillaume
-2.802303	by half
-2.802303	by hand
-2.802303	by head
-1.445183	by her
-2.802303	by him
-1.014838	by his
-2.802288	by lord
-2.198239	by not
-2.802303	by now
-2.802303	by oise
-2.802303	by one
-2.802303	by our
-2.802303	by overtaxing
-2.793691	by passion
-2.802303	by rejoinder
-2.802303	by rutebeuf
-1.200354	by saint
-2.802303	by savior
-2.802303	by saw
-2.802303	by score
-2.101887	by she
-2.802303	by taking
-2.802303	by this
-2.802303	by trickery
-2.802303	by which
-2.802303	by who
-2.802303	by wickedness
-0.9975348	cakes baked
-0.9975348	calais saint
-0.9975348	call different
-1.696871	called friar
-1.696871	called from
-1.1298	called her
-1.696871	called out
-1.696871	called wife
-0.9975348	calling before
-2.038927	came barging
-2.038927	came by
-2.038927	came calling
-2.038927	came from
-2.038927	came had
-2.038927	came here
-2.038927	came pass
-2.038927	came profligates
-2.038927	came running
-2.038927	came their
-2.038927	came which
-2.143663	can 105
-2.143663	can go
-2.143663	can he'll
-2.143663	can help
-2.143663	can i'd
-2.143663	can refrain
-2.143663	can spend
-2.143663	can sure
-2.143663	can take
-2.143663	can this
-2.143663	can through
-1.277389	can trust
-2.143663	can wed
-0.9975348	candle quickly
-0.9975348	candles alight
-1.775686	cannot abide
-1.775686	cannot dispel
-1.775686	cannot say
-1.775686	cannot think
-0.9094121	cannot wait
-1.599595	cant find
-1.599595	cant see
-1.599595	cant think
-1.599595	cant wait
-1.474656	cape 15
-1.474656	cape coat
-1.474656	cape worth
-1.298565	capons fat
-1.298565	capons pullets
-0.9975348	caraway </s>
-1.775797	care 390
-1.775797	care before
-1.775133	care have
-1.775797	care he
-1.775797	care not
-1.775797	care ready
-1.298565	cared by
-1.298565	cared her
-0.9975348	carefree air
-1.298565	careful do
-1.298565	careful no
-1.474656	cares about
-1.474656	cares much
-1.474656	cares what
-0.9975348	carp grouse
-1.298565	carried 245
-1.298565	carried away
-0.9975348	carries about
-1.298565	carrying barrel
-1.298565	carrying master
-1.298565	carved out
-1.298565	carved sculptures
-1.474656	carver now
-1.474656	carver soon
-1.474656	carver told
-0.9975348	carvings </s>
-1.474656	case her
-1.474656	case might
-1.474656	case should
-0.9975348	cases pled
-0.9975348	cast him
-1.474656	catch chaplain
-1.474656	catch crucifix
-1.474656	catch fish
-1.599595	caught </s>
-1.599595	caught by
-1.599595	caught sight
-1.599595	caught to't
-0.9975348	caused them
-0.9975348	cavort 195
-0.9975348	cellar stocked
-0.9975348	certain 150
-0.9975348	certainly he'll
-0.9975348	chair lost
-1.474656	chamber door
-1.474656	chamber then
-1.474656	chamber which
-1.298565	change out
-1.298565	change their
-0.9975348	chanted as
-0.9975348	chapel clerical
-2.203392	chaplain can
-2.203392	chaplain could
-2.203392	chaplain eyed
-2.203392	chaplain gave
-2.203392	chaplain had
-1.611151	chaplain her
-2.203392	chaplain knew
-2.203392	chaplain said
-2.203392	chaplain saint
-2.203392	chaplain tells
-2.203392	chaplain then
-2.203392	chaplain thinks
-2.203392	chaplain took
-2.203392	chaplain turned
-2.203392	chaplain was
-2.203392	chaplain wasnt
-1.298565	chaplains heart
-1.298565	chaplains set
-0.9975348	charge live
-0.9975348	charges she
-0.9975348	charlatan what
-0.9975348	charm 290
-0.9975348	chartrain loved
-0.9975348	chatter talk
-1.298565	cheap black
-1.298565	cheap or
-1.298565	chest an
-1.298565	chest which
-0.9975348	chicken dine
-1.775686	child bore
-1.775686	child he
-1.775686	child let
-1.775686	child madame
-1.775686	child seems
-1.775686	child these
-0.9975348	chimed amen
-0.9975348	chin old
-0.9975348	chisels mattocks
-1.298565	choose either
-1.298565	choose whomever
-0.9975348	chosen 200
-0.9975348	christ crucified
-1.474656	church </s>
-1.474656	church resounded
-1.474656	church such
-0.9975348	churl she
-0.9975348	cinnamon licorice
-0.9975348	citterns tabors
-0.9975348	city bayeux
-0.9975348	clad all
-0.9975348	clamoring them
-0.9975348	clasped she
-0.9975348	class because
-0.9975348	clay then
-0.9975348	clear </s>
-0.9975348	clearly 265
-1.599595	clergy assured
-1.599595	clergy knights
-1.599595	clergy shall
-1.599595	clergy tithes
-0.9975348	clergyman 95
-0.9975348	clergymen </s>
-0.9975348	cleric double
-0.9975348	clerical estate
-0.9975348	clerics do
-1.474656	clerk 230
-1.474656	clerk fed
-1.474656	clerk immediately
-1.298565	clever might
-1.298565	clever was
-0.9975348	climb into
-1.298565	cloak lamb's
-1.298565	cloak off
-0.9975348	cloaks fine
-1.298565	cloister before
-1.298565	cloister he
-1.787011	close bed
-1.787011	close beside
-1.787011	close by
-1.787011	close city
-1.157866	close him
-1.787011	close inspection
-0.9975348	closer her
-0.9975348	closes door
-0.6083821	cloth </s>
-1.474656	cloth his
-0.9975348	clothed fine
-1.997535	clothes 35
-1.997535	clothes </s>
-1.997535	clothes completely
-1.997535	clothes he
-1.997535	clothes his
-1.997535	clothes she
-1.997535	clothes tailored
-1.997535	clothes which
-1.997535	clothes will
-1.997535	clothes yet
-0.9975348	clothing 45
-0.9975348	coarse strayed
-1.696505	coat 25
-1.696505	coat also—with
-1.696505	coat he
-1.696505	coat it's
-1.696505	coat too
-1.298565	cock </s>
-1.298565	cock stiffening
-0.9975348	coffers priest's
-0.9975348	coins have
-0.9975348	collateral </s>
-2.252808	come 290
-2.252808	come aid
-2.252808	come announces
-2.252808	come before
-2.252808	come bishop's
-1.386534	come by
-2.252808	come from
-2.252808	come grief
-2.252808	come her
-2.252791	come him
-1.386534	come into
-2.252808	come reminding
-2.252808	come soon
-2.252808	come their
-2.252808	come up
-2.252808	come when
-0.9975348	comely still
-1.298565	comes back
-1.298565	comes time
-0.9975348	comforted her
-0.9975348	comfy bed
-1.474656	command 40
-1.474656	command </s>
-1.474656	command hercelot
-0.9975348	commanded now
-0.9975348	commands though
-0.9975348	comments him
-0.9975348	common save
-0.9975348	commoners clergymen
-1.298565	community </s>
-1.298565	community neither
-0.9975348	companion his
-1.298565	company </s>
-1.298565	company until
-0.9975348	compare 240
-0.9975348	compelled tell
-0.9975348	competence aught
-0.9975348	complaint or
-1.298565	completely bare
-1.298565	completely new
-0.9975348	comply our
-0.9975348	con call
-0.9975348	conceal myself
-0.9975348	concealed behind
-0.9975348	concerning penitence
-0.9975348	conduct was
-0.9975348	confers her
-0.9975348	confess sins
-1.298565	confession no
-1.298565	confession would
-0.9975348	confidence 315
-0.9975348	conflagration where
-0.9975348	confrere walking
-1.298565	confreres </s>
-1.298565	confreres skillfully
-0.9975348	confusedly attempts
-0.9975348	congratulations above
-0.9975348	conniving without
-0.9975348	consecrated </s>
-0.9975348	consent betrothed
-0.9975348	consider liar
-1.298565	consideration 60
-1.298565	consideration mother's
-0.9975348	contented chaplain
-0.9975348	contents purse
-0.9975348	contents— 345
-0.9975348	continued his
-0.9975348	contradict any
-0.9975348	contradiction </s>
-0.9975348	contrariwise fable
-0.9975348	contrary it's
-0.9975348	contrition </s>
-1.298565	converted </s>
-1.298565	converted his
-1.474656	convinced he
-1.474656	convinced her
-1.474656	convinced won
-0.9975348	cools his
-0.9975348	cord binds
-0.9975348	cordelier </s>
-0.9975348	corn she's
-0.9975348	corrected omission
-1.298565	costly </s>
-1.298565	costly clothes
-2.229464	could brook
-2.229464	could choose
-2.229464	could comforted
-1.63971	could have
-2.229464	could hide
-2.229464	could made
-1.363191	could not
-2.229464	could novice
-2.229464	could one
-1.363191	could see
-2.229464	could spot
-2.229464	could stay
-2.229464	could take
-2.229464	could urged
-2.229464	could well
-0.9975348	couldnt come
-0.9975348	counsel friar
-0.9975348	count would
-0.9975348	counted overhead
-0.9975348	countermands gets
-0.9975348	courier summon
-1.599595	court 50
-1.599595	court 95
-1.599595	court at
-1.599595	court may
-0.9975348	coustenz left
-0.9975348	cover 10
-0.9975348	cowed hearing
-1.599595	created by
-1.599595	created get
-1.599595	created through
-1.599595	created woman
-1.298565	creature </s>
-1.298565	creature would
-1.298565	creatures belong
-1.298565	creatures withdrew
-0.9975348	credo alphabet
-0.9975348	crevice could
-1.298565	cried after
-1.298565	cried barrabam
-0.9975348	crier has
-0.697964	cries fire
-1.337057	cries mercy
-1.298565	cross tell
-1.298565	cross then
-0.9975348	crowbar his
-0.9975348	crowed ban
-0.9975348	crown 135
-1.298565	crucified 75
