
\data\
ngram 1=2301

\1-grams:
-3.888741	'd
-3.888741	'er
-3.888741	'im
-3.888741	'n
-3.888741	'round
-2.888741	10
-3.41162	100
-3.286681	105
-3.286681	110
-3.41162	115
-3.286681	120
-3.286681	125
-3.286681	130
-3.41162	135
-3.286681	140
-3.286681	145
-2.934499	15
-3.286681	150
-3.286681	155
-3.286681	160
-3.888741	165
-3.286681	170
-3.286681	175
-3.286681	180
-3.286681	185
-3.286681	190
-3.41162	195
-2.888741	20
-3.587711	200
-3.41162	205
-3.41162	210
-3.41162	215
-3.41162	220
-3.41162	225
-3.587711	230
-3.888741	235
-3.587711	240
-3.587711	245
-3.043643	25
-3.587711	250
-3.587711	255
-3.587711	260
-3.587711	265
-3.587711	270
-3.587711	275
-3.888741	280
-3.587711	285
-3.587711	290
-3.587711	295
-2.934499	30
-3.888741	300
-3.587711	305
-3.587711	310
-3.888741	315
-3.587711	320
-3.888741	325
-3.587711	330
-3.587711	335
-3.888741	340
-3.888741	345
-3.043643	35
-3.888741	350
-3.888741	355
-3.888741	360
-3.888741	365
-3.888741	370
-3.888741	375
-3.888741	380
-3.888741	385
-3.888741	390
-3.888741	395
-2.934499	40
-3.888741	400
-3.888741	415
-3.888741	420
-3.888741	425
-3.888741	435
-3.888741	445
-2.985651	45
-3.888741	450
-2.985651	5
-3.11059	50
-3.11059	55
-3.189771	60
-3.11059	65
-3.11059	70
-3.043643	75
-3.11059	80
-3.286681	85
-3.286681	90
-3.189771	95
-1.272791	</s>
-99	<s>
-3.888741	abhorrence
-3.888741	abide
-3.587711	abode
-2.774798	about
-3.888741	above
-3.587711	accept
-3.888741	accepts
-3.888741	accompany
-3.888741	accordance
-3.888741	accorded
-3.888741	account
-3.888741	accursed
-3.587711	accusation
-3.888741	acquainted
-3.888741	across
-3.587711	act
-3.888741	acted
-3.888741	action
-3.888741	actions
-3.888741	activity
-3.888741	acts
-3.888741	adam
-3.888741	adjured
-3.888741	advise
-3.587711	advised
-3.888741	adzes
-3.888741	affair
-3.888741	affairs
-3.888741	affirms
-3.888741	afford
-3.888741	afraid
-3.587711	after
-3.888741	afterward
-3.189771	again
-3.41162	against
-3.888741	aggravate
-3.587711	agree
-3.286681	agreed
-3.888741	ah
-3.888741	aid
-3.587711	air
-3.587711	alarm
-3.587711	alexander
-3.888741	alexandria
-3.888741	alight
-2.847348	alison
-3.888741	alison—
-2.2075	all
-3.888741	allege
-3.286681	allow
-3.888741	allowed
-3.888741	alms
-3.888741	alone
-3.587711	along
-3.888741	aloud
-3.587711	alphabet
-3.888741	already
-3.11059	also
-3.888741	also—with
-3.888741	altar
-3.888741	although
-3.888741	altogether
-3.888741	always
-3.189771	am
-3.888741	am'rous
-3.888741	amen
-3.888741	amity
-3.286681	among
-3.888741	ample
-3.888741	amputation
-2.684621	an
-3.888741	ancestry
-3.888741	anguished
-3.888741	announces
-3.888741	annoyed
-3.41162	another
-3.888741	answered
-3.11059	answers
-3.888741	antichrist
-2.888741	any
-3.888741	anymore
-3.41162	anyone
-3.587711	anything
-3.587711	apart
-3.888741	apostles'
-3.587711	apparel
-3.888741	apparent
-3.888741	appeal
-3.587711	appear
-3.587711	apple
-3.888741	apple's
-3.888741	apprentice
-3.888741	approached
-3.888741	ardres
-2.888741	are
-3.888741	arguments
-3.888741	aright
-3.888741	arising
-3.888741	arles
-3.286681	arms
-3.189771	around
-3.888741	arrange
-3.587711	arranged
-3.587711	arrives
-3.888741	artfully
-3.888741	artfulness
-1.991114	as
-3.888741	aside
-3.888741	ask
-3.41162	asked
-3.41162	asks
-3.888741	ass
-3.888741	assail
-3.888741	assemble
-3.888741	assistance
-3.587711	assume
-3.888741	assuming
-3.888741	assurance
-3.888741	assured
-3.888741	astray
-2.426343	at
-3.888741	attempts
-3.587711	attire
-3.888741	auberée
-3.888741	aught
-3.888741	avail
-3.888741	averse
-3.888741	awaits
-3.888741	aware
-2.888741	away
-3.888741	awful
-3.888741	awhile
-3.888741	axes
-2.742613	back
-3.888741	backwards
-3.587711	bad
-3.888741	baffled
-3.888741	baked
-3.41162	balls
-3.888741	bamboozled
-3.888741	ban
-3.888741	band
-3.888741	banquet
-3.587711	bare
-3.888741	barging
-3.888741	barley
-3.888741	barons—
-3.888741	barrabam
-3.888741	barrel
-3.888741	based
-3.888741	basis
-3.888741	batch
-3.41162	bath
-3.888741	bathe
-3.888741	bathed
-3.888741	bathtub
-3.888741	battered
-3.888741	bawds
-3.888741	bayeux
-3.587711	bear
-3.888741	bears
-3.888741	beast
-3.888741	beat
-3.587711	beaten
-3.587711	beating
-3.587711	beautiful
-3.888741	beautifully
-3.888741	beauty
-2.985651	because
-3.888741	becauseshe
-3.888741	become
-2.684621	bed
-3.888741	bedding
-3.888741	bedroom
-3.888741	beds
-3.587711	bedtime
-2.546318	been
-3.888741	beeswax
-2.742613	before
-3.888741	befouls
-3.41162	began
-3.587711	begged
-3.888741	begins
-3.888741	begs
-3.888741	beguiled
-3.888741	behave
-3.888741	behaved
-3.587711	behavior
-3.888741	behavior's
-3.888741	behaviors
-3.189771	behind
-3.587711	being
-3.888741	beldame
-3.286681	believe
-3.888741	believed
-3.888741	belong
-3.41162	belt
-3.888741	bends
-3.888741	benedico
-3.888741	benefit
-3.587711	beside
-3.888741	besides
-3.587711	best
-3.888741	bestow
-3.888741	bet
-3.888741	betrothed
-3.189771	better
-3.189771	between
-3.286681	beyond
-3.888741	bidden
-3.888741	big
-3.888741	binds
-3.587711	birth
-2.41162	bishop
-3.189771	bishop's
-3.286681	bit
-3.587711	bite
-3.587711	bitter
-3.888741	bittern
-3.587711	black
-3.888741	blades
-3.888741	blazing
-3.41162	blessed
-3.41162	blessing
-3.888741	blessèd
-3.888741	blind
-3.587711	blond
-3.888741	bloodred
-3.587711	blows
-3.888741	blue
-3.888741	board
-3.286681	body
-3.888741	bone
-3.888741	bones
-3.888741	book
-3.888741	booming
-3.587711	bore
-3.587711	born
-3.286681	both
-3.888741	bother
-3.888741	bought
-3.888741	bowels
-3.888741	bower
-3.888741	bowing
-3.888741	box
-3.888741	boy's
-3.888741	bread
-3.41162	breast
-3.41162	bred
-3.286681	bring
-3.888741	broken
-3.888741	brook
-3.888741	brothel
-2.658292	brother
-3.888741	brothers
-3.888741	brothers'
-3.11059	brought
-3.888741	bruised
-3.888741	brush
-3.888741	buck
-3.888741	budding
-3.888741	built
-3.888741	bump
-3.888741	bundled
-3.888741	burn
-3.888741	burning
-3.888741	burrow
-3.587711	business
-2.344673	but
-3.888741	butcher
-3.41162	buy
-2.089401	by
-3.888741	cakes
-3.888741	calais
-3.888741	call
-3.189771	called
-3.888741	calling
-2.847348	came
-2.742613	can
-3.888741	candle
-3.888741	candles
-3.11059	cannot
-3.286681	cant
-3.41162	cape
-3.587711	capons
-3.888741	caraway
-3.11059	care
-3.587711	cared
-3.888741	carefree
-3.587711	careful
-3.41162	cares
-3.888741	carp
-3.587711	carried
-3.888741	carries
-3.587711	carrying
-3.587711	carved
-3.41162	carver
-3.888741	carvings
-3.41162	case
-3.888741	cases
-3.888741	cast
-3.41162	catch
-3.286681	caught
-3.888741	caused
-3.888741	cavort
-3.888741	cellar
-3.888741	certain
-3.888741	certainly
-3.888741	chair
-3.41162	chamber
-3.587711	change
-3.888741	chanted
-3.888741	chapel
-2.684621	chaplain
-3.587711	chaplains
-3.888741	charge
-3.888741	charges
-3.888741	charlatan
-3.888741	charm
-3.888741	chartrain
-3.888741	chatter
-3.587711	cheap
-3.587711	chest
-3.888741	chicken
-3.11059	child
-3.888741	chimed
-3.888741	chin
-3.888741	chisels
-3.587711	choose
-3.888741	chosen
-3.888741	christ
-3.41162	church
-3.888741	churl
-3.888741	cinnamon
-3.888741	citterns
-3.888741	city
-3.888741	clad
-3.888741	clamoring
-3.888741	clasped
-3.888741	class
-3.888741	clay
-3.888741	clear
-3.888741	clearly
-3.286681	clergy
-3.888741	clergyman
-3.888741	clergymen
-3.888741	cleric
-3.888741	clerical
-3.888741	clerics
-3.41162	clerk
-3.587711	clever
-3.888741	climb
-3.587711	cloak
-3.888741	cloaks
-3.587711	cloister
-3.11059	close
-3.888741	closer
-3.888741	closes
-3.41162	cloth
-3.888741	clothed
-2.888741	clothes
-3.888741	clothing
-3.888741	coarse
-3.189771	coat
-3.587711	cock
-3.888741	coffers
-3.888741	coins
-3.888741	collateral
-2.633468	come
-3.888741	comely
-3.587711	comes
-3.888741	comforted
-3.888741	comfy
-3.41162	command
-3.888741	commanded
-3.888741	commands
-3.888741	comments
-3.888741	common
-3.888741	commoners
-3.587711	community
-3.888741	companion
-3.587711	company
-3.888741	compare
-3.888741	compelled
-3.888741	competence
-3.888741	complaint
-3.587711	completely
-3.888741	comply
-3.888741	con
-3.888741	conceal
-3.888741	concealed
-3.888741	concerning
-3.888741	conduct
-3.888741	confers
-3.888741	confess
-3.587711	confession
-3.888741	confidence
-3.888741	conflagration
-3.888741	confrere
-3.587711	confreres
-3.888741	confusedly
-3.888741	congratulations
-3.888741	conniving
-3.888741	consecrated
-3.888741	consent
-3.888741	consider
-3.587711	consideration
-3.888741	contented
-3.888741	contents
-3.888741	contents—
-3.888741	continued
-3.888741	contradict
-3.888741	contradiction
-3.888741	contrariwise
-3.888741	contrary
-3.888741	contrition
-3.587711	converted
-3.41162	convinced
-3.888741	cools
-3.888741	cord
-3.888741	cordelier
-3.888741	corn
-3.888741	corrected
-3.587711	costly
-2.658292	could
-3.888741	couldnt
-3.888741	counsel
-3.888741	count
-3.888741	counted
-3.888741	countermands
-3.888741	courier
-3.286681	court
-3.888741	coustenz
-3.888741	cover
-3.888741	cowed
-3.286681	created
-3.587711	creature
-3.587711	creatures
-3.888741	credo
-3.888741	crevice
-3.587711	cried
-3.888741	crier
-3.587711	cries
-3.587711	cross
-3.888741	crowbar
-3.888741	crowed
-3.888741	crown
-3.587711	crucified
-3.888741	crucifige
-3.587711	crucifix
-3.888741	crucifixes
-3.888741	cruelly
-3.888741	crusty
-3.888741	cry
-3.888741	crying
-3.888741	cumin
-3.888741	cunning
-3.11059	cunt
-3.888741	cunts
-3.888741	cup
-3.888741	curled
-3.888741	currency
-3.888741	curtain
-3.888741	curtained
-3.286681	curtains
-3.888741	cushions
-3.286681	cut
-3.888741	cuts
-3.888741	cutting
-3.888741	cwm
-3.587711	cyr
-3.888741	dace
-3.888741	dais
-3.888741	dam
-3.888741	damnation
-3.888741	damned
-3.888741	dancing
-3.888741	dapple
-3.286681	dark
-2.888741	daughter
-3.587711	daughter's
-3.888741	daunted
-3.888741	dawdle
-2.985651	day
-3.286681	days
-3.587711	dead
-3.587711	deal
-3.888741	dealt
-2.985651	dear
-3.888741	dearly
-3.587711	death
-3.888741	debauched
-3.888741	debauches
-3.888741	debt
-3.888741	deceit
-3.587711	deceitful
-3.587711	deceived
-3.888741	decision
-3.888741	decked
-3.888741	decree
-3.888741	decreed
-3.888741	deed
-3.888741	deeds
-3.888741	deep
-3.888741	defense
-3.888741	deference
-3.888741	defied
-3.888741	deigned
-3.286681	delay
-3.587711	delight
-3.888741	delights
-3.888741	delivered
-3.888741	demand
-3.888741	demeanor
-3.888741	demoiselle
-3.888741	demonstrated
-3.888741	denier
-2.888741	denise
-3.888741	denise's
-3.587711	dennis
-3.888741	deny
-3.888741	depended
-3.189771	desire
-3.888741	desired
-3.888741	desist
-3.888741	destiny
-3.888741	destroyed
-3.587711	details
-3.888741	detects
-3.286681	devil
-3.587711	devils
-3.888741	devotedly
-3.587711	devour
-2.742613	did
-3.888741	didnt
-3.888741	die
-3.888741	died
-3.888741	dieu
-3.587711	different
-3.888741	din
-3.286681	dine
-3.587711	dinner
-3.888741	dinner's
-3.888741	dinners
-3.888741	dinnertime
-3.888741	dire
-3.888741	directed
-3.888741	direction
-3.888741	directs
-3.888741	disapproved
-3.888741	disclosed
-3.888741	discover
-3.41162	disdain
-3.587711	disgrace
-3.888741	disgraced
-3.888741	disguised
-3.888741	dishonest
-3.888741	dismay
-3.888741	dismissed
-3.888741	dispel
-3.587711	distress
-3.888741	distributed
-3.888741	disturbed
-3.888741	divine
-3.888741	dixit
-2.320539	do
-3.41162	does
-3.587711	doesnt
-3.888741	doing
-3.888741	domino
-3.888741	dominus
-3.888741	donation
-3.587711	donations
-3.189771	done
-3.41162	dont
-3.888741	doomsday
-3.11059	door
-3.888741	dormouse
-3.888741	dotage
-3.888741	douai
-3.41162	double
-3.587711	doubt
-3.888741	dour
-2.587711	down
-3.888741	draft
-3.888741	drags
-3.888741	drank
-3.888741	drape
-3.888741	drapery
-3.888741	drawn
-3.587711	dress
-3.888741	dressed
-3.189771	dresses
-3.888741	drew
-2.847348	drink
-3.587711	drinking
-3.888741	drivel
-3.888741	drop
-3.888741	ducks
-3.587711	due
-3.888741	dug
-3.888741	dump
-3.888741	duping
-3.888741	dwell
-3.888741	dwelling
-3.888741	dwelt
-3.286681	each
-3.888741	eager
-3.888741	early
-2.985651	earth
-3.888741	earthly
-3.587711	ease
-3.888741	easily
-3.41162	eat
-3.888741	eaten
-3.888741	edge
-3.888741	education
-3.888741	efforts
-3.888741	eh
-3.888741	either
-3.888741	elated
-3.888741	elite
-3.41162	else
-3.888741	embraces
-2.934499	empty
-3.189771	end
-3.888741	ended
-3.888741	endowed
-3.587711	endurance
-3.888741	enemy
-3.888741	enfranchised
-3.888741	england
-3.888741	engraved
-3.41162	enough
-3.888741	enough—it
-3.888741	ensnared
-3.888741	enter
-3.888741	enters
-3.286681	entertainers
-3.888741	entire
-3.888741	entourage
-3.888741	equally
-3.888741	ere
-3.888741	escaping
-3.888741	eschew
-3.888741	estate
-3.888741	estates
-3.888741	eternal
-3.888741	eum
-3.888741	eustace
-3.888741	eustace's
-3.587711	even
-3.043643	ever
-2.985651	every
-3.587711	everyone
-2.985651	everything
-3.888741	everywhere
-3.888741	evidence
-3.587711	exactly
-3.587711	excellent
-3.41162	except
-3.888741	exclaims
-3.888741	excommunicated
-3.888741	exemplifies
-3.888741	exemplum
-3.888741	exercised
-3.888741	exerted
-3.587711	expect
-3.888741	expected
-3.888741	expecting
-3.888741	expects
-3.888741	expertise
-3.888741	explained
-3.888741	explains
-3.888741	explanation
-3.888741	exposure
-3.888741	eye
-3.888741	eyed
-3.41162	eyes
-3.41162	fable
-3.286681	fabliau
-3.888741	fabliaux
-3.888741	fabric
-3.888741	fac
-3.189771	face
-3.888741	facedown
-3.41162	fact
-3.41162	fail
-3.888741	failure
-2.934499	fair
-3.587711	fairest
-3.189771	faith
-3.888741	fallen
-3.888741	falls
-3.888741	false
-3.888741	fancied
-3.587711	far
-3.587711	fared
-3.888741	farms
-3.888741	farted
-3.189771	fashion
-3.286681	fast
-3.888741	fasting
-3.587711	fat
-3.888741	fated
-3.587711	father
-3.888741	favor
-3.888741	fear
-3.888741	feast
-3.888741	feather
-3.587711	fed
-3.888741	feeding
-3.888741	feeling
-3.587711	feels
-3.286681	feet
-3.888741	feigning
-3.888741	feint
-3.41162	fell
-3.888741	fellows
-3.286681	felt
-3.888741	fend
-3.888741	fetch
-3.888741	few
-3.888741	fidgeted
-3.888741	fiery
-3.41162	fifteen
-3.888741	figure
-3.587711	figures
-3.587711	filled
-3.888741	filles
-3.888741	filling
-3.888741	filthy
-3.888741	finalize
-3.043643	find
-2.80956	fine
-3.888741	finery
-3.587711	finest
-3.888741	finis
-3.189771	fire
-3.888741	fires
-3.043643	first
-3.41162	fish
-3.888741	fists
-3.41162	fit
-3.888741	fit—
-3.888741	fix
-3.888741	flak
-3.888741	flame
-3.888741	flanks
-3.888741	flapping
-3.888741	flax
-3.888741	fleece
-3.888741	flight
-3.888741	flock's
-3.888741	flour
-3.587711	flower
-3.888741	flowers
-3.587711	flushed
-3.888741	foisted
-3.888741	fold
-3.888741	folderol
-3.587711	folk
-3.888741	follow
-3.888741	fondness
-3.587711	food
-3.41162	fool
-3.888741	foolish
-3.587711	forbade
-3.888741	forbid
-3.587711	forbidden
-3.587711	forbids
-3.888741	forget
-3.888741	forgives
-3.888741	forgot
-3.888741	formed
-3.888741	forsake
-3.888741	forthwith
-3.888741	fortnight
-3.888741	forty
-3.888741	forward
-3.888741	fouchier
-3.11059	found
-3.587711	four
-3.888741	frame
-3.587711	francis
-3.888741	franciscans
-3.587711	free
-3.888741	french
-3.587711	fresh
-3.888741	fret
-2.934499	friar
-3.888741	friar's
-3.888741	friars
-3.888741	friday
-3.043643	friend
-3.888741	friendship
-3.888741	fright
-2.397379	from
-3.189771	front
-3.888741	fruit
-3.888741	frying
-3.888741	fucking
-3.888741	fucks
-3.888741	fulfill
-3.888741	fulfilled
-3.286681	full
-3.888741	fully
-3.286681	fun
-3.286681	fur
-3.888741	furrow
-3.888741	furs
-3.587711	further
-3.888741	gaffe
-3.888741	gain
-3.888741	gall
-3.888741	galore
-3.888741	game
-3.888741	gaming
-3.888741	ganders
-3.587711	garlic
-3.888741	garments
-3.888741	gathered
-2.888741	gave
-3.888741	gay
-3.888741	gelded
-3.587711	generous
-3.888741	genitalia
-3.888741	gentian
-3.888741	gentle
-3.888741	gently
-3.888741	george
-2.71265	get
-3.11059	gets
-3.888741	gibbet
-3.888741	gift
-3.286681	gifts
-3.888741	ginger
-3.888741	gird
-2.633468	girl
-3.888741	girlfriend's
-3.41162	girls
-3.888741	girth
-3.888741	gisors
-2.633468	give
-2.985651	given
-3.888741	gives
-3.888741	giving
-3.41162	glad
-3.587711	gladly
-3.888741	glance
-3.888741	glossed
-3.888741	glowed
-3.888741	glowing
-2.50853	go
-3.587711	goat
-2.457377	god
-3.11059	god's
-3.043643	goes
-3.189771	going
-3.888741	gold
-3.043643	gone
-2.566522	good
-3.189771	goose
-3.11059	got
-3.888741	govern
-3.41162	grace
-3.888741	gracious
-3.888741	grand
-3.888741	grant
-3.888741	granted
-3.888741	grate
-3.888741	gray
-2.888741	great
-3.888741	greatest
-3.888741	green
-3.587711	greeting
-3.888741	grief
-3.587711	grieved
-3.888741	grieves
-3.888741	grouse
-3.41162	grow
-3.888741	growing
-3.888741	grumbling
-3.888741	guard
-3.888741	guess
-3.888741	guffawed
-3.888741	guide
-3.888741	guile
-3.888741	guillaume
-3.587711	gulp
-3.888741	gulping
-3.587711	gusto
-3.41162	habit
-2.225983	had
-3.888741	hag
-3.41162	hair
-3.888741	haired
-3.888741	half
-3.888741	hall
-3.888741	hammers
-2.934499	hand
-3.888741	handle
-3.189771	hands
-3.587711	hang
-3.888741	hanged
-3.41162	hanging
-3.587711	happened
-3.41162	happy
-3.888741	hardened
-3.888741	hardly
-3.587711	harlots
-3.587711	harm
-3.888741	harness
-3.888741	harrowing
-2.473768	has
-3.888741	haste
-3.888741	hatchway
-3.888741	hate
-3.888741	hateful
-3.888741	hats
-2.172738	have
-3.41162	having
-3.888741	hawthorn
-1.614583	he
-2.41162	he'd
-2.80956	he'll
-2.658292	he's
-2.888741	head
-3.888741	heaped
-2.985651	hear
-2.985651	heard
-3.41162	hearing
-2.847348	heart
-3.587711	hearted
-3.888741	heartily
-3.888741	hearty
-3.888741	heat
-3.888741	heavenly
-3.587711	heavy
-3.888741	heavyhearted
-3.587711	heels
-3.587711	held
-3.888741	hell
-3.189771	help
-3.587711	helps
-3.888741	helter
-3.888741	hemmed
-3.41162	henceforth
-1.645703	her
-3.888741	herb
-3.888741	herbs
-2.633468	hercelot
-2.934499	here
-3.41162	here's
-3.888741	hermit
-3.888741	herod
-3.286681	herself
-3.888741	hesitation
-3.888741	hey
-3.41162	hidden
-3.189771	hide
-3.888741	hides
-3.888741	hiding
-3.189771	high
-1.985651	him
-3.286681	himself
-3.888741	him—you
-3.888741	hinder
-3.888741	hire
-1.851314	his
-3.888741	holds
-3.888741	hole
-3.587711	holiness
-3.11059	holy
-2.888741	home
-3.888741	homestead
-3.587711	honest
-3.587711	honor
-3.888741	hooks
-3.888741	hoping
-3.888741	hordes
-3.888741	horse
-3.587711	hot
-3.587711	hour
-2.985651	house
-2.80956	how
-3.587711	however
-3.888741	hunchbacked
-3.587711	hundred
-3.888741	hung
-3.888741	hunted
-3.888741	hurried
-3.587711	hurries
-3.888741	hurry
-3.888741	hurt
-3.41162	husband
-3.587711	husband's
-3.888741	hypocrite
-3.888741	hysterical
-3.043643	i'd
-2.633468	i'll
-2.658292	i've
-3.888741	idea
-2.457377	if
-3.888741	ill
-3.888741	image
-3.888741	images
-3.41162	immediately
-3.888741	impart
-3.888741	implement
-3.888741	implicated
-3.888741	imposed
-3.888741	incline
-3.888741	incomplete
-3.286681	indeed
-3.888741	indulged
-3.587711	infamy
-3.888741	information
-3.888741	ing
-3.888741	ingratiating
-3.888741	inhabit
-3.888741	inheritance
-3.888741	injurious
-3.888741	inquire
-3.888741	inquiring
-3.888741	insanity
-3.286681	inside
-3.888741	insisted
-3.888741	inspection
-3.888741	install
-3.888741	installment
-3.286681	instead
-3.888741	intelligent
-3.888741	intending
-3.888741	intends
-3.888741	intense
-3.888741	intent
-3.888741	intention
-3.888741	interest
-3.888741	intimidated
-2.80956	into
-3.888741	irate
-3.888741	irked
-3.587711	isnt
-2.774798	it's
-3.888741	itches
-3.286681	its
-3.888741	jewelry
-3.888741	job
-3.888741	joined
-3.11059	joy
-3.587711	joyful
-3.888741	judaea
-3.888741	jug
-3.587711	jumps
-2.742613	just
-3.286681	keep
-3.888741	keeping
-3.189771	kept
-3.888741	keys
-3.888741	kid
-3.888741	killed
-3.888741	kin
-3.888741	kind
-3.888741	kindled
-3.888741	kindling
-3.587711	king
-3.888741	kith
-3.888741	kneels
-3.888741	knees
-2.888741	knew
-3.888741	knife
-3.41162	knight
-3.888741	knight's
-3.043643	knights
-3.11059	know
-3.41162	known
-3.888741	labors
-3.888741	laceration
-2.587711	lady
-3.888741	lady'd
-3.41162	lady's
-3.286681	laid
-3.888741	lamb's
-3.888741	lambasted
-3.888741	land
-3.888741	lands
-3.41162	large
-3.189771	last
-3.888741	late
-3.888741	laugh
-3.587711	laughing
-3.888741	laughter
-3.888741	launched
-3.888741	lavish
-3.888741	lavishly
-3.888741	lawrence—
-3.888741	lax
-3.189771	lay
-3.888741	le
-3.587711	lead
-3.888741	leads
-3.888741	leaf
-3.587711	league
-3.888741	leaned
-3.286681	learned
-3.41162	least
-3.888741	leather
-2.934499	leave
-3.888741	leave—
-3.587711	leaving
-3.888741	lecherous
-3.11059	led
-2.985651	left
-3.888741	leggings
-3.888741	leisure
-3.888741	length
-3.888741	lengthy
-3.587711	less
-2.985651	let
-3.587711	let's
-3.587711	liar
-3.888741	licorice
-3.043643	lie
-3.888741	lies
-3.043643	life
-3.888741	lifted
-3.587711	lifts
-3.11059	light
-3.888741	liked
-3.286681	likewise
-3.888741	lined
-3.888741	linen
-3.888741	linger
-3.41162	little
-3.11059	live
-3.189771	lived
-3.587711	lives
-3.286681	living
-3.888741	loathing
-3.888741	loathsome
-3.888741	located—he
-3.888741	location
-3.888741	lock
-3.888741	locked
-3.888741	loft
-2.985651	long
-3.286681	longer
-3.189771	look
-3.286681	looked
-3.888741	looking
-3.888741	looks
-3.888741	loons
-3.888741	loose
-3.888741	loosed
-2.934499	lord
-3.888741	lord's
-3.587711	lords
-3.189771	lost
-3.888741	lot
-3.888741	loud
-3.189771	love
-3.587711	loved
-3.043643	lovely
-3.888741	lovemaking
-3.41162	lover
-3.888741	loves
-3.587711	low
-3.888741	luck
-3.888741	lucky
-3.888741	lump
-3.888741	lunatic
-3.888741	lust
-3.888741	lying
-3.888741	ma'am
-2.934499	madame
-2.546318	made
-3.888741	made—
-3.888741	madness
-3.888741	magnificent
-3.11059	mahauld
-3.41162	maid
-3.286681	maiden
-3.888741	maidenhead
-3.888741	maintain
-2.50853	make
-3.41162	makes
-3.587711	making
-2.742613	man
-3.888741	manner
-3.587711	mans
-3.888741	mantle
-3.286681	many
-3.043643	marian
-3.888741	marians
-3.587711	marian—
-3.888741	market
-3.888741	marks
-3.41162	married
-3.888741	martyrdom
-3.888741	marvel
-3.41162	master
-3.41162	matter
-3.888741	mattocks
-3.888741	mattress
-2.847348	may
-3.888741	mayhem
-3.888741	meal
-3.286681	mean
-3.888741	meaning
-3.587711	meant
-3.587711	meet
-3.888741	meeting
-3.888741	melodious
-3.888741	member
-3.888741	members
-3.888741	memory
-3.41162	men
-3.189771	menhould
-3.888741	meo
-3.587711	merchandise
-3.286681	merchant
-3.888741	mercy
-3.888741	mere
-3.888741	merit
-3.888741	mess
-3.888741	message
-3.888741	messes
-3.888741	messing
-3.888741	met
-3.286681	might
-3.888741	mightily
-3.888741	milan
-3.888741	mill
-3.189771	mind
-3.888741	minds
-3.587711	mine
-3.587711	minor
-3.888741	minstrels
-3.888741	minstrelsy
-3.888741	miracles
-3.888741	mirth
-3.888741	misgivings
-3.888741	mishap
-3.587711	miss
-3.888741	missing
-3.888741	mistresses
-3.888741	modestly
-3.888741	modesty
-3.189771	money
-3.888741	mongrel
-3.888741	monk
-3.888741	moral
-2.527013	more
-3.587711	morning
-3.888741	mortally
-3.043643	most
-2.658292	mother
-3.41162	mother's
-3.587711	mount
-3.587711	moves
-3.888741	moving
-3.888741	mr
-2.742613	much
-3.888741	muck
-3.888741	mulling
-3.888741	mum
-2.742613	must
-3.888741	myself
-3.888741	naked
-3.286681	name
-3.888741	nature
-3.587711	near
-3.888741	nearest
-3.888741	necessary
-3.587711	neck
-3.11059	need
-3.888741	needed
-3.888741	neednt
-3.587711	needs
-3.888741	neighborliness
-3.286681	neither
-3.043643	never
-3.41162	new
-3.888741	newly
-3.587711	next
-3.888741	nice
-3.888741	niggardly
-2.934499	night
-3.888741	nine
-3.888741	ninny
-2.172738	no
-3.189771	noble
-3.888741	noblewoman
-3.587711	nobly
-3.888741	nobody
-3.888741	noise
-3.41162	none
-3.888741	nonpareil
-3.888741	nonsense
-2.774798	nor
-3.888741	normand
-3.888741	noses
-2.181171	not
-3.043643	nothing
-3.888741	novice
-2.473768	now
-3.888741	nurse
-3.888741	nursed
-3.888741	nurture
-3.888741	o
-3.587711	obeyed
-3.888741	objection
-3.888741	obligation
-3.888741	occasion
-3.888741	occurred
-2.71265	off
-3.888741	offense
-3.888741	offer
-3.888741	offered
-3.888741	offers
-3.888741	office
-3.11059	often
-3.587711	oh
-3.888741	oise
-2.609987	old
-3.888741	omer
-3.888741	omission
-3.888741	omitting
-3.888741	omnia
-3.189771	once
-2.41162	one
-3.888741	onions
-3.043643	only
-3.888741	onto
-3.286681	open
-3.888741	opened
-3.888741	openhanded
-3.587711	openly
-3.888741	opposition
-2.370227	or
-3.41162	order
-3.888741	ordered
-3.189771	orders
-3.888741	ordination
-3.888741	ornaments
-2.80956	other
-3.888741	other's
-3.587711	others
-3.888741	otherwise
-3.888741	ought
-2.934499	our
-2.426343	out
-3.888741	outside
-3.286681	over
-3.888741	overcoat
-3.888741	overflowed
-3.888741	overhead
-3.888741	overseer
-3.888741	overtaxing
-3.888741	overwrought
-3.587711	owe
-3.888741	owed
-3.888741	owes
-3.11059	own
-3.888741	pages
-3.888741	paid
-3.587711	pair
-3.888741	pal
-3.888741	palm
-3.888741	pan
-3.888741	parable
-3.888741	paramour
-3.888741	parchment
-3.888741	pardon
-3.888741	parent
-3.888741	parents
-3.888741	paris
-3.888741	parish
-3.888741	part
-3.587711	pass
-3.888741	passed
-3.11059	passion
-3.888741	passions
-3.888741	past
-3.888741	pasties
-3.888741	patently
-3.888741	patience
-3.587711	paul
-3.11059	pay
-3.888741	pea
-3.888741	peace
-3.888741	peas
-3.189771	peasant
-3.888741	peasant's
-3.888741	peasantry
-3.189771	peasants
-3.888741	pedigree
-3.888741	peels
-3.888741	pen
-3.888741	penis
-3.888741	penitence
-3.587711	penny
-2.888741	people
-3.587711	pepper
-3.888741	peppered
-3.888741	per
-3.888741	perceive
-3.888741	perceived
-3.888741	perfect
-3.888741	perform
-3.888741	performers
-3.587711	permission
-3.888741	permit
-3.888741	perturb
-3.41162	peter
-3.888741	pheasant
-3.888741	picnic
-3.888741	piebald
-3.888741	pieces
-3.888741	piercing
-3.888741	pile
-3.286681	pit
-3.888741	pity
-2.888741	place
-3.41162	placed
-3.587711	plain
-3.888741	plan
-3.888741	plank
-3.587711	plate
-3.888741	pleads
-3.888741	pleasance
-3.888741	pleasant
-3.888741	pleasantly
-3.286681	please
-3.888741	pleased
-3.286681	pleasure
-3.888741	pled
-3.888741	pledge
-3.888741	pledges
-3.286681	plenty
-3.888741	plotted
-3.888741	polished
-3.888741	pontoise
-3.286681	poor
-3.888741	poorer
-3.888741	pose
-3.587711	position
-3.587711	possess
-3.587711	possessed
-3.888741	possible
-3.888741	post
-3.888741	posterior
-3.888741	posthaste
-3.888741	potbellied
-3.888741	pottage
-3.587711	pound
-3.888741	pounded
-3.888741	pounding
-3.11059	pounds
-3.888741	poured
-3.888741	pray
-3.888741	prayed
-3.41162	prayer
-3.888741	preaching
-3.888741	precepts
-3.587711	precious
-3.888741	prelate
-3.587711	prelate's
-3.888741	preoccupied
-3.888741	prepare
-3.888741	prepared
-3.888741	prescription
-3.888741	presence
-3.888741	present
-3.888741	press
-3.888741	pretense
-3.888741	pretext
-3.888741	prevent
-3.888741	pridefulness
-2.082561	priest
-3.587711	priest's
-3.888741	priestly
-3.41162	priests
-3.888741	probity
-3.888741	proceed
-3.888741	procure
-3.888741	professional
-3.888741	profit
-3.888741	profligates
-3.888741	profounder
-3.888741	prolong
-3.587711	promise
-3.587711	promised
-3.888741	promptly
-3.888741	pronounce
-3.888741	proper
-3.587711	propose
-3.888741	proposed
-3.587711	protection
-3.888741	protestation
-3.888741	proud
-3.888741	proverb
-3.41162	provided
-3.888741	provins
-3.888741	provision
-3.888741	pruning
-3.587711	psalter
-3.888741	pull
-3.888741	pullets
-3.888741	punishment
-3.888741	pure
-3.888741	purge
-3.888741	purple
-3.286681	purse
-3.888741	pushed
-3.888741	pushes
-2.847348	put
-3.587711	putting
-3.888741	qualities
-3.888741	quantities
-3.888741	question
-3.888741	questioned
-3.888741	quick
-3.888741	quicker
-3.286681	quickly
-3.888741	quietly
-3.11059	quite
-3.888741	race
-3.41162	raise
-3.587711	raised
-3.888741	ran
-3.888741	rare
-3.888741	rarity
-3.888741	rascal
-3.888741	reach
-3.888741	read
-3.587711	readily
-3.587711	reading
-3.189771	ready
-3.888741	real
-3.888741	really
-3.587711	reason
-3.888741	reassurance
-3.888741	reassure
-3.888741	rebel
-3.888741	rebuke
-3.888741	received
-3.888741	reckless
-3.888741	recluse
-3.888741	recreation
-3.888741	reeds
-3.888741	refrain
-3.888741	refutation
-3.888741	regret
-3.888741	rejoinder
-3.888741	related
-3.888741	relent
-3.888741	relieved
-3.888741	remain
-3.888741	remains
-3.888741	reminding
-3.888741	remove
-3.888741	renegade
-3.888741	rents
-3.587711	replied
-3.286681	replies
-3.888741	reply
-3.888741	reproached
-3.888741	reproof
-3.587711	require
-3.888741	resemble
-3.888741	resound
-3.888741	resounded
-3.888741	respect
-3.888741	respite
-3.888741	rest
-3.888741	rested
-3.888741	return
-3.888741	returned
-3.286681	reward
-3.587711	rhyme
-3.41162	ribs
-3.587711	rich
-3.888741	riches
-3.41162	ride
-3.587711	riding
-2.774798	right
-3.888741	righteous
-3.888741	rightful
-3.888741	rightfully
-3.888741	rights
-3.888741	ripped
-3.888741	river
-3.888741	road
-3.888741	robe
-3.888741	roger
-3.888741	roof
-3.286681	room
-3.888741	rose
-3.888741	rotten
-3.888741	round
-3.888741	route
-3.888741	rule
-3.41162	running
-3.888741	rutebeuf
-3.888741	rutting
-3.888741	sad
-2.370227	said
-2.633468	saint
-3.587711	saints
-3.587711	sake
-3.888741	salvation
-3.587711	same
-3.888741	sanction
-3.587711	sat
-3.888741	sate
-3.888741	satisfaction
-3.888741	satisfied
-3.41162	save
-3.888741	saving
-3.888741	savior
-3.189771	saw
-2.658292	say
-3.888741	saying
-2.473768	says
-3.888741	scarcely
-3.888741	scared
-3.888741	scene
-3.888741	scholars
-3.888741	score
-3.888741	scorn
-3.888741	scorned
-3.888741	scraps
-3.888741	screwed
-3.888741	scriptures
-3.888741	sculpted
-3.888741	sculptures
-3.888741	search
-3.888741	searched
-3.888741	seat
-3.888741	second
-3.41162	secret
-3.888741	sector
-3.888741	secula
-3.888741	seculorum
-2.80956	see
-3.286681	seeing
-3.888741	seek
-3.888741	seeks
-3.888741	seemly
-3.587711	seems
-3.587711	seen
-3.888741	sees
-3.888741	selection
-3.888741	self
-3.888741	selling
-3.888741	sends
-3.888741	senlis
-3.587711	sense
-3.888741	sent
-3.888741	separation
-3.587711	sermon
-3.41162	serve
-3.888741	served
-3.41162	service
-2.888741	set
-3.888741	sets
-3.888741	sewn
-3.888741	sex
-3.888741	shady
-3.888741	shafts
-3.888741	shaken
-3.888741	shaking
-3.41162	shall
-3.888741	shameful
-3.888741	shamefully
-3.587711	shapely
-3.587711	sharing
-3.888741	sharp
-3.888741	sharpened
-3.888741	sharpening
-1.915613	she
-2.847348	she'd
-3.189771	she'll
-2.847348	she's
-3.888741	sheepskin
-3.888741	sheets
-3.888741	shelter
-3.888741	shift
-3.888741	shillings
-3.888741	shines
-3.888741	shiny
-3.41162	shit
-3.888741	shock
-3.587711	shoes
-3.888741	shop
-3.286681	short
-3.11059	should
-3.888741	shouldnt
-3.41162	show
-3.888741	shows
-3.888741	shred
-3.888741	shrieks
-3.888741	shut
-3.286681	side
-3.888741	sifted
-3.888741	sighs
-3.41162	sight
-3.587711	sign
-3.888741	silly
-3.587711	silver
-3.043643	simon
-3.888741	simons
-3.888741	simple
-3.587711	sin
-3.11059	since
-3.888741	sing
-3.888741	sins
-3.189771	sir
-3.286681	sire
-3.888741	sister
-3.888741	sit
-3.587711	sits
-3.888741	sitting
-3.888741	sixty
-3.888741	skelter
-3.888741	skill
-3.888741	skillfully
-3.587711	sleep
-3.888741	slighted
-3.888741	slightest
-3.888741	slow
-3.587711	sly
-3.888741	slyly
-3.888741	small
-3.888741	smart
-3.888741	snare
-2.332438	so
-3.888741	soft
-3.888741	soissons
-3.189771	sold
-3.888741	solemn
-2.934499	some
-2.985651	someone
-3.888741	someplace
-3.286681	something
-3.587711	somewhere
-3.043643	son
-3.888741	songs
-3.888741	sons
-2.985651	soon
-3.587711	sooner
-3.888741	sore
-3.888741	sorrowful
-3.587711	sort
-3.888741	sought
-3.043643	soul
-3.888741	souls'
-3.888741	sour
-3.888741	sown
-3.888741	space
-3.888741	spacious
-3.41162	spade
-3.888741	spades
-3.189771	speak
-3.587711	speaking
-3.888741	speech
-3.888741	speedily
-3.888741	spell
-3.41162	spend
-3.41162	spent
-3.888741	spice
-3.888741	spied
-3.888741	spine
-3.888741	spirit
-3.888741	spite
-3.888741	spoke
-3.888741	spoken
-3.587711	spot
-3.888741	spots
-3.888741	spread
-3.888741	squats
-3.888741	squatted
-3.888741	squirrel
-3.888741	stack
-3.888741	stairs
-3.587711	standing
-3.587711	stands
-3.888741	staring
-3.587711	start
-3.587711	started
-3.587711	starting
-3.888741	starts
-3.888741	state
-3.888741	stated
-3.587711	states
-3.888741	statues
-3.888741	statuette
-3.11059	stay
-3.587711	stayed
-3.888741	stays
-3.587711	steed
-3.41162	steps
-3.587711	sterling
-3.888741	stick
-3.888741	sticks
-3.888741	stiffening
-3.888741	stiffer
-3.888741	stifled
-3.189771	still
-3.888741	stingy
-3.888741	stipend
-3.888741	stirred
-3.888741	stitching
-3.888741	stock
-3.888741	stocked
-3.888741	stole
-3.587711	stone
-3.587711	stood
-3.888741	stopped
-3.888741	storage
-3.888741	store
-3.888741	stores
-3.888741	stories
-3.888741	storms
-3.587711	story
-3.41162	straight
-3.587711	straightaway
-3.888741	strains
-3.888741	straits
-3.587711	straw
-3.587711	straws
-3.587711	stray
-3.888741	strayed
-3.888741	street
-3.888741	streets
-3.888741	strength
-3.41162	stretched
-3.888741	strict
-3.41162	struck
-3.888741	strut
-3.888741	stuffed
-3.888741	stumble
-3.587711	sturdy
-3.888741	stylish
-3.888741	suave
-3.888741	subpoena
-3.888741	subpoenaed
-3.888741	subterfuge
-3.888741	subvert
-2.888741	such
-3.888741	suckle
-3.587711	suffer
-3.888741	suffers
-3.41162	suit
-3.888741	suitor
-3.888741	summer
-3.888741	summon
-3.41162	summoned
-3.587711	supplied
-3.587711	support
-3.888741	supports
-3.888741	supposed
-3.286681	sure
-3.888741	surely
-3.888741	surly
-3.888741	surpassed
-3.587711	suspended
-3.888741	suspension
-3.888741	swampy
-3.41162	swear
-3.41162	swears
-3.888741	sweep
-3.189771	sweet
-3.888741	sweetheart's
-3.587711	swore
-3.888741	sworn
-3.888741	swung
-3.41162	table
-3.888741	tabors
-3.888741	tail
-3.888741	tailored
-2.658292	take
-3.11059	taken
-2.934499	takes
-3.286681	taking
-3.888741	tale
-3.888741	talk
-3.587711	talking
-3.888741	taper
-3.888741	task
-3.888741	taste
-3.888741	teach
-3.888741	teaches
-3.888741	teaching
-3.888741	tear
-3.888741	tears
-3.888741	teeth
-2.658292	tell
-2.888741	tells
-3.587711	ten
-3.41162	tenderly
-3.888741	terrain
-3.888741	terrified
-3.888741	text
-3.888741	thames
-2.633468	than
-2.985651	that's
-2.426343	their
-2.50853	them
-3.888741	themselves
-2.397379	then
-2.490801	there
-3.11059	there's
-3.888741	therefore
-3.41162	thereupon
-3.189771	these
-2.473768	they
-3.11059	they'd
-3.888741	they'll
-3.286681	they're
-3.888741	they've
-3.888741	thing
-3.888741	thing's
-3.41162	things
-3.189771	think
-3.189771	thinking
-3.286681	thinks
-3.888741	third
-3.888741	thirty
-2.255272	this
-3.11059	those
-3.11059	though
-3.043643	thought
-3.41162	thoughts
-3.888741	thrashings
-3.888741	threatening
-3.189771	three
-3.587711	threw
-3.888741	throat
-2.847348	through
-3.888741	throughout
-3.286681	thus
-3.888741	tidy
-3.888741	tied
-3.888741	tight
-3.888741	tightly
-2.934499	till
-3.888741	tilled
-2.633468	time
-3.286681	times
-3.888741	tips
-3.888741	tirelessly
-3.587711	tithes
-3.888741	to't
-3.587711	today
-3.888741	together
-2.934499	told
-3.888741	tomorrow
-3.888741	tongue
-3.587711	tonight
-3.41162	tonsured
-2.847348	too
-2.684621	took
-3.888741	tool
-3.587711	tools
-3.41162	top
-3.888741	topic
-3.888741	tore
-3.888741	torments
-3.888741	torn
-3.888741	tortures
-3.888741	toss
-3.888741	tossed
-3.888741	totally
-3.888741	touch
-3.888741	touches
-3.888741	tow
-3.888741	toward
-3.043643	town
-3.888741	townspeople
-3.888741	tradition
-3.888741	train—
-3.888741	transgression
-3.888741	transition
-3.888741	trap
-3.888741	treasure
-3.888741	treasured
-3.41162	treat
-3.888741	treatment
-3.888741	tree
-3.587711	trees
-3.888741	trembling
-3.888741	trenchant
-3.888741	tricked
-3.888741	trickery
-3.888741	tricky
-3.888741	trip
-3.888741	trollops
-3.587711	trouble
-3.888741	trough
-3.888741	troupers
-3.41162	true
-3.587711	truly
-3.189771	trust
-3.587711	truth
-3.587711	try
-3.888741	tumbled
-3.587711	tunic
-3.587711	turn
-3.11059	turned
-3.888741	turning
-3.587711	turns
-3.888741	tutored
-3.587711	twelfth
-3.888741	twelve
-3.888741	twist
-2.71265	two
-3.587711	tête
-3.888741	ugly
-3.888741	unaffected
-3.888741	unbinds
-3.888741	unclad
-3.888741	unclothed
-3.587711	under
-3.888741	understood
-3.888741	undertake
-3.888741	undertook
-3.888741	undoubtedly
-3.888741	unfamiliar
-3.888741	unfitting
-3.888741	ungrateful
-3.888741	union
-3.888741	unkind
-3.41162	unless
-3.888741	unmarried
-3.888741	unquiet
-3.189771	until
-3.888741	untrue
-2.527013	up
-2.888741	upon
-3.888741	urged
-3.888741	urgently
-3.587711	urging
-3.043643	us
-3.286681	use
-3.587711	used
-3.888741	utmost
-3.888741	vain
-3.888741	valuable
-3.888741	value
-3.888741	varmints
-2.847348	very
-3.587711	vestments
-3.888741	vexed
-3.587711	view
-3.888741	vilify
-3.888741	violating
-3.888741	violes
-3.189771	virgin
-3.888741	virginity
-3.888741	virile
-3.888741	virtue
-3.888741	virtuous
-3.587711	voice
-3.888741	vow
-3.888741	vulgarity
-3.888741	wagon
-3.189771	wait
-3.888741	waited
-3.888741	waiting
-3.888741	waits
-3.888741	waking
-3.41162	walking
-3.888741	walks
-3.888741	wandering
-3.286681	want
-3.286681	wanted
-3.888741	wanton
-3.888741	wants
-3.888741	warrant
-2.031409	was
-3.286681	wasnt
-3.888741	wasnt—it
-3.587711	wasted
-3.587711	water
-3.888741	waterfowl
-2.633468	way
-3.888741	ways
-3.888741	we'll
-3.888741	we're
-3.888741	we've
-3.888741	weak
-3.41162	wealth
-3.888741	wealthy
-3.41162	wear
-3.888741	wearied
-3.888741	weather's
-3.587711	wed
-3.587711	week
-3.888741	weeping
-3.888741	weighed
-3.888741	welcome
-2.566522	well
-3.888741	wench
-2.658292	went
-3.888741	wept
-2.742613	were
-2.235528	what
-3.043643	whatever
-3.888741	wheat
-3.888741	wheedle
-2.370227	when
-3.888741	whenever
-2.71265	where
-3.888741	whereas
-3.888741	whether
-3.888741	whetting
-2.658292	which
-2.985651	while
-3.888741	whim
-3.41162	white
-3.888741	whiter
-2.172738	who
-3.587711	who'd
-3.888741	who'll
-3.11059	who's
-3.587711	who've
-3.587711	whoever
-3.587711	whole
-2.774798	whom
-3.587711	whomever
-3.587711	whores
-3.043643	whose
-2.934499	why
-3.587711	wickedly
-3.888741	wickedness
-3.888741	wide
-2.80956	wife
-2.383591	will
-3.587711	william
-3.888741	willingly
-3.888741	wind
-3.888741	window
-3.043643	wine
-3.888741	wines
-3.888741	wink
-3.888741	winked
-3.888741	winning
-3.587711	wise
-3.587711	wish
-3.587711	wished
-3.888741	wishes
-3.888741	withdraw
-3.888741	withdrew
-3.888741	withers
-3.888741	within
-2.774798	without
-3.587711	witness
-3.888741	woe
-3.41162	wolf
-2.473768	woman
-2.888741	womans
-3.587711	women
-3.888741	womens
-3.888741	won
-3.888741	wonderful
-3.888741	wondrous
-2.934499	wont
-3.888741	wood
-3.888741	wool
-2.80956	word
-3.41162	words
-3.888741	wore
-3.41162	work
-3.888741	workmanship
-3.888741	workshop
-3.888741	world
-3.888741	world's
-3.888741	worm
-3.888741	worn
-3.587711	worse
-3.41162	worth
-3.41162	worthy
-2.457377	would
-3.41162	wouldnt
-3.888741	woven
-3.888741	wraps
-3.888741	wrenched
-3.587711	wretch
-3.888741	wretched
-3.888741	writ
-3.888741	wrongfully
-3.888741	year
-3.888741	yearning
-3.888741	yell
-3.587711	yes
-3.888741	yet
-3.286681	you'd
-2.847348	you'll
-3.587711	you're
-2.934499	you've
-3.11059	young
-3.587711	yours
-3.41162	yourself
-3.888741	zedoary
-3.888741	à

\end\

'd 0.5
'er 0.5
'im 0.5
'n 0.5
'round 0.5
-pau- 0.5
10 0.5
100 0.5
105 0.5
110 0.5
115 0.5
120 0.5
125 0.5
130 0.5
135 0.5
140 0.5
145 0.5
15 0.5
150 0.5
155 0.5
160 0.5
165 0.5
170 0.5
175 0.5
180 0.5
185 0.5
190 0.5
195 0.5
20 0.245
200 0.5
205 0.5
210 0.5
215 0.5
220 0.5
225 0.5
230 0.5
235 0.5
240 0.5
245 0.5
25 0.5
250 0.5
255 0.5
260 0.5
265 0.5
270 0.5
275 0.5
280 0.5
285 0.5
290 0.5
295 0.5
30 0.5
300 0.5
305 0.5
310 0.5
315 0.5
320 0.5
325 0.5
330 0.5
335 0.5
340 0.5
345 0.5
35 0.5
350 0.5
355 0.5
360 0.5
365 0.5
370 0.5
375 0.5
380 0.5
385 0.5
390 0.5
395 0.5
40 0.5
400 0.5
415 0.5
420 0.5
425 0.5
435 0.5
445 0.5
45 0.5
450 0.5
5 0.5
50 0.5
55 0.347222
60 0.5
65 0.5
70 0.5
75 0.5
80 0.5
85 0.5
90 0.5
95 0.5
</s> 0.5
<s> 0
<unk> 0.5
abhorrence 0.5
abide 0.5
abode 0.5
about 0.426036
above 0.5
accept 0.5
accepts 0.5
accompany 0.5
accordance 0.5
accorded 0.5
account 0.5
accursed 0.5
accusation 0.5
acquainted 0.5
across 0.5
act 0.5
acted 0.5
action 0.5
actions 0.5
activity 0.5
acts 0.5
adam 0.5
adjured 0.5
advise 0.5
advised 0.5
adzes 0.5
affair 0.5
affairs 0.5
affirms 0.5
afford 0.5
afraid 0.5
after 0.5
afterward 0.5
again 0.32
against 0.5
aggravate 0.5
agree 0.125
agreed 0.5
ah 0.5
aid 0.5
air 0.5
alarm 0.5
alexander 0.5
alexandria 0.5
alight 0.5
alison 0.413223
alison— 0.5
all 0.3648
allege 0.5
allow 0.5
allowed 0.5
alms 0.5
alone 0.5
along 0.5
aloud 0.5
alphabet 0.5
already 0.5
also 0.5
also—with 0.5
altar 0.5
although 0.5
altogether 0.5
always 0.5
am 0.5
am'rous 0.5
amen 0.5
amity 0.5
among 0.5
ample 0.5
amputation 0.5
an 0.5
ancestry 0.5
anguished 0.5
announces 0.5
annoyed 0.5
another 0.5
answered 0.5
answers 0.5
antichrist 0.5
any 0.405
anymore 0.5
anyone 0.5
anything 0.5
apart 0.5
apostles' 0.5
apparel 0.5
apparent 0.5
appeal 0.5
appear 0.5
apple 0.5
apple's 0.5
apprentice 0.5
approached 0.5
ardres 0.5
are 0.5
arguments 0.5
aright 0.5
arising 0.5
arles 0.5
arms 0.28125
around 0.32
arrange 0.5
arranged 0.5
arrives 0.5
artfully 0.5
artfulness 0.5
as 0.242349
aside 0.5
ask 0.5
asked 0.5
asks 0.5
ass 0.5
assail 0.5
assemble 0.5
assistance 0.5
assume 0.5
assuming 0.5
assurance 0.5
assured 0.5
astray 0.5
at 0.262188
attempts 0.5
attire 0.5
auberée 0.5
aught 0.5
avail 0.5
averse 0.5
awaits 0.5
aware 0.5
away 0.245
awful 0.5
awhile 0.5
axes 0.5
back 0.308673
backwards 0.5
bad 0.5
baffled 0.5
baked 0.5
balls 0.5
bamboozled 0.5
ban 0.5
band 0.5
banquet 0.5
bare 0.5
barging 0.5
barley 0.5
barons— 0.5
barrabam 0.5
barrel 0.5
based 0.5
basis 0.5
batch 0.5
bath 0.5
bathe 0.5
bathed 0.5
bathtub 0.5
battered 0.5
bawds 0.5
bayeux 0.5
bear 0.5
bears 0.5
beast 0.5
beat 0.5
beaten 0.5
beating 0.5
beautiful 0.5
beautifully 0.5
beauty 0.5
because 0.382812
becauseshe 0.5
become 0.5
bed 0.28125
bedding 0.5
bedroom 0.5
beds 0.5
bedtime 0.5
been 0.5
beeswax 0.5
before 0.308673
befouls 0.5
began 0.5
begged 0.5
begins 0.5
begs 0.5
beguiled 0.5
behave 0.5
behaved 0.5
behavior 0.5
behavior's 0.5
behaviors 0.5
behind 0.32
being 0.5
beldame 0.5
believe 0.5
believed 0.5
belong 0.5
belt 0.5
bends 0.5
benedico 0.5
benefit 0.5
beside 0.5
besides 0.5
best 0.5
bestow 0.5
bet 0.5
betrothed 0.5
better 0.5
between 0.5
beyond 0.28125
bidden 0.5
big 0.5
binds 0.5
birth 0.5
bishop 0.347222
bishop's 0.32
bit 0.5
bite 0.5
bitter 0.5
bittern 0.5
black 0.5
blades 0.5
blazing 0.5
blessed 0.5
blessing 0.5
blessèd 0.5
blind 0.5
blond 0.5
bloodred 0.5
blows 0.5
blue 0.5
board 0.5
body 0.5
bone 0.5
bones 0.5
book 0.5
booming 0.5
bore 0.5
born 0.5
both 0.5
bother 0.5
bought 0.5
bowels 0.5
bower 0.5
bowing 0.5
box 0.5
boy's 0.5
bread 0.5
breast 0.5
bred 0.5
bring 0.5
broken 0.5
brook 0.5
brothel 0.5
brother 0.110727
brothers 0.5
brothers' 0.5
brought 0.5
bruised 0.5
brush 0.5
buck 0.5
budding 0.5
built 0.5
bump 0.5
bundled 0.5
burn 0.5
burning 0.5
burrow 0.5
business 0.5
but 0.44449
butcher 0.5
buy 0.5
by 0.24389
cakes 0.5
calais 0.5
call 0.5
called 0.5
calling 0.5
came 0.5
can 0.431122
candle 0.5
candles 0.5
cannot 0.347222
cant 0.5
cape 0.5
capons 0.5
caraway 0.5
care 0.5
cared 0.5
carefree 0.5
careful 0.5
cares 0.5
carp 0.5
carried 0.5
carries 0.5
carrying 0.5
carved 0.5
carver 0.5
carvings 0.5
case 0.5
cases 0.5
cast 0.5
catch 0.5
caught 0.5
caused 0.5
cavort 0.5
cellar 0.5
certain 0.5
certainly 0.5
chair 0.5
chamber 0.5
change 0.5
chanted 0.5
chapel 0.5
chaplain 0.5
chaplains 0.5
charge 0.5
charges 0.5
charlatan 0.5
charm 0.5
chartrain 0.5
chatter 0.5
cheap 0.5
chest 0.5
chicken 0.5
child 0.5
chimed 0.5
chin 0.5
chisels 0.5
choose 0.5
chosen 0.5
christ 0.5
church 0.5
churl 0.5
cinnamon 0.5
citterns 0.5
city 0.5
clad 0.5
clamoring 0.5
clasped 0.5
class 0.5
clay 0.5
clear 0.5
clearly 0.5
clergy 0.5
clergyman 0.5
clergymen 0.5
cleric 0.5
clerical 0.5
clerics 0.5
clerk 0.5
clever 0.5
climb 0.5
cloak 0.5
cloaks 0.5
cloister 0.5
close 0.5
closer 0.5
closes 0.5
cloth 0.222222
clothed 0.5
clothes 0.5
clothing 0.5
coarse 0.5
coat 0.5
cock 0.5
coffers 0.5
coins 0.5
collateral 0.5
come 0.395062
comely 0.5
comes 0.5
comforted 0.5
comfy 0.5
command 0.5
commanded 0.5
commands 0.5
comments 0.5
common 0.5
commoners 0.5
community 0.5
companion 0.5
company 0.5
compare 0.5
compelled 0.5
competence 0.5
complaint 0.5
completely 0.5
comply 0.5
con 0.5
conceal 0.5
concealed 0.5
concerning 0.5
conduct 0.5
confers 0.5
confess 0.5
confession 0.5
confidence 0.5
conflagration 0.5
confrere 0.5
confreres 0.5
confusedly 0.5
congratulations 0.5
conniving 0.5
consecrated 0.5
consent 0.5
consider 0.5
consideration 0.5
contented 0.5
contents 0.5
contents— 0.5
continued 0.5
contradict 0.5
contradiction 0.5
contrariwise 0.5
contrary 0.5
contrition 0.5
converted 0.5
convinced 0.5
cools 0.5
cord 0.5
cordelier 0.5
corn 0.5
corrected 0.5
costly 0.5
could 0.389273
couldnt 0.5
counsel 0.5
count 0.5
counted 0.5
countermands 0.5
courier 0.5
court 0.5
coustenz 0.5
cover 0.5
cowed 0.5
created 0.5
creature 0.5
creatures 0.5
credo 0.5
crevice 0.5
cried 0.5
crier 0.5
cries 0.5
cross 0.5
crowbar 0.5
crowed 0.5
crown 0.5
crucified 0.5
crucifige 0.5
crucifix 0.5
crucifixes 0.5
cruelly 0.5
crusty 0.5
cry 0.5
crying 0.5
cumin 0.5
cunning 0.5
cunt 0.347222
cunts 0.5
cup 0.5
curled 0.5
currency 0.5
curtain 0.5
curtained 0.5
curtains 0.28125
cushions 0.5
cut 0.28125
cuts 0.5
cutting 0.5
cwm 0.5
cyr 0.5
dace 0.5
dais 0.5
dam 0.5
damnation 0.5
damned 0.5
dancing 0.5
dapple 0.5
dark 0.5
daughter 0.405
daughter's 0.5
daunted 0.5
dawdle 0.5
day 0.5
days 0.5
dead 0.5
deal 0.5
dealt 0.5
dear 0.5
dearly 0.5
death 0.5
debauched 0.5
debauches 0.5
debt 0.5
deceit 0.5
deceitful 0.5
deceived 0.5
decision 0.5
decked 0.5
decree 0.5
decreed 0.5
deed 0.5
deeds 0.5
deep 0.5
defense 0.5
deference 0.5
defied 0.5
deigned 0.5
delay 0.5
delight 0.5
delights 0.5
delivered 0.5
demand 0.5
demeanor 0.5
demoiselle 0.5
demonstrated 0.5
denier 0.5
denise 0.405
denise's 0.5
dennis 0.5
deny 0.5
depended 0.5
desire 0.5
desired 0.5
desist 0.5
destiny 0.5
destroyed 0.5
details 0.5
detects 0.5
devil 0.5
devils 0.5
devotedly 0.5
devour 0.5
did 0.367347
didnt 0.5
die 0.5
died 0.5
dieu 0.5
different 0.5
din 0.5
dine 0.125
dinner 0.5
dinner's 0.5
dinners 0.5
dinnertime 0.5
dire 0.5
directed 0.5
direction 0.5
directs 0.5
disapproved 0.5
disclosed 0.5
discover 0.5
disdain 0.222222
disgrace 0.5
disgraced 0.5
disguised 0.5
dishonest 0.5
dismay 0.5
dismissed 0.5
dispel 0.5
distress 0.5
distributed 0.5
disturbed 0.5
divine 0.5
dixit 0.5
do 0.28634
does 0.222222
doesnt 0.5
doing 0.5
domino 0.5
dominus 0.5
donation 0.5
donations 0.5
done 0.5
dont 0.5
doomsday 0.5
door 0.5
dormouse 0.5
dotage 0.5
douai 0.5
double 0.5
doubt 0.5
dour 0.5
down 0.36125
draft 0.5
drags 0.5
drank 0.5
drape 0.5
drapery 0.5
drawn 0.5
dress 0.5
dressed 0.5
dresses 0.5
drew 0.5
drink 0.14876
drinking 0.5
drivel 0.5
drop 0.5
ducks 0.5
due 0.5
dug 0.5
dump 0.5
duping 0.5
dwell 0.5
dwelling 0.5
dwelt 0.5
each 0.28125
eager 0.5
early 0.5
earth 0.28125
earthly 0.5
ease 0.125
easily 0.5
eat 0.5
eaten 0.5
edge 0.5
education 0.5
efforts 0.5
eh 0.5
either 0.5
elated 0.5
elite 0.5
else 0.5
embraces 0.5
empty 0.00617284
end 0.5
ended 0.5
endowed 0.5
endurance 0.125
enemy 0.5
enfranchised 0.5
england 0.5
engraved 0.5
enough 0.5
enough—it 0.5
ensnared 0.5
enter 0.5
enters 0.5
entertainers 0.5
entire 0.5
entourage 0.5
equally 0.5
ere 0.5
escaping 0.5
eschew 0.5
estate 0.5
estates 0.5
eternal 0.5
eum 0.5
eustace 0.5
eustace's 0.5
even 0.5
ever 0.5
every 0.5
everyone 0.5
everything 0.382812
everywhere 0.5
evidence 0.5
exactly 0.5
excellent 0.5
except 0.5
exclaims 0.5
excommunicated 0.5
exemplifies 0.5
exemplum 0.5
exercised 0.5
exerted 0.5
expect 0.5
expected 0.5
expecting 0.5
expects 0.5
expertise 0.5
explained 0.5
explains 0.5
explanation 0.5
exposure 0.5
eye 0.5
eyed 0.5
eyes 0.222222
fable 0.5
fabliau 0.5
fabliaux 0.5
fabric 0.5
fac 0.5
face 0.5
facedown 0.5
fact 0.5
fail 0.5
failure 0.5
fair 0.5
fairest 0.5
faith 0.32
fallen 0.5
falls 0.5
false 0.5
fancied 0.5
far 0.5
fared 0.5
farms 0.5
farted 0.5
fashion 0.5
fast 0.28125
fasting 0.5
fat 0.5
fated 0.5
father 0.5
favor 0.5
fear 0.5
feast 0.5
feather 0.5
fed 0.5
feeding 0.5
feeling 0.5
feels 0.5
feet 0.5
feigning 0.5
feint 0.5
fell 0.5
fellows 0.5
felt 0.5
fend 0.5
fetch 0.5
few 0.5
fidgeted 0.5
fiery 0.5
fifteen 0.0555556
figure 0.5
figures 0.5
filled 0.5
filles 0.5
filling 0.5
filthy 0.5
finalize 0.5
find 0.367347
fine 0.5
finery 0.5
finest 0.5
finis 0.5
fire 0.5
fires 0.5
first 0.5
fish 0.5
fists 0.5
fit 0.5
fit— 0.5
fix 0.5
flak 0.5
flame 0.5
flanks 0.5
flapping 0.5
flax 0.5
fleece 0.5
flight 0.5
flock's 0.5
flour 0.5
flower 0.5
flowers 0.5
flushed 0.5
foisted 0.5
fold 0.5
folderol 0.5
folk 0.5
follow 0.5
fondness 0.5
food 0.5
fool 0.5
foolish 0.5
forbade 0.5
forbid 0.5
forbidden 0.5
forbids 0.5
forget 0.5
forgives 0.5
forgot 0.5
formed 0.5
forsake 0.5
forthwith 0.5
fortnight 0.5
forty 0.5
forward 0.5
fouchier 0.5
found 0.5
four 0.5
frame 0.5
francis 0.5
franciscans 0.5
free 0.5
french 0.5
fresh 0.5
fret 0.5
friar 0.5
friar's 0.5
friars 0.5
friday 0.5
friend 0.5
friendship 0.5
fright 0.5
from 0.407908
front 0.5
fruit 0.5
frying 0.5
fucking 0.5
fucks 0.5
fulfill 0.5
fulfilled 0.5
full 0.5
fully 0.5
fun 0.5
fur 0.28125
furrow 0.5
furs 0.5
further 0.5
gaffe 0.5
gain 0.5
gall 0.5
galore 0.5
game 0.5
gaming 0.5
ganders 0.5
garlic 0.5
garments 0.5
gathered 0.5
gave 0.5
gay 0.5
gelded 0.5
generous 0.5
genitalia 0.5
gentian 0.5
gentle 0.5
gently 0.5
george 0.5
get 0.5
gets 0.5
gibbet 0.5
gift 0.5
gifts 0.5
ginger 0.5
gird 0.5
girl 0.395062
girlfriend's 0.5
girls 0.5
girth 0.5
gisors 0.5
give 0.260802
given 0.382812
gives 0.5
giving 0.5
glad 0.5
gladly 0.5
glance 0.5
glossed 0.5
glowed 0.5
glowing 0.5
go 0.347222
goat 0.5
god 0.5
god's 0.5
goes 0.5
going 0.5
gold 0.5
gone 0.367347
good 0.5
goose 0.5
got 0.347222
govern 0.5
grace 0.5
gracious 0.5
grand 0.5
grant 0.5
granted 0.5
grate 0.5
gray 0.5
great 0.5
greatest 0.5
green 0.5
greeting 0.5
grief 0.5
grieved 0.5
grieves 0.5
grouse 0.5
grow 0.5
growing 0.5
grumbling 0.5
guard 0.5
guess 0.5
guffawed 0.5
guide 0.5
guile 0.5
guillaume 0.5
gulp 0.125
gulping 0.5
gusto 0.5
habit 0.5
had 0.378072
hag 0.5
hair 0.5
haired 0.5
half 0.5
hall 0.5
hammers 0.5
hand 0.5
handle 0.5
hands 0.5
hang 0.5
hanged 0.5
hanging 0.5
happened 0.5
happy 0.5
hardened 0.5
hardly 0.5
harlots 0.5
harm 0.5
harness 0.5
harrowing 0.5
has 0.357988
haste 0.5
hatchway 0.5
hate 0.5
hateful 0.5
hats 0.5
have 0.408469
having 0.5
hawthorn 0.5
he 0.180639
he'd 0.32
he'll 0.347222
he's 0.5
head 0.405
heaped 0.5
hear 0.382812
heard 0.28125
hearing 0.5
heart 0.5
hearted 0.5
heartily 0.5
hearty 0.5
heat 0.5
heavenly 0.5
heavy 0.5
heavyhearted 0.5
heels 0.5
held 0.5
hell 0.5
help 0.18
helps 0.5
helter 0.5
hemmed 0.5
henceforth 0.5
her 0.297551
herb 0.5
herbs 0.5
hercelot 0.445988
here 0.5
here's 0.5
hermit 0.5
herod 0.5
herself 0.5
hesitation 0.5
hey 0.5
hidden 0.222222
hide 0.5
hides 0.5
hiding 0.5
high 0.5
him 0.393828
himself 0.5
him—you 0.5
hinder 0.5
hire 0.5
his 0.333347
holds 0.5
hole 0.5
holiness 0.5
holy 0.347222
home 0.32
homestead 0.5
honest 0.5
honor 0.5
hooks 0.5
hoping 0.5
hordes 0.5
horse 0.5
hot 0.5
hour 0.5
house 0.5
how 0.420139
however 0.5
hunchbacked 0.5
hundred 0.5
hung 0.5
hunted 0.5
hurried 0.5
hurries 0.5
hurry 0.5
hurt 0.5
husband 0.5
husband's 0.5
hypocrite 0.5
hysterical 0.5
i'd 0.367347
i'll 0.260802
i've 0.389273
idea 0.5
if 0.274348
ill 0.5
image 0.5
images 0.5
immediately 0.5
impart 0.5
implement 0.5
implicated 0.5
imposed 0.5
incline 0.5
incomplete 0.5
indeed 0.5
indulged 0.5
infamy 0.5
information 0.5
ing 0.5
ingratiating 0.5
inhabit 0.5
inheritance 0.5
injurious 0.5
inquire 0.5
inquiring 0.5
insanity 0.5
inside 0.5
insisted 0.5
inspection 0.5
install 0.5
installment 0.5
instead 0.28125
intelligent 0.5
intending 0.5
intends 0.5
intense 0.5
intent 0.5
intention 0.5
interest 0.5
intimidated 0.5
into 0.5
irate 0.5
irked 0.5
isnt 0.5
it's 0.357988
itches 0.5
its 0.5
jewelry 0.5
job 0.5
joined 0.5
joy 0.5
joyful 0.5
judaea 0.5
jug 0.5
jumps 0.5
just 0.255102
keep 0.5
keeping 0.5
kept 0.5
keys 0.5
kid 0.5
killed 0.5
kin 0.5
kind 0.5
kindled 0.5
kindling 0.5
king 0.5
kith 0.5
kneels 0.5
knees 0.5
knew 0.405
knife 0.5
knight 0.5
knight's 0.5
knights 0.5
know 0.5
known 0.5
labors 0.5
laceration 0.5
lady 0.36125
lady'd 0.5
lady's 0.5
laid 0.5
lamb's 0.5
lambasted 0.5
land 0.5
lands 0.5
large 0.5
last 0.5
late 0.5
laugh 0.5
laughing 0.5
laughter 0.5
launched 0.5
lavish 0.5
lavishly 0.5
lawrence— 0.5
lax 0.5
lay 0.5
le 0.5
lead 0.5
leads 0.5
leaf 0.5
league 0.5
leaned 0.5
learned 0.5
least 0.5
leather 0.5
leave 0.395062
leave— 0.5
leaving 0.5
lecherous 0.5
led 0.347222
left 0.382812
leggings 0.5
leisure 0.5
length 0.5
lengthy 0.5
less 0.5
let 0.382812
let's 0.5
liar 0.5
licorice 0.5
lie 0.5
lies 0.5
life 0.367347
lifted 0.5
lifts 0.5
light 0.5
liked 0.5
likewise 0.5
lined 0.5
linen 0.5
linger 0.5
little 0.5
live 0.5
lived 0.5
lives 0.5
living 0.5
loathing 0.5
loathsome 0.5
located—he 0.5
location 0.5
lock 0.5
locked 0.5
loft 0.5
long 0.382812
longer 0.5
look 0.5
looked 0.5
looking 0.5
looks 0.5
loons 0.5
loose 0.5
loosed 0.5
lord 0.5
lord's 0.5
lords 0.5
lost 0.5
lot 0.5
loud 0.5
love 0.5
loved 0.5
lovely 0.5
lovemaking 0.5
lover 0.5
loves 0.5
low 0.5
luck 0.5
lucky 0.5
lump 0.5
lunatic 0.5
lust 0.5
lying 0.5
ma'am 0.5
madame 0.0555556
made 0.334711
made— 0.5
madness 0.5
magnificent 0.5
mahauld 0.347222
maid 0.5
maiden 0.5
maidenhead 0.5
maintain 0.5
make 0.459201
makes 0.5
making 0.5
man 0.431122
manner 0.5
mans 0.5
mantle 0.5
many 0.5
marian 0.367347
marians 0.5
marian— 0.5
market 0.5
marks 0.5
married 0.5
martyrdom 0.5
marvel 0.5
master 0.222222
matter 0.5
mattocks 0.5
mattress 0.5
may 0.334711
mayhem 0.5
meal 0.5
mean 0.5
meaning 0.5
meant 0.5
meet 0.5
meeting 0.5
melodious 0.5
member 0.5
members 0.5
memory 0.5
men 0.5
menhould 0.32
meo 0.5
merchandise 0.5
merchant 0.28125
mercy 0.5
mere 0.5
merit 0.5
mess 0.5
message 0.5
messes 0.5
messing 0.5
met 0.5
might 0.5
mightily 0.5
milan 0.5
mill 0.5
mind 0.5
minds 0.5
mine 0.5
minor 0.5
minstrels 0.5
minstrelsy 0.5
miracles 0.5
mirth 0.5
misgivings 0.5
mishap 0.5
miss 0.125
missing 0.5
mistresses 0.5
modestly 0.5
modesty 0.5
money 0.5
mongrel 0.5
monk 0.5
moral 0.5
more 0.241966
morning 0.5
mortally 0.5
most 0.5
mother 0.389273
mother's 0.5
mount 0.5
moves 0.5
moving 0.5
mr 0.5
much 0.431122
muck 0.5
mulling 0.5
mum 0.5
must 0.5
myself 0.5
naked 0.5
name 0.5
nature 0.5
near 0.5
nearest 0.5
necessary 0.5
neck 0.5
need 0.5
needed 0.5
neednt 0.5
needs 0.5
neighborliness 0.5
neither 0.5
never 0.5
new 0.5
newly 0.5
next 0.5
nice 0.5
niggardly 0.5
night 0.395062
nine 0.5
ninny 0.5
no 0.213757
noble 0.5
noblewoman 0.5
nobly 0.5
nobody 0.5
noise 0.5
none 0.5
nonpareil 0.5
nonsense 0.5
nor 0.426036
normand 0.5
noses 0.5
not 0.389273
nothing 0.5
novice 0.5
now 0.357988
nurse 0.5
nursed 0.5
nurture 0.5
o 0.5
obeyed 0.5
objection 0.5
obligation 0.5
occasion 0.5
occurred 0.5
off 0.5
offense 0.5
offer 0.5
offered 0.5
offers 0.5
office 0.5
often 0.5
oh 0.5
oise 0.5
old 0.112188
omer 0.5
omission 0.5
omitting 0.5
omnia 0.5
once 0.5
one 0.435556
onions 0.5
only 0.5
onto 0.5
open 0.5
opened 0.5
openhanded 0.5
openly 0.5
opposition 0.5
or 0.470156
order 0.5
ordered 0.5
orders 0.32
ordination 0.5
ornaments 0.5
other 0.420139
other's 0.5
others 0.5
otherwise 0.5
ought 0.5
our 0.395062
out 0.371581
outside 0.5
over 0.5
overcoat 0.5
overflowed 0.5
overhead 0.5
overseer 0.5
overtaxing 0.5
overwrought 0.5
owe 0.5
owed 0.5
owes 0.5
own 0.5
pages 0.5
paid 0.5
pair 0.5
pal 0.5
palm 0.5
pan 0.5
parable 0.5
paramour 0.5
parchment 0.5
pardon 0.5
parent 0.5
parents 0.5
paris 0.5
parish 0.5
part 0.5
pass 0.5
passed 0.5
passion 0.125
passions 0.5
past 0.5
pasties 0.5
patently 0.5
patience 0.5
paul 0.5
pay 0.5
pea 0.5
peace 0.5
peas 0.5
peasant 0.5
peasant's 0.5
peasantry 0.5
peasants 0.5
pedigree 0.5
peels 0.5
pen 0.5
penis 0.5
penitence 0.5
penny 0.5
people 0.5
pepper 0.5
peppered 0.5
per 0.5
perceive 0.5
perceived 0.5
perfect 0.5
perform 0.5
performers 0.5
permission 0.5
permit 0.5
perturb 0.5
peter 0.5
pheasant 0.5
picnic 0.5
piebald 0.5
pieces 0.5
piercing 0.5
pile 0.5
pit 0.5
pity 0.5
place 0.405
placed 0.5
plain 0.5
plan 0.5
plank 0.5
plate 0.5
pleads 0.5
pleasance 0.5
pleasant 0.5
pleasantly 0.5
please 0.28125
pleased 0.5
pleasure 0.5
pled 0.5
pledge 0.5
pledges 0.5
plenty 0.5
plotted 0.5
polished 0.5
pontoise 0.5
poor 0.5
poorer 0.5
pose 0.5
position 0.5
possess 0.5
possessed 0.5
possible 0.5
post 0.5
posterior 0.5
posthaste 0.5
potbellied 0.5
pottage 0.5
pound 0.5
pounded 0.5
pounding 0.5
pounds 0.222222
poured 0.5
pray 0.5
prayed 0.5
prayer 0.5
preaching 0.5
precepts 0.5
precious 0.5
prelate 0.5
prelate's 0.5
preoccupied 0.5
prepare 0.5
prepared 0.5
prescription 0.5
presence 0.5
present 0.5
press 0.5
pretense 0.5
pretext 0.5
prevent 0.5
pridefulness 0.5
priest 0.28125
priest's 0.5
priestly 0.5
priests 0.5
probity 0.5
proceed 0.5
procure 0.5
professional 0.5
profit 0.5
profligates 0.5
profounder 0.5
prolong 0.5
promise 0.5
promised 0.5
promptly 0.5
pronounce 0.5
proper 0.5
propose 0.5
proposed 0.5
protection 0.5
protestation 0.5
proud 0.5
proverb 0.5
provided 0.5
provins 0.5
provision 0.5
pruning 0.5
psalter 0.5
pull 0.5
pullets 0.5
punishment 0.5
pure 0.5
purge 0.5
purple 0.5
purse 0.5
pushed 0.5
pushes 0.5
put 0.5
putting 0.5
qualities 0.5
quantities 0.5
question 0.5
questioned 0.5
quick 0.5
quicker 0.5
quickly 0.5
quietly 0.5
quite 0.5
race 0.5
raise 0.5
raised 0.5
ran 0.5
rare 0.5
rarity 0.5
rascal 0.5
reach 0.5
read 0.5
readily 0.5
reading 0.5
ready 0.5
real 0.5
really 0.5
reason 0.5
reassurance 0.5
reassure 0.5
rebel 0.5
rebuke 0.5
received 0.5
reckless 0.5
recluse 0.5
recreation 0.5
reeds 0.5
refrain 0.5
refutation 0.5
regret 0.5
rejoinder 0.5
related 0.5
relent 0.5
relieved 0.5
remain 0.5
remains 0.5
reminding 0.5
remove 0.5
renegade 0.5
rents 0.5
replied 0.5
replies 0.5
reply 0.5
reproached 0.5
reproof 0.5
require 0.5
resemble 0.5
resound 0.5
resounded 0.5
respect 0.5
respite 0.5
rest 0.5
rested 0.5
return 0.5
returned 0.5
reward 0.5
rhyme 0.5
ribs 0.5
rich 0.5
riches 0.5
ride 0.5
riding 0.5
right 0.357988
righteous 0.5
rightful 0.5
rightfully 0.5
rights 0.5
ripped 0.5
river 0.5
road 0.5
robe 0.5
roger 0.5
roof 0.5
room 0.5
rose 0.5
rotten 0.5
round 0.5
route 0.5
rule 0.5
running 0.5
rutebeuf 0.5
rutting 0.5
sad 0.5
said 0.413223
saint 0.222222
saints 0.5
sake 0.5
salvation 0.5
same 0.5
sanction 0.5
sat 0.5
sate 0.5
satisfaction 0.5
satisfied 0.5
save 0.5
saving 0.5
savior 0.5
saw 0.5
say 0.389273
saying 0.5
says 0.326183
scarcely 0.5
scared 0.5
scene 0.5
scholars 0.5
score 0.5
scorn 0.5
scorned 0.5
scraps 0.5
screwed 0.5
scriptures 0.5
sculpted 0.5
sculptures 0.5
search 0.5
searched 0.5
seat 0.5
second 0.5
secret 0.5
sector 0.5
secula 0.5
seculorum 0.5
see 0.347222
seeing 0.28125
seek 0.5
seeks 0.5
seemly 0.5
seems 0.5
seen 0.5
sees 0.5
selection 0.5
self 0.5
selling 0.5
sends 0.5
senlis 0.5
sense 0.5
sent 0.5
separation 0.5
sermon 0.5
serve 0.5
served 0.5
service 0.5
set 0.5
sets 0.5
sewn 0.5
sex 0.5
shady 0.5
shafts 0.5
shaken 0.5
shaking 0.5
shall 0.5
shameful 0.5
shamefully 0.5
shapely 0.5
sharing 0.5
sharp 0.5
sharpened 0.5
sharpening 0.5
she 0.269409
she'd 0.413223
she'll 0.5
she's 0.5
sheepskin 0.5
sheets 0.5
shelter 0.5
shift 0.5
shillings 0.5
shines 0.5
shiny 0.5
shit 0.5
shock 0.5
shoes 0.5
shop 0.5
short 0.5
should 0.5
shouldnt 0.5
show 0.5
shows 0.5
shred 0.5
shrieks 0.5
shut 0.5
side 0.5
sifted 0.5
sighs 0.5
sight 0.5
sign 0.125
silly 0.5
silver 0.5
simon 0.5
simons 0.5
simple 0.5
sin 0.5
since 0.5
sing 0.5
sins 0.5
sir 0.5
sire 0.5
sister 0.5
sit 0.5
sits 0.5
sitting 0.5
sixty 0.5
skelter 0.5
skill 0.5
skillfully 0.5
sleep 0.5
slighted 0.5
slightest 0.5
slow 0.5
sly 0.5
slyly 0.5
small 0.5
smart 0.5
snare 0.5
so 0.370756
soft 0.5
soissons 0.5
sold 0.32
solemn 0.5
some 0.302469
someone 0.5
someplace 0.5
something 0.5
somewhere 0.5
son 0.367347
songs 0.5
sons 0.5
soon 0.195312
sooner 0.5
sore 0.5
sorrowful 0.5
sort 0.5
sought 0.5
soul 0.5
souls' 0.5
sour 0.5
sown 0.5
space 0.5
spacious 0.5
spade 0.5
spades 0.5
speak 0.5
speaking 0.5
speech 0.5
speedily 0.5
spell 0.5
spend 0.5
spent 0.5
spice 0.5
spied 0.5
spine 0.5
spirit 0.5
spite 0.5
spoke 0.5
spoken 0.5
spot 0.5
spots 0.5
spread 0.5
squats 0.5
squatted 0.5
squirrel 0.5
stack 0.5
stairs 0.5
standing 0.5
stands 0.5
staring 0.5
start 0.5
started 0.5
starting 0.5
starts 0.5
state 0.5
stated 0.5
states 0.5
statues 0.5
statuette 0.5
stay 0.5
stayed 0.5
stays 0.5
steed 0.5
steps 0.5
sterling 0.5
stick 0.5
sticks 0.5
stiffening 0.5
stiffer 0.5
stifled 0.5
still 0.5
stingy 0.5
stipend 0.5
stirred 0.5
stitching 0.5
stock 0.5
stocked 0.5
stole 0.5
stone 0.5
stood 0.5
stopped 0.5
storage 0.5
store 0.5
stores 0.5
stories 0.5
storms 0.5
story 0.5
straight 0.5
straightaway 0.5
strains 0.5
straits 0.5
straw 0.5
straws 0.5
stray 0.5
strayed 0.5
street 0.5
streets 0.5
strength 0.5
stretched 0.0555556
strict 0.5
struck 0.5
strut 0.5
stuffed 0.5
stumble 0.5
sturdy 0.5
stylish 0.5
suave 0.5
subpoena 0.5
subpoenaed 0.5
subterfuge 0.5
subvert 0.5
such 0.5
suckle 0.5
suffer 0.5
suffers 0.5
suit 0.5
suitor 0.5
summer 0.5
summon 0.5
summoned 0.5
supplied 0.5
support 0.5
supports 0.5
supposed 0.5
sure 0.5
surely 0.5
surly 0.5
surpassed 0.5
suspended 0.5
suspension 0.5
swampy 0.5
swear 0.5
swears 0.5
sweep 0.5
sweet 0.32
sweetheart's 0.5
swore 0.5
sworn 0.5
swung 0.5
table 0.5
tabors 0.5
tail 0.5
tailored 0.5
take 0.3391
taken 0.347222
takes 0.302469
taking 0.5
tale 0.5
talk 0.5
talking 0.5
taper 0.5
task 0.5
taste 0.5
teach 0.5
teaches 0.5
teaching 0.5
tear 0.5
tears 0.5
teeth 0.5
tell 0.3391
tells 0.125
ten 0.5
tenderly 0.222222
terrain 0.5
terrified 0.5
text 0.5
thames 0.5
than 0.445988
that's 0.5
their 0.433413
them 0.420139
themselves 0.5
then 0.379292
there 0.32
there's 0.222222
therefore 0.5
thereupon 0.5
these 0.5
they 0.391272
they'd 0.5
they'll 0.5
they're 0.5
they've 0.5
thing 0.5
thing's 0.5
things 0.5
think 0.18
thinking 0.5
thinks 0.5
third 0.5
thirty 0.5
this 0.35046
those 0.5
though 0.347222
thought 0.5
thoughts 0.5
thrashings 0.5
threatening 0.5
three 0.5
threw 0.5
throat 0.5
through 0.5
throughout 0.5
thus 0.5
tidy 0.5
tied 0.5
tight 0.5
tightly 0.5
till 0.5
tilled 0.5
time 0.445988
times 0.5
tips 0.5
tirelessly 0.5
tithes 0.5
to't 0.5
today 0.5
together 0.5
told 0.302469
tomorrow 0.5
tongue 0.5
tonight 0.5
tonsured 0.5
too 0.264463
took 0.439453
tool 0.5
tools 0.5
top 0.5
topic 0.5
tore 0.5
torments 0.5
torn 0.5
tortures 0.5
toss 0.5
tossed 0.5
totally 0.5
touch 0.5
touches 0.5
tow 0.5
toward 0.5
town 0.5
townspeople 0.5
tradition 0.5
train— 0.5
transgression 0.5
transition 0.5
trap 0.5
treasure 0.5
treasured 0.5
treat 0.5
treatment 0.5
tree 0.5
trees 0.5
trembling 0.5
trenchant 0.5
tricked 0.5
trickery 0.5
tricky 0.5
trip 0.5
trollops 0.5
trouble 0.5
trough 0.5
troupers 0.5
true 0.5
truly 0.5
trust 0.5
truth 0.5
try 0.5
tumbled 0.5
tunic 0.5
turn 0.5
turned 0.5
turning 0.5
turns 0.5
tutored 0.5
twelfth 0.5
twelve 0.5
twist 0.5
two 0.5
tête 0.5
ugly 0.5
unaffected 0.5
unbinds 0.5
unclad 0.5
unclothed 0.5
under 0.5
understood 0.5
undertake 0.5
undertook 0.5
undoubtedly 0.5
unfamiliar 0.5
unfitting 0.5
ungrateful 0.5
union 0.5
unkind 0.5
unless 0.5
unmarried 0.5
unquiet 0.5
until 0.5
untrue 0.5
up 0.5
upon 0.18
urged 0.5
urgently 0.5
urging 0.5
us 0.5
use 0.5
used 0.5
utmost 0.5
vain 0.5
valuable 0.5
value 0.5
varmints 0.5
very 0.413223
vestments 0.5
vexed 0.5
view 0.5
vilify 0.5
violating 0.5
violes 0.5
virgin 0.32
virginity 0.5
virile 0.5
virtue 0.5
virtuous 0.5
voice 0.5
vow 0.5
vulgarity 0.5
wagon 0.5
wait 0.5
waited 0.5
waiting 0.5
waits 0.5
waking 0.5
walking 0.5
walks 0.5
wandering 0.5
want 0.5
wanted 0.28125
wanton 0.5
wants 0.5
warrant 0.5
was 0.370756
wasnt 0.5
wasnt—it 0.5
wasted 0.5
water 0.125
waterfowl 0.5
way 0.395062
ways 0.5
we'll 0.5
we're 0.5
we've 0.5
weak 0.5
wealth 0.5
wealthy 0.5
wear 0.5
wearied 0.5
weather's 0.5
wed 0.125
week 0.5
weeping 0.5
weighed 0.5
welcome 0.5
well 0.290249
wench 0.5
went 0.442907
wept 0.5
were 0.5
what 0.338025
whatever 0.5
wheat 0.5
wheedle 0.5
when 0.202479
whenever 0.5
where 0.32
whereas 0.5
whether 0.5
whetting 0.5
which 0.389273
while 0.382812
whim 0.5
white 0.5
whiter 0.5
who 0.310836
who'd 0.5
who'll 0.5
who's 0.5
who've 0.5
whoever 0.5
whole 0.5
whom 0.357988
whomever 0.5
whores 0.5
whose 0.367347
why 0.5
wickedly 0.5
wickedness 0.5
wide 0.5
wife 0.420139
will 0.439453
william 0.5
willingly 0.5
wind 0.5
window 0.5
wine 0.5
wines 0.5
wink 0.5
winked 0.5
winning 0.5
wise 0.5
wish 0.5
wished 0.5
wishes 0.5
withdraw 0.5
withdrew 0.5
withers 0.5
within 0.5
without 0.426036
witness 0.5
woe 0.5
wolf 0.5
woman 0.462278
womans 0.405
women 0.5
womens 0.5
won 0.5
wonderful 0.5
wondrous 0.5
wont 0.5
wood 0.5
wool 0.5
word 0.347222
words 0.5
wore 0.5
work 0.5
workmanship 0.5
workshop 0.5
world 0.5
world's 0.5
worm 0.5
worn 0.5
worse 0.5
worth 0.5
worthy 0.5
would 0.463649
wouldnt 0.5
woven 0.5
wraps 0.5
wrenched 0.5
wretch 0.5
wretched 0.5
writ 0.5
wrongfully 0.5
year 0.5
yearning 0.5
yell 0.5
yes 0.5
yet 0.5
you'd 0.5
you'll 0.413223
you're 0.5
you've 0.395062
young 0.5
yours 0.5
yourself 0.5
zedoary 0.5
à 0.5

