
\data\
ngram 1=65258

\1-grams:
-6.630335	
-5.287913	'
-6.630335	''dont
-6.630335	''hello
-6.630335	''hey
-6.630335	''hi
-6.630335	''permission
-6.630335	'0000
-6.630335	'13'
-6.630335	'31'
-6.630335	'32
-6.630335	'38
-6.630335	'39
-6.630335	'40
-6.630335	'41
-6.630335	'42
-6.329305	'43
-6.028275	'45
-6.329305	'48
-5.454244	'49
-6.630335	'50
-6.630335	'50s
-6.153214	'53
-6.329305	'54
-6.153214	'55
-6.630335	'56
-5.931365	'57
-6.630335	'59
-6.630335	'60's
-6.630335	'61
-6.153214	'63
-6.028275	'64
-5.852184	'65
-6.329305	'66
-5.852184	'68
-5.630335	'69
-6.630335	'70's
-6.630335	'70s
-6.630335	'71
-5.676093	'72
-6.153214	'73
-6.630335	'74
-5.727245	'75
-5.852184	'76
-6.153214	'77
-6.630335	'78
-6.630335	'79
-6.630335	'80s
-6.329305	'81
-6.153214	'82
-5.852184	'83
-5.931365	'84
-6.153214	'85
-6.153214	'86
-6.329305	'87
-6.329305	'88
-6.028275	'89
-6.329305	'90
-6.630335	'90's
-6.153214	'91
-6.028275	'92
-5.852184	'93
-6.329305	'94
-5.676093	'95
-6.630335	'96's
-6.329305	'97
-5.931365	'98
-6.630335	'98def
-6.329305	'99
-5.727245	'a
-6.630335	'a'
-6.630335	'aint
-6.329305	'all
-5.676093	'and
-6.329305	'anger
-6.630335	'anne
-6.329305	'are
-6.630335	'as
-6.630335	'astors'
-5.931365	'at
-6.153214	'ave
-6.329305	'avin
-6.630335	'b'
-6.329305	'baby
-6.630335	'baglama'
-6.630335	'bang'
-6.630335	'baud
-6.329305	'be
-6.630335	'bebo'
-6.630335	'beg'
-6.630335	'being
-6.630335	'best
-6.630335	'bhaile
-6.630335	'bilical
-6.630335	'bin
-6.329305	'birds'
-6.630335	'biz
-6.630335	'black
-6.630335	'botu
-6.630335	'bound
-3.750093	'bout
-6.630335	'bouzouki'
-6.630335	'boy
-6.630335	'boys
-6.028275	'burbs
-6.329305	'but
-6.329305	'by
-6.028275	'bye
-6.630335	'bye'
-6.630335	'c'
-5.785237	'caine
-6.630335	'can
-6.630335	'cane
-6.329305	'captain
-6.630335	'carlito's
-6.630335	'carpe
-6.329305	'case
-6.630335	'castle'
-6.630335	'casue
-6.630335	'caus
-2.934591	'cause
-6.630335	'cause'
-6.630335	'causei
-6.630335	'cell
-5.198972	'cept
-6.630335	'chicken
-6.630335	'children
-6.630335	'childrens
-6.630335	'classic
-6.630335	'clause
-6.329305	'clerks'
-6.630335	'cluding
-6.630335	'cod
-6.630335	'come
-6.630335	'command'
-6.630335	'control
-6.630335	'cool
-6.153214	'core
-3.950907	'cos
-6.630335	'couldnt
-6.630335	'course
-6.630335	'couse
-5.268608	'coz
-6.630335	'crank
-6.630335	'crease
-4.761104	'cross
-6.630335	'cry
-6.329305	'cuase
-6.630335	'cunt'
-6.329305	'cus
-6.329305	'cuse
-6.329305	'cut
-4.434436	'cuz
-6.329305	'd
-6.630335	'dad
-6.329305	'daddy
-6.630335	'daddy'
-6.630335	'damn
-6.630335	'dancin
-6.630335	'darlin
-6.630335	'darling
-6.630335	'das
-6.630335	'dat
-6.630335	'dead
-6.329305	'deep
-6.630335	'detroit
-6.630335	'dixie'
-5.931365	'do
-5.852184	'dont
-6.630335	'draulics
-6.028275	'dro
-6.630335	'e'
-6.028275	'eah
-6.630335	'easily
-6.329305	'ee
-6.630335	'eisgekuehlter
-6.630335	'elise'
-6.630335	'ello
-3.518065	'em
-6.630335	'em'
-6.630335	'emall
-6.630335	'emdown
-5.287913	'er
-6.630335	'ere
-6.630335	'etched
-6.329305	'everybody
-6.630335	'everything
-6.329305	'evil
-6.630335	'excuse
-6.630335	'eyefull
-6.630335	'f'
-6.028275	'fck'
-6.630335	'fear
-6.630335	'feel
-6.329305	'feeling
-5.931365	'fess
-6.630335	'fessed
-6.329305	'ficial
-6.630335	'five
-6.329305	'foe
-6.153214	'for
-4.986883	'fore
-6.329305	'forty
-5.931365	'fraid
-6.329305	'freddie
-6.630335	'freddie'
-6.630335	'free
-6.630335	'freebird'
-6.630335	'friend
-6.630335	'friends'
-6.630335	'frigerator
-6.329305	'frisco
-6.630335	'friscos
-6.329305	'fro
-6.630335	'froze
-6.630335	'fuck
-5.785237	'gainst
-6.630335	'gators
-6.630335	'georges'
-6.630335	'get
-6.630335	'girl
-6.329305	'give
-6.329305	'gnac
-6.630335	'god
-6.630335	'gol
-6.153214	'good
-6.630335	'goodbye'
-6.630335	'goodness
-6.329305	'goodnight'
-6.630335	'got
-6.630335	'gotta
-6.630335	'guess
-6.630335	'h'
-6.630335	'hang
-5.931365	'have
-6.153214	'he
-6.153214	'he's
-6.630335	'head
-6.329305	'hell
-6.630335	'hello'
-6.630335	'here
-5.727245	'hey
-6.329305	'hi
-6.630335	'highway
-6.329305	'hind
-6.630335	'hon
-6.028275	'honey
-5.785237	'hood
-6.630335	'hovering
-6.028275	'how
-6.630335	'howdy
-5.074033	'i
-6.028275	'i'd
-6.630335	'i'll
-5.484207	'i'm
-6.329305	'i've
-6.153214	'if
-6.028275	'im
-6.630335	'in
-6.630335	'independent'
-6.630335	'industrial
-6.153214	'is
-6.630335	'it
-5.727245	'it's
-6.630335	'ive
-6.028275	'j'entend
-6.630335	'jesus
-6.630335	'jew
-6.630335	'jo
-6.630335	'johnny's
-6.153214	'just
-6.630335	'just'
-6.630335	'k
-6.630335	'kay
-6.630335	'keep
-6.630335	'kick
-6.630335	'kisses
-6.630335	'knamsayin
-6.630335	'knows
-6.630335	'kraf
-6.630335	'lac
-6.630335	'lay
-6.630335	'leave
-6.630335	'leaves
-6.153214	'lectronic
-5.727245	'less
-5.852184	'let
-6.329305	'let's
-6.329305	'life
-6.630335	'like'
-6.630335	'lilah
-6.153214	'live
-6.630335	'living'
-6.329305	'll
-6.630335	'llac
-6.630335	'lly
-5.852184	'long
-6.329305	'look
-6.630335	'lost
-6.630335	'lotta
-6.153214	'love
-6.630335	'love'
-6.630335	'ludes
-6.329305	'luma
-5.183177	'm
-6.630335	'magine
-6.630335	'makin
-6.153214	'mama
-6.630335	'man
-6.630335	'maroon
-6.028275	'member
-6.630335	'memphis
-6.630335	'merci'
-6.630335	'mice'
-6.153214	'midst
-6.630335	'moo'
-6.329305	'more
-6.630335	'more'
-6.329305	'most
-6.630335	'mrs
-6.630335	'music
-5.785237	'my
-6.329305	'mystery
-4.008121	'n
-6.329305	'nam
-6.630335	'nana
-6.630335	'nbreak
-6.630335	'ne
-6.630335	'nearly
-4.657207	'neath
-6.630335	'nen
-6.329305	'newly
-6.329305	'nice
-6.630335	'nited
-5.551154	'no
-6.028275	'no'
-6.329305	'not
-6.028275	'nough
-6.329305	'now
-5.426215	'nuff
-6.630335	'nurishment'
-6.630335	'nything
-6.153214	'o
-6.028275	'o'
-5.785237	'oh
-6.630335	'oi
-5.931365	'ol
-6.329305	'on
-6.329305	'one
-6.630335	'one'
-6.630335	'onna
-6.630335	'oow
-6.630335	'or
-6.329305	'others
-6.630335	'ound
-6.630335	'our
-6.630335	'pa
-6.630335	'paint
-6.630335	'palace'
-6.028275	'part
-6.329305	'passion
-5.785237	'phone
-6.630335	'phones
-6.630335	'phros
-5.785237	'pon
-6.630335	'pone
-6.630335	'poor
-6.630335	'por
-6.630335	'port
-6.329305	'posed
-6.630335	'power
-6.630335	'preacher
-6.630335	'pull
-6.630335	'puta'
-6.630335	'quipped
-6.630335	'r'
-6.630335	'rari
-6.630335	'rarris
-5.727245	're
-6.630335	'regards'
-6.630335	'rents
-6.630335	'reveal
-6.630335	'rilla
-6.329305	'rithmatic
-6.630335	'roll
-6.630335	'rosabel
-6.630335	'rough
-3.834455	'round
-6.630335	'round'nround
-4.996867	's
-6.630335	'saints
-6.630335	'saying
-6.630335	'scope
-5.785237	'scuse
-6.630335	'secret
-6.329305	'seize
-6.630335	'send
-6.630335	'sess
-6.630335	'set
-6.630335	'sfor
-6.630335	'shaw
-6.630335	'she
-6.630335	'she's
-6.329305	'shee
-6.630335	'shit
-6.630335	'show
-6.329305	'shrooms
-6.329305	'shroomsfantastic
-6.028275	'side
-6.630335	'sleighed'
-6.630335	'slow
-6.329305	'snap'
-6.028275	'so
-6.630335	'so's
-6.630335	'soldiers
-5.931365	'son
-6.630335	'sorry
-6.630335	'speak'
-6.153214	'specially
-6.630335	'spect
-6.630335	'spell
-6.630335	'ssleeping
-5.516392	'stead
-6.630335	'stick
-6.630335	'stonewall
-6.028275	'stop'
-6.630335	'suits
-6.329305	'sunshine
-6.329305	'swear
-6.630335	'sweeney'
-6.630335	'sweet'
-6.630335	'swore
-5.931365	't
-6.329305	't'
-6.630335	'talk
-6.630335	'tard
-6.630335	'taters
-6.630335	'tell
-6.329305	'thank
-6.630335	'thanks
-6.329305	'that
-6.153214	'that's
-5.426215	'the
-6.329305	'they
-6.630335	'thingy'
-6.630335	'this
-5.852184	'though
-6.630335	'three
-6.630335	'through
-6.630335	'thus
-6.630335	'ti
-6.630335	'tide
-3.651242	'til
-4.118452	'till
-6.028275	'time
-6.630335	'ting
-5.329305	'tis
-6.630335	'to
-6.630335	'tomorrows
-6.630335	'too
-6.630335	'torying'
-6.329305	'trolling
-6.630335	'trust
-6.153214	'tsa
-6.153214	'tude
-5.516392	'twas
-5.727245	'tween
-6.329305	'twill
-6.630335	'twixt
-6.630335	'twould
-6.630335	'twouldnt
-6.329305	'un
-6.630335	'underwear'
-6.630335	'until
-6.630335	'upon
-6.630335	'v'
-6.329305	'v''
-6.630335	'van
-5.727245	've
-6.630335	'waken
-6.630335	'wasting
-5.785237	'way
-5.931365	'we
-6.630335	'we'd
-6.153214	'we'll
-6.329305	'we're
-6.153214	'welcome
-6.630335	'well
-5.931365	'what
-6.329305	'what's
-6.630335	'when
-6.329305	'where
-6.630335	'whistle
-6.630335	'who
-5.785237	'why
-6.630335	'why'
-6.630335	'why''
-6.028275	'will
-6.630335	'wont
-6.153214	'wood
-6.153214	'would
-6.630335	'wrong'
-6.329305	'x'
-6.329305	'ya
-6.329305	'yeah
-6.329305	'yes
-5.931365	'yes'
-6.630335	'yet
-5.551154	'you
-6.630335	'you'll
-6.329305	'you're
-6.630335	'your
-6.153214	'zat
-5.287913	0
-6.630335	0'
-6.630335	0'clock
-6.630335	0's
-6.630335	00
-6.329305	000
-6.630335	0000
-6.153214	007
-6.153214	01
-6.630335	0208
-6.630335	0350
-6.630335	0404
-6.630335	0547
-6.630335	0551
-6.329305	060
-6.630335	0601
-6.630335	0617
-6.630335	0646
-6.630335	0649
-6.630335	0654
-6.630335	0898
-6.630335	0934
-6.630335	0hio
-6.630335	0l
-6.630335	0n
-3.916006	1
-5.785237	1's
-4.160513	10
-6.329305	10'll
-5.852184	10's
-4.87446	100
-4.949094	1000
-5.111821	10000
-6.329305	100000
-4.845006	1000000
-6.630335	1008
-5.551154	101
-6.630335	1011music
-6.630335	1017
-6.329305	1018
-6.630335	101music
-6.329305	102
-6.630335	1021
-6.630335	103
-6.630335	103190
-6.630335	1041
-6.028275	105
-6.630335	106
-6.329305	108
-6.028275	109
-6.630335	109's
-6.329305	1095
-6.630335	10cube
-6.630335	10miles
-6.630335	10pm
-6.630335	10t
-6.630335	10th
-5.785237	10x
-6.630335	10you
-5.308116	11
-6.028275	110
-6.630335	1100
-6.630335	1111
-6.329305	1130
-6.630335	1135
-6.630335	116
-6.630335	11996
-6.329305	11th
-6.329305	11x
-6.630335	11x's
-5.028275	12
-6.630335	12's
-6.329305	120
-5.931365	1200
-6.630335	12000
-6.630335	12000000
-6.630335	1207music
-6.630335	12123
-6.630335	121234
-6.630335	1215
-5.516392	123
-6.630335	1230
-6.630335	1234567
-6.630335	125
-6.630335	125based
-6.630335	127
-6.630335	12inchs
-5.676093	12th
-6.153214	12x
-5.125185	13
-6.630335	130
-6.630335	13000
-6.630335	1301
-6.630335	1305music
-6.329305	134
-6.630335	1343
-6.630335	135
-6.630335	1352
-5.785237	13th
-6.630335	13x
-5.198972	14
-6.630335	1439
-6.630335	145
-6.028275	146
-6.630335	1492
-6.630335	1493
-6.630335	1495
-6.028275	14th
-6.630335	14x
-4.914332	15
-6.630335	150
-6.630335	150090
-6.153214	151
-6.630335	1516
-6.630335	152's
-6.630335	1525
-6.630335	155
-6.630335	156
-6.630335	1565
-6.630335	1594
-6.153214	15th
-6.630335	15x
-5.167937	16
-6.329305	16's
-6.630335	16000
-6.630335	1607
-6.630335	1607's
-6.630335	16115
-6.329305	1640
-5.852184	1642
-6.630335	165'ers
-6.630335	1659
-5.931365	168
-6.329305	16s
-6.630335	16th
-5.039271	17
-6.630335	1714
-6.153214	1777
-6.630335	1792
-6.630335	1798
-6.630335	17th
-6.630335	17x
-5.007086	18
-5.852184	180
-6.329305	1800
-6.630335	1818
-6.630335	1833
-6.329305	1834
-6.630335	1842
-6.630335	1844
-6.329305	1849
-6.630335	1859
-6.630335	1861
-6.630335	1865
-5.852184	187
-6.630335	187's
-6.630335	1876
-6.630335	187um
-6.630335	1880's
-6.630335	18k
-6.329305	18th
-5.399887	19
-6.630335	1900's
-6.630335	1906
-6.630335	1908
-6.153214	1914
-6.630335	1919
-6.630335	192
-6.630335	1932
-6.329305	1933
-6.630335	1935
-6.630335	1936
-6.630335	1940's
-6.630335	1942
-6.329305	1943
-6.329305	1944
-5.852184	1950
-6.329305	1950's
-6.630335	1952
-6.630335	1954
-6.630335	1955
-6.630335	1956
-6.329305	1957
-6.329305	1958
-6.630335	1959
-6.630335	1960
-6.630335	1960's
-6.630335	1961
-6.630335	1962
-5.852184	1963
-6.329305	1964
-5.484207	1965
-6.329305	1966
-6.028275	1968
-6.153214	1969
-5.931365	1970
-6.329305	1970's
-6.028275	1971
-6.329305	1972
-5.852184	1973
-6.630335	1973vocals
-6.153214	1974
-5.588943	1975
-5.852184	1976
-6.630335	1977
-6.630335	1978
-6.153214	1979
-6.630335	1980's
-6.329305	1981
-5.931365	1982
-6.329305	1983
-5.852184	1984
-5.516392	1985
-5.727245	1986
-5.931365	1987
-5.676093	1988
-5.852184	1989
-5.454244	1990
-5.931365	1990's
-5.852184	1991
-6.630335	1992
-6.028275	1993
-5.852184	1994
-5.931365	1995
-6.028275	1996
-5.931365	1997
-5.727245	1998
-5.516392	1999
-5.931365	19th
-6.630335	1a
-6.630335	1et
-6.630335	1in
-6.630335	1now
-4.852184	1st
-6.329305	1the
-6.630335	1twice
-5.931365	1x
-6.630335	1you
-3.783998	2
-6.329305	2'
-6.153214	2's
-4.830995	20
-6.028275	20's
-5.516392	200
-4.859483	2000
-5.551154	20000
-6.630335	200000
-6.630335	200000000
-6.630335	2001
-6.153214	2002
-6.329305	2003
-6.329305	2004
-6.630335	2007
-5.454244	2010
-5.931365	2012
-6.630335	2017
-6.630335	203
-6.630335	204
-6.630335	2041all
-6.630335	2062
-6.153214	20ft
-6.329305	20th
-4.87446	21
-6.630335	2108
-6.329305	211
-6.329305	2110
-6.630335	2112
-6.028275	213
-6.329305	215
-4.996867	21st
-5.153214	22
-6.153214	221
-6.329305	223
-6.630335	223's
-6.630335	227
-6.630335	229
-5.287913	23
-6.630335	2306
-6.630335	238
-6.329305	23rd
-5.039271	24
-6.630335	241
-6.630335	242music
-6.630335	245
-6.630335	247
-6.329305	24900
-4.958238	25
-6.329305	250
-6.630335	25000
-6.329305	251
-6.630335	252
-6.630335	255
-6.329305	256
-6.630335	257ld4
-6.630335	258
-6.630335	25th
-6.630335	25th's
-5.727245	26
-6.630335	264
-5.727245	27
-6.630335	270
-6.329305	27000
-6.028275	27th
-5.852184	28
-6.329305	289
-5.727245	29
-6.630335	29's
-6.329305	299
-6.329305	29th
-6.329305	2am
-6.630335	2building
-6.630335	2gether
-6.630335	2k
-6.630335	2knights
-6.630335	2many
-6.630335	2martyrs
-6.630335	2na
-4.716521	2nd
-6.630335	2pac
-6.630335	2seeking
-6.329305	2the
-6.630335	2without
-4.278153	2x
-5.588943	2x's
-6.630335	2xeverybody
-6.630335	2xseven
-4.020741	3
-6.329305	3's
-5.167937	30
-5.588943	300
-6.153214	3000
-6.329305	30000
-6.329305	300000
-6.630335	301
-6.630335	3014
-6.028275	3018
-6.630335	302
-6.329305	303
-6.630335	3033
-6.153214	304
-6.630335	304music
-6.630335	305
-6.329305	307
-6.329305	308
-6.630335	309
-6.630335	30s
-5.426215	31
-6.329305	310
-5.375063	311
-6.153214	311's
-6.630335	312
-6.630335	313
-6.630335	314
-6.630335	315
-6.630335	317
-6.630335	31st
-5.351582	32
-6.630335	32's
-6.329305	320
-5.785237	321
-6.630335	321music
-6.630335	322
-6.329305	323
-6.630335	325
-6.630335	329
-5.630335	33
-6.630335	330
-6.630335	331music
-6.630335	332
-6.630335	334
-6.630335	336
-6.630335	337
-6.630335	337music
-6.329305	339
-6.630335	339music
-6.329305	33rd
-6.630335	340
-6.630335	341
-6.329305	342
-6.630335	342music
-6.630335	343
-6.329305	344
-6.630335	345
-6.630335	347
-6.329305	349
-5.852184	35
-6.630335	350
-6.630335	352
-6.630335	353music
-6.630335	355music
-6.630335	356music
-6.028275	357
-6.329305	359
-5.931365	36
-5.852184	360
-6.153214	364
-5.727245	365
-6.028275	37
-6.329305	371
-6.630335	379101214
-5.630335	38
-6.630335	380
-6.329305	387
-5.727245	39
-6.630335	390
-6.630335	395
-6.630335	396
-6.630335	39th
-6.630335	3am
-6.153214	3d
-6.630335	3injecting
-6.630335	3k
-6.630335	3oo
-6.153214	3p
-6.153214	3pm
-5.153214	3rd
-6.630335	3the
-4.490456	3x
-5.785237	3x's
-4.195766	4
-6.630335	4'
-6.630335	4'o'clock
-4.791486	40
-5.931365	40's
-5.727245	400
-6.630335	4000
-5.852184	40000
-6.153214	400music
-6.329305	401
-6.630335	402
-6.329305	404
-6.153214	405
-6.630335	406
-6.630335	4060
-6.630335	407music
-6.630335	408music
-6.153214	409
-6.630335	40s
-6.630335	40th
-5.516392	41
-6.630335	410
-6.630335	411
-6.630335	413
-6.630335	414
-6.630335	415music
-6.329305	417music
-6.630335	418
-6.630335	418music
-6.630335	41st
-5.931365	42
-6.630335	4204
-6.329305	42290
-6.630335	423060
-6.630335	423music
-6.630335	426
-6.630335	427
-6.630335	428music
-5.785237	42nd
-6.329305	43
-6.028275	430
-6.630335	430music
-6.630335	432
-6.630335	432music
-6.630335	434music
-6.630335	436
-6.630335	439
-5.399887	44
-6.630335	444music
-6.630335	445music
-6.630335	446music
-6.630335	448music
-5.167937	45
-6.329305	45's
-6.630335	453
-6.630335	454music
-6.630335	455
-6.630335	455music
-6.630335	455s
-6.630335	456music
-6.630335	45s
-6.630335	46
-5.588943	47
-6.329305	47000
-5.852184	48
-6.630335	48th
-6.028275	49
-6.329305	4am
-6.630335	4ever
-6.630335	4h
-6.630335	4st
-5.329305	4th
-6.153214	4u
-6.153214	4wd
-4.573431	4x
-6.153214	4x's
-6.630335	4x4
-4.338079	5
-6.630335	5'3
-6.630335	5'3'
-6.329305	5's
-5.111821	50
-5.484207	500
-6.329305	5000
-6.329305	50000
-6.630335	500000
-6.630335	500music
-6.630335	501music
-6.329305	501s
-6.028275	502
-6.630335	503music
-5.727245	505
-6.630335	505music
-6.329305	509
-6.153214	50ft
-6.630335	50s
-5.516392	51
-6.630335	515
-6.630335	5150
-6.329305	51st
-5.931365	52
-6.630335	525
-6.630335	526music
-6.630335	528music
-6.630335	52nd
-5.727245	53
-5.375063	5309
-6.630335	534music
-6.630335	536music
-6.630335	538music
-6.630335	539music
-6.630335	53rd
-6.630335	540music
-6.630335	541music
-6.630335	542
-6.630335	542music
-6.329305	54th
-6.329305	55
-6.630335	550
-6.630335	555's
-6.329305	56
-6.329305	56th
-6.329305	57
-6.630335	5760
-6.630335	57884
-5.454244	5789
-6.630335	58
-6.630335	59
-6.630335	5965
-6.630335	5am
-6.630335	5s
-6.630335	5shot
-6.630335	5st
-5.727245	5th
-5.399887	5x
-4.54043	6
-6.630335	6'2
-6.329305	6'5
-6.028275	6's
-5.727245	60
-5.676093	60's
-5.516392	600
-6.630335	6000
-6.329305	60000
-6.630335	604
-6.329305	6052
-6.028275	606
-6.329305	6060
-6.153214	608
-6.630335	609music
-5.215362	61
-6.630335	61's
-6.630335	612
-6.630335	619
-6.329305	61st
-6.329305	62
-6.630335	620000
-6.630335	628
-6.630335	628music
-6.630335	63
-6.630335	630
-5.454244	634
-6.630335	64
-6.630335	64's
-6.630335	64000
-6.329305	645
-6.630335	645am
-6.630335	645music
-5.676093	65
-6.630335	655
-6.630335	656music
-6.329305	658
-5.785237	66
-5.426215	666
-6.329305	67
-6.630335	672
-6.630335	68
-6.630335	68'
-6.630335	68348
-5.588943	69
-6.630335	695
-6.329305	6962
-6.630335	69lincoln
-6.630335	6pm
-5.727245	6th
-5.516392	6x
-6.630335	6x6
-6.630335	6yz
-4.509761	7
-6.630335	7'2
-6.630335	7's
-6.329305	70
-6.153214	70's
-6.153214	700
-6.329305	7000
-6.630335	709
-6.630335	709music
-6.630335	70s
-6.630335	71
-6.630335	714
-6.630335	715
-6.630335	717music
-6.329305	718
-6.630335	72
-6.630335	720
-6.630335	73
-6.630335	730
-6.630335	73426
-6.329305	738
-6.630335	747
-6.630335	747's
-5.931365	75
-6.630335	7534
-6.630335	756a
-6.630335	75838769
-6.630335	77th
-6.329305	78
-6.630335	7892
-6.630335	79
-6.630335	7am
-6.630335	7days
-5.329305	7th
-5.551154	7x
-6.630335	7x's
-4.581117	8
-6.630335	8's
-5.329305	80
-5.516392	80's
-5.931365	800
-6.630335	8000
-6.630335	80000
-6.630335	802
-6.630335	803
-6.630335	805
-6.329305	808
-6.630335	809
-5.931365	80s
-6.028275	81
-6.329305	816
-6.630335	81st
-6.028275	82
-6.153214	8217ll
-6.329305	8217m
-6.153214	8217re
-6.630335	8217s
-5.630335	8217t
-5.785237	83
-6.630335	830
-6.630335	8359
-5.852184	84
-6.329305	842
-5.931365	85
-6.630335	850
-6.630335	850's
-6.630335	857music
-6.630335	859music
-5.630335	86
-5.375063	867
-6.630335	868
-6.153214	87
-5.676093	88
-6.630335	88's
-6.329305	888
-6.153214	89
-6.630335	8941
-6.630335	8am
-6.630335	8lbs
-6.153214	8th
-5.426215	8x
-6.630335	8x8x8
-4.551154	9
-6.153214	9's
-5.516392	90
-5.484207	90's
-6.028275	900
-6.153214	90210
-6.630335	90610
-6.153214	90s
-6.630335	91
-5.676093	911
-6.028275	92
-6.153214	93
-6.329305	94
-6.630335	945
-5.484207	95
-6.630335	951music
-6.329305	96
-6.329305	97
-5.931365	98
-6.630335	982
-5.074033	99
-6.329305	995
-5.727245	999
-6.153214	9we
-6.329305	9x
-6.153214	9you
-0.7221324	</s>
-99	<s>
-6.630335	`
-6.630335	`65
-6.630335	`68
-6.630335	``ah
-5.931365	``all
-6.630335	``are
-6.630335	``big
-6.630335	``but
-6.630335	``dharma
-6.630335	``do
-6.630335	``fool''
-6.630335	``goodnight''
-6.153214	``hey
-6.630335	``how
-6.028275	``i
-6.630335	``i'm
-6.329305	``just
-6.630335	``let
-6.153214	``my
-6.630335	``no''
-6.630335	``son
-6.630335	``stay''
-6.630335	``that's
-6.630335	``wait
-6.630335	``we're
-6.329305	``well
-6.630335	``what
-6.630335	``who
-6.630335	``whose
-6.630335	``you
-6.630335	``you'd
-6.630335	``you'll
-5.588943	`bout
-4.87446	`cause
-6.630335	`causethat's
-5.588943	`cos
-6.630335	`cross
-6.329305	`cuz
-5.375063	`em
-6.028275	`gainst
-6.630335	`i'll
-6.630335	`law
-6.630335	`long
-5.931365	`n
-5.852184	`neath
-6.630335	`no
-6.630335	`pear
-6.329305	`pool
-5.676093	`round
-6.630335	`there's
-5.727245	`til
-5.852184	`till
-6.630335	`tis
-6.630335	`tween
-6.630335	`way
-6.630335	`you
-5.138974	a'
-6.028275	a'bawlin
-6.630335	a'calling
-6.153214	a'cars
-6.630335	a'cheering
-6.329305	a'coming
-6.153214	a'concrete
-6.630335	a'dawning
-6.630335	a'done
-6.153214	a'gettin
-6.630335	a'give
-6.630335	a'going
-6.630335	a'hit
-6.630335	a'leavin
-6.630335	a'marryin
-6.630335	a'mercy
-6.630335	a'newer
-6.630335	a'rattlin
-6.630335	a'roll
-6.630335	a'runnin
-6.630335	a's
-6.630335	a'selling
-6.630335	a'stealing
-6.630335	a'took
-6.329305	a'vril
-6.630335	a'warring
-6.630335	a'when
-6.630335	a'wonderin
-6.028275	a1
-6.630335	a1a
-5.630335	a7
-5.484207	aa
-6.329305	aa's
-5.727245	aaa
-6.630335	aaaaaaaaaah
-6.153214	aaaaaah
-6.028275	aaaaah
-6.630335	aaaaahdoesnt
-6.630335	aaaaahi
-6.630335	aaaaaiiiigh
-6.630335	aaaaggghh
-6.630335	aaaagh
-6.153214	aaaah
-6.153214	aaaahhh
-6.630335	aaaahhhh
-6.630335	aaaahhhhhh
-4.596911	aaah
-5.785237	aaahh
-6.028275	aaahhh
-6.329305	aaahhhh
-6.329305	aaaiik
-6.630335	aaargh
-6.630335	aaawh
-6.630335	aagh
-4.666547	aah
-6.153214	aaha
-6.028275	aahh
-6.028275	aahhh
-6.630335	aahhhhhh
-6.028275	aaight
-6.329305	aal
-6.630335	aaliyah
-6.630335	aam
-6.630335	aareness
-6.153214	aarlucy
-4.986883	aaron
-6.630335	aarrh
-6.630335	aaru
-6.630335	aasgard
-6.630335	aauuhhhoo
-6.630335	aaw
-5.676093	ab
-6.630335	ababydoll
-6.630335	abacinate
-5.931365	aback
-6.153214	abacus
-6.630335	abacycle
-5.727245	abajo
-6.630335	abandom
-5.138974	abandon
-6.329305	abandonado
-4.845006	abandoned
-5.588943	abandoning
-5.931365	abandonment
-6.630335	abandonments
-6.630335	abandonne
-6.329305	abandonned
-6.630335	abandonnee
-6.630335	abandonning
-6.630335	abandono
-6.329305	abandons
-6.329305	abara
-6.153214	abaracadabra
-6.329305	abased
-6.630335	abate
-6.630335	abates
-6.630335	abattoir
-6.329305	abattoirs
-6.630335	abba
-6.630335	abbatoirred
-6.630335	abberations
-5.931365	abbey
-6.630335	abbot
-6.630335	abbreviates
-5.588943	abc
-5.931365	abc's
-6.329305	abcess
-6.630335	abd
-6.630335	abdanke
-6.329305	abdomen
-6.329305	abducted
-6.153214	abduction
-6.630335	abductions
-5.727245	abductors
-5.931365	abdul
-5.454244	abe
-6.329305	abecedario
-6.630335	abed
-6.329305	abeille
-5.426215	abel
-5.785237	abell
-5.167937	aber
-6.153214	abercrombie
-6.630335	aberdeen
-6.329305	aberrant
-6.630335	aberrant'
-6.630335	abesement
-6.630335	abgebildet
-6.630335	abgemht
-6.630335	abgespeckt
-6.153214	abhored
-5.931365	abhorred
-6.153214	abhorrence
-6.630335	abhorrent
-6.630335	abhorrer
-6.329305	abhors
-5.287913	abide
-6.630335	abides
-6.153214	abiding
-6.630335	abierto
-5.454244	abigail
-6.329305	abilena
-5.516392	abilene
-6.630335	abilities
-5.111821	ability
-6.630335	ability's
-6.630335	abismo
-6.028275	abit
-6.630335	abite
-6.329305	abject
-6.630335	abjure
-6.630335	ablate
-5.287913	ablaze
-4.382362	able
-6.630335	abliena
-6.630335	abliss
-6.630335	ablution
-6.630335	abnegation
-5.727245	abnormal
-6.630335	abnormality
-5.931365	abnormally
-6.630335	abnormals
-6.630335	abnywhere
-4.773003	aboard
-5.785237	abode
-6.028275	abolish
-6.630335	abolished
-6.630335	abolition
-6.153214	abolitionist
-5.931365	abomination
-5.931365	abominations
-6.630335	abonded
-6.630335	aboriginal
-6.329305	aborigine
-6.329305	aborigine's
-6.630335	aborigines
-6.329305	abort
-6.028275	aborted
-6.630335	aborting
-5.454244	abortion
-6.630335	abortionist
-5.931365	abortions
-6.028275	abortive
-6.630335	aborts
-6.630335	abou
-5.426215	abound
-6.630335	abounding
-5.727245	abounds
-6.630335	abouse
-2.781531	about
-6.630335	about's
-6.630335	aboutfo
-6.630335	abouti
-6.329305	abouts
-6.630335	aboutthere
-6.630335	aboutv
-3.48545	above
-6.630335	above's
-6.630335	abovei
-6.630335	abovei'll
-6.630335	aboveinvestigate
-6.630335	aboveoh
-6.630335	abover
-6.630335	abovewhat
-6.630335	aboyant
-5.931365	abra
-5.852184	abracadabra
-6.630335	abracadebra
-6.329305	abracame
-6.630335	abrahall
-5.183177	abraham
-6.028275	abraham's
-6.630335	abram's
-6.329305	abrased
-6.630335	abrasion
-6.630335	abrasions
-6.329305	abrasive
-6.153214	abrazar
-6.630335	abrazarte
-5.676093	abrazo
-5.785237	abre
-6.630335	abreast
-6.630335	abres
-6.630335	abri
-6.630335	abright
-6.630335	abrigo
-6.153214	abrir
-5.630335	abroad
-6.153214	abrupt
-6.329305	abruptly
-6.630335	abs
-6.153214	absalom
-6.153214	abscess
-6.630335	abscessed
-6.630335	absconded
-4.897942	absence
-6.630335	absense
-5.588943	absent
-6.630335	absentminded
-6.630335	absess
-5.727245	absinthe
-6.028275	absolutamente
-5.153214	absolute
-4.958238	absolutely
-6.329305	absolutes
-5.630335	absolution
-5.852184	absolve
-6.329305	absolved
-6.153214	absorb
-5.588943	absorbed
-6.630335	absorbent
-6.630335	absorber
-5.931365	absorbing
-6.630335	absorption
-6.329305	abstain
-5.931365	abstinence
-6.630335	abstinthe
-5.588943	abstract
-6.630335	abstraction
-6.630335	abstractions
-6.630335	abstracts
-6.630335	abstruse
-6.630335	absurbed
-4.824155	absurd
-6.329305	absurdbut
-6.153214	absurdity
-6.630335	absurdunwanted
-6.329305	abuelitas
-6.028275	abundance
-6.153214	abundant
-6.630335	aburrido
-6.630335	aburro
-6.630335	abus'd
-4.588943	abuse
-4.732708	abused
-6.329305	abuser
-6.153214	abuses
-6.028275	abusin
-5.727245	abusing
-6.028275	abusive
-6.630335	abusos
-6.630335	abweichendem
-6.153214	aby
-6.630335	abydos
-6.329305	abysmal
-4.785237	abyss
-6.630335	abyssic
-6.630335	abyssinia
-6.630335	abzock
-5.676093	ac
-6.630335	ac's
-5.852184	acaba
-6.630335	acabada
-6.329305	acabados
-5.676093	acabar
-6.630335	acabara
-6.329305	acabe
-6.630335	acacia
-5.630335	academy
-6.630335	acapella
-5.630335	acapulco
-6.630335	acar
-6.630335	acaricia
-6.630335	acariciarte
-5.852184	acaso
-5.676093	accelerate
-6.630335	accelerates
-6.153214	accelerating
-5.630335	acceleration
-5.785237	accelerator
-5.399887	accent
-6.329305	accent's
-6.153214	accents
-6.630335	accentuates
-4.506484	accept
-6.630335	acceptable
-5.287913	acceptance
-5.329305	accepted
-6.153214	accepter
-5.329305	accepting
-6.329305	accepts
-6.630335	acceso
-5.588943	access
-6.329305	accessible
-6.329305	accessoires
-6.153214	accessories
-6.630335	accessorise
-5.727245	accessory
-6.630335	accguitar
-4.958238	accident
-5.630335	accidental
-5.551154	accidentally
-5.931365	accidently
-5.426215	accidents
-6.630335	accin
-6.329305	accion
-6.028275	accolades
-6.630335	accomadations
-6.329305	accommodate
-6.329305	accommodation
-6.630335	accomodating
-6.630335	accomodations
-6.630335	accompagne
-6.329305	accompanied
-5.931365	accompany
-6.630335	accompli
-6.630335	accomplice
-6.028275	accomplish
-5.399887	accomplished
-6.630335	accomplishment
-6.630335	accomplishment's
-5.852184	accomplishments
-5.785237	accord
-6.630335	accordance
-5.167937	according
-6.329305	accordingly
-6.329305	accordion
-6.329305	accosted
-4.830995	account
-6.153214	accountability
-6.329305	accountable
-6.329305	accountant
-6.329305	accountants
-6.329305	accounted
-6.329305	accounting
-6.630335	accountings
-6.028275	accounts
-6.329305	accoustic
-6.630335	accoustics
-6.329305	accroch
-6.153214	accross
-6.630335	accrue
-6.630335	accrued
-6.630335	accumen
-6.153214	accumulate
-6.153214	accumulating
-6.630335	accumulations
-6.329305	accuracy
-6.630335	accurate
-6.329305	accursed
-5.852184	accusation
-5.426215	accusations
-6.630335	accusative
-5.062134	accuse
-5.007086	accused
-6.630335	accusin
-6.153214	accusing
-5.484207	accustomed
-6.630335	accustoned
-6.329305	accutely
-4.87446	ace
-6.630335	acecho
-6.630335	acedia's
-6.630335	acelera
-6.329305	acelerado
-6.630335	acepta
-6.630335	aceptes
-6.329305	acercaron
-5.931365	acercas
-6.329305	acercate
-6.329305	acero
-6.630335	acerque
-5.351582	aces
-5.785237	acetone
-6.630335	achameleon
-4.600952	ache
-6.153214	ached
-6.630335	acherons
-4.852184	aches
-6.630335	achethat
-6.630335	achica
-5.125185	achieve
-5.852184	achieved
-6.630335	achievement
-6.153214	achievements
-6.028275	achiever
-6.153214	achievers
-6.630335	achieves
-6.028275	achieving
-6.153214	achilles
-5.250124	achin
-4.428938	aching
-6.630335	achinso
-6.630335	achmed's
-6.630335	acholial
-6.630335	acht
-6.630335	achtung
-6.630335	achve
-5.931365	achy
-4.779077	acid
-6.630335	acidacid
-6.329305	acidhouse
-6.329305	acidically
-6.329305	acids
-6.630335	ack
-5.785237	acknowledge
-6.329305	acknowledged
-6.630335	acknowledgement
-6.630335	acknowledging
-6.630335	acme's
-6.630335	acne
-6.630335	acned
-6.153214	aco
-6.630335	acolpoco
-6.153214	acolytes
-6.630335	acoming
-6.630335	acompanes
-6.329305	acomplished
-6.630335	acordeon
-6.329305	acorn
-6.630335	acorns
-6.329305	acostarse
-5.676093	acostumbrar
-5.676093	acoustic
-6.329305	acoustics
-6.329305	acquaint
-5.484207	acquaintance
-6.153214	acquaintances
-5.852184	acquainted
-6.630335	acquaintence
-6.329305	acquiesce
-6.630335	acquiescence
-5.630335	acquire
-5.676093	acquired
-6.630335	acquiring
-6.153214	acquisition
-6.630335	acquisitions
-6.630335	acquited
-5.931365	acquitted
-5.516392	acre
-5.484207	acres
-6.630335	acribillen
-5.931365	acrid
-5.588943	acrobat
-6.329305	acrobats
-3.58658	across
-6.630335	across'
-6.630335	acrylic
-3.986883	act
-6.153214	act's
-6.630335	acta
-5.250124	acted
-6.630335	actes
-6.630335	acteur
-4.922765	actin
-4.402449	acting
-6.630335	acting's
-4.164952	action
-6.630335	actionless
-4.837944	actions
-6.630335	actionwe're
-5.727245	activate
-6.329305	activated
-6.630335	activates
-6.630335	activating
-5.551154	active
-6.630335	activism
-6.630335	activist
-6.630335	activists
-6.630335	activites
-6.028275	activities
-5.931365	activity
-6.329305	acto
-6.630335	acton
-5.111821	actor
-6.630335	actor's
-5.287913	actors
-6.630335	actos
-5.111821	actress
-6.329305	actresses
-4.889973	acts
-6.630335	actthen
-5.167937	actual
-4.906059	actually
-6.329305	actuar
-6.630335	acuff
-5.931365	acumen
-6.630335	acumulando
-6.329305	acumular
-6.630335	acuna
-6.630335	acupuncture
-6.630335	acura's
-6.630335	acused
-6.153214	acute
-5.028275	ad
-6.630335	ad's
-6.329305	adage
-6.329305	adalida
-4.889973	adam
-5.931365	adam's
-5.931365	adamant
-6.630335	adamantly
-6.630335	adament
-6.329305	adams
-6.630335	adamski
-5.931365	adapt
-5.931365	adaptation
-6.329305	adaptations
-6.329305	adapting
-6.630335	adaptor
-6.630335	aday
-4.661852	add
-5.454244	added
-6.630335	addications
-5.484207	addict
-4.661852	addicted
-6.630335	addicting
-4.897942	addiction
-5.785237	addictions
-5.931365	addictive
-5.785237	addicts
-6.630335	addie
-5.426215	adding
-5.852184	addition
-6.028275	additional
-6.630335	addle
-6.630335	addled
-6.153214	addly
-6.630335	addo
-4.804261	address
-5.630335	addressed
-6.153214	addresses
-6.028275	addressing
-5.351582	adds
-6.630335	addy
-6.630335	adead
-6.630335	adecuadas
-6.153214	adelaide
-6.630335	adelante
-6.153214	adeline
-6.630335	adelines
-6.329305	adenoids
-6.153214	adentro
-6.630335	adeps
-6.329305	adept
-6.153214	adhere
-6.028275	adherent
-6.630335	adhering
-5.852184	adhesive
-5.785237	adia
-6.630335	adiction
-6.153214	adidas
-5.551154	adieu
-6.630335	adieus
-6.329305	adina's
-5.268608	adios
-6.630335	adiosmi
-6.329305	adis
-5.931365	adjectives
-6.630335	adjourn
-6.630335	adjudicate
-6.630335	adjunct
-5.426215	adjust
-6.630335	adjustable
-5.852184	adjusted
-6.153214	adjusting
-5.727245	adjustment
-5.931365	adkins
-6.028275	adle
-6.630335	adlibs
-6.329305	admin
-6.630335	administering
-6.630335	administration
-6.329305	administrations
-6.329305	admirable
-6.630335	admiral
-6.630335	admirals
-5.931365	admiration
-5.454244	admire
-5.676093	admired
-6.630335	admirer
-6.630335	admirin
-5.852184	admiring
-6.630335	admissible
-5.588943	admission
-6.329305	admissions
-4.329305	admit
-6.028275	admits
-6.153214	admittance
-5.785237	admitted
-6.630335	admitting
-6.630335	admonished
-6.630335	admonition
-6.153214	adn
-6.329305	ado
-6.630335	adolescence
-5.630335	adolescent
-6.630335	adolescentes
-6.153214	adolf
-6.630335	adolph
-5.931365	adonai
-6.630335	adonis
-6.153214	adopt
-5.852184	adopted
-6.630335	adoptpeculiar
-6.630335	adorabelle
-6.153214	adorable
-6.630335	adorait
-6.630335	adoral
-6.329305	adorar
-6.153214	adoration
-4.42082	adore
-5.308116	adored
-6.630335	adorer
-6.630335	adorers
-6.028275	adores
-6.028275	adoring
-6.630335	adorish
-5.785237	adormeces
-5.852184	adorn
-6.028275	adorned
-6.153214	adorns
-5.399887	adrenalin
-5.167937	adrenaline
-5.630335	adrian
-6.329305	adriana
-6.630335	adriatic
-5.074033	adrift
-6.630335	adriftin
-5.676093	ads
-6.630335	adulating
-6.153214	adulation
-6.630335	adulescens
-5.351582	adult
-6.630335	adulterers
-6.630335	adultery
-6.630335	adultress
-5.588943	adults
-5.351582	advance
-5.676093	advanced
-6.630335	advancement
-5.630335	advances
-5.931365	advancing
-4.949094	advantage
-6.630335	advantages
-6.630335	advent
-6.630335	advents
-4.958238	adventure
-6.630335	adventure's
-5.588943	adventurer
-5.329305	adventures
-6.329305	adventurous
-6.630335	adverbs
-6.329305	adversarial
-6.153214	adversaries
-6.329305	adversions
-6.028275	adversity
-6.153214	advert
-6.028275	advertise
-5.852184	advertised
-6.630335	advertisement
-6.630335	advertiser
-6.329305	advertisers
-6.630335	advertises
-5.351582	advertising
-6.630335	advertisments
-6.028275	adverts
-4.356177	advice
-6.630335	advices
-6.329305	advil
-5.727245	advise
-5.630335	advised
-6.630335	advisers
-6.630335	advising
-6.630335	advisor
-6.630335	advisors
-6.630335	advissery
-5.852184	advocate
-6.630335	advocate's
-6.329305	advocating
-6.630335	advocation
-4.949094	ae
-6.153214	aeaon
-6.630335	aech
-6.630335	aegian
-6.329305	aenima
-6.028275	aeon
-5.727245	aeons
-6.630335	aereo
-5.852184	aerial
-6.630335	aero
-6.329305	aerobics
-6.630335	aerodrome
-6.329305	aerodynamic
-6.153214	aerodynamics
-6.630335	aeron
-5.232395	aeroplane
-5.852184	aeroplanes
-6.630335	aerosmith
-6.630335	aerosmithyeah
-6.329305	aerosol
-6.329305	aerosols
-6.630335	aerostar
-6.630335	aeschylus
-6.329305	aesthetic
-6.630335	aeternus
-6.630335	aethenian
-6.630335	af
-6.630335	afaisnt
-4.931365	afar
-6.630335	afast
-6.329305	afeared
-6.630335	afeghanistan
-6.329305	affable
-4.657207	affair
-6.329305	affaires
-5.050552	affairs
-6.329305	affar
-5.351582	affect
-6.630335	affectation
-6.630335	affectations
-6.630335	affectatious
-5.484207	affected
-6.630335	affectin
-6.329305	affecting
-4.565877	affection
-6.329305	affectionate
-6.630335	affectionated
-6.630335	affectionately
-5.852184	affections
-5.931365	affects
-6.630335	afficionados
-6.329305	affidavit
-6.630335	affiliate
-6.329305	affiliated
-6.153214	affiliates
-6.630335	affiliation
-6.630335	affiliets
-6.630335	affimer
-5.931365	affinity
-6.630335	affirm
-6.153214	affirmation
-6.630335	affirmative
-6.630335	affirming
-6.329305	affix
-6.630335	afflict
-5.852184	afflicted
-6.329305	afflicting
-5.676093	affliction
-6.630335	afflictions
-6.630335	afflicts
-6.630335	affluency
-4.509761	afford
-5.676093	affordable
-6.630335	affords
-6.630335	affray
-6.329305	affright
-6.153214	affuso
-6.630335	affuso336
-5.516392	afghanistan
-6.329305	afin
-5.630335	afire
-5.329305	aflame
-6.630335	aflashin
-6.630335	afll
-4.949094	afloat
-6.630335	aflood
-6.630335	afool
-6.630335	afore
-6.630335	aforementioned
-3.562521	afraid
-6.630335	afraiddistant
-6.153214	afraidoh
-6.630335	afriad
-5.167937	africa
-5.551154	african
-6.329305	afrika
-6.630335	afrikan
-5.931365	afro
-6.630335	afrontar
-6.630335	aft
-3.340746	after
-6.630335	afterall
-6.329305	afterand
-6.028275	afterbirth
-6.630335	afterbirths
-6.630335	afterburners
-5.232395	afterglow
-5.098856	afterlife
-6.630335	afterly
-5.484207	aftermath
-4.308116	afternoon
-6.630335	afternoonlarry
-5.454244	afternoons
-6.630335	afternoons'
-6.630335	afterparty's
-6.630335	afters
-6.630335	afterschool
-6.630335	aftershave
-5.931365	aftershock
-6.630335	aftershow
-6.153214	aftertaste
-6.153214	afterthought
-6.630335	afterthoughts
-5.852184	afterwards
-6.153214	afterworld
-6.630335	afto
-6.630335	afuckin
-6.329305	afuera
-6.630335	afunky
-5.931365	ag
-6.630335	agadir
-6.630335	agaiiinnnnnn
-2.721957	again
-6.329305	again'
-5.785237	again2x
-6.630335	again3
-6.630335	again4x
-6.153214	againah
-6.153214	againand
-6.630335	againbombenhagel
-6.630335	againboy
-6.630335	againbridge
-6.630335	againe
-6.630335	againeverything
-6.630335	againflyin
-6.630335	againgo
-6.153214	againi
-6.630335	againi'll
-6.630335	againi'm
-6.630335	againin
-6.630335	againkisses
-6.630335	againn
-6.630335	againoh
-6.630335	againone
-6.630335	againover
-6.630335	againrepeat
-5.931365	agains
-6.630335	againsan
-6.630335	againshe
-6.630335	againsilent
-6.630335	againsomeone
-3.693822	against
-6.630335	againsweet
-6.630335	againt
-6.329305	againthere's
-6.329305	againto
-6.630335	againuh
-6.630335	againwaiting
-6.630335	againwell
-6.630335	againwhose
-6.329305	againwoooah
-6.630335	againyay
-6.630335	againyeah
-6.329305	againyou
-6.630335	agal
-6.153214	agamemnon
-6.630335	agana
-6.153214	agarrame
-6.630335	agarrar
-6.630335	agatha
-6.630335	agave
-3.951817	age
-5.931365	age's
-5.351582	aged
-6.329305	agein
-6.630335	ageing
-5.426215	ageless
-6.630335	agels
-6.630335	agen
-6.630335	agencies
-6.028275	agency
-5.551154	agenda
-6.630335	agendas'
-6.630335	agenouills
-5.111821	agent
-6.630335	agent's
-5.375063	agents
-4.613302	ages
-6.630335	agg
-6.630335	aggersions
-6.153214	aggitation
-6.630335	aggrandise
-6.630335	aggravate
-6.329305	aggravated
-6.329305	aggravates
-5.329305	aggravation
-6.329305	aggresions
-6.630335	aggresive
-5.287913	aggression
-6.630335	aggressiv
-5.727245	aggressive
-6.630335	aggressiveness
-6.329305	aggressor
-6.630335	aggressor's
-6.630335	aggrevation
-5.785237	aggrivation
-6.630335	agh
-6.630335	aghast
-6.153214	aghost
-5.931365	agian
-6.630335	agien
-6.630335	agile
-6.630335	agility
-5.727245	agin
-5.484207	aging
-6.153214	agisthos
-6.630335	agit
-6.630335	agita
-6.329305	agitation
-6.630335	agitationviolationmutilationplanet
-5.287913	aglow
-6.630335	aglowoh
-6.630335	agnelli
-6.329305	agnew
-5.630335	agnostic
-6.329305	agnus
-3.839347	ago
-6.153214	agoi
-6.630335	agoit's
-6.329305	agonies
-6.630335	agonise
-6.630335	agonised
-6.153214	agonize
-6.028275	agonized
-6.028275	agonizing
-4.690816	agony
-6.153214	agony's
-6.630335	agooh
-6.630335	agora
-6.630335	agorasa
-6.630335	agosingin
-6.630335	agota
-6.630335	agothe
-6.630335	agradarte
-4.457149	agree
-6.630335	agreeable
-5.250124	agreed
-6.329305	agreeing
-6.028275	agreement
-6.153214	agreements
-5.630335	agrees
-6.630335	agreeyes
-6.630335	agresividad
-6.630335	agress
-6.028275	agression
-6.630335	agressions
-6.153214	agressive
-6.630335	agricultural
-6.630335	agriculture
-6.630335	agrimony
-6.630335	agrios
-6.630335	agrivation
-5.329305	aground
-6.630335	agrow
-6.630335	ags
-6.153214	agua
-6.630335	aguanta
-5.931365	aguantar
-6.630335	aguardan
-6.630335	aguatar
-6.630335	aguito
-6.630335	aguja
-6.630335	agujas
-6.630335	agus
-3.463905	ah
-6.630335	ah'd
-6.329305	ah'll
-4.810791	aha
-6.329305	ahaa
-5.551154	ahah
-5.454244	ahaha
-6.630335	ahahaaa
-6.630335	ahahah
-6.630335	ahahahaa
-5.852184	ahahahah
-6.630335	ahahahaha
-6.630335	ahahh
-3.90117	ahead
-6.630335	ahead's
-4.506484	ahh
-6.630335	ahhaha
-4.940139	ahhh
-6.329305	ahhhclose
-5.250124	ahhhh
-5.551154	ahhhhh
-5.785237	ahhhhhh
-6.329305	ahhhhhhh
-6.329305	ahhhhhhhh
-6.630335	ahhhhhhhhhhh
-6.630335	ahhhhhhhhhhhhhhhhhhh
-6.630335	ahhhhi
-6.329305	ahhhs
-6.630335	ahhno
-5.931365	ahi
-6.630335	ahlalalala
-6.630335	ahlike
-5.785237	ahogandome
-5.727245	ahold
-6.630335	ahole
-5.785237	ahoo
-4.986883	ahora
-6.153214	ahouek
-6.630335	ahsatellite
-6.630335	ahve
-6.630335	ahw
-5.329305	ai
-6.630335	ai'll
-6.329305	aichemical
-5.183177	aid
-6.630335	aider
-6.329305	aiding
-5.268608	aids
-6.630335	aids's
-6.630335	aies
-6.630335	aight
-5.931365	aiight
-6.153214	ail
-6.630335	aile
-5.727245	ailes
-6.028275	ailing
-6.329305	aille
-6.630335	ailles
-5.588943	ailleurs
-6.329305	ailment
-6.630335	ails
-4.387297	aim
-6.153214	aim's
-6.028275	aimais
-6.153214	aimait
-6.028275	aimant
-5.167937	aime
-5.426215	aimed
-6.630335	aimee
-6.630335	aiment
-5.516392	aimer
-6.329305	aimera
-6.329305	aimes
-6.028275	aimin
-5.098856	aiming
-5.329305	aimless
-5.516392	aimlessly
-6.630335	aimlessness
-6.028275	aimons
-5.351582	aims
-6.329305	ain
-6.153214	ain`t
-6.153214	ainaiha
-5.852184	ainsi
-2.805234	aint
-6.028275	aint'
-6.630335	aint't
-3.497116	air
-6.630335	air'
-5.329305	air's
-6.630335	aira
-6.630335	airainment
-6.630335	airanaesthesia's
-6.630335	airbag
-5.931365	airborne
-6.329305	aircraft
-6.329305	aircrash
-5.931365	aire
-6.630335	aired
-5.727245	aires
-6.630335	airesfake
-6.329305	airless
-5.931365	airline
-6.630335	airliner
-6.329305	airlines
-6.630335	airlook
-6.630335	airmail
-6.630335	airmiles
-4.824155	airplane
-6.329305	airplane's
-5.785237	airplanes
-6.630335	airplay
-5.153214	airport
-6.329305	airport's
-6.028275	airports
-5.785237	airs
-6.630335	airstay
-6.630335	airstream
-6.329305	airtime
-6.630335	airwave
-5.399887	airwaves
-6.028275	airways
-6.630335	airwhen
-5.931365	airwoven
-6.329305	airy
-5.138974	aisle
-5.484207	aisles
-6.153214	aiyee
-5.676093	aiyyo
-6.028275	aj
-5.931365	ajar
-6.028275	ajedrez
-6.630335	ajoke
-6.329305	ajournai
-6.329305	ajouter
-5.375063	ak
-6.630335	ak's
-5.727245	aka
-6.630335	akan
-6.329305	ake
-6.630335	akin
-6.630335	aking
-6.630335	akira
-6.630335	akitas
-6.630335	akkon
-4.434436	al
-6.630335	alabam'
-4.897942	alabama
-6.630335	alabamy
-5.931365	alabaster
-6.153214	aladdin
-6.028275	aladdins
-6.329305	alamanda
-6.329305	alameda
-6.630335	alamein
-6.630335	alamin
-5.727245	alamo
-5.551154	alan
-6.630335	alanguie
-5.484207	alanis
-6.630335	alans
-4.914332	alarm
-6.630335	alarma
-5.250124	alarmed
-5.785237	alarming
-5.287913	alarms
-5.551154	alas
-5.351582	alaska
-6.630335	alaskan
-6.630335	alays
-6.630335	albany
-5.588943	albatross
-6.630335	albee
-6.630335	albequerque
-5.086267	albert
-5.727245	albert's
-5.125185	alberta
-6.329305	albertane
-6.329305	alberto
-5.785237	albino
-6.630335	albinoed
-6.630335	albright
-4.804261	album
-6.630335	album's
-6.630335	albumcharts
-5.630335	albums
-5.785237	albuquerque
-6.329305	alcan
-6.630335	alcanzar
-6.630335	alcanzaran
-6.028275	alcatraz
-6.329305	alchemist
-5.454244	alchemy
-6.630335	alchohol
-6.329305	alchool
-4.639109	alcohol
-5.588943	alcoholic
-6.630335	alcoholic's
-6.329305	alcoholing
-6.630335	alcoholism
-6.329305	alcohols
-6.329305	alcools
-6.630335	ald
-6.630335	aldebaran
-6.630335	alderman
-6.630335	alderons
-6.630335	alderranian
-6.329305	aldous
-5.785237	aldridge
-5.588943	ale
-6.153214	aleady
-6.329305	alec
-6.630335	aleera
-5.785237	alegria
-6.630335	alegrias
-6.630335	alej
-6.630335	alejandro
-6.153214	alejar
-6.630335	alejarte
-6.630335	aleksis
-5.111821	alert
-6.630335	alerted
-6.630335	ales
-5.931365	alessandra
-6.153214	alex
-5.454244	alexander
-6.329305	alexander's
-6.329305	alexandria
-6.329305	alfie
-6.630335	alfloat
-6.630335	alfonso
-5.852184	alfred
-6.630335	alfred's
-6.630335	algae
-6.153214	algas
-6.028275	algebra
-6.329305	alger
-6.630335	algernon
-6.630335	algiers
-6.329305	algn
-5.062134	algo
-6.630335	algophobic
-6.028275	alguien
-6.153214	algun
-5.852184	alguna
-6.329305	alhazred
-5.516392	ali
-6.630335	alias
-4.986883	alibi
-6.153214	alibi's
-6.630335	alibies
-6.630335	alibing
-4.986883	alibis
-4.761104	alice
-5.852184	alicia
-4.845006	alien
-6.329305	alienate
-6.153214	alienated
-5.250124	alienation
-6.329305	alienations
-5.198972	aliens
-6.630335	aliento
-6.630335	alife
-5.215362	alight
-6.630335	alights
-5.399887	align
-5.516392	aligned
-6.153214	alignment
-4.996867	alike
-6.329305	alimenta
-6.630335	alimentary
-6.630335	alimghty
-5.852184	alimony
-6.329305	alined
-5.399887	alison
-6.630335	alit
-6.329305	alite
-6.028275	alittle
-3.374099	alive
-6.329305	alive1'm
-6.630335	aliveafter
-6.153214	aliveburied
-6.329305	alivecome
-6.329305	alivei'm
-6.630335	alivelistening
-6.630335	aliveor
-6.630335	aliver
-6.630335	alives
-6.329305	alivethe
-6.153214	alivewake
-6.329305	aliviaras
-6.630335	alizard
-6.630335	alizarian
-6.630335	alk
-6.329305	alka
-6.028275	alkaline
-2.05204	all
-5.676093	alla
-6.630335	alladin
-5.454244	allah
-5.931365	allah's
-6.630335	allaha
-6.630335	allais
-6.329305	allait
-5.852184	allan
-6.630335	allay
-6.630335	allayed
-6.630335	allblazin
-6.630335	allcould
-6.028275	alle
-6.329305	allegations
-6.630335	allegeble
-6.630335	alleged
-6.630335	allegedly
-5.153214	allegiance
-6.630335	allegience
-6.153214	allegory
-6.630335	allegretto
-5.588943	allein
-5.268608	alleluia
-6.630335	allelujah
-5.931365	allem
-6.630335	allemand
-5.039271	allen
-6.630335	allens
-5.852184	aller
-5.676093	allergic
-6.630335	allergies
-6.028275	allergy
-5.351582	alles
-6.153214	alleviate
-6.630335	alleviation
-4.451358	alley
-6.630335	alleycat
-5.215362	alleys
-5.351582	alleyway
-5.588943	alleyways
-5.484207	allez
-6.329305	allfrumtha
-6.630335	allfrumthai
-6.630335	allgrement
-5.727245	alli
-6.630335	alliage
-5.268608	alliance
-6.630335	alliances
-6.630335	allie
-6.329305	allied
-6.630335	allience
-5.551154	allies
-5.086267	alligator
-5.852184	alligators
-6.630335	alligned
-6.630335	allish
-5.426215	allison
-6.630335	allisons
-6.630335	allister
-6.329305	allit
-6.630335	allknow
-6.329305	alll
-6.630335	alllll
-6.630335	allllll
-6.329305	allman
-6.630335	allmost
-6.329305	allmy
-6.630335	allnow
-6.329305	allnumb
-6.630335	allo'
-6.630335	allocate
-6.630335	allocating
-6.630335	allocations
-6.630335	alloh
-6.630335	allong
-6.630335	allotheria
-6.630335	allotments
-4.573431	allow
-4.609146	allowed
-6.630335	allowed'
-6.630335	allowing
-6.630335	allowishus
-5.630335	allows
-6.630335	alloy
-6.630335	allrepeat
-4.897942	allright
-5.215362	alls
-6.630335	allsaying
-6.153214	allthe
-6.630335	alltogether
-6.630335	allude
-6.630335	alluland
-5.931365	allure
-6.630335	allures
-5.785237	alluring
-6.630335	allwaiting
-6.630335	allways
-5.931365	ally
-6.630335	allyes
-6.329305	allyouneedislove
-6.630335	alm
-5.351582	alma
-5.852184	almanac
-6.153214	almight
-4.817422	almighty
-6.630335	almightythey
-6.630335	almo
-6.630335	almohadas
-5.852184	almond
-6.630335	almonds
-3.770597	almost
-6.329305	alms
-6.630335	alnantees
-6.630335	alnight
-6.630335	alocohol
-6.028275	aloft
-6.630335	aloha
-6.630335	alohar
-6.630335	alomosti
-2.984226	alone
-6.630335	alone'
-6.630335	aloneall
-6.329305	alonealone
-6.329305	alonebut
-6.630335	alonedead
-6.630335	alonehe
-6.630335	alonehow
-6.630335	alonei
-6.630335	alonelike
-6.329305	alonely
-6.630335	aloner
-6.028275	aloneso
-6.630335	alonethe
-6.630335	alonewaiting
-6.630335	alonewe
-6.630335	alonewe'll
-6.630335	aloneyeah
-6.630335	aloneyou
-3.433607	along
-6.630335	alongisde
-5.931365	alongside
-6.630335	alonu
-6.630335	alonw
-5.551154	aloof
-6.028275	aloom
-5.167937	alors
-4.922765	alot
-6.630335	alotta
-5.074033	aloud
-6.630335	aloudhow
-6.630335	alow
-6.630335	alowishus
-6.630335	alph
-5.785237	alpha
-5.454244	alphabet
-6.630335	alphabetical
-6.630335	alphaville
-6.028275	alpine
-6.630335	alps
-3.749522	already
-3.395565	alright
-6.630335	alrightall
-6.630335	alrightjapanese
-6.630335	alrightwoah
-6.630335	alrightzoo
-5.308116	als
-6.153214	alseep
-4.577257	also
-5.630335	alt
-6.630335	alta
-6.630335	altair
-6.329305	altamont
-4.852184	altar
-6.630335	altarblack
-6.630335	altarbut
-5.727245	altars
-6.630335	altarsaid
-6.329305	alten
-5.074033	alter
-6.630335	alteration
-6.630335	alterations
-6.329305	altercation
-5.426215	altered
-6.028275	altering
-5.484207	alternate
-6.028275	alternating
-5.329305	alternative
-6.153214	alternatives
-6.630335	alternives
-5.852184	alters
-6.630335	altho'
-6.630335	althoug
-4.248318	although
-6.153214	althought
-5.931365	altitude
-5.931365	altitudes
-5.727245	alto
-5.852184	altogether
-6.630335	altos
-6.630335	altruistcally
-6.630335	altruistic
-6.630335	altuays
-5.516392	aluminum
-6.329305	alure
-6.630335	alute
-6.028275	aluzinando
-6.153214	alvarado
-6.028275	alvarez
-6.153214	alves
-6.630335	alw
-6.630335	alwaays
-5.931365	alway
-6.630335	alway's
-6.630335	alwayas
-2.869838	always
-6.329305	alwaystogether
-6.329305	alwayz
-6.630335	alwyas
-6.630335	alyssum
-6.028275	alza
-6.153214	alzan
-6.630335	alzheimer's
-2.82402	am
-6.630335	am'
-6.329305	am's
-6.630335	amaadas
-6.630335	amada
-5.727245	amado
-6.630335	amagine
-6.329305	amam
-5.785237	amamos
-5.676093	amanda
-6.329305	amandote
-6.630335	amanece
-5.931365	amanecer
-6.153214	amanha
-6.153214	amanita
-6.630335	amannequin
-5.931365	amant
-6.630335	amantes
-6.153214	amants
-5.125185	amar
-6.630335	amara
-6.630335	amareddo
-6.329305	amaremos
-6.630335	amargada
-6.153214	amaria
-6.630335	amarilla
-5.287913	amarillo
-6.153214	amarillo's
-6.630335	amario
-6.630335	amarrarte
-6.630335	amarro
-5.399887	amarte
-6.630335	amat
-5.676093	amateur
-6.153214	amateurs
-6.630335	amatitlan
-6.630335	amatuer
-5.086267	amaze
-4.779077	amazed
-5.785237	amazement
-5.551154	amazes
-6.028275	amazin
-4.565877	amazing
-6.028275	amazingly
-6.630335	amazng
-5.852184	amazon
-6.630335	amazula
-5.852184	ambassador
-6.630335	ambassador's
-6.028275	ambassadors
-5.062134	amber
-6.028275	ambered
-6.630335	ambergris
-6.329305	ambiance
-6.630335	ambidexterous
-6.630335	ambidextrous
-6.630335	ambience
-6.630335	ambient
-6.153214	ambigous
-6.153214	ambigue
-6.630335	ambiguity
-6.630335	ambiguous
-6.329305	ambission
-4.866907	ambition
-5.727245	ambitions
-5.785237	ambitious
-6.329305	ambivalence
-6.329305	ambivalent
-6.630335	ambleing
-6.329305	ambos
-6.329305	ambrose
-6.329305	ambuguous
-5.268608	ambulance
-6.329305	ambulances
-6.630335	ambushed
-6.630335	ambushing
-6.630335	amc
-6.153214	amd
-5.588943	ame
-6.630335	ameliorate
-4.958238	amen
-6.028275	amend
-6.028275	amendment
-4.967577	amends
-6.630335	amenities
-6.153214	amens
-6.630335	amentet
-6.630335	amerasian
-4.166442	america
-6.630335	america'
-5.399887	america's
-4.167937	american
-5.931365	americana
-5.375063	americans
-6.028275	americas
-6.630335	americay
-6.028275	amerika
-6.630335	amerikids
-6.329305	ames
-6.630335	amethyst
-6.630335	amethysts
-6.630335	amex
-6.630335	amfine
-4.906059	ami
-6.630335	ami'm
-5.588943	amid
-5.215362	amidst
-5.727245	amie
-6.329305	amies
-6.630335	amiga
-5.630335	amigo
-5.727245	amigos
-6.630335	amillion
-6.630335	amin
-5.454244	amis
-5.676093	amiss
-6.329305	amistad
-6.630335	amitis
-5.399887	amity
-6.630335	amlost
-6.630335	ammend
-6.630335	ammendment
-6.630335	ammit
-5.484207	ammo
-5.215362	ammunition
-6.153214	ammunitions
-6.329305	ammuntion
-6.630335	amneisa
-5.308116	amnesia
-6.630335	amnesiac
-6.028275	amnesty
-6.630335	amniotic
-6.630335	amnis
-5.588943	amo
-6.630335	amobea
-6.630335	amoebas
-6.028275	amok
-5.931365	amon
-4.257423	among
-4.922765	amongst
-6.630335	amoooor
-4.344778	amor
-6.630335	amoral
-6.153214	amore
-5.785237	amores
-6.630335	amorish
-6.028275	amorous
-5.676093	amos
-5.588943	amott
-5.098856	amount
-6.028275	amounted
-6.329305	amounting
-5.630335	amounts
-4.87446	amour
-5.454244	amoureuse
-5.931365	amoureux
-6.329305	amourous
-6.153214	amours
-5.329305	amp
-6.630335	ampare
-5.852184	amped
-6.630335	amperage
-6.630335	amphatimens
-5.630335	amphetamine
-5.931365	amphetamines
-6.630335	amphibian
-6.630335	ampin
-5.676093	amplified
-6.153214	amplifier
-6.630335	amplifier's
-6.329305	amplifiers
-6.329305	amplify
-6.630335	amplitudes
-6.630335	amply
-5.852184	amps
-6.630335	ampule
-6.028275	amputate
-6.329305	amputated
-6.630335	amputates
-5.852184	amputation
-6.630335	amputations
-5.852184	amputee
-6.630335	amputees
-6.630335	amriques
-6.630335	amrs
-6.329305	ams
-6.329305	amsier'n
-5.138974	amsterdam
-6.630335	amstill
-6.630335	amterdam
-6.153214	amtrak
-6.630335	amulet
-6.630335	amunision
-6.630335	amusant
-5.375063	amuse
-5.074033	amused
-5.454244	amusement
-6.329305	amusements
-6.153214	amuses
-5.399887	amusing
-5.375063	amy
-5.551154	amy's
-2.810791	an
-5.232395	ana
-6.630335	ana's
-6.630335	anachronism
-6.630335	anaconda
-6.630335	anaemic
-6.028275	anaesthesia
-5.630335	anaesthesia's
-5.676093	anaesthetic
-6.630335	anaesthetise
-6.329305	anaesthetized
-6.329305	anagram
-6.329305	anaheim
-6.630335	anais
-5.588943	anal
-6.329305	anale
-6.329305	analog
-6.329305	analogies
-6.630335	analogue
-6.153214	analogy
-6.153214	analyse
-6.153214	analysed
-6.630335	analyses
-6.329305	analysing
-6.329305	analysis
-5.852184	analyst
-6.630335	analyst's
-6.329305	analysts
-6.329305	analytic
-6.630335	analytical
-5.329305	analyze
-6.153214	analyzed
-6.630335	analyzin
-5.931365	analyzing
-6.630335	anancient
-6.630335	anapple
-5.426215	anarchist
-6.630335	anarchistic
-6.630335	anarchistisch
-6.630335	anarchists
-4.967577	anarchy
-6.630335	anarchy'cause
-6.153214	anarchy's
-6.028275	anark
-6.630335	anarqua
-5.931365	anastasia
-6.329305	anasthesia
-6.329305	anata
-6.028275	anatano
-6.630335	anathemaand
-6.630335	anathematise
-6.630335	anation
-6.630335	anatoma
-6.630335	anatomised
-6.630335	anatomy
-6.630335	anbeg
-6.630335	anbgel
-6.630335	anbieten
-6.630335	anbody
-6.153214	ancestor
-5.676093	ancestors
-6.630335	ancestors'
-5.931365	ancestral
-5.931365	ancestry
-6.329305	ancestry's
-6.630335	ancethis
-6.630335	ancho
-5.050552	anchor
-5.630335	anchored
-6.630335	anchorman
-6.028275	anchors
-6.630335	ancianos
-6.329305	ancien
-6.630335	anciennes
-4.335869	ancient
-6.028275	ancients
-6.630335	ancor
-6.630335	ancree
-5.676093	and'll
-6.329305	anda
-6.630335	andaba
-6.630335	andagain
-6.630335	andale
-6.153214	andalusia
-6.630335	andamos
-6.630335	andar
-6.630335	andara
-6.630335	andark
-6.630335	andchat
-6.630335	andd
-6.630335	ande
-6.329305	andela
-6.329305	andelay
-6.630335	ander
-6.153214	andere
-6.329305	anderen
-6.630335	anderlieb
-4.906059	anderson
-6.630335	andersontrack
-6.028275	andes
-6.153214	andfall
-6.630335	andhis
-6.630335	andi
-6.028275	andiam
-6.630335	andkissed
-6.630335	andlike
-6.630335	andlook
-6.630335	andmake
-6.630335	ando
-6.630335	andr
-5.852184	andre
-6.630335	andres
-6.630335	andretti
-5.676093	andrew
-6.329305	andrew's
-6.630335	andrews
-6.630335	androgyn
-5.931365	androgynous
-5.852184	androgyny
-5.852184	android
-6.630335	androides
-6.329305	androids
-6.153214	andromeda
-5.727245	ands
-6.630335	andthat
-6.630335	andup
-6.630335	andwash
-6.630335	andwaste
-6.630335	andwe'll
-6.630335	andwild
-6.630335	andwineto
-4.42082	andy
-6.630335	andy'
-5.852184	andy's
-6.630335	andyeah
-6.630335	andyou
-6.630335	andyou're
-6.630335	andyour
-6.630335	anecdote
-6.630335	anecdotes
-6.630335	anechoic
-6.630335	anee
-5.588943	anemic
-6.153214	anesthesia
-6.630335	anesthetic
-6.630335	anesthetics
-6.630335	anesthetize
-6.028275	anesthetized
-5.111821	anew
-6.630335	anexiety
-6.630335	anfang
-6.630335	anfind
-5.852184	ang
-6.630335	angas
-5.630335	ange
-3.603802	angel
-6.329305	angelangel
-6.630335	angelangelangelangel
-6.329305	angelcity
-6.630335	angeldevil
-6.630335	angelena
-5.785237	angelene
-6.630335	angeleno
-5.268608	angeles
-5.727245	angelic
-6.153214	angelica
-6.329305	angelical
-6.630335	angelicus
-5.516392	angelina
-6.630335	angelina's
-6.630335	angeline
-6.630335	angelinia
-6.630335	angelit's
-6.329305	angelita
-6.630335	angellucci's
-6.630335	angelo
-6.630335	angelo's
-6.630335	angelogen
-3.687831	angels
-5.931365	angels'
-6.630335	angelsongs
-5.375063	angelus
-5.588943	angelyne
-4.148893	anger
-5.588943	anger's
-6.329305	angered
-5.852184	angers
-5.630335	anges
-6.630335	angesagten
-6.028275	angesicht
-5.153214	angie
-6.630335	angiography
-6.329305	angkor
-5.250124	angle
-6.630335	angled
-5.516392	angles
-6.329305	angoisse
-6.329305	angola
-6.630335	angrier
-6.630335	angries
-6.630335	angriest
-6.630335	angriness
-4.205454	angry
-5.484207	angst
-5.125185	anguish
-6.329305	anguished
-6.630335	anguishes
-6.329305	angular
-6.630335	angulars
-6.153214	angustia
-6.630335	anhela
-6.630335	ani
-6.630335	aniello
-6.630335	anient
-6.329305	anima
-4.301956	animal
-6.630335	animalistic
-4.588943	animals
-6.630335	animalsare
-6.630335	animalsdamn
-6.028275	animate
-5.785237	animated
-5.785237	animation
-6.630335	animator
-6.630335	anime
-5.785237	animosity
-6.630335	aninstrumental
-5.852184	anis
-6.329305	anita
-6.630335	anker
-5.516392	ankle
-6.329305	ankled
-5.351582	ankles
-6.630335	anklet
-6.329305	ankmpfen
-6.630335	anleave
-4.967577	ann
-5.017551	anna
-6.630335	annaheim
-6.630335	annd
-5.268608	anne
-6.630335	anneau
-6.630335	annees
-6.153214	annes
-6.630335	annette
-6.153214	annex
-5.086267	annie
-6.630335	annie's
-5.931365	annihilate
-6.329305	annihilated
-6.153214	annihilating
-5.329305	annihilation
-6.630335	annihilationthey'll
-5.516392	annihilator
-6.329305	annihilator's
-6.630335	annimmst
-6.153214	anniversaries
-5.308116	anniversary
-6.153214	annoint
-6.153214	annonant
-6.630335	annotated
-6.028275	announce
-5.630335	announced
-5.852184	announcement
-6.153214	announcer
-6.630335	announcer's
-6.153214	announcing
-6.630335	annow
-5.852184	annoy
-5.516392	annoyed
-5.931365	annoying
-6.630335	annoyingly
-6.630335	annoys
-6.630335	anns
-6.028275	annual
-5.785237	ano
-5.931365	anoint
-6.329305	anointed
-6.630335	anointing
-6.630335	anois
-6.329305	anomalies
-6.630335	anomalous
-6.630335	anomosity
-6.630335	anon
-6.630335	anonimation
-6.630335	anonly
-6.630335	anonyme
-6.630335	anonymity
-5.198972	anonymous
-6.630335	anonymously
-6.630335	anoother
-6.630335	anorex
-6.153214	anorexia
-6.153214	anorexic
-6.630335	anorther
-6.028275	anos
-6.630335	anothe
-2.966823	another
-4.804261	another's
-6.630335	anotheri
-6.630335	anothertwist
-6.329305	anouncement
-6.630335	anouther
-6.630335	anoxia
-6.329305	anpacolucci
-6.630335	anr
-5.198972	ans
-6.028275	ansaphone
-6.630335	anscheinend
-6.630335	anschluss
-6.630335	ansing
-6.630335	ansprechenden
-6.630335	anspruch
-6.630335	anstarrte
-6.630335	answe
-3.762279	answer
-5.375063	answer's
-6.630335	answerable
-4.914332	answered
-6.630335	answeres
-6.630335	answerin
-5.167937	answering
-6.630335	answerphone
-4.051696	answers
-6.153214	answersand
-5.375063	ant
-6.630335	antacids
-6.630335	antagonism
-6.630335	antagonistic
-6.153214	antagonize
-6.329305	antagonizing
-6.630335	antarctic
-6.329305	antarctica
-6.630335	antares
-5.931365	ante
-5.727245	antelope
-6.630335	antena
-5.454244	antenna
-6.329305	antennae
-5.931365	antennas
-5.551154	antes
-5.074033	anthem
-5.676093	anthems
-6.329305	anthing
-5.630335	anthony
-6.630335	anthracite
-5.931365	anthrax
-6.630335	anthropocentric
-6.630335	anthropoid
-6.630335	anthropology
-4.830995	anti
-6.329305	antibiotics
-6.630335	antibody
-6.630335	antic
-5.551154	antichrist
-5.454244	anticipate
-6.329305	anticipated
-6.630335	anticipatin
-5.232395	anticipating
-5.232395	anticipation
-6.630335	anticipations
-6.153214	antics
-6.329305	anticuadas
-6.630335	anticyclone
-6.630335	antidepressants
-5.676093	antidote
-6.630335	antidotes
-6.630335	antigedad
-6.630335	antigone
-6.153214	antigua
-6.630335	antiguo
-6.630335	antimatter
-6.630335	antinomy
-6.329305	antioch
-6.028275	antipop
-6.630335	antiquated
-5.516392	antique
-6.630335	antiques
-6.630335	antiquity
-6.329305	antiseptic
-5.931365	antisocial
-6.630335	antithesis
-6.630335	antithetic
-6.630335	antlered
-6.329305	antlers
-5.329305	antmusic
-6.329305	anton
-5.138974	antone
-5.785237	antonio
-6.630335	antorcha
-5.232395	ants
-6.630335	antsy
-6.630335	antwan
-6.630335	antworten
-6.329305	anualmente
-6.630335	anunciante
-6.153214	anuncio
-6.153214	anus
-5.727245	anvil
-6.329305	anvils
-6.329305	anway
-6.630335	anwhen
-6.630335	anxieties
-5.039271	anxiety
-6.329305	anxiety's
-5.268608	anxious
-5.852184	anxiously
-3.318581	any
-6.329305	anya
-6.630335	anya's
-6.153214	anybodies
-4.008121	anybody
-6.630335	anybody'd
-5.250124	anybody's
-6.329305	anybodyjames
-5.630335	anyday
-4.743845	anyhow
-6.630335	anyhting
-6.630335	anykind
-3.520757	anymore
-6.630335	anymore'
-6.630335	anymorea
-6.630335	anymoreand
-6.630335	anymorehang
-6.630335	anymorei'm
-6.630335	anymoremaybe
-6.630335	anymoreoh
-6.630335	anymorerain
-3.70761	anyone
-6.630335	anyone''
-5.153214	anyone's
-6.630335	anyonei
-6.630335	anyoneit's
-5.551154	anyplace
-6.630335	anythig
-5.785237	anythin
-3.37724	anything
-5.454244	anything's
-6.630335	anythingat
-6.630335	anythinghit
-6.630335	anythingi'd
-6.630335	anythingyeah
-6.630335	anytihng
-6.630335	anytiiiiiiiiiiime
-4.372657	anytime
-6.630335	anyting
-6.153214	anytown
-3.81277	anyway
-6.153214	anywayin
-6.630335	anywayit's
-5.551154	anyways
-6.630335	anywayseems
-6.630335	anywaywell
-3.964754	anywhere
-6.329305	anzio
-6.630335	anzumachen
-6.630335	ao
-6.630335	aobut
-6.329305	aoh
-6.329305	aok
-6.630335	aommand
-6.630335	aon
-6.630335	aone
-6.630335	aooo
-6.329305	aopen
-6.630335	aor
-6.630335	aorund
-6.028275	aos
-6.630335	aowww
-6.028275	apache
-6.630335	apalling
-6.630335	apapacho
-6.630335	aparcada
-6.028275	aparece
-6.630335	aparentar
-6.630335	aparezcan
-3.541845	apart
-6.630335	apartafter
-6.630335	apartbetter
-4.761104	apartment
-6.153214	apartment's
-6.153214	apartments
-6.630335	apartsave
-6.329305	apartsee
-6.630335	apartwell
-6.630335	apartx14
-6.630335	apartx28
-6.028275	apathetic
-5.050552	apathy
-6.630335	apathy's
-6.630335	apauled
-5.167937	ape
-6.153214	ape's
-6.630335	apemen
-6.630335	aper
-6.630335	aperitifs
-6.630335	apernder
-6.630335	aperoit
-5.183177	apes
-6.630335	apex
-6.630335	aphasic
-6.329305	aphids
-6.630335	aphrodesiac
-6.329305	aphrodisiac
-6.630335	aphrodisiacs
-5.852184	aphrodite
-6.630335	aphrodite's
-6.630335	aphrodites
-6.630335	apiece
-6.630335	apin
-6.630335	apite
-6.630335	aplague
-6.630335	aplain
-6.630335	aplenty
-6.630335	aplomb
-6.630335	apo
-5.287913	apocalypse
-6.630335	apocalypse's
-5.676093	apocalyptic
-6.630335	apocalytic
-5.676093	apogee
-5.630335	apollo
-6.153214	apologetic
-5.007086	apologies
-5.630335	apologise
-6.630335	apologised
-6.630335	apologist
-4.914332	apologize
-6.153214	apologized
-6.329305	apologizes
-6.630335	apologizin
-6.329305	apologizing
-5.329305	apology
-6.630335	apology's
-6.630335	apon
-5.630335	apostle
-5.785237	apostles
-5.931365	apostrophe
-6.630335	apothecary
-6.329305	apothose
-6.630335	apoyar
-6.153214	apoyo
-6.630335	appaiser
-5.852184	appalachian
-6.630335	appalachians
-6.153214	appall
-6.028275	appalling
-6.630335	appaloosa's
-6.630335	apparaitre
-6.329305	apparat
-6.329305	apparatus
-6.630335	apparel
-5.931365	apparences
-5.426215	apparent
-5.852184	apparently
-5.588943	apparition
-6.028275	apparitions
-6.630335	appart
-6.329305	appartheid
-6.153214	appartment
-4.922765	appeal
-6.329305	appealed
-5.375063	appealing
-6.329305	appeals
-4.54043	appear
-6.028275	appear'd
-5.484207	appearance
-6.329305	appearances
-4.845006	appeared
-6.630335	appearin
-5.588943	appearing
-4.755274	appears
-5.375063	appease
-5.931365	appeased
-6.630335	appeasement
-6.630335	appeases
-6.329305	appeasing
-6.630335	appel
-6.630335	appelez
-6.630335	appelle
-6.630335	appellent
-6.153214	appendage
-6.329305	appendages
-6.153214	appendix
-6.630335	apperance
-6.630335	appetiser
-4.958238	appetite
-6.630335	appetite's
-5.785237	appetites
-6.329305	appetits
-6.329305	appetizing
-6.630335	appice
-5.852184	applaud
-6.630335	applauded
-6.329305	applauds
-5.125185	applause
-4.516392	apple
-5.852184	apple's
-6.630335	appleasing
-5.007086	apples
-6.630335	applesauce
-6.630335	appletoast
-6.153214	appliance
-6.329305	appliances
-6.329305	application
-6.153214	applications
-5.399887	applied
-6.153214	applies
-6.630335	appliques
-5.215362	apply
-6.329305	applying
-6.630335	appocolyps
-5.727245	appointed
-5.588943	appointment
-5.630335	appointments
-6.630335	apport
-6.630335	apportait
-6.630335	apporter
-6.630335	appostile
-6.153214	appraise
-6.630335	appraises
-5.007086	appreciate
-5.676093	appreciated
-6.630335	appreciates
-6.028275	appreciation
-6.630335	apprehended
-5.630335	apprehension
-6.630335	apprehensions
-5.852184	apprehensive
-6.630335	apprend
-6.329305	apprendre
-6.630335	apprendrons
-5.551154	apprends
-5.931365	apprentice
-5.727245	appris
-6.329305	apprivoiser
-5.086267	approach
-6.630335	approache
-5.727245	approached
-5.588943	approaches
-6.153214	approachin
-5.074033	approaching
-6.028275	approche
-6.630335	approching
-6.153214	appropriate
-6.630335	appropriately
-5.630335	approval
-6.630335	approvals
-5.375063	approve
-5.852184	approved
-6.153214	approximately
-6.630335	approximation
-6.630335	apreciate
-6.153214	aprende
-6.329305	aprender
-6.630335	aprendes
-6.630335	aprendi
-6.630335	aprendido
-6.630335	aprendiendo
-5.785237	apres
-6.630335	apricot
-4.889973	april
-5.588943	aprils
-6.329305	aprin
-6.630335	aproach
-6.630335	aproaching
-6.630335	apromise
-5.426215	apron
-6.153214	aprons
-6.630335	apropiado
-6.329305	apropos
-6.630335	aprovecha
-5.588943	aprs
-5.852184	apt
-6.630335	apt's
-6.329305	aptitude
-6.630335	aptitudes
-6.630335	aptly
-5.351582	aqu
-5.630335	aqua
-6.630335	aquaducts
-6.630335	aquainted
-6.630335	aqualine
-6.153214	aqualung
-6.630335	aquaman
-6.630335	aquarelle
-6.630335	aquarian
-5.852184	aquarium
-6.153214	aquarius
-6.630335	aquatic
-6.630335	aqueducts
-5.785237	aquello
-6.028275	aquellos
-4.830995	aqui
-6.329305	aqui`
-6.630335	aquitana
-6.630335	aqur
-5.551154	ar
-6.630335	ara
-5.198972	arab
-6.630335	arabesque
-6.329305	arabesques
-6.028275	arabia
-5.516392	arabian
-5.931365	arabic
-6.630335	arabs
-6.630335	araby
-6.630335	arachnid
-6.630335	arachnida
-6.153214	aralhayati
-6.630335	arapax
-6.630335	ararat
-6.028275	arata
-5.551154	araya
-6.630335	arayayayound
-6.630335	arbeit
-6.630335	arbeitsweise
-6.329305	arbela
-6.630335	arbiter's
-6.630335	arbitrariness
-6.329305	arbitrary
-6.329305	arboreal
-6.630335	arboreality
-6.153214	arbour
-6.630335	arboured
-6.028275	arbres
-5.167937	arc
-5.062134	arcade
-5.727245	arcades
-6.630335	arcadia
-6.630335	arcadium
-6.329305	arcana
-6.329305	arcane
-5.852184	arch
-6.153214	archangel
-6.630335	archangelic
-6.630335	archangels
-6.630335	archaos
-6.630335	archbishops
-6.028275	archer
-6.028275	arches
-6.329305	archetype
-6.630335	archie
-6.329305	archie's
-6.630335	archiever
-6.329305	arching
-6.630335	architechter
-5.727245	architect
-6.028275	architects
-6.153214	architecture
-5.931365	architeuthis
-6.630335	archive
-6.630335	archtop
-5.931365	archway
-6.630335	arcoss
-6.630335	arcrid
-6.153214	arcs
-5.454244	arctic
-6.630335	ardamment
-6.630335	arden
-6.028275	ardent
-6.630335	ardiendo
-6.028275	ardiente
-6.329305	ardor
-6.630335	ardour
-6.630335	arduous
-2.408139	are
-5.516392	area
-6.630335	area's
-6.329305	areal
-6.329305	areand
-6.329305	areas
-6.630335	areasbell
-6.630335	areason
-6.153214	aree
-6.630335	arehe
-5.287913	arena
-6.630335	arena's
-6.028275	arenas
-4.212034	arent
-6.630335	arent'cause
-6.630335	arent't
-6.630335	ares'
-6.329305	aresenic
-6.329305	aretha
-6.028275	arf
-5.852184	argentina
-6.630335	argentine
-6.630335	argh
-6.630335	argonauts
-4.889973	argue
-6.153214	argued
-6.329305	argues
-6.329305	arguin
-5.931365	arguing
-5.516392	argument
-6.329305	argumento
-5.852184	arguments
-5.931365	argus
-6.630335	arica
-6.630335	arid
-6.630335	ariel
-6.329305	aries
-6.329305	arigato
-4.657207	arise
-6.630335	arisen
-5.852184	arises
-5.630335	arising
-6.630335	aristocracy
-6.329305	aristocrat
-6.329305	aristocratic
-6.630335	aristocrats
-6.329305	aristotle
-6.153214	arithmetic
-6.630335	arithmetic
-5.062134	arizona
-5.454244	ark
-5.516392	arkansas
-6.630335	arking
-6.630335	arks
-6.630335	arlandria
-6.630335	arlene
-6.630335	arles
-6.153214	arlington
-4.2022	arm
-5.852184	arm's
-6.630335	arma
-6.028275	armadillo
-5.062134	armageddon
-6.153214	armageddons
-6.329305	armaggedon
-6.630335	armalite
-6.028275	armaments
-6.329305	armani
-6.630335	armario
-6.630335	armas
-6.329305	armband
-6.630335	armbandits
-6.329305	armbands
-5.630335	armchair
-6.630335	arme
-4.810791	armed
-6.028275	armen
-6.630335	armenian
-5.785237	armes
-4.949094	armies
-5.931365	armistice
-6.630335	armona
-5.111821	armor
-6.630335	armor's
-5.727245	armored
-5.351582	armour
-6.028275	armoured
-6.630335	armoury
-6.329305	armpiece
-5.931365	armpit
-6.329305	armpits
-3.386801	arms
-6.630335	armsi
-6.630335	armstaken
-5.852184	armstrong
-6.630335	armtha
-4.484207	army
-6.028275	army's
-6.630335	armys
-6.028275	arnie
-6.630335	arnie's
-5.250124	arnold
-6.630335	arns
-6.153214	arodes
-5.630335	aroma
-6.630335	aromas
-6.329305	aromatic
-6.630335	aroound
-6.630335	aroports
-5.454244	arose
-6.329305	aroun
-2.780486	around
-6.153214	around'
-6.329305	around''
-6.630335	around's
-6.630335	aroundall
-6.329305	aroundand
-6.630335	aroundchorus
-6.329305	aroundi
-6.630335	aroundi'm
-6.630335	aroundif
-6.329305	aroundjust
-6.630335	aroundme
-6.630335	aroundrepeat
-6.630335	arounds
-6.630335	aroundthe
-6.329305	aroundthere's
-6.630335	aroundthey're
-6.630335	aroundwell
-6.630335	aroundwhy
-6.630335	aroundyou
-6.630335	arousal
-5.931365	arouse
-6.028275	aroused
-6.329305	arouses
-6.329305	arousing
-6.329305	arouund
-6.630335	aroze
-6.630335	arr
-6.630335	arrack
-6.630335	arraignment
-6.329305	arrakis
-6.329305	arrancarme
-6.630335	arrancarn
-6.630335	arrang
-5.268608	arrange
-5.125185	arranged
-5.630335	arrangement
-5.454244	arrangements
-5.931365	arranger
-6.630335	arrangers
-5.852184	arranging
-6.630335	arrassed
-6.630335	arrastrads
-5.676093	array
-6.630335	arrayed
-6.630335	arrears
-6.630335	arreglada
-6.329305	arreglar
-6.630335	arrepentido
-6.630335	arrequi
-5.329305	arrest
-5.198972	arrested
-6.329305	arresting
-6.630335	arreter
-6.630335	arrgh
-5.727245	arriba
-6.630335	arribaintentar
-6.630335	arriere
-6.028275	arrington
-6.630335	arrire
-5.931365	arriv
-5.198972	arrival
-4.551154	arrive
-4.609146	arrived
-6.028275	arrivederci
-6.630335	arrivedno
-6.329305	arriver
-5.111821	arrives
-6.630335	arrivin
-5.351582	arriving
-6.630335	arrmy
-5.308116	arrogance
-5.426215	arrogant
-6.630335	arrojando
-6.329305	arrors
-4.767013	arrow
-5.138974	arrows
-6.630335	arrrrrrrrrr
-6.630335	arrtant
-6.630335	arrte
-6.630335	arrter
-6.630335	arrugada
-6.630335	arrugas
-6.630335	arruinen
-6.630335	arsch
-5.232395	arse
-6.630335	arseholes
-5.785237	arsenal
-6.329305	arsenic
-6.630335	arsening
-6.028275	arson
-6.630335	arsonic
-6.329305	arsonist
-6.630335	arsonist's
-6.028275	arsonists
-4.297897	art
-6.630335	artattack
-6.028275	artemis
-6.028275	arteries
-6.329305	artery
-6.630335	artform
-6.630335	artful
-6.153214	arthritic
-5.125185	arthur
-5.727245	arthur's
-6.630335	artic
-6.630335	artical
-6.028275	article
-5.852184	articulating
-6.630335	articulus
-6.329305	artie
-6.630335	artifact
-6.630335	artifacts
-5.215362	artificial
-6.630335	artificially
-5.931365	artillery
-6.630335	artis
-5.039271	artist
-6.329305	artista
-6.028275	artiste
-6.329305	artistes
-6.028275	artistic
-6.329305	artistry
-5.484207	artists
-6.630335	artists'
-6.630335	artless
-6.630335	artnot
-6.630335	arto
-6.630335	artres
-5.727245	arts
-6.630335	artschool
-6.329305	artu
-6.329305	arturo
-6.630335	artwork
-6.329305	artworks
-6.028275	arty
-6.630335	aruba
-6.630335	aruinic
-6.630335	arumononi
-6.630335	aruthur
-6.630335	arvo
-6.630335	arxise
-6.153214	aryans
-2.507956	as
-6.630335	as'
-6.630335	as's
-5.785237	asado
-6.630335	asafoetida
-6.630335	asanonymous
-6.329305	asap
-6.630335	asbestos
-6.630335	asbr
-5.351582	ascap
-6.630335	ascaris
-5.287913	ascend
-6.630335	ascendancy
-6.630335	ascendant
-6.329305	ascended
-5.426215	ascending
-5.727245	ascends
-6.028275	ascension
-5.630335	ascent
-6.630335	ascention
-6.630335	ascetic
-6.630335	ascitic
-6.630335	ascribed
-6.630335	aseptische
-6.028275	asesino
-6.153214	asfalto
-5.852184	asgard
-4.940139	ash
-6.630335	ashaloo
-6.630335	ashame
-4.463018	ashamed
-5.630335	ashen
-6.630335	ashened
-6.630335	asher
-4.241169	ashes
-6.329305	asheton
-6.329305	ashley
-6.630335	ashman
-5.588943	ashore
-6.630335	ashow
-5.727245	ashre
-6.630335	ashredder
-6.630335	ashtabula
-6.630335	ashton
-5.588943	ashtray
-6.329305	ashtray's
-5.931365	ashtrays
-5.039271	asi
-5.785237	asia
-5.676093	asian
-6.630335	asics
-4.448492	aside
-6.329305	asilo
-6.630335	asing
-6.630335	asinine
-6.630335	asistir
-3.467771	ask
-6.630335	ask'em
-6.630335	ask's
-3.929632	asked
-6.630335	askedare
-6.630335	askedbut
-5.852184	askew
-4.852184	askin
-4.134791	asking
-6.630335	askins
-6.630335	askl
-4.817422	asks
-4.006053	asleep
-6.153214	asleepin
-6.630335	asmell
-6.630335	asoft
-6.630335	asone
-6.630335	asoul
-6.153214	asp
-6.630335	aspect
-6.630335	aspects
-6.329305	aspen
-6.630335	aspettare
-5.308116	asphalt
-6.329305	asphodel
-6.329305	asphyxiate
-6.153214	asphyxiated
-6.153214	asphyxiation
-6.630335	aspiration
-5.852184	aspirations
-5.630335	aspire
-6.630335	aspired
-6.153214	aspirin
-6.630335	aspiring
-5.931365	aspodras
-6.630335	asprecious
-3.826196	ass
-6.329305	ass'll
-6.630335	assail
-6.153214	assailant
-6.630335	assailants
-6.630335	assailed
-6.630335	assasin
-6.153214	assasination
-6.630335	assasinator
-5.153214	assassin
-6.028275	assassinate
-6.630335	assassinated
-5.931365	assassination
-6.028275	assassing
-5.375063	assassins
-5.588943	assault
-6.153214	assaulting
-6.630335	assaults
-6.630335	assay
-5.727245	assed
-6.028275	assemble
-5.852184	assembled
-6.329305	assembling
-5.588943	assembly
-6.630335	assertion
-6.630335	assertions
-5.198972	asses
-6.153214	assess
-6.153214	assessing
-6.028275	assessment
-6.630335	asset
-6.630335	asseverated
-6.329305	assez
-4.889973	asshole
-5.454244	assholes
-6.028275	assigned
-6.630335	assignment
-5.852184	assim
-6.329305	assimilate
-6.329305	assimilation
-6.630335	assise
-6.329305	assisi
-5.931365	assist
-5.454244	assistance
-5.630335	assistant
-6.329305	assistants
-6.630335	assisted
-6.329305	assistin
-6.153214	assisting
-6.630335	asskissin
-6.329305	associate
-6.630335	associated
-6.028275	associates
-5.630335	association
-6.630335	assoiffees
-6.630335	asson
-5.852184	assorted
-6.630335	assortin
-6.329305	assortment
-6.153214	assuage
-6.329305	assult
-5.074033	assume
-5.484207	assumed
-6.630335	assumes
-6.630335	assumin
-5.931365	assuming
-5.852184	assumption
-6.329305	assunder
-6.630335	assurance
-6.630335	assurance's
-5.630335	assure
-5.074033	assured
-6.630335	assuredly
-6.153214	assures
-6.630335	assurin
-5.785237	assuring
-6.630335	assyou
-6.153214	astaire
-6.630335	astarothbring
-6.329305	astarte
-6.329305	aster
-6.630335	astern
-6.630335	asteroth
-6.630335	asthetic
-6.630335	astolen
-6.630335	astonished
-6.630335	astonishing
-6.630335	astor
-6.630335	astorm
-6.028275	astound
-5.931365	astounded
-6.329305	astounding
-5.250124	astral
-4.609146	astray
-6.630335	astrengent
-6.630335	astres
-5.727245	astride
-5.727245	astro
-6.329305	astrodome
-6.153214	astrology
-6.630335	astronaunt
-5.588943	astronaut
-5.852184	astronauts
-6.630335	astronomical
-6.028275	astronomy
-6.630335	astronomya
-6.329305	astroturf
-6.630335	astrowash
-6.630335	astry
-6.630335	asttrologers
-6.329305	astute
-6.630335	asucar
-5.454244	asunder
-6.153214	asunto
-6.630335	asurvy
-6.630335	asus4
-6.329305	aswer
-6.630335	asy
-5.399887	asylum
-6.153214	asylums
-6.630335	asyndesis
-2.513628	at
-6.630335	at'cha
-6.630335	ata
-6.630335	ataca
-6.329305	atah
-6.630335	atalnta
-6.329305	atardecer
-5.198972	atari
-6.630335	atari's
-6.630335	atart
-6.630335	atat
-5.125185	atcha
-4.671294	ate
-6.329305	atem
-6.630335	atencin
-6.630335	atencion
-6.329305	atention
-6.630335	atf
-5.727245	atheist
-6.329305	atheists
-6.153214	athena
-6.630335	athene
-6.630335	athenes
-5.727245	athens
-6.630335	athiests
-6.630335	athinai
-6.329305	athlete
-6.329305	athletes
-6.329305	athletic
-6.630335	athnes
-6.630335	athrill
-6.630335	athsmatic
-6.153214	ati
-6.630335	atin
-6.153214	ation
-5.074033	atlanta
-6.630335	atlantean
-6.028275	atlantian
-5.516392	atlantic
-5.183177	atlantis
-6.630335	atlantisinto
-5.676093	atlas
-5.676093	atleast
-6.630335	atm's
-6.630335	atman
-6.630335	atme
-6.630335	atmen
-6.329305	atmoshpere
-4.931365	atmosphere
-6.329305	atmosphere's
-6.630335	atmospheres
-5.852184	atmospheric
-5.931365	ato
-6.630335	atole
-5.153214	atom
-6.630335	atomchild
-4.977123	atomic
-6.630335	atomised
-6.630335	atomizedat
-6.329305	atomizes
-6.630335	atomobile
-5.676093	atoms
-6.630335	atonal
-5.676093	atone
-6.329305	atoned
-6.028275	atonement
-6.630335	atonement's
-6.630335	atonic
-6.630335	atoning
-6.630335	atonished
-5.484207	atop
-6.630335	atours
-5.785237	atr
-6.630335	atrabilious
-6.630335	atraction
-6.630335	atractive
-6.630335	atraparte
-6.153214	atras
-6.630335	atrocious
-5.852184	atrocities
-5.516392	atrocity
-6.329305	atrofian
-6.630335	atrophied
-6.630335	atrophies
-5.727245	atrophy
-6.630335	atropos
-6.630335	atrs
-6.329305	att
-5.931365	attach
-5.017551	attached
-6.329305	attaches
-6.630335	attachments
-4.220402	attack
-6.630335	attack's
-5.630335	attacked
-6.630335	attacker
-6.630335	attackin
-5.588943	attacking
-5.250124	attacks
-5.852184	attain
-6.630335	attained
-6.630335	attemps
-5.250124	attempt
-5.727245	attempted
-5.931365	attempting
-5.852184	attempts
-5.588943	attend
-6.630335	attendance
-5.308116	attendant
-6.329305	attendants
-5.785237	attended
-6.329305	attending
-6.153214	attendre
-6.630335	attendris
-6.630335	attendrit
-5.727245	attends
-4.230661	attention
-5.852184	attentions
-6.630335	attentionthey're
-6.329305	attentive
-6.630335	attenuate
-5.931365	attest
-6.630335	atthe
-4.949094	attic
-6.630335	attic's
-6.630335	attica
-6.153214	attics
-6.630335	attila
-6.028275	attire
-4.509761	attitude
-6.630335	attitude's
-6.630335	attitudei
-5.484207	attitudes
-6.630335	attitute
-6.329305	attorney
-6.630335	attorney's
-6.630335	attorneys
-5.516392	attract
-5.287913	attracted
-6.630335	attractin
-5.931365	attracting
-4.72185	attraction
-5.931365	attractions
-6.630335	attractiont
-5.232395	attractive
-6.028275	attracts
-6.630335	attraper
-6.329305	attribute
-6.630335	attributed
-6.630335	attributes
-6.153214	attrition
-6.630335	atttention
-6.630335	attune
-6.329305	attuned
-6.630335	atuned
-6.630335	ature
-6.630335	atv
-4.316468	au
-6.329305	aube
-6.028275	auburn
-5.484207	auch
-5.931365	auction
-6.153214	auctioned
-5.727245	auctioneer
-5.931365	aucun
-6.153214	aucune
-6.329305	audacious
-6.329305	audacity
-6.630335	audicion
-5.017551	audience
-6.630335	audiences
-6.028275	audio
-6.329305	audit
-6.630335	audited
-6.028275	audition
-6.329305	auditioning
-6.329305	auditions
-6.153214	auditorium
-6.630335	auditoriums
-5.039271	auf
-6.630335	auf'm
-6.153214	aufgeben
-6.630335	aufgeblhtem
-6.630335	aufkeimenden
-6.630335	auflage
-6.630335	auflegen
-6.630335	aufmerksamkeit
-6.630335	aufrief
-6.153214	aufwiedersehen
-5.852184	augen
-6.630335	augenballgroe
-6.630335	auger
-6.630335	aught
-6.153214	augie
-6.028275	augie's
-6.630335	augments
-5.098856	august
-6.630335	august's
-6.630335	augustine
-5.086267	aujourd'hui
-5.551154	auld
-6.630335	aumentado
-6.630335	aumente
-5.351582	aun
-5.250124	aunque
-5.138974	aunt
-6.329305	aunt's
-6.329305	auntie
-6.630335	auntumn
-6.153214	aunty
-6.329305	auquel
-5.375063	aura
-6.630335	auracle's
-6.329305	aural
-6.630335	aurant
-6.329305	auras
-6.630335	aurevoir
-6.329305	aurons
-6.630335	auront
-5.098856	aurora
-6.630335	aurora's
-6.630335	aurores
-5.516392	aus
-6.329305	auschwitz
-6.153214	ause
-6.630335	ausgebildeter
-6.630335	ausgeburt
-6.630335	ausgehendoch
-6.630335	ausgeliefert
-6.630335	ausgezeichnet
-6.630335	aushwitz
-6.630335	ausliefern
-6.329305	auspicious
-5.086267	aussi
-5.785237	austere
-6.630335	austerity
-5.287913	austin
-6.630335	austins
-5.426215	australia
-5.931365	australian
-6.630335	australians
-6.630335	australopithecus
-6.153214	austrian
-6.630335	auszupakken
-5.931365	autant
-6.630335	auteur
-6.153214	authentic
-6.329305	auther
-5.676093	author
-6.630335	authored
-6.153214	authorised
-6.630335	authoritarians
-5.852184	authorities
-6.630335	authorities'
-4.695837	authority
-6.028275	authors
-6.329305	autistic
-5.287913	auto
-6.630335	autobahn
-6.630335	autobahns
-6.630335	autocrat
-6.630335	autodigested
-6.630335	autodrive
-6.153214	autogestin
-5.454244	autograph
-5.785237	autographs
-6.329305	autolysis
-6.630335	automaceration
-6.153214	automated
-6.329305	automates
-5.086267	automatic
-6.630335	automatically
-6.329305	automatics
-6.329305	automation
-6.329305	automatons
-6.630335	automne
-5.516392	automobile
-6.630335	automobiles
-6.630335	automony
-6.153214	automotive
-6.630335	autonomy
-6.630335	autonomy's
-6.630335	autonotomes
-6.630335	autopilot
-6.630335	autoridad
-6.329305	autority
-6.329305	autosuggestion
-5.268608	autour
-5.062134	autre
-5.050552	autres
-4.506484	autumn
-5.588943	autumns
-4.837944	aux
-6.630335	av
-6.630335	ava
-5.727245	avail
-5.183177	available
-6.153214	avais
-5.516392	avait
-6.630335	avalache
-5.287913	avalanche
-6.630335	avalant
-6.630335	avale
-6.630335	avaline
-5.727245	avalon
-6.329305	avalons
-6.630335	avance
-6.630335	avancez
-5.098856	avant
-6.630335	avantage
-6.630335	avanzar
-6.153214	avarice
-6.630335	avaricious
-6.329305	avatar
-5.250124	ave
-4.471973	avec
-5.287913	avenge
-6.329305	avenged
-5.516392	avenger
-6.630335	avengers
-6.329305	avenging
-6.630335	aventure
-4.493615	avenue
-6.630335	avenue's
-5.516392	avenues
-6.630335	aver
-4.56215	average
-6.153214	averse
-6.329305	aversion
-6.028275	avert
-6.153214	averted
-6.329305	averting
-6.028275	avez
-6.153214	aviation
-6.630335	aviator
-6.630335	avid
-6.630335	avide
-6.630335	avion
-6.630335	aviones
-5.931365	avions
-6.630335	avis
-6.028275	aviso
-6.630335	aviv
-6.630335	avocado
-6.329305	avocados
-4.676093	avoid
-5.630335	avoided
-6.028275	avoidin
-5.183177	avoiding
-6.630335	avoids
-5.588943	avoir
-6.329305	avon
-6.630335	avons
-6.630335	avouees
-6.153214	avow
-6.329305	avril
-6.630335	avulsion
-4.666547	aw
-6.630335	aw'flly
-6.630335	awa
-6.630335	awabuki
-6.630335	awac's
-5.183177	await
-5.630335	awaited
-6.630335	awaitin
-4.914332	awaiting
-4.767013	awaits
-3.928767	awake
-4.986883	awaken
-5.098856	awakened
-5.215362	awakening
-5.484207	awakens
-5.454244	awakes
-5.785237	awaking
-6.630335	awakwening
-6.028275	award
-6.329305	awarded
-6.329305	awards
-4.60503	aware
-5.676093	awareness
-6.630335	awarin
-5.785237	awash
-6.630335	awat
-6.630335	awatch
-6.630335	awawaw
-2.57134	away
-6.329305	away'
-6.630335	awayall
-6.329305	awayaway
-6.153214	awayawayawayaway
-6.630335	awaycarrying
-6.329305	awaychorus
-6.630335	awayclean
-6.630335	awaydont
-6.630335	awaygotta
-5.785237	awayi
-6.630335	awayill
-6.630335	awayin
-6.630335	awayit's
-6.630335	awaylive
-6.630335	awaymojique
-6.630335	awayno
-6.630335	awayrefrain
-6.630335	awayrepeat
-6.630335	awayresigning
-5.454244	aways
-6.630335	awayshimmy
-6.630335	awayslipped
-6.630335	awaywe
-6.329305	awayyeah
-6.329305	awayyou
-5.287913	awe
-5.785237	awed
-6.329305	aweful
-6.630335	awefull
-6.630335	aweigh
-5.074033	awesome
-4.609146	awful
-5.232395	awfully
-4.322839	awhile
-6.630335	awicker
-6.630335	awing
-5.351582	awkward
-6.630335	awkwardness
-6.329305	awkwards
-6.630335	awl
-6.630335	awnings
-5.050552	awoke
-6.153214	awoken
-6.630335	awol
-5.852184	awooha
-6.630335	aworkin
-6.153214	awry
-6.329305	awser
-5.250124	aww
-6.153214	awwh
-5.426215	awww
-6.329305	awwww
-5.516392	ax
-4.866907	axe
-6.329305	axed
-5.676093	axes
-6.028275	axilla
-6.630335	axing
-5.287913	axis
-5.931365	axl
-6.153214	axle
-4.533425	ay
-6.630335	ayatollah
-6.630335	ayayayayayayahahahah
-4.889973	aye
-5.630335	ayer
-6.630335	ayes
-6.630335	ayi
-6.028275	ayo
-6.630335	ayuda
-6.028275	ayudame
-6.630335	ayyy
-6.630335	azaleas
-6.153214	azar
-6.630335	azazel
-6.630335	azel
-6.630335	azing
-5.516392	aztec
-6.630335	azucar
-5.676093	azul
-6.329305	azure
-6.630335	azured
-6.630335	azzurri
-4.056304	b
-6.630335	b'e
-6.630335	b'lieve
-6.630335	b'mitz'votav
-6.329305	b'more
-5.630335	b's
-6.630335	b14
-6.630335	b4
-4.191003	ba
-5.426215	baa
-6.028275	baaaaa
-5.785237	baaaaaa
-6.630335	baaaaby
-6.630335	baaaack
-6.630335	baaack
-6.630335	baal
-5.931365	baba
-6.028275	bababa
-6.630335	babadaba
-6.028275	babay
-6.630335	babbitt
-5.630335	babble
-6.630335	babbles
-6.028275	babblin
-5.727245	babbling
-6.630335	babboon
-6.329305	babby
-3.676093	babe
-6.153214	babe's
-6.630335	babeeeei
-6.028275	babel
-6.153214	babelicious
-6.329305	babels
-5.232395	babes
-6.630335	babev
-6.630335	babie's
-4.365518	babies
-6.153214	babies'
-6.630335	babiis
-5.426215	babool
-5.931365	baboon
-6.630335	baboons
-5.454244	babooshka
-6.630335	babt
-6.630335	babtised
-2.590802	baby
-6.329305	baby'
-6.630335	baby'll
-4.24652	baby's
-6.630335	babya
-6.630335	babybaby
-6.329305	babybabybaby
-6.630335	babybird
-6.153214	babyboy
-6.630335	babycheck
-6.630335	babycrazycrazy
-6.630335	babydoll
-6.630335	babydont
-5.551154	babyface
-6.630335	babyhappy
-6.630335	babyhere
-6.630335	babyhey
-6.630335	babyhow
-5.727245	babylight
-4.643564	babylon
-6.630335	babylons
-6.630335	babylove
-6.630335	babyno
-6.630335	babyoh
-6.028275	babys
-6.630335	babysits
-5.852184	babysitter
-6.630335	babyso
-6.630335	babytalk
-6.630335	babythere's
-6.630335	babywe
-6.630335	babywhere'd
-6.630335	babywoohoo
-6.630335	babyyeah
-6.630335	babyyo
-6.329305	babyyou
-6.630335	babyyou're
-6.630335	babyyou've
-6.630335	babyyy
-6.630335	bac
-6.630335	bacall
-6.028275	bacardi
-6.329305	bacause
-6.329305	bacchanal
-6.630335	bacchanalian
-5.931365	bacchus
-5.484207	bach
-6.028275	bacharach
-6.028275	bachelor
-5.852184	bachelor's
-6.329305	bachelorette
-6.630335	bachelorettes
-6.329305	bachelors
-6.630335	bachman
-6.630335	bacho
-2.565092	back
-5.931365	back'
-5.215362	back's
-6.630335	back1st
-6.329305	backagainst
-6.630335	backand
-6.630335	backauditorium
-6.630335	backbeach
-5.785237	backbeat
-6.630335	backbeats
-6.630335	backbite
-6.630335	backblech
-6.630335	backboard
-5.232395	backbone
-6.329305	backbone's
-6.329305	backboned
-6.630335	backbreaker
-6.630335	backburner
-6.153214	backburns
-6.630335	backcloth
-5.375063	backdoor
-6.630335	backdoors
-6.630335	backdrifters
-6.630335	backdrifting
-6.028275	backdrop
-5.125185	backed
-6.630335	backen
-6.630335	backer
-6.630335	backfire
-6.630335	backflip
-6.329305	backflips
-6.630335	backgammon
-4.773003	background
-6.630335	backgroundhi
-6.153214	backgrounds
-6.630335	backhand
-6.630335	backhanders
-6.630335	backhoes
-5.852184	backin
-6.630335	backineverything's
-5.183177	backing
-5.931365	backlash
-6.329305	backless
-6.630335	backlet's
-6.153214	backline
-6.630335	backness
-5.727245	backpack
-6.630335	backpacked
-6.329305	backpacks
-6.630335	backpage
-6.630335	backpass
-6.630335	backpedal
-6.630335	backroad
-5.852184	backroads
-5.727245	backroom
-6.153214	backrub
-4.727245	backs
-5.017551	backseat
-6.329305	backseats
-5.630335	backside
-6.329305	backsides
-6.630335	backslap
-6.630335	backslapping
-6.153214	backslide
-6.630335	backslider
-6.028275	backslidin
-6.630335	backsliding
-6.630335	backso
-6.630335	backsoon
-6.630335	backspace
-6.630335	backstabbers
-6.630335	backstabbin
-6.630335	backstabbing
-5.111821	backstage
-6.630335	backstreatch
-5.454244	backstreet
-5.630335	backstreet's
-5.399887	backstreets
-6.329305	backstroke
-6.630335	backteeth
-6.630335	backthere's
-6.630335	backto
-6.630335	backtracking
-6.630335	backtry
-6.028275	backup
-6.630335	backwall
-5.516392	backward
-4.577257	backwards
-6.630335	backway
-6.630335	backwoo
-5.426215	backwoods
-4.785237	backyard
-6.153214	backyard's
-6.630335	backyou
-6.630335	bacn
-5.232395	bacon
-6.630335	baconin
-5.727245	bacteria
-6.329305	bacterial
-6.630335	bactericidal
-3.199132	bad
-6.630335	badass
-6.329305	badbitch
-6.028275	badder
-5.287913	baddest
-6.153214	bade
-6.630335	badfinger
-4.977123	badge
-6.153214	badgeman
-6.329305	badger
-6.028275	badges
-6.329305	badhead
-6.630335	badi
-6.630335	badies
-6.630335	badif
-6.630335	badland
-5.484207	badlands
-4.866907	badly
-6.630335	badmadness
-6.630335	badman
-6.329305	badmans
-6.329305	badmouth
-5.931365	badness
-5.375063	badonkadonk
-6.630335	badso
-6.630335	badtalk
-6.630335	badu
-6.329305	bady
-6.630335	badyo
-6.153214	baecula
-6.630335	baera
-6.630335	baez
-6.630335	baffins
-6.630335	baffle
-5.852184	baffled
-6.329305	baffles
-6.630335	baffling
-6.630335	bafta
-4.299922	bag
-6.028275	bag's
-6.630335	bagages
-6.630335	bagarre
-6.630335	bagat
-6.630335	bagatelle
-6.630335	bagdad
-6.630335	bagel
-6.153214	bagels
-6.630335	bagets
-6.630335	bagful
-6.630335	bagfull
-5.308116	baggage
-6.028275	bagged
-6.153214	baggie
-6.153214	baggies
-6.630335	baggin
-6.630335	bagging
-5.785237	baggy
-5.852184	baghdad
-6.028275	bagheera
-6.028275	bagne
-6.153214	bagpipers
-6.630335	bagpipes
-4.48732	bags
-6.630335	baguette
-4.596911	bah
-6.630335	bahamahs
-6.028275	bahamas
-5.516392	bahrein
-5.111821	baidin
-6.630335	baignoire
-5.050552	bail
-5.727245	baila
-5.852184	bailando
-5.454244	bailar
-6.630335	bailas
-6.630335	bailcause
-6.630335	baile
-6.630335	bailed
-6.329305	bailey
-6.153214	bailey's
-6.630335	bailiff
-6.329305	bailin
-5.785237	bailing
-6.153214	baillargeon
-6.153214	bails
-6.153214	bain
-6.329305	baiser
-5.785237	baisers
-6.630335	baissant
-6.329305	baisser
-6.630335	baisss
-5.086267	bait
-5.785237	baited
-6.153214	baiting
-6.630335	baits
-6.329305	baja
-6.329305	bajes
-5.454244	bajo
-6.329305	bak
-6.630335	bakc
-5.153214	bake
-5.426215	baked
-6.630335	bakelite
-5.074033	baker
-6.153214	baker's
-6.028275	bakers
-6.153214	bakersfield
-6.630335	bakersman
-6.153214	bakery
-6.329305	bakes
-6.028275	bakin
-5.630335	baking
-6.630335	bako
-6.329305	bal
-6.630335	balade
-6.329305	balaise
-6.329305	balalaika
-6.630335	balan
-6.630335	balanant
-6.630335	balancant
-4.676093	balance
-5.484207	balanced
-6.028275	balancent
-6.028275	balances
-5.516392	balancing
-6.630335	balarama
-6.630335	balboa
-6.028275	balcon
-6.630335	balconies
-5.268608	balcony
-5.125185	bald
-6.630335	balde
-6.329305	baldhead
-6.630335	baldheaded
-6.630335	balding
-6.630335	baldly
-6.630335	baldur
-6.630335	baldwin
-6.153214	bale
-6.630335	baled
-6.329305	balenciaga
-5.852184	bales
-6.329305	balin
-5.931365	balinese
-6.630335	balk
-6.153214	balked
-6.329305	balking
-3.908525	ball
-6.630335	balla
-5.484207	ballad
-6.630335	ballade
-6.630335	balladeer
-6.153214	ballads
-6.630335	ballard
-6.630335	ballarina
-6.630335	ballast
-6.630335	ballbreaker
-6.630335	ballbreaking
-6.028275	balled
-6.153214	ballenas
-5.727245	baller
-5.287913	ballerina
-5.931365	ballerinas
-5.785237	ballers
-5.183177	ballet
-6.630335	balletic
-6.329305	ballgame
-5.138974	ballin
-6.153214	balling
-6.630335	ballistic
-6.028275	ballon
-6.630335	balloom
-5.111821	balloon
-6.630335	ballooned
-5.351582	balloons
-6.329305	ballot
-6.630335	ballotation
-6.028275	ballots
-5.785237	ballou
-6.630335	ballpark
-5.852184	ballroom
-6.630335	ballrooms
-4.554788	balls
-6.630335	balls'
-5.676093	balltrap
-6.630335	ballweapons
-6.153214	balm
-5.852184	balmy
-5.931365	baloney
-6.630335	balrog
-6.028275	bals
-6.630335	balsa
-6.630335	balt
-5.111821	baltimore
-6.630335	baltimorian
-6.630335	balustrades
-5.215362	bam
-5.516392	bama
-5.399887	bamba
-5.931365	bambi
-6.630335	bambini
-6.630335	bambinos
-5.551154	bamboo
-6.630335	bamboozle
-6.630335	bammered
-5.454244	ban
-5.931365	banal
-6.630335	banales
-6.329305	banality
-5.351582	banana
-6.630335	bananafish
-5.785237	bananas
-6.630335	bancarias
-6.630335	banco
-3.863179	band
-6.329305	band'cause
-5.630335	band's
-5.852184	banda
-5.676093	bandage
-6.329305	bandaged
-5.852184	bandages
-5.931365	bandana
-5.931365	bandanas
-6.630335	bandannas
-6.153214	banded
-6.630335	bandera
-5.727245	banderas
-6.630335	bandidi
-6.630335	bandied
-6.630335	bandileros
-6.630335	bandin
-5.375063	bandit
-5.931365	banditos
-5.785237	bandits
-6.630335	bandonen
-4.852184	bands
-6.329305	bandsmen
-5.785237	bandstand
-6.153214	bandstands
-5.852184	bandwagon
-5.676093	bane
-6.630335	banered
-4.109197	bang
-6.630335	bang'n
-6.630335	bang's
-5.308116	banged
-6.153214	banger
-6.153214	bangers
-4.779077	bangin
-4.810791	banging
-5.931365	bangkok
-6.630335	bangladesh
-6.153214	bangles
-6.630335	bangor
-5.551154	bangs
-5.551154	banish
-5.308116	banished
-6.630335	banishing
-6.329305	banister
-5.351582	banjo
-6.329305	banjos
-4.410227	bank
-6.153214	bank's
-6.630335	bankbook
-5.630335	banker
-6.153214	banker's
-6.329305	bankers
-6.630335	bankers'
-6.153214	bankhead
-6.153214	bankin
-6.630335	banking
-6.630335	bankrobber
-6.153214	bankroll
-6.630335	bankrolls
-5.785237	bankrupt
-4.785237	banks
-6.630335	banlon
-5.351582	banned
-5.375063	banner
-6.630335	banner's
-5.308116	banners
-6.329305	banning
-6.630335	bannister
-6.153214	bannockburn
-6.630335	bano
-6.630335	banoka
-5.931365	banquet
-6.630335	banquet's
-6.153214	banquo
-5.351582	banshee
-6.630335	banshee's
-6.329305	banshees
-6.153214	banter
-6.630335	bantering
-6.630335	banty
-6.329305	banzai
-5.931365	bap
-6.028275	baphomet
-6.630335	baptise
-5.785237	baptised
-5.454244	baptism
-5.676093	baptist
-6.630335	baptists
-6.028275	baptize
-5.232395	baptized
-6.630335	baqueira
-3.997878	bar
-6.153214	bar's
-6.329305	bara
-6.630335	baracuda
-6.630335	barade
-6.630335	baraka
-6.153214	barbados
-5.852184	barbara
-6.153214	barbarian
-6.329305	barbarians
-5.785237	barbaric
-6.630335	barbarously
-5.351582	barbecue
-6.630335	barbecued
-5.931365	barbecues
-4.996867	barbed
-6.630335	barbedwire
-6.630335	barbee
-5.931365	barbeque
-6.630335	barbeque'n
-5.676093	barber
-6.630335	barbera
-6.329305	barbershop
-5.676093	barbie
-6.153214	barbies
-6.630335	barbilla
-6.630335	barbills
-6.630335	barbour
-6.630335	barbra
-6.630335	barbs
-6.153214	barbwire
-6.630335	barce
-5.676093	barcelona
-5.931365	barclays
-6.329305	barco
-6.630335	barcode
-6.153214	bard
-5.852184	bardot
-6.630335	bardots
-4.331482	bare
-5.785237	bareback
-5.676093	bared
-6.153214	barefeet
-4.940139	barefoot
-4.280087	barely
-5.852184	barenaked
-6.329305	bares
-6.630335	bareskin
-6.153214	barest
-6.630335	barettas
-6.329305	barf
-6.153214	barflies
-6.630335	barflyfrolic
-4.996867	bargain
-5.516392	bargained
-6.630335	bargaining
-5.852184	bargains
-5.931365	barge
-6.630335	barges
-5.785237	baring
-6.630335	barious
-6.630335	barista
-6.153214	baritone
-4.87446	bark
-6.329305	barked
-6.630335	barkeep
-6.329305	barkeep's
-5.931365	barker
-6.630335	barker's
-5.852184	barkers
-5.785237	barkin
-5.062134	barking
-6.630335	barkley
-5.931365	barks
-5.852184	barless
-5.551154	barley
-6.028275	barleycorn
-5.551154	barlow
-6.630335	barly
-6.153214	barmaid
-6.153214	barman
-6.630335	barmen
-6.630335	barmy
-5.138974	barn
-6.630335	barnard's
-5.727245	barnes
-6.630335	barnett
-5.630335	barney
-6.630335	barney's
-6.329305	barnhart
-6.329305	barnhill
-6.329305	barns
-6.028275	barnum
-6.028275	barnyard
-6.630335	barometer
-5.551154	baron
-6.028275	baronie
-6.028275	barons
-6.630335	baroque
-6.630335	barque
-6.329305	barrack
-6.153214	barracks
-6.630335	barracuda
-6.153214	barrage
-6.329305	barranquilla
-6.329305	barre
-6.630335	barreaux
-5.232395	barred
-4.852184	barrel
-6.153214	barreled
-6.630335	barrelfulls
-6.028275	barrelhead
-6.630335	barrelhouse
-6.630335	barreling
-6.630335	barrelled
-5.516392	barrels
-5.007086	barren
-6.329305	barreras
-6.630335	barrest
-6.329305	barret
-5.351582	barrett
-6.630335	barrette
-6.630335	barrettes
-5.931365	barricade
-5.630335	barricades
-6.630335	barriendo
-5.516392	barrier
-5.516392	barriers
-6.329305	barrington
-6.028275	barrio
-6.630335	barristers
-5.399887	barroom
-6.329305	barrooms
-6.153214	barrow
-6.630335	barrows
-5.727245	barry
-4.445644	bars
-6.630335	barsi
-6.630335	barsocause
-5.931365	barstool
-6.630335	barstools
-6.028275	barstow
-5.551154	bart
-6.630335	bart's
-6.329305	bartend
-5.017551	bartender
-6.630335	bartender's
-6.630335	bartenders
-6.329305	bartending
-6.630335	bartendresses
-5.588943	barter
-6.153214	bartered
-6.630335	barth
-6.630335	barty
-6.329305	baruch
-5.215362	bas
-4.922765	base
-4.897942	baseball
-5.232395	based
-6.329305	baseheads
-6.329305	baseline
-6.630335	basemen
-4.797826	basement
-6.028275	basements
-6.630335	basementyes
-6.630335	baseness
-6.630335	baser
-5.676093	bases
-5.268608	bash
-6.630335	bashes
-6.329305	bashful
-6.153214	bashin
-5.676093	bashing
-5.287913	basic
-5.588943	basically
-5.399887	basics
-6.329305	basie
-6.329305	basilisk
-6.153214	basin
-6.630335	basing
-5.516392	basis
-5.727245	bask
-6.630335	basked
-4.986883	basket
-5.516392	basketball
-6.630335	basketballs
-5.785237	baskets
-5.727245	basking
-6.630335	basks
-6.630335	basned
-6.630335	basque
-6.630335	basra
-4.573431	bass
-6.329305	basser
-6.630335	bassey's
-6.630335	bassin
-6.630335	bassins
-6.630335	bassist
-6.329305	bassline
-6.630335	basslines
-6.630335	bassman
-6.630335	bast
-5.676093	basta
-4.706056	bastard
-6.630335	bastard's
-6.630335	bastardize
-6.329305	bastardized
-6.630335	bastardo
-4.967577	bastards
-6.630335	bastards'll
-6.630335	basted
-6.630335	bastet
-6.028275	bastian
-6.630335	bastiantrack
-6.028275	bastille
-5.931365	bastion
-6.630335	basturdly
-6.329305	basura
-4.845006	bat
-6.630335	bat's
-6.630335	batalions
-5.931365	batch
-6.630335	batcholorhood
-6.153214	bate
-5.630335	bateau
-5.630335	bateaux
-6.329305	bated
-6.630335	bater
-6.153214	bates
-4.845006	bath
-6.630335	bath's
-5.198972	bathe
-5.153214	bathed
-6.028275	bathes
-6.329305	bathin
-5.215362	bathing
-6.329305	bathory
-6.153214	bathrobe
-4.732708	bathroom
-6.630335	bathroomhold
-6.630335	bathrooms
-5.852184	baths
-6.630335	bathsheba
-5.676093	bathtub
-6.630335	bathtubs
-5.551154	bathwater
-6.630335	batissent
-6.329305	batman
-6.630335	batmans
-6.630335	batmobile
-5.125185	baton
-6.630335	batons
-6.630335	batou
-5.308116	bats
-5.516392	battalions
-6.630335	battambang
-6.153214	battement
-6.028275	battements
-6.153214	batten
-4.761104	batter
-5.153214	battered
-6.630335	batterie
-5.551154	batteries
-5.454244	battering
-6.028275	battersea
-5.111821	battery
-6.153214	battery's
-6.630335	batting
-6.630335	battit
-4.080107	battle
-5.454244	battle's
-6.329305	battlecries
-5.785237	battlecry
-6.329305	battled
-5.017551	battlefield
-5.852184	battlefields
-5.484207	battleground
-6.153214	battlements
-6.630335	battlen
-6.630335	battlers
-4.906059	battles
-5.931365	battleship
-6.153214	battleships
-6.630335	battlestations
-6.630335	battlet
-6.630335	battlin
-5.785237	battling
-6.630335	batton
-6.630335	battrai
-5.852184	battre
-6.630335	battue
-6.630335	batwings
-6.630335	bauble
-6.329305	baubles
-6.630335	baudelaire
-6.630335	bauer
-6.630335	baugettes
-6.630335	bauggeted
-6.630335	baulks
-6.329305	baum
-6.630335	bautiful
-6.630335	bavards
-6.630335	bavarian
-5.399887	bawl
-6.630335	bawled
-6.028275	bawlin
-5.454244	bawling
-6.153214	bawn
-6.630335	baxter
-4.363163	bay
-6.630335	bayamim
-6.630335	bayberry
-6.630335	baybig
-6.630335	bayby
-6.329305	bayed
-6.329305	bayer
-6.630335	bayfare
-5.785237	baying
-4.931365	bayou
-5.931365	bays
-6.329305	baywatch
-6.630335	baz'man
-5.727245	bazaar
-6.153214	bazaars
-6.153214	bazooka
-5.308116	bb
-6.329305	bbback
-6.630335	bbbbubbling
-5.676093	bbc
-6.630335	bbm
-6.329305	bbmaj7
-6.630335	bbonvoisin
-6.630335	bbq
-6.028275	bc
-6.630335	bc's
-6.630335	bcarman
-6.630335	bcc
-6.630335	bch
-6.630335	bdp
-6.153214	be'
-5.931365	be's
-6.630335	bea
-6.630335	beacause
-4.234136	beach
-6.630335	beachballs
-6.630335	beachboy
-6.153214	beached
-5.198972	beaches
-6.630335	beachfront
-6.630335	beachhead
-6.630335	beachheads
-6.329305	beachside
-6.630335	beachwood
-5.232395	beacon
-6.028275	beacons
-6.630335	beaconsfield
-6.630335	beacoup
-6.630335	beacuase
-5.852184	bead
-6.329305	beaded
-6.630335	beading
-5.111821	beads
-6.153214	beady
-6.329305	beagling
-6.630335	beaing
-5.852184	beak
-6.329305	beaks
-6.630335	beale
-6.630335	bealone
-6.630335	bealtaine
-5.028275	beam
-5.852184	beamer
-6.630335	beamin
-5.630335	beaming
-4.791486	beams
-5.111821	bean
-6.630335	beand
-6.630335	beaned
-6.630335	beanery
-6.329305	beanie
-6.630335	beanish
-5.017551	beans
-6.630335	beanstalk
-6.630335	beany
-4.146036	bear
-6.153214	bear's
-6.329305	bearable
-6.630335	bearcareless
-5.098856	beard
-5.931365	bearded
-6.630335	beardjesus
-6.153214	beards
-6.329305	beardsly
-6.630335	bearely
-5.852184	bearer
-6.329305	bearin
-4.977123	bearing
-6.028275	bearings
-5.039271	bears
-6.630335	bears'
-4.184731	beast
-6.028275	beastie
-6.630335	beasties
-6.630335	beastin
-6.630335	beastly
-6.630335	beastman
-5.268608	beasts
-6.630335	beasty
-3.590921	beat
-6.630335	beat'em
-6.630335	beat'n
-5.630335	beat's
-6.630335	beatdown
-4.648064	beaten
-6.630335	beatenyeah
-6.329305	beaters
-6.329305	beathard
-4.906059	beatin
-4.153214	beating
-5.588943	beatings
-6.329305	beatitude
-5.852184	beatle
-5.484207	beatles
-6.630335	beatneck
-6.329305	beatnik
-5.785237	beatown
-4.184731	beats
-6.630335	beatsalways
