
\data\
ngram 1=25981

\1-grams:
-5.236303	'
-5.537333	''tis
-3.636966	'a
-5.838364	'a'
-5.838364	'a'mercy
-5.838364	'abbominable'
-5.838364	'above
-5.537333	'accost'
-5.838364	'accurs'd
-5.537333	'achilles
-5.838364	'ad
-5.838364	'adieu
-5.537333	'against
-5.838364	'aged
-5.537333	'ah
-5.838364	'aio
-5.838364	'alack
-5.838364	'alas
-5.537333	'alas'
-5.060212	'all
-5.537333	'allow
-5.838364	'almost
-5.838364	'alone'
-5.838364	'amen
-5.537333	'amen'
-5.537333	'among
-4.993266	'an
-4.796971	'and
-5.838364	'anon
-5.838364	'anon'
-5.838364	'antony
-5.838364	'antony'
-5.838364	'any
-5.838364	'april
-5.838364	'arm
-5.838364	'armigero'
-5.838364	'art
-4.935274	'as
-5.838364	'ask
-5.361242	'at
-5.537333	'away'
-5.236303	'ay
-4.72442	'ay'
-5.838364	'baa'
-5.537333	'ban
-5.236303	'banished'
-5.361242	'banishment'
-5.838364	'bastard
-5.838364	'bate
-4.935274	'be
-5.838364	'be't
-5.838364	'beatrice'
-5.361242	'before
-5.838364	'behold'
-5.838364	'bene'
-5.838364	'benedick'
-5.838364	'beseech
-5.838364	'besides
-5.537333	'better
-5.838364	'better'
-5.838364	'beware
-5.838364	'bona
-5.537333	'bone'
-5.838364	'borrowed
-5.838364	'bottom's
-5.838364	'bounce'
-5.236303	'bout
-5.236303	'bove
-5.361242	'boy'
-5.838364	'bring
-5.838364	'broad'
-5.838364	'brother
-5.537333	'budget'
-4.935274	'but
-5.838364	'but'
-4.884121	'by
-5.838364	'caesar'
-5.838364	'cagion
-5.838364	'call
-5.838364	'came
-5.838364	'can
-5.838364	'cast
-5.838364	'cauf'
-5.537333	'cause
-5.537333	'celsa
-5.838364	'ceres'
-5.838364	'cerns
-5.537333	'charge
-5.838364	'chirrah'
-5.838364	'choose'
-5.838364	'clarence
-5.537333	'closes
-5.838364	'clubs'
-5.537333	'come
-5.537333	'come'
-5.537333	'commend
-5.838364	'con
-5.838364	'confess'
-5.838364	'conjuro
-5.838364	'conscience'
-5.838364	'contaminated
-5.838364	'content'
-5.838364	'convey'
-5.838364	'coriolanus'
-5.838364	'couple
-5.838364	'courage
-5.838364	'courage'
-5.838364	'cousin
-5.838364	'cover'
-5.537333	'cross
-5.838364	'cuckoo'
-5.537333	'cucullus
-5.838364	'daughter
-5.838364	'daughter'
-5.537333	'dear
-5.537333	'death'
-5.838364	'deliver
-5.838364	'demand
-5.838364	'deny
-5.838364	'dian
-5.838364	'diluculo
-5.838364	'dissolutely'
-5.838364	'do
-5.838364	'do't
-5.838364	'dost
-5.838364	'doubt
-5.838364	'doubt'
-5.838364	'dout'
-5.838364	'dove'
-5.537333	'down
-5.838364	'dunghill
-5.838364	'ears
-5.838364	'edward
-5.838364	'edward'
-5.838364	'ego
-5.838364	'eight
-3.653672	'em
-5.838364	'england
-5.838364	'enough
-5.537333	'ever'
-5.838364	'excellent
-5.838364	'fair
-5.361242	'fair'
-5.838364	'fallst
-5.838364	'fare
-5.537333	'farewell
-5.838364	'farewell'
-5.361242	'father
-5.838364	'father'
-5.537333	'fellow'
-5.838364	'fiend'
-5.838364	'fine'
-5.537333	'first
-5.838364	'five
-5.838364	'fly
-5.537333	'fool
-4.838364	'for
-5.838364	'for'
-5.139393	'fore
-5.537333	'forgive
-5.838364	'francis'
-5.838364	'friend
-5.537333	'friend'
-5.537333	'from
-3.856092	'gainst
-5.838364	'gallops
-5.838364	'gamut
-5.361242	'gan
-5.838364	'gentle
-5.838364	'gentleman
-5.537333	'get
-5.838364	'gin
-5.537333	'gins
-5.838364	'girdling
-5.537333	'give
-5.838364	'given
-5.139393	'go
-5.838364	'go'
-5.838364	'gobbo
-4.607914	'god
-4.634243	'good
-5.838364	'good'
-5.838364	'grace'
-5.537333	'great
-5.838364	'gree
-5.236303	'greed
-5.838364	'greeing
-5.838364	'greensleeves'
-5.838364	'guilty
-5.838364	'guns
-5.537333	'ha'
-5.838364	'had
-5.838364	'had'
-5.838364	'hail
-5.361242	'hang
-5.838364	'happy
-5.838364	'harry
-5.537333	'hath
-5.838364	'hauf'
-5.361242	'have
-5.838364	'havoc'
-5.139393	'he
-5.236303	'heart's
-5.838364	'heavens'
-5.838364	'heigh
-5.838364	'hell
-5.838364	'hem
-5.537333	'hem'
-5.838364	'henry
-5.838364	'henry'
-5.139393	'here
-5.838364	'here's
-5.838364	'hereafter'
-5.537333	'hermione
-4.935274	'hic
-5.060212	'his
-5.838364	'ho'
-5.838364	'hobby
-5.361242	'hold
-5.838364	'homo'
-5.838364	'honest
-5.838364	'honey
-5.838364	'honi
-5.838364	'honour'
-5.838364	'horatio
-5.838364	'horn
-5.838364	'horum'
-5.060212	'how
-5.838364	'hum'
-5.838364	'humphrey
-5.838364	'hundred
-5.537333	'husband'
-4.194911	'i
-5.139393	'i'
-5.537333	'i'll
-5.838364	'ield
-4.838364	'if
-5.838364	'if'
-5.838364	'ild
-5.537333	'imprimis
-5.139393	'in
-5.838364	'inestimable'
-5.537333	'inprimis
-5.838364	'integer
-5.838364	'invitis
-5.537333	'is
-5.537333	'is'
-4.993266	'it
-4.495941	'item
-5.838364	'jack
-5.537333	'jesu
-5.838364	'jockey
-5.838364	'john
-5.537333	'juliet'
-5.838364	'jump
-5.838364	'jupiter'
-5.838364	'just'
-5.838364	'justice
-5.838364	'katharine
-5.537333	'kind
-5.838364	'king
-5.838364	'knave'
-5.838364	'knife'
-5.838364	'knocking
-5.838364	'labour
-5.537333	'lack
-5.838364	'ladies'
-5.838364	'laertes
-5.537333	'lapis'
-5.537333	'larum
-5.537333	'larums
-5.838364	'las
-5.838364	'launcelot
-5.838364	'lay
-5.838364	'le
-5.838364	'leges
-5.838364	'legitimate'
-5.838364	'lenvoy'
-4.935274	'let
-5.838364	'leven
-5.537333	'light
-5.537333	'little'
-5.361242	'lo
-5.361242	'long
-5.838364	'longeth
-5.838364	'longing
-5.537333	'longs
-5.361242	'loo
-5.537333	'look
-5.537333	'lord
-5.537333	'lord'
-5.838364	'lordship'
-5.537333	'love
-5.361242	'love'
-5.838364	'low'
-5.838364	'lower'
-5.838364	'm
-5.838364	'madam
-5.838364	'madam'
-5.537333	'maid'
-5.838364	'make
-5.838364	'malvolio'
-5.838364	'man
-5.537333	'many
-5.838364	'many'
-5.838364	'marcius
-5.537333	'marry
-5.838364	'may'
-5.838364	'mildly'
-5.838364	'mobled
-5.537333	'mollis
-5.361242	'mong
-4.55961	'mongst
-5.537333	'mortimer'
-5.838364	'most
-5.537333	'mother'
-5.537333	'mulier'
-5.537333	'mum'
-5.838364	'music
-4.662272	'my
-5.838364	'naked'
-5.361242	'nay'
-5.838364	'ne'
-5.838364	'nearest
-5.838364	'nebour'
-5.838364	'neigh'
-5.537333	'neighbour
-5.537333	'never
-5.838364	'ninus'
-4.692235	'no
-4.935274	'no'
-5.361242	'noddy'
-5.537333	'nointed
-5.838364	'non
-5.838364	'nor
-5.838364	'northumberland
-5.060212	'not
-5.838364	'nothing
-5.139393	'now
-4.495941	'o
-5.537333	'o'
-5.838364	'obsque
-5.838364	'occupy'
-5.361242	'od's
-5.838364	'odious'
-5.838364	'odours'
-5.838364	'ods
-5.361242	'old
-5.838364	'olivia'
-5.838364	'on
-5.838364	'once'
-5.537333	'one
-5.838364	'one'
-5.838364	'or
-5.537333	'orld
-5.537333	'out
-5.838364	'paragon'
-5.060212	'pardon
-5.838364	'pardon'
-5.838364	'pardonne
-5.838364	'parel
-5.838364	'paris'
-5.838364	'past
-5.838364	'peace
-5.838364	'perceive
-5.838364	'phrase'
-5.838364	'pig'
-5.838364	'pitch
-5.838364	'plain
-5.838364	'please
-5.838364	'pluck't
-5.838364	'poetical
-5.838364	'point
-5.537333	'pointed
-5.236303	'poor
-5.838364	'pourquoi'
-5.838364	'praise
-5.838364	'pregnant'
-5.838364	'priami'
-5.838364	'promis'd
-5.838364	'proteus'
-5.838364	'proud'
-5.838364	'puppet'
-5.838364	'rah
-5.838364	'rain
-5.838364	'rebellion
-5.838364	'receive
-5.537333	'regia'
-5.361242	'remember
-5.838364	'resolutely'
-5.838364	'respice
-5.537333	'rested
-5.838364	'retire'
-5.838364	'right'
-5.838364	'rise'
-5.838364	'rivo'
-5.537333	'romeo
-5.838364	'romeo'
-5.838364	'room
-5.838364	'rosalind'
-5.361242	'rt
-5.838364	'run
-4.282061	's
-5.838364	'saint
-5.537333	'sallet'
-5.838364	'sans'
-5.838364	'saving
-5.838364	'say
-4.993266	'sblood
-5.838364	'scap'd
-5.537333	'scape
-5.361242	'scaped
-5.838364	'scapes
-5.838364	'school
-5.838364	'scorn'
-5.537333	'scuse
-5.838364	'sdeath
-5.838364	'seek
-5.838364	'seems'
-5.838364	'semper
-5.838364	'set
-5.838364	'sfoot
-5.139393	'shall
-5.537333	'shall'
-5.361242	'she
-5.838364	'should'
-5.838364	'si
-5.838364	'sicilia
-5.838364	'sigeia
-5.838364	'signior
-5.838364	'silver
-5.838364	'silvia
-5.838364	'simois'
-5.838364	'simpcox
-5.537333	'sir
-5.838364	'sirrah'
-5.838364	'sisters
-5.838364	'slaughter
-5.838364	'sleep
-5.537333	'slid
-5.838364	'slight
-5.537333	'small
-4.993266	'so
-5.361242	'solus'
-5.139393	'some
-5.838364	'son
-5.838364	'sorted
-5.537333	'spare
-5.838364	'speak
-5.361242	'stand
-5.838364	'stand'
-5.838364	'stay
-5.537333	'steal
-5.838364	'stones
-5.838364	'stroy'd
-5.838364	'stuprum
-5.838364	'swagger'
-5.838364	'sweep
-5.838364	'sweet
-5.838364	'sweet'
-5.537333	'swounds
-4.060212	't
-5.537333	't'would
-5.838364	'tailor'
-5.838364	'take
-5.838364	'tarry
-5.537333	'te
-5.139393	'tell
-5.838364	'thane
-5.838364	'thank
-5.236303	'thanks
-5.838364	'thanks'
-4.884121	'that
-5.838364	'that'
-5.537333	'that's
-4.247299	'the
-5.838364	'then
-5.361242	'there
-5.838364	'there's
-5.838364	'these
-5.838364	'thine
-4.607914	'this
-5.838364	'thisne
-4.838364	'thou
-5.537333	'though
-5.838364	'three'
-5.838364	'thrice
-4.838364	'thus
-5.838364	'thwack
-5.838364	'thy
-5.838364	'ticed
-5.838364	'til
-2.730814	'tis
-4.55961	'to
-5.838364	'too
-5.838364	'troilus'
-5.838364	'true
-5.537333	'true'
-5.838364	'truth
-5.838364	'tush
-3.674011	'twas
-4.72442	'tween
-3.785285	'twere
-4.067512	'twill
-4.005855	'twixt
-5.361242	'two
-4.495941	'twould
-5.838364	'tybalt
-5.838364	'tybalt's
-5.838364	'unhappy
-5.838364	'unjust'
-5.838364	'upon
-5.537333	'veal
-5.838364	'vengeance
-5.537333	'verily'
-5.838364	'via
-5.838364	'via'
-5.838364	'villain
-5.838364	'villiago'
-5.838364	'vive
-5.838364	'voided
-5.838364	'vouchsafed'
-5.537333	'warwick
-5.838364	'was'
-4.935274	'we
-5.838364	'wear
-5.537333	'welcome'
-5.236303	'well
-4.759182	'what
-5.537333	'what's
-5.838364	'whatsoever
-4.884121	'when
-5.236303	'where
-5.838364	'where's
-5.537333	'which
-5.838364	'while
-5.838364	'whiles
-5.838364	'whip
-4.796971	'who
-5.838364	'who's
-5.537333	'whoop
-5.139393	'why
-5.838364	'why'
-5.838364	'widow
-5.838364	'widow'
-5.838364	'widower
-5.139393	'will
-5.838364	'will'
-5.838364	'wilt
-5.838364	'wind
-5.236303	'with
-5.838364	'woe'
-5.537333	'wonder
-5.838364	'would
-5.838364	'would'
-5.537333	'yea'
-5.838364	'years'
-5.838364	'yes'
-5.838364	'york'
-4.796971	'you
-5.838364	'young
-4.993266	'your
-5.838364	'youth
-5.060212	'zounds
-3.963302	1
-5.537333	10
-4.01882	2
-4.270162	3
-4.42339	4
-4.634243	5
-4.935274	6
-5.139393	7
-5.537333	8
-5.537333	9
-0.8314698	</s>
-99	<s>
-5.537333	a'
-5.838364	a'leven
-3.903865	aaron
-5.838364	aarons
-5.838364	abaissiez
-5.236303	abandon
-5.060212	abandond
-5.537333	abandoned
-5.537333	abase
-5.838364	abash'd
-4.72442	abate
-5.361242	abated
-5.361242	abatement
-5.838364	abatements
-5.838364	abates
-4.55961	abbess
-4.607914	abbey
-5.838364	abbeys
-4.993266	abbot
-5.838364	abbots
-5.838364	abbreviated
-5.060212	abed
-5.838364	abel
-5.838364	abels
-5.537333	aberga'ny
-4.993266	abergavenny
-5.838364	abet
-5.838364	abhominable
-4.692235	abhor
-4.884121	abhorr'd
-5.838364	abhorr'd'
-5.838364	abhorr'dst
-4.884121	abhorred
-5.838364	abhorring
-5.236303	abhors
-4.55961	abhorson
-4.361242	abide
-5.060212	abides
-5.361242	abilities
-4.884121	ability
-5.838364	ability's
-4.838364	abject
-5.838364	abjectly
-5.537333	abjects
-5.537333	abjur'd
-5.236303	abjure
-4.090176	able
-5.838364	abler
-4.440423	aboard
-4.993266	abode
-5.838364	aboded
-5.838364	abodements
-5.838364	aboding
-4.72442	abominable
-5.838364	abominably
-5.838364	abominations
-5.537333	abortive
-5.838364	abortives
-4.993266	abound
-5.838364	abound'st
-5.838364	abounding
-3.282061	about
-3.71779	above
-5.139393	abr
-5.361242	abraham
-5.838364	abraham's
-5.236303	abram
-5.361242	abreast
-5.838364	abridg'd
-5.537333	abridge
-5.838364	abridged
-5.361242	abridgment
-5.361242	abroach
-4.060212	abroad
-5.838364	abrook
-5.838364	abrupt
-5.838364	abruption
-5.838364	abruptly
-4.139393	absence
-4.347002	absent
-5.838364	absey
-4.391205	absolute
-5.838364	absolutely
-5.361242	absolv'd
-5.838364	absolver
-5.838364	abstains
-5.838364	abstemious
-5.236303	abstinence
-5.236303	abstract
-5.236303	absurd
-4.759182	abundance
-5.236303	abundant
-5.838364	abundantly
-4.476636	abus'd
-4.185151	abuse
-4.662272	abused
-5.838364	abuser
-4.838364	abuses
-5.361242	abusing
-5.537333	aby
-5.361242	abysm
-5.838364	academe
-5.537333	academes
-4.634243	accent
-5.060212	accents
-4.42339	accept
-5.838364	acceptable
-4.935274	acceptance
-5.537333	accepted
-5.537333	accepts
-4.583091	access
-5.361242	accessary
-5.838364	accessible
-5.838364	accidence
-4.516144	accident
-5.361242	accidental
-5.361242	accidentally
-4.838364	accidents
-5.838364	accite
-5.838364	accited
-5.838364	accites
-5.838364	accommodate
-5.139393	accommodated
-5.838364	accommodated'
-5.838364	accommodation
-5.838364	accommodations
-4.884121	accompanied
-5.060212	accompany
-5.838364	accompanying
-5.361242	accomplish
-4.935274	accomplish'd
-5.361242	accomplished
-5.838364	accomplishing
-5.838364	accomplishment
-5.361242	accompt
-4.838364	accord
-5.838364	accordant
-5.838364	accorded
-5.838364	accordeth
-4.22558	according
-4.838364	accordingly
-5.838364	accords
-5.236303	accost
-4.247299	account
-5.838364	account'st
-5.537333	accountant
-5.060212	accounted
-5.537333	accounts
-5.537333	accoutred
-5.537333	accoutrement
-5.537333	accoutrements
-5.838364	accrue
-5.537333	accumulate
-5.838364	accumulated
-5.838364	accumulation
-4.838364	accurs'd
-4.583091	accursed
-5.361242	accurst
-4.537333	accus'd
-4.759182	accusation
-5.139393	accusations
-5.537333	accusativo
-4.319849	accuse
-5.361242	accused
-5.838364	accuser
-5.838364	accuser's
-5.060212	accusers
-5.537333	accuses
-5.838364	accuseth
-5.361242	accusing
-5.236303	accustom'd
-5.537333	accustomed
-5.139393	ace
-5.838364	acerb
-4.838364	ache
-5.537333	acheron
-5.139393	aches
-5.236303	achiev'd
-4.796971	achieve
-5.139393	achieved
-5.537333	achievement
-5.361242	achievements
-5.838364	achiever
-5.838364	achieves
-5.838364	achieving
-3.727774	achilles
-5.060212	achilles'
-5.537333	aching
-5.838364	achitophel
-5.361242	acknowledg'd
-4.634243	acknowledge
-5.838364	acknowledged
-5.838364	acknowledgment
-5.838364	acknown
-5.139393	acold
-5.838364	aconitum
-5.838364	acordo
-5.236303	acorn
-5.838364	acornd
-4.516144	acquaint
-4.306885	acquaintance
-4.294295	acquainted
-5.838364	acquaints
-5.537333	acquir'd
-5.537333	acquire
-5.838364	acquisition
-4.935274	acquit
-5.361242	acquittance
-5.838364	acquittances
-5.361242	acquitted
-5.361242	acre
-5.236303	acres
-5.060212	across
-3.345603	act
-5.537333	actaeon
-5.838364	actaeons
-5.060212	acted
-4.993266	acting
-3.842728	action
-4.495941	actions
-5.537333	actium
-4.993266	active
-5.361242	activity
-4.884121	actor
-4.884121	actors
-4.495941	acts
-5.537333	actual
-5.838364	acture
-5.838364	acute
-5.838364	acutely
-4.884121	ad
-5.537333	adage
-5.838364	adallas
-4.270162	adam
-5.537333	adam's
-5.361242	adamant
-4.282061	add
-4.607914	added
-4.796971	adder
-5.537333	adder's
-5.236303	adders
-5.838364	addeth
-5.838364	addict
-5.537333	addicted
-5.537333	addiction
-4.935274	adding
-4.440423	addition
-5.236303	additions
-5.361242	addle
-4.838364	address
-5.060212	address'd
-5.838364	addressing
-5.537333	addrest
-5.361242	adds
-5.537333	adhere
-5.361242	adheres
-3.879322	adieu
-5.537333	adieus
-5.537333	adjacent
-5.838364	adjoind
-5.537333	adjoining
-5.838364	adjourn
-5.838364	adjournd
-5.236303	adjudg'd
-5.838364	adjudged
-5.236303	adjunct
-5.838364	administer
-5.838364	administration
-4.993266	admir'd
-4.692235	admirable
-5.139393	admiral
-4.759182	admiration
-5.139393	admire
-4.993266	admired
-5.838364	admirer
-5.060212	admiring
-5.537333	admiringly
-4.495941	admit
-5.060212	admits
-4.935274	admittance
-4.759182	admitted
-5.838364	admitting
-5.838364	admonish
-5.838364	admonishing
-5.838364	admonishment
-5.838364	admonishments
-5.537333	admonition
-4.55961	ado
-5.838364	adonis
-5.838364	adonis'
-5.361242	adopt
-5.236303	adopted
-5.838364	adoptedly
-5.236303	adoption
-5.838364	adoptious
-5.838364	adopts
-5.361242	ador'd
-5.537333	adoration
-5.838364	adorations
-4.72442	adore
-5.838364	adore'
-5.838364	adorer
-5.537333	adores
-5.838364	adorest
-5.838364	adoreth
-5.838364	adoring
-5.537333	adorn
-5.537333	adorned
-5.838364	adornings
-5.537333	adornment
-5.838364	adorns
-5.838364	adown
-5.537333	adramadio
-4.72442	adrian
-3.946269	adriana
-5.236303	adriano
-5.838364	adriatic
-5.838364	adsum
-5.361242	adulterate
-5.838364	adulterates
-5.838364	adulterers
-5.838364	adulteress
-5.838364	adulteries
-5.537333	adulterous
-5.060212	adultery
-5.236303	adultress
-4.796971	advanc'd
-4.476636	advance
-5.361242	advanced
-4.993266	advancement
-5.236303	advances
-4.935274	advancing
-4.012289	advantage
-5.838364	advantageable
-5.537333	advantageous
-4.884121	advantages
-5.838364	advantaging
-5.838364	advent'rous
-5.838364	adventur'd
-4.607914	adventure
-5.537333	adventures
-5.838364	adventuring
-5.838364	adventurous
-5.838364	adventurously
-4.993266	adversaries
-5.139393	adversary
-5.537333	adversary's
-4.838364	adverse
-5.838364	adversities
-5.139393	adversity
-5.838364	adversity's
-5.361242	advertis'd
-5.537333	advertise
-5.537333	advertised
-5.361242	advertisement
-5.838364	advertising
-4.25858	advice
-4.42339	advis'd
-4.306885	advise
-4.838364	advised
-5.537333	advisedly
-5.537333	advises
-5.838364	advisings
-4.935274	advocate
-5.838364	advocate's
-5.838364	advocation
-5.838364	aeacida
-5.838364	aeacides
-4.72442	aedile
-5.060212	aediles
-4.458152	aegeon
-5.838364	aegles
-5.236303	aemilia
-4.759182	aemilius
-3.999514	aeneas
-5.537333	aeneas'
-5.838364	aeolus
-5.537333	aer'
-5.838364	aerial
-5.361242	aery
-5.838364	aery's
-5.838364	aeson
-5.838364	aesop
-5.838364	aetna
-4.634243	afar
-5.361242	afear'd
-4.440423	afeard
-5.361242	affability
-5.060212	affable
-4.838364	affair
-4.039023	affairs
-4.583091	affect
-5.537333	affectation
-5.838364	affectations
-4.692235	affected
-5.838364	affecteth
-5.361242	affecting
-4.012289	affection
-5.838364	affectionate
-4.282061	affections
-5.838364	affections'
-4.884121	affects
-5.838364	affianc'd
-5.361242	affiance
-5.838364	affianced
-5.838364	affied
-5.838364	affind
-5.537333	affined
-5.838364	affinity
-5.236303	affirm
-5.838364	affirmation
-5.838364	affirmatives
-4.72442	afflict
-4.935274	afflicted
-4.634243	affliction
-5.139393	afflictions
-5.537333	afflicts
-4.537333	afford
-5.838364	affordeth
-4.759182	affords
-5.838364	affray
-4.935274	affright
-4.993266	affrighted
-5.139393	affrights
-5.361242	affront
-5.838364	affy
-5.537333	afield
-5.361242	afire
-5.537333	afloat
-4.516144	afoot
-4.884121	afore
-5.838364	afore't
-5.838364	aforehand
-5.361242	aforesaid
-4.282061	afraid
-5.139393	afresh
-5.361242	afric
-5.838364	africa
-5.838364	african
-5.838364	afront
-3.270162	after
-4.458152	afternoon
-4.935274	afterward
-4.319849	afterwards
-5.361242	ag'd
-3.000775	again
-3.107581	against
-3.903865	agamemnon
-5.838364	agamemnon'
-5.060212	agamemnons
-5.838364	agamemnonworthy
-5.139393	agate
-5.838364	agaz'd
-3.605367	age
-5.838364	age'
-5.139393	age's
-4.537333	aged
-5.838364	agenor
-4.796971	agent
-5.537333	agents
-4.72442	ages
-5.139393	aggravate
-5.838364	aggrief'd
-5.838364	agile
-5.060212	agincourt
-5.537333	agitation
-5.838364	aglet
-5.838364	agnize
-4.42339	ago
-5.537333	agone
-5.361242	agony
-4.634243	agree
-4.796971	agreed
-5.537333	agreeing
-5.361242	agreement
-5.236303	agrees
-4.114088	agrippa
-5.838364	aground
-4.884121	ague
-5.537333	ague's
-3.914084	aguecheek
-5.838364	aguecheek'
-5.838364	agued
-5.838364	agueface
-5.361242	agues
-3.626176	ah
-5.537333	aha
-5.838364	ahungry
-5.838364	ai
-5.838364	aialvolio
-5.838364	aiaria
-4.098001	aid
-5.838364	aidance
-5.838364	aided
-5.537333	aiding
-5.838364	aidless
-5.537333	aids
-5.537333	ail
-5.838364	ailst
-4.306885	aim
-5.236303	aim'd
-5.838364	aim'st
-5.838364	aimed
-5.838364	aimest
-5.537333	aiming
-5.236303	aims
-5.537333	ainsi
-3.62088	air
-5.838364	air'd
-5.838364	air's
-5.838364	aired
-5.838364	airless
-5.139393	airs
-4.796971	airy
-3.813058	ajax
-5.361242	ajax'
-5.361242	alabaster
-4.012289	alack
-5.236303	alacrity
-5.537333	alarbus
-5.838364	alarbus'
-5.537333	alarm
-5.838364	alarm'
-5.838364	alarms
-3.975041	alarum
-5.537333	alarum'd
-4.476636	alarums
-3.522393	alas
-4.148168	alb
-5.361242	alban
-4.634243	albans
-5.537333	albans'
-4.72442	albany
-5.236303	albany's
-4.662272	albeit
-5.537333	albion
-5.537333	albions
-5.838364	alce
-5.537333	alchemist
-5.361242	alchemy
-4.074935	alcibiades
-5.838364	alcibiades'
-5.361242	alcides
-5.838364	alcides'
-5.838364	alder
-5.838364	alderman
-5.838364	aldermans
-4.993266	aldermen
-4.634243	ale
-5.838364	ale'
-5.838364	alecto's
-4.935274	alehouse
-5.838364	alehouses
-4.185151	alencon
-5.537333	alencons
-5.838364	alengon
-5.537333	aleppo
-5.537333	ales
-5.838364	alewife's
-4.375966	alexander
-5.838364	alexander's
-5.838364	alexanders
-4.440423	alexandria
-5.838364	alexandrian
-4.42339	alexas
-5.236303	alias
-4.407	alice
-5.361242	alien
-4.993266	aliena
-5.361242	alighted
-5.838364	alights
-5.838364	aliis
-4.282061	alike
-5.060212	alisander
-3.940737	alive
-2.28838	all
-5.361242	all'
-5.537333	alla
-4.838364	allay
-5.838364	allay'd
-5.838364	allayed
-5.537333	allaying
-5.838364	allayment
-5.838364	allayments
-5.838364	allays
-5.838364	allegation
-5.838364	allegations
-5.537333	allege
-5.838364	alleged
-4.458152	allegiance
-5.838364	allegiant
-5.537333	alley
-5.537333	alleys
-5.838364	allhallowmas
-4.634243	alliance
-5.838364	allicholy
-5.139393	allied
-5.139393	allies
-5.838364	alligant
-5.838364	alligator
-5.236303	allons
-5.838364	allot
-5.838364	allots
-5.838364	allotted
-5.838364	allottery
-4.458152	allow
-4.634243	allow'd
-4.884121	allowance
-5.236303	allowed
-5.361242	allowing
-5.236303	allows
-4.306885	alls
-5.838364	allur'd
-5.537333	allure
-5.838364	allurement
-5.838364	alluring
-5.537333	allusion
-5.838364	ally
-5.838364	allycholly
-5.838364	almain
-5.537333	almanac
-5.838364	almanack
-5.838364	almanacs
-5.060212	almighty
-5.838364	almond
-3.680001	almost
-4.634243	alms
-5.838364	almsmans
-5.838364	aloes
-4.537333	aloft
-3.501904	alone
-3.829763	along
-4.185151	alonso
-4.607914	aloof
-4.440423	aloud
-5.838364	alphabet
-5.838364	alphabetical
-5.838364	alphonso
-5.361242	alps
-3.714512	already
-4.282061	also
-5.236303	alt'red
-5.537333	alt'ring
-4.796971	altar
-5.361242	altars
-4.692235	alter
-4.72442	alter'd
-4.935274	alteration
-5.537333	altered
-5.236303	alters
-5.537333	althaea
-5.838364	althaea's
-3.993265	although
-5.537333	altitude
-4.516144	altogether
-5.838364	altogether's
-5.838364	alton
-5.838364	alway
-4.060212	always
-2.546773	am
-5.838364	am'
-5.838364	amaimon
-4.72442	amain
-5.838364	amamon
-4.42339	amaz'd
-4.935274	amaze
-4.838364	amazed
-5.236303	amazedly
-5.838364	amazedness
-4.759182	amazement
-5.838364	amazes
-5.838364	amazeth
-5.838364	amazing
-5.236303	amazon
-5.838364	amazonian
-5.361242	amazons
-4.440423	ambassador
-4.55961	ambassadors
-5.060212	amber
-5.838364	ambiguides
-5.838364	ambiguities
-4.25858	ambition
-5.361242	ambitions
-4.306885	ambitious
-5.537333	ambitiously
-5.838364	amble
-5.838364	ambled
-5.236303	ambles
-5.361242	ambling
-5.838364	ambo
-5.838364	ambuscadoes
-4.993266	ambush
-4.01882	amen
-4.583091	amend
-5.361242	amended
-5.236303	amendment
-4.495941	amends
-5.838364	amerce
-5.838364	america
-5.838364	ames
-4.993266	amiable
-5.838364	amid
-5.838364	amidst
-4.72442	amiens
-5.537333	amis
-4.294295	amiss
-5.537333	amities
-4.495941	amity
-5.838364	amnipotent
-3.929878	among
-4.319849	amongst
-4.537333	amorous
-5.838364	amorously
-5.537333	amort
-5.060212	amount
-5.838364	amounts
-4.692235	ample
-5.838364	ampler
-5.537333	amplest
-5.361242	amplify
-5.537333	amply
-5.838364	ampthill
-5.537333	amurath
-5.838364	amyntas
-2.619828	an
-5.838364	anatomiz'd
-5.361242	anatomize
-5.236303	anatomy
-5.361242	ancestor
-4.55961	ancestors
-5.236303	ancestry
-5.537333	anchises
-5.838364	anchises'
-4.993266	anchor
-5.838364	anchor'd
-5.838364	anchor's
-5.838364	anchorage
-5.838364	anchored
-5.537333	anchoring
-5.139393	anchors
-5.838364	anchovies
-3.987105	ancient
-5.838364	ancient'st
-5.537333	ancientry
-5.838364	ancients
-5.838364	ancus
-5.838364	and'
-5.838364	and't
-5.838364	andirons
-5.838364	andpholus
-5.838364	andren
-4.407	andrew
-4.759182	andromache
-5.361242	andronici
-4.139393	andronicus
-5.838364	andronicus'
-5.060212	anew
-5.236303	ang'red
-5.838364	ang'ring
-4.157122	angel
-5.838364	angelica
-5.838364	angelical
-3.578292	angelo
-4.993266	angelo's
-4.306885	angels
-5.537333	angels'
-4.194911	anger
-5.236303	anger'd
-5.838364	anger's
-5.537333	angerly
-5.236303	angers
-5.838364	anges
-4.634243	angiers
-5.537333	anglais
-5.838364	angld
-4.935274	angle
-5.838364	angler
-5.838364	angliae
-5.361242	angling
-5.838364	anglish
-5.838364	angrily
-3.981031	angry
-5.060212	anguish
-4.796971	angus
-5.361242	animal
-5.139393	animals
-5.838364	animis
-4.662272	anjou
-5.838364	ankle
-5.838364	anna
-5.838364	annals
-3.626176	anne
-5.537333	anne's
-5.838364	annex'd
-5.838364	annexed
-5.838364	annexment
-5.838364	announces
-4.935274	annoy
-5.838364	annoy'd
-5.139393	annoyance
-5.838364	annoying
-5.236303	annual
-5.537333	anoint
-4.583091	anointed
-3.800937	anon
-3.251776	another
-5.838364	another'
-4.495941	another's
-5.838364	anselmo
-3.308164	answer
-4.247299	answer'd
-5.537333	answer'st
-5.838364	answer't
-5.361242	answerable
-4.72442	answered
-5.838364	answerest
-4.935274	answering
-4.537333	answers
-4.032184	ant
-5.537333	ante
-4.662272	antenor
-5.838364	antenorides
-5.838364	anteroom
-5.838364	anthem
-5.838364	anthems
-5.361242	anthony
-5.838364	anthropophagi
-5.838364	anthropophaginian
-5.236303	antiates
-4.796971	antic
-5.838364	anticipate
-5.838364	anticipates
-5.838364	anticipatest
-5.838364	anticipating
-5.838364	anticipation
-5.838364	antick'd
-5.838364	anticly
-5.537333	antics
-5.838364	antidote
-5.838364	antidotes
-4.361242	antigonus
-5.838364	antiopa
-5.838364	antipathy
-3.541698	antipholus
-5.838364	antipholus'
-5.838364	antipholuses
-5.361242	antipodes
-5.838364	antiquary
-4.662272	antique
-5.060212	antiquity
-4.884121	antium
-5.838364	antoniad
-3.482338	antonio
-4.838364	antonio's
-5.361242	antonius
-5.838364	antonius'
-3.176551	antony
-5.537333	antony'
-4.935274	antony's
-5.537333	anvil
-3.032863	any
-5.838364	any's
-5.236303	anybody
-5.838364	anyone
-3.879322	anything
-5.060212	anywhere
-5.838364	ap
-4.495941	apace
-5.838364	apace'
-4.270162	apart
-5.838364	apartment
-5.537333	apartments
-4.55961	ape
-3.770178	apemantus
-5.838364	apemantus'
-4.72442	apes
-5.236303	apiece
-5.236303	apish
-4.634243	apollo
-5.838364	apollo'
-5.060212	apollo's
-5.838364	apollodorus
-5.236303	apology
-5.838364	apoplex'd
-5.361242	apoplexy
-5.838364	apostle
-5.838364	apostles
-5.838364	apostrophas
-5.537333	apoth
-5.060212	apothecary
-5.537333	appal
-5.838364	appalld
-5.838364	appalled
-5.537333	appals
-4.294295	apparel
-5.060212	apparelld
-5.838364	apparelled
-4.458152	apparent
-5.838364	apparently
-4.759182	apparition
-5.537333	apparitions
-5.537333	appeach
-4.662272	appeal
-5.838364	appeald
-5.838364	appeals
-3.777666	appear
-4.537333	appear'd
-4.759182	appearance
-5.139393	appeared
-5.361242	appeareth
-5.060212	appearing
-4.185151	appears
-5.236303	appeas'd
-5.361242	appease
-5.838364	appeased
-5.838364	appelant's
-5.838364	appele
-5.838364	appelee
-5.838364	appeles
-5.236303	appelez
-5.236303	appellant
-5.838364	appellants
-5.838364	appelons
-5.838364	appendix
-5.537333	appertain
-5.361242	appertaining
-5.537333	appertainings
-5.838364	appertains
-5.537333	appertinent
-5.838364	appertinents
-4.294295	appetite
-5.236303	appetites
-4.796971	applaud
-5.838364	applauded
-5.537333	applauding
-4.759182	applause
-5.838364	applauses
-4.838364	apple
-5.361242	apples
-5.361242	appliance
-5.838364	appliances
-5.838364	applications
-5.139393	applied
-5.537333	applies
-4.759182	apply
-5.361242	applying
-4.796971	appoint
-4.333213	appointed
-4.884121	appointment
-5.361242	appointments
-5.838364	appoints
-4.634243	apprehend
-5.838364	apprehend'st
-4.935274	apprehended
-5.537333	apprehends
-4.884121	apprehension
-5.838364	apprehensions
-5.361242	apprehensive
-5.838364	apprenticehood
-5.838364	appris
-4.039023	approach
-5.236303	approach'd
-5.838364	approachers
-4.72442	approaches
-5.236303	approacheth
-5.139393	approaching
-4.796971	approbation
-5.236303	approof
-5.838364	appropriation
-5.236303	approv'd
-4.458152	approve
-4.759182	approved
-5.838364	approvers
-5.139393	approves
-5.838364	appurtenances
-5.537333	apricocks
-4.692235	april
-5.361242	aprils
-5.361242	apron
-5.139393	aprons
-4.236303	apt
-5.537333	apter
-5.838364	aptest
-5.236303	aptly
-5.361242	aptness
-5.139393	aqua
-5.838364	aquilond
-4.935274	aquitaine
-5.139393	arabia
-5.361242	arabian
-5.838364	araise
-5.139393	arbitrate
-5.838364	arbitrating
-5.838364	arbitrator
-5.060212	arbitrement
-5.838364	arbors
-5.139393	arbour
-5.361242	arc
-4.55961	arch
-4.060212	archbishop
-5.236303	archbishop's
-5.838364	archbishopric
-5.838364	archdeacons
-5.537333	arched
-5.838364	archelaus
-5.838364	archer
-5.361242	archers
-5.537333	archery
-5.537333	archibald
-4.935274	archidamus
-5.838364	architect
-5.838364	arde
-4.993266	arden
-5.838364	ardent
-5.537333	ardour
-2.353921	are
-5.838364	are'
-5.537333	argal
-5.838364	argier
-5.361242	argosies
-5.139393	argosy
-5.838364	argu'd
-5.139393	argue
-5.537333	argued
-4.838364	argues
-5.361242	arguing
-4.060212	argument
-4.884121	arguments
-5.361242	argus
-5.838364	ariachne's
-5.838364	ariadne
-3.946269	ariel
-5.537333	ariels
-5.838364	aries
-5.060212	aright
-5.838364	arinado's
-5.838364	arinies
-5.838364	arion
-4.391205	arise
-5.838364	arises
-5.537333	ariseth
-5.838364	arising
-5.838364	aristotle's
-5.060212	arithmetic
-5.838364	arithmetician
-5.838364	ark
-3.71779	arm
-5.838364	arm'
-4.270162	arm'd
-5.361242	arm's
-3.813058	armado
-5.838364	armado'
-5.838364	armado's
-5.838364	armadoes
-5.537333	armagnac
-5.537333	arme
-4.375966	armed
-5.537333	armenia
-4.796971	armies
-5.139393	arming
-5.537333	armipotent
-5.361242	armor
-4.270162	armour
-4.993266	armourer
-5.838364	armourer's
-5.537333	armourers
-5.361242	armours
-5.361242	armoury
-3.472876	arms
-5.838364	arms'
-3.893881	army
-5.838364	army's
-5.361242	arn
-5.361242	aroint
-5.838364	arose
-5.838364	arouse
-4.993266	arragon
-5.139393	arraign
-5.838364	arraigned
-5.838364	arraigning
-5.838364	arraignment
-4.662272	arrant
-4.759182	arras
-4.796971	array
-5.537333	array'd
-5.838364	arrearages
-4.495941	arrest
-4.759182	arrested
-5.537333	arrests
-4.607914	arriv'd
-5.060212	arrival
-5.838364	arrivance
-5.236303	arrive
-5.060212	arrived
-5.139393	arrogance
-5.838364	arrogancy
-5.361242	arrogant
-4.935274	arrow
-4.759182	arrows
-2.919286	art
-5.838364	art's
-5.060212	artemidorus
-5.838364	arteries
-4.114088	arthur
-4.796971	arthur's
-4.583091	article
-4.583091	articles
-5.537333	articulate
-5.838364	artificer
-5.139393	artificial
-5.537333	artillery
-5.838364	artire
-5.838364	artist
-5.838364	artists
-5.838364	artless
-5.838364	artois
-4.72442	arts
-5.838364	artus
-4.082489	arviragus
-2.127231	as
-5.838364	as's
-5.236303	as't
-5.838364	asaph
-5.838364	ascanius
-4.838364	ascend
-5.838364	ascended
-5.838364	ascendeth
-5.139393	ascends
-5.361242	ascension
-5.838364	ascent
-5.361242	ascribe
-5.838364	ascribes
-5.537333	ash
-4.42339	asham'd
-5.060212	ashamed
-4.55961	ashes
-5.537333	ashford
-4.838364	ashore
-5.838364	ashouting
-5.838364	ashy
-5.236303	asia
-3.212023	aside
-3.680001	ask
-4.391205	ask'd
-5.537333	ask'st
-5.537333	askance
-5.236303	asked
-5.838364	asker
-5.537333	asketh
-4.796971	asking
-5.838364	asks
-4.114088	asleep
-5.838364	asmath
-5.361242	asp
-4.495941	aspect
-5.361242	aspects
-5.537333	aspen
-5.838364	aspersion
-5.537333	aspic
-5.838364	aspic's
-5.838364	aspicious
-5.838364	aspics'
-5.838364	aspir'd
-5.838364	aspiration
-5.236303	aspire
-5.139393	aspiring
-5.838364	asquint
-3.95755	ass
-5.537333	ass's
-5.139393	assail
-5.838364	assailant
-5.838364	assailants
-5.537333	assaild
-5.361242	assailed
-5.838364	assaileth
-5.537333	assailing
-5.537333	assails
-5.838364	assassination
-4.662272	assault
-5.537333	assaulted
-5.361242	assaults
-4.759182	assay
-5.537333	assay'd
-5.838364	assaying
-5.361242	assays
-5.838364	assemblance
-4.993266	assemble
-4.838364	assembled
-5.537333	assemblies
-4.72442	assembly
-5.537333	assent
-4.993266	asses
-5.838364	assez
-5.361242	assign
-5.361242	assignd
-5.537333	assigns
-5.838364	assinico
-4.634243	assist
-4.759182	assistance
-5.838364	assistances
-5.236303	assistant
-5.537333	assistants
-5.838364	assisted
-5.838364	assisting
-5.838364	associated
-5.838364	associates
-5.537333	assuage
-5.838364	assubjugate
-5.838364	assum'd
-4.796971	assume
-5.537333	assumes
-5.838364	assumption
-4.306885	assur'd
-4.458152	assurance
-4.185151	assure
-4.72442	assured
-5.236303	assuredly
-5.838364	assures
-5.838364	assyrian
-5.361242	astonish
-5.537333	astonish'd
-5.838364	astonished
-5.838364	astraea's
-5.838364	astronomer
-5.838364	astronomers
-5.838364	astronomical
-5.838364	astronomy
-4.72442	asunder
-2.484063	at
-5.361242	at's
-5.537333	atalanta's
-5.361242	ate
-5.537333	ates
-4.319849	athenian
-4.993266	athenians
-4.045972	athens
-5.838364	athens'
-5.838364	athol
-5.361242	athversary
-5.060212	athwart
-5.537333	atlas
-5.361242	atomies
-5.838364	atomy
-5.060212	atone
-5.537333	atonement
-5.838364	atonements
-5.838364	atropos
-4.884121	attach
-5.060212	attach'd
-5.838364	attached
-5.838364	attachment
-4.935274	attain
-5.139393	attaind
-5.236303	attainder
-5.838364	attains
-5.060212	attaint
-5.361242	attainted
-5.838364	attainture
-4.407	attempt
-5.838364	attemptable
-5.537333	attempted
-5.537333	attempting
-5.060212	attempts
-3.838364	attend
-5.838364	attend'st
-4.935274	attendance
-4.333213	attendant
-5.838364	attendant's
-3.752004	attendants
-4.270162	attended
-5.537333	attendents
-5.838364	attendeth
-4.282061	attending
-4.634243	attends
-5.838364	attent
-5.236303	attention
-5.236303	attentive
-5.838364	attentivenes
-5.236303	attest
-5.838364	attested
-5.361242	attir'd
-4.838364	attire
-5.361242	attired
-5.537333	attires
-4.993266	attorney
-5.838364	attorney'd
-5.838364	attorneyed
-5.361242	attorneys
-5.838364	attorneyship
-5.838364	attract
-5.537333	attraction
-5.537333	attractive
-5.537333	attracts
-5.236303	attribute
-5.838364	attributed
-5.838364	attributes
-5.838364	attribution
-5.838364	attributive
-5.537333	atwain
-5.537333	au
-5.838364	aubrey
-5.838364	auburn
-5.838364	aucun
-4.993266	audacious
-5.838364	audaciously'
-5.537333	audacity
-5.537333	audible
-4.42339	audience
-5.838364	audis
-4.935274	audit
-5.537333	auditor
-5.838364	auditors
-5.838364	auditory
-5.838364	audre'y
-4.407	audrey
-3.903865	aufidius
-5.236303	aufidius'
-5.838364	auger
-5.838364	auger's
-4.039023	aught
-5.236303	augment
-5.838364	augmentation
-5.361242	augmented
-5.537333	augmenting
-5.537333	augurer
-5.361242	augurers
-5.838364	auguring
-5.838364	augurs
-5.537333	augury
-5.537333	august
-5.236303	augustus
-5.838364	augustus'
-5.838364	auld
-4.005855	aumerle
-4.993266	aunchient
-4.516144	aunt
-5.838364	aunts
-5.537333	aurora's
-5.060212	auspicious
-5.537333	aussi
-5.236303	austere
-5.537333	austerely
-5.838364	austereness
-5.361242	austerity
-4.516144	austria
-5.537333	austria's
-5.838364	aut
-5.236303	authentic
-4.72442	author
-5.838364	author's
-5.139393	authorities
-4.130794	authority
-5.537333	authorized
-5.139393	authors
-4.012289	autolycus
-5.060212	autumn
-5.537333	autumns
-5.361242	auvergne
-5.361242	avail
-5.838364	avails
-5.838364	avarice
-5.838364	avaricious
-4.72442	avaunt
-5.361242	ave
-5.361242	aveng'd
-5.838364	avenge
-5.537333	avenged
-5.838364	averring
-5.838364	avert
-5.838364	aves
-5.838364	avez
-5.361242	avis'd
-4.282061	avoid
-5.060212	avoided
-5.838364	avoiding
-5.838364	avoids
-4.884121	avouch
-5.838364	avouch't
-5.838364	avouched
-5.838364	avouches
-5.838364	avouchment
-5.537333	avow
-5.838364	aw'd
-5.838364	await
-5.838364	awaits
-4.759182	awak'd
-3.969132	awake
-5.537333	awaked
-5.838364	awaken
-5.838364	awakened
-5.838364	awakens
-5.236303	awakes
-5.060212	awaking
-5.838364	award
-5.361242	awards
-5.838364	awasy
-2.946826	away
-5.537333	away'
-4.662272	awe
-4.884121	aweary
-5.537333	aweless
-4.993266	awful
-3.893881	awhile
-5.537333	awkward
-5.838364	awl
-5.838364	awork
-5.060212	awry
-4.537333	axe
-5.838364	axe's
-5.838364	axle
-5.838364	axletree
-3.009704	ay
-5.838364	ay'll
-4.662272	aye
-5.838364	ayez
-5.537333	azur'd
-5.236303	b
-5.236303	b'
-5.838364	b'uy
-5.537333	ba
-5.537333	babble
-5.139393	babbling
-4.270162	babe
-5.838364	babe's
-4.55961	babes
-5.361242	babies
-5.361242	baboon
-5.838364	baboons
-4.662272	baby
-5.838364	baby's
-5.537333	babylon
-5.838364	bacare
-5.537333	bacchanals
-5.537333	bacchus
-5.838364	bach'lorship
-4.607914	bachelor
-5.537333	bachelors
-3.337304	back
-4.884121	back'd
-5.838364	backbite
-5.838364	backbitten
-5.537333	backing
-4.537333	backs
-4.55961	backward
-5.838364	backwards
-5.537333	bacon
-3.770178	bad
-5.537333	bad'st
-4.194911	bade
-4.692235	badge
-5.838364	badged
-5.236303	badges
-5.838364	badly
-5.236303	badness
-5.537333	baes
-5.537333	baffld
-5.537333	baffle
-4.692235	bag
-5.060212	baggage
-4.583091	bagot
-5.236303	bagpipe
-4.935274	bags
-4.662272	bail
-5.838364	bailiff
-5.838364	baillez
-5.838364	baily
-5.838364	baisant
-5.838364	baisees
-5.838364	baiser
-4.692235	bait
-5.236303	baited
-5.236303	baiting
-5.838364	baitings
-5.361242	baits
-5.838364	bajazet's
-4.993266	bak'd
-5.537333	bake
-5.838364	baked
-5.838364	baker's
-5.838364	bakers'
-5.838364	bakes
-5.838364	baking
-4.993266	bal
-5.838364	balanc'd
-4.796971	balance
-5.838364	balcony
-4.583091	bald
-5.838364	baldrick
-5.838364	bale
-5.060212	baleful
-5.838364	balk
-5.838364	balk'd
-5.139393	ball
-4.662272	ballad
-5.236303	ballads
-5.838364	ballast
-5.838364	ballasting
-5.838364	ballet
-5.838364	ballow
-4.72442	balls
-4.692235	balm
-5.838364	balm'd
-5.838364	balms
-5.537333	balmy
-5.838364	balsam
-5.838364	balsamum
-4.838364	balth
-4.634243	balthasar
-4.838364	balthazar
-5.838364	bames
-5.139393	ban
-4.407	band
-5.838364	bandied
-5.838364	banding
-4.796971	bandit
-5.139393	banditti
-5.838364	banditto
-4.72442	bands
-5.060212	bandy
-5.537333	bandying
-5.236303	bane
-5.838364	bane'
-5.537333	banes
-5.838364	bang
-5.537333	bang'd
-5.838364	bangor
-4.294295	banish
-3.946269	banish'd
-4.458152	banished
-5.361242	banished'
-5.838364	banishers
-4.319849	banishment
-5.838364	banister
-4.935274	bank
-5.838364	bank'd
-4.796971	bankrupt
-5.838364	bankrupts
-4.796971	banks
-5.361242	banner
-5.838364	bannerets
-4.993266	banners
-5.838364	banning
-5.537333	banns
-4.407	banquet
-5.838364	banqueted
-5.361242	banqueting
-5.537333	banquets
-4.053034	banquo
-5.060212	banquo's
-5.361242	bans
-5.361242	baptism
-3.842728	baptista
-4.838364	baptista's
-5.838364	baptiz'd
-4.391205	bar
-5.838364	bar'd
-5.537333	bar'st
-5.537333	barbarian
-5.838364	barbarians
-5.537333	barbarism
-4.55961	barbarous
-4.884121	barbary
-5.537333	barbason
-5.537333	barbed
-5.838364	barber'd
-5.060212	barber's
-5.838364	barbermonger
-4.634243	bard
-3.610477	bardolph
-5.361242	bardolph's
-4.10597	bare
-5.838364	bared
-5.838364	barefac'd
-5.838364	barefaced
-5.060212	barefoot
-5.139393	bareheaded
-5.236303	barely
-5.361242	bareness
-5.838364	barful
-4.55961	bargain
-5.537333	bargaind
-5.838364	bargains
-5.236303	barge
-5.838364	baring
-4.204895	bark
-5.838364	bark'
-5.537333	bark'd
-5.838364	bark'st
-5.537333	barking
-5.838364	barkloughly
-5.139393	barks
-5.838364	barky
-5.361242	barley
-5.838364	barm
-5.537333	barn
-5.838364	barnacles
-4.495941	barnardine
-5.838364	barnardine's
-5.537333	barne
-5.537333	barnes
-5.361242	barnet
-5.537333	barns
-5.838364	baron
-5.060212	barons
-5.838364	barony
-4.884121	barr'd
-5.838364	barrabas
-5.838364	barrel
-5.838364	barrels
-4.270162	barren
-5.838364	barrenly
-5.838364	barrenness
-5.537333	barricado
-5.838364	barrow
-4.692235	bars
-5.838364	barson
-5.838364	barter'd
-5.361242	bartholomew
-5.838364	bas
-5.838364	bas'd
-5.838364	basan
-3.686075	base
-5.838364	baseless
-4.884121	basely
-4.607914	baseness
-4.838364	baser
-5.537333	bases
-4.759182	basest
-5.060212	bashful
-5.838364	bashfulness
-5.838364	basilisco
-5.236303	basilisk
-5.361242	basilisks
-5.838364	basimecu
-5.139393	basin
-5.838364	basingstoke
-5.838364	basins
-5.060212	basis
-5.838364	bask'd
-4.306885	basket
-5.537333	baskets
-5.060212	bass
-3.842728	bassanio
-5.060212	bassanio's
-4.838364	basset
-4.247299	bassianus
-5.537333	bassianus'
-5.838364	basta
-3.583091	bastard
-5.537333	bastard's
-5.838364	bastardizing
-4.634243	bastards
-4.993266	bastardy
-5.838364	basted
-5.537333	bastinado
-5.537333	basting
-5.060212	bat
-5.838364	bat's
-5.838364	batailles
-5.838364	batch
-4.72442	bate
-4.935274	bated
-4.838364	bates
-5.060212	bath
-5.236303	bath'd
-5.060212	bathe
-5.537333	bathed
-5.838364	bathing
-5.838364	baths
-5.838364	bating
-5.838364	batler
-5.537333	bats
-5.537333	batt'red
-5.139393	batt'ry
-5.838364	battalia
-5.838364	batten
-5.537333	batter
-5.838364	batter'd
-5.537333	battering
-5.838364	batters
-4.993266	battery
-3.842728	battle
-5.236303	battle's
-5.838364	battled
-4.935274	battlements
-4.662272	battles
-5.838364	batty
-4.935274	bauble
-5.838364	baubles
-5.838364	baubling
-5.838364	baulk'd
-5.838364	bavin
-5.236303	bawcock
-4.306885	bawd
-5.838364	bawd's
-5.361242	bawdry
-5.060212	bawds
-4.759182	bawdy
-5.838364	bawling
-4.476636	bay
-5.361242	bay'd
-5.838364	baying
-5.361242	baynard's
-5.838364	bayonne
-5.537333	bays
-5.361242	be'
-5.838364	be's
-4.759182	be'st
-4.692235	be't
-5.139393	beach
-5.537333	beached
-5.838364	beachy
-5.236303	beacon
-5.838364	bead
-5.838364	beaded
-4.662272	beadle
-5.361242	beadles
-4.884121	beads
-5.838364	beagle
-5.838364	beagles
-5.361242	beak
-5.838364	beaks
-4.935274	beam
-5.361242	beamed
-4.495941	beams
-5.838364	bean
-5.838364	beans
-3.155317	bear
-5.838364	bear's
-5.060212	bear'st
-5.537333	bear't
-3.92455	beard
-5.838364	beard'
-5.838364	beard's
-4.993266	bearded
-5.537333	beardless
-4.759182	beards
-4.759182	bearer
-5.139393	bearers
-5.361242	bearest
-5.838364	beareth
-4.01882	bearing
-3.847137	bears
-4.02545	beast
-5.838364	beast's
-5.838364	beastliness
-4.516144	beastly
-4.361242	beasts
-3.522393	beat
-5.838364	beat'em
-5.838364	beated
-4.157122	beaten
-4.55961	beating
-4.12236	beatrice
-4.407	beats
-4.516144	beau
-4.634243	beaufort
-5.236303	beaufort's
-5.838364	beaumond
-5.537333	beaumont
-4.361242	beauteous
-5.838364	beautied
-4.838364	beauties
-5.537333	beautified
-4.662272	beautiful
-5.361242	beautify
-3.564206	beauty
-4.361242	beauty's
-5.060212	beaver
-5.838364	beavers
-4.537333	became
-3.613054	because
-5.838364	bechanc'd
-5.838364	bechanced
-5.139393	beck
-5.838364	beck'd
-5.838364	beck'ning
-5.838364	beckond
-5.139393	beckons
-5.537333	becks
-5.537333	becom'd
-5.537333	becom'st
-3.741454	become
-5.838364	become'
-5.838364	become't
-5.838364	becomed
-4.060212	becomes
-4.935274	becoming
-5.838364	becomings
-3.391206	bed
-5.838364	bed'
-5.838364	bedabbled
-5.838364	bedash'd
-5.838364	bedaub'd
-5.838364	bedazzled
-4.993266	bedchamber
-5.838364	bedclothes
-5.361242	bedded
-5.838364	bedeck
-5.838364	bedecking
-5.361242	bedew
-4.884121	bedfellow
-5.838364	bedfellows
-4.194911	bedford
-5.838364	bedford's
-4.993266	bedlam
-5.838364	bedrench
-5.537333	bedrid
-4.55961	beds
-5.838364	beds'
-5.537333	bedtime
-5.838364	bedward
-4.838364	bee
-5.838364	bee's
-4.759182	beef
-5.838364	beefs
-5.838364	beehives
-3.038334	been
-5.060212	beer
-4.838364	bees
-4.759182	beest
-5.060212	beetle
-5.361242	beetles
-5.838364	beeves
-4.407	befall
-5.838364	befallen
-5.060212	befalln
-5.838364	befalls
-5.838364	befell
-4.884121	befits
-5.838364	befitted
-5.838364	befitting
-5.838364	befor't
-2.960992	before
-5.838364	before's
-5.838364	beforehand
-5.838364	befortune
-5.236303	befriend
-5.537333	befriended
-5.537333	befriends
-3.879322	beg
-5.838364	beg'st
-4.361242	began
-5.838364	beganst
-5.838364	begant
-4.537333	beget
-5.361242	begets
-5.361242	begetting
-4.458152	begg'd
-4.098001	beggar
-5.139393	beggar'd
-4.884121	beggar's
-5.838364	beggared
-4.884121	beggarly
-4.495941	beggars
-5.838364	beggars'
-4.838364	beggary
-5.838364	beggary'
-5.060212	begging
-3.829763	begin
-5.838364	begin'
-5.537333	beginners
-4.662272	beginning
-5.838364	beginnings
-4.12236	begins
-5.838364	begnawn
-5.361242	begone
-4.458152	begot
-5.139393	begotten
-5.838364	begrimed
-4.993266	begs
-4.662272	beguild
-4.476636	beguile
-5.236303	beguiled
-5.139393	beguiles
-5.361242	beguiling
-4.458152	begun
-4.25858	behalf
-5.838364	behalfs
-5.838364	behav'd
-5.537333	behaved
-5.838364	behavedst
-5.838364	behavior
-5.838364	behaviors
-4.440423	behaviour
-5.060212	behaviours
-5.838364	behead
-5.139393	beheaded
-4.476636	beheld
-5.838364	behest
-5.838364	behests
-3.80494	behind
-3.686075	behold
-5.838364	behold's
-5.361242	behold'st
-5.838364	beholder
-5.236303	beholders
-5.838364	beholdest
-4.458152	beholding
-5.838364	beholds
-5.537333	behoof
-5.838364	behooffull
-5.838364	behooves
-5.361242	behove
-5.361242	behoves
-5.838364	behowls
-3.058046	being
-3.963302	belarius
-4.935274	belch
-5.838364	belching
-5.838364	beldam
-5.838364	beldame
-5.537333	beldams
-5.838364	belee'd
-5.537333	belgia
-4.838364	belie
-4.993266	belied
-4.759182	belief
-5.838364	beliest
-4.759182	believ'd
-5.838364	believ'd'
-5.838364	believ'st
-3.528733	believe
-5.838364	believe'
-4.993266	believe't
-5.236303	believed
-5.236303	believes
-5.838364	believest
-5.139393	believing
-4.22558	belike
-4.25858	bell
-4.935274	bellario
-5.838364	bellario's
-5.838364	belle
-5.236303	bellied
-5.537333	bellies
-5.838364	bellman
-5.838364	bellona's
-5.838364	bellow
-5.838364	bellow'd
-5.537333	bellowed
-5.236303	bellows
-4.759182	bells
-4.319849	belly
-5.361242	belly's
-5.537333	bellyful
-5.838364	belman
-4.662272	belmont
-5.838364	belock'd
-4.634243	belong
-5.537333	belong'd
-5.236303	belonging
-5.838364	belongings
-4.607914	belongs
-4.375966	belov'd
-4.375966	beloved
-5.838364	beloving
-4.166265	below
-5.838364	bels
-5.537333	belt
-5.361242	belzebub
-5.838364	bemadding
-5.838364	bemet
-5.838364	bemete
-5.838364	bemoand
-5.838364	bemock
-5.838364	bemock'd
-5.838364	bemoild
-5.838364	bemonster
-4.053034	ben
-4.884121	bench
-5.838364	bench'd
-5.838364	bencher
-5.537333	benches
-4.22558	bend
-5.060212	bended
-4.607914	bending
-5.361242	bends
-3.755578	bene
-4.537333	beneath
-5.537333	benedicite
-4.074935	benedick
-5.361242	benedick's
-5.139393	benediction
-5.537333	benedictus
-5.236303	benefactors
-5.838364	benefice
-5.361242	beneficial
-4.270162	benefit
-5.236303	benefits
-5.838364	benetted
-5.838364	benevolence
-5.838364	benevolences
-5.838364	benied
-5.361242	benison
-5.537333	bennet
-4.294295	bent
-5.838364	bentii
-5.838364	bentivolii
-5.838364	benumbed
-4.607914	benvolio
-5.838364	bepaint
-5.838364	bepray
-4.935274	bequeath
-5.537333	bequeath'd
-5.236303	bequeathed
-5.537333	bequeathing
-5.838364	bequest
-4.583091	ber
-5.537333	berard
-5.838364	berattle
-5.838364	beray'd
-5.838364	bere
-5.361242	bereave
-5.537333	bereaved
-4.692235	bereft
-5.838364	bergamo
-5.537333	bergomask
-5.838364	berhym'd
-5.838364	berhyme
-4.796971	berkeley
-5.838364	bermoothes
-4.884121	bernardo
-3.587944	berowne
-5.838364	berowne'
-5.838364	berowne's
-5.537333	berri
-5.139393	berries
-5.838364	berrord
-5.838364	berry
-3.759182	bertram
-5.838364	bertram's
-5.361242	berwick
-5.838364	bescreend
-3.533012	beseech
-5.537333	beseech'd
-5.838364	beseeched
-5.838364	beseechers
-5.361242	beseeching
-5.838364	beseek
-5.060212	beseem
-5.838364	beseemeth
-4.796971	beseeming
-5.236303	beseems
-5.139393	beset
-4.361242	beshrew
-4.375966	beside
-3.847137	besides
-5.361242	besieg'd
-4.935274	besiege
-5.838364	besieged
-5.838364	beslubber
-5.537333	besmear
-5.361242	besmear'd
-5.838364	besmeared
-5.838364	besmirch
-5.838364	besmirch'd
-5.838364	besom
-5.838364	besort
-5.838364	besotted
-5.537333	bespake
-5.060212	bespeak
-5.838364	bespice
-5.139393	bespoke
-5.838364	bespotted
-5.838364	bess
-5.838364	bessy
-3.235219	best
-5.838364	best'
-5.838364	best's
-5.838364	bestained
-5.838364	bested
-5.361242	bestial
-5.537333	bestir
-5.537333	bestirr'd
-4.166265	bestow
-4.634243	bestow'd
-5.838364	bestow'st
-5.838364	bestow't
-4.692235	bestowed
-5.236303	bestowing
-5.236303	bestows
-5.838364	bestraught
-5.537333	bestrew
-5.838364	bestrew'd
-5.236303	bestrid
-4.884121	bestride
-5.838364	bestrides
-5.838364	bet
-5.060212	betake
-5.537333	beteem
-4.537333	bethink
-5.236303	bethought
-5.838364	bethrothed
-5.838364	bethump'd
-5.361242	betid
-4.935274	betide
-5.537333	betideth
-5.236303	betime
-4.55961	betimes
-5.838364	betoken
-5.838364	betook
-5.838364	betossed
-4.333213	betray
-4.607914	betray'd
-5.838364	betray'dst
-5.838364	betray's
-4.993266	betrayed
-5.537333	betraying
-5.838364	betrays
-5.838364	betrims
-4.993266	betroth'd
-5.236303	betrothed
-5.838364	betroths
-5.838364	bett'red
-5.537333	bett'ring
-5.838364	betted
-3.119862	better
-5.838364	better'd
-5.361242	bettered
-5.537333	bettering
-4.796971	betters
-5.537333	betting
-5.838364	bettre
-3.50391	between
-5.236303	betweens
-4.139393	betwixt
-5.838364	bevel
-5.838364	beverage
-5.236303	bevis
-5.537333	bevy
-5.537333	bewail
-5.838364	bewailed
-5.838364	bewailing
-5.838364	bewails
-4.42339	beware
-5.838364	bewasted
-5.361242	beweep
-5.361242	bewept
-5.838364	bewet
-5.838364	bewhored
-5.537333	bewitch
-5.139393	bewitch'd
-5.361242	bewitched
-5.838364	bewitchment
-5.060212	bewray
-5.838364	bewray'd
-4.082489	beyond
-5.838364	bezonian
-5.838364	bezonians
-3.842728	bianca
-5.236303	bianca's
-5.838364	bianco's
-4.759182	bias
-5.838364	bibble
-5.838364	bickerings
-3.364147	bid
-5.361242	bid'st
-5.838364	bidden
-4.42339	bidding
-5.838364	biddings
-5.838364	biddy
-4.634243	bide
-5.361242	bides
-5.838364	biding
-4.12236	bids
-5.537333	bien
-5.060212	bier
-5.838364	bifold
-4.204895	big
-5.838364	bigamy
-5.838364	biggen
-4.662272	bigger
-5.838364	bigness
-4.72442	bigot
-5.838364	bilberry
-5.537333	bilbo
-5.838364	bilboes
-5.838364	bilbow
-4.607914	bill
-5.537333	billeted
-5.838364	billets
-5.838364	billiards
-5.537333	billow
-5.139393	billows
-4.72442	bills
-5.838364	bin
-4.236303	bind
-5.838364	bindeth
-5.236303	binds
-4.039023	biondello
-5.838364	birch
-4.282061	bird
-5.361242	bird's
-5.361242	birding
-5.838364	birdlime
-4.319849	birds
-4.884121	birnam
-3.963302	birth
-5.537333	birthday
-5.838364	birthdom
-5.838364	birthplace
-5.236303	birthright
-5.838364	birthrights
-5.139393	births
-5.838364	bis
-5.537333	biscuit
-4.236303	bishop
-5.236303	bishop's
-4.759182	bishops
-5.537333	bisson
-4.935274	bit
-5.838364	bitch
-5.838364	bitch's
-4.282061	bite
-5.838364	biter
-4.884121	bites
-4.838364	biting
-5.139393	bits
-5.537333	bitt'rest
-5.361242	bitten
-4.045972	bitter
-5.537333	bitterest
-4.884121	bitterly
-4.838364	bitterness
-5.537333	blab
-5.537333	blabb'd
-5.838364	blabbing
-5.838364	blabs
-3.650843	black
-5.838364	black'st
-5.537333	blackamoor
-5.838364	blackamoors
-5.838364	blackberries
-5.838364	blackberry
-5.361242	blacker
-5.537333	blackest
-5.537333	blackfriars
-5.361242	blackheath
-5.838364	blackmere
-5.537333	blackness
-5.838364	blacks
-5.838364	bladder
-5.361242	bladders
-4.993266	blade
-5.537333	bladed
-5.361242	blades
-5.838364	blains
-5.361242	blam'd
-3.940737	blame
-5.361242	blamed
-5.537333	blameful
-5.537333	blameless
-5.838364	blames
-5.838364	blanca
-4.516144	blanch
-5.838364	blanch'd
-4.838364	blank
-5.060212	blanket
-5.139393	blanks
-5.537333	blaspheme
-5.537333	blaspheming
-5.838364	blasphemous
-5.361242	blasphemy
-4.759182	blast
-5.060212	blasted
-5.139393	blasting
-5.838364	blastments
-4.935274	blasts
-5.537333	blaz'd
-4.935274	blaze
-5.838364	blazes
-5.537333	blazing
-5.060212	blazon
-5.838364	blazoned
-5.537333	blazoning
-5.838364	blazonst
-5.838364	bleach
-5.537333	bleaching
-5.361242	bleak
-5.838364	blear'd
-5.537333	bleared
-5.236303	bleat
-5.838364	bleated
-5.838364	bleats
-5.361242	bled
-4.347002	bleed
-5.361242	bleed'st
-5.838364	bleedest
-5.838364	bleedeth
-4.407	bleeding
-5.139393	bleeds
-4.993266	blemish
-5.236303	blemish'd
-5.361242	blemishes
-5.236303	blench
-5.838364	blenches
-5.838364	blend
-5.537333	blended
-5.537333	blent
-3.874576	bless
-4.692235	bless'd
-3.975041	blessed
-5.537333	blessedly
-5.361242	blessedness
-5.537333	blesses
-5.838364	blesseth
-4.22558	blessing
-5.838364	blessing'
-4.55961	blessings
-4.148168	blest
-5.236303	blew
-3.975041	blind
-5.236303	blinded
-5.537333	blindfold
-5.537333	blinding
-5.838364	blindly
-5.139393	blindness
-5.838364	blinds
-5.838364	blink
-5.537333	blinking
-4.583091	bliss
-5.838364	blist'red
-5.236303	blister
-5.838364	blister'd
-5.537333	blisters
-5.361242	blithe
-5.838364	blithild
-5.838364	bloat
-4.692235	block
-5.838364	blockish
-5.236303	blocks
-5.838364	blois
-3.066776	blood
-5.537333	blood's
-5.236303	blooded
-5.838364	bloodhound
-5.537333	bloodied
-5.236303	bloodily
-5.060212	bloodless
-4.759182	bloods
-5.537333	bloodshed
-5.838364	bloodshedding
-5.838364	bloodstained
-3.516144	bloody
-5.537333	bloom
-5.838364	bloom'd
-5.838364	blooms
-4.884121	blossom
-5.537333	blossoming
-5.060212	blossoms
-4.634243	blot
-4.935274	blots
-5.537333	blotted
-5.838364	blount
-3.975041	blow
-5.838364	blowest
-4.884121	blowing
-4.25858	blown
-4.012289	blows
-5.838364	blowse
-5.838364	blubb'ring
-5.838364	blubber'd
-5.838364	blubbering
-4.458152	blue
-5.838364	bluecaps
-5.838364	bluest
-4.039023	blunt
-5.838364	blunted
-5.838364	blunter
-5.838364	bluntest
-5.537333	blunting
-5.537333	bluntly
-5.838364	bluntness
-5.537333	blunts
-5.838364	blur
-5.838364	blurr'd
-5.838364	blurs
-4.175606	blush
-5.060212	blush'd
-4.796971	blushes
-5.838364	blushest
-4.55961	blushing
-5.537333	blust'ring
-5.838364	bluster
-5.838364	blusters
-5.838364	bo
-4.607914	boar
-4.884121	boar's
-4.607914	board
-4.993266	boarded
-5.537333	boards
-5.838364	boarish
-5.838364	boars
-4.391205	boast
-5.838364	boastful
-5.236303	boasting
-5.537333	boasts
-4.935274	boat
-5.139393	boats
-4.583091	boatswain
-5.361242	bob
-5.361242	bobb'd
-5.838364	boblibindo
-5.838364	bocchus
-4.993266	bode
-5.537333	boded
-5.537333	bodements
-5.060212	bodes
-5.838364	bodg'd
-5.236303	bodied
-4.236303	bodies
-5.838364	bodiless
-5.236303	bodily
-5.060212	boding
-5.838364	bodkin
-5.838364	bodkins
-3.486181	body
-4.495941	body's
-5.537333	bodykins
-5.537333	bog
-5.838364	boggle
-5.361242	bogs
-4.375966	bohemia
-5.537333	bohemia's
-5.838364	bohemian
-5.838364	bohun
-5.060212	boil
-5.361242	boild
-5.236303	boiling
-5.361242	boils
-4.884121	boist'rous
-5.361242	boisterous
-5.838364	boisterously
-5.838364	boitier
-3.759182	bold
-5.838364	bold'ned
-5.838364	bold'st
-5.236303	bolder
-5.838364	boldest
-4.662272	boldly
-4.692235	boldness
-5.838364	bolds
-3.648032	bolingbroke
-5.361242	bolingbroke'
-5.236303	bolingbroke's
-5.838364	bolster
-4.759182	bolt
-5.236303	bolted
-5.838364	bolter'd
-5.361242	bolting
-5.139393	bolts
-5.537333	bombard
-5.838364	bombards
-5.537333	bombast
-5.139393	bon
-4.537333	bona
-4.02545	bond
-4.537333	bondage
-5.838364	bondage'
-5.838364	bonded
-5.838364	bondmaid
-4.884121	bondman
-5.838364	bondmans
-5.236303	bondmen
-4.516144	bonds
-4.662272	bone
-5.838364	boneless
-4.02545	bones
-5.838364	bonfire
-5.236303	bonfires
-5.838364	bonjour
-5.537333	bonne
-5.060212	bonnet
-5.838364	bonneted
-4.993266	bonny
-5.838364	bonto
-5.838364	bonville
-5.838364	bood
-3.847137	book
-5.838364	book'd
-5.537333	bookish
-4.306885	books
-4.796971	boon
-5.838364	boor
-5.838364	boorish
-5.838364	boors
-4.375966	boot
-5.838364	booties
-4.607914	bootless
-4.458152	boots
-5.236303	booty
-5.838364	bor
-5.838364	bor'd
-5.838364	bor'st
-4.294295	bora
-4.759182	borachio
-4.935274	bordeaux
-5.838364	border
-5.838364	bordered
-5.838364	borderers
-5.838364	borders
-4.361242	bore
-5.838364	boreas
-5.361242	bores
-5.838364	boring
-3.595325	born
-3.963302	borne
-5.361242	borough
-4.458152	borrow
-5.537333	borrow'd
-5.838364	borrow'dst
-4.55961	borrowed
-5.537333	borrower
-5.838364	borrower's
-5.236303	borrowing
-5.236303	borrows
-5.838364	bosko
-5.361242	boskos
-5.838364	bosky
-3.800937	bosom
-5.838364	bosom'd
-5.236303	bosom's
-5.838364	bosomas
-4.440423	bosoms
-5.838364	boson
-5.537333	bosworth
-5.537333	botch
-5.537333	botch'd
-5.537333	botcher's
-5.838364	botches
-5.838364	botchy
-3.077188	both
-5.537333	bots
-4.440423	bottle
-5.537333	bottled
-5.537333	bottles
-3.884121	bottom
-5.838364	bottom'd
-5.838364	bottom's
-5.537333	bottomless
-5.537333	bottoms
-5.537333	bouciqualt
-5.838364	bouge
-5.139393	bough
-4.884121	boughs
-4.157122	bought
-5.838364	bounce
-5.838364	bouncing
-3.639706	bound
-5.537333	bounded
-5.537333	bounden
-5.838364	boundeth
-5.537333	bounding
-4.993266	boundless
-4.55961	bounds
-4.607914	bounteous
-5.838364	bounteously
-5.236303	bounties
-4.993266	bountiful
-5.838364	bountifully
-4.247299	bounty
-5.838364	bounty's
-5.838364	bourbier'
-5.060212	bourbon
-5.838364	bourchier
-5.838364	bourdeaux
-4.993266	bourn
-5.139393	bout
-4.157122	bow
-4.796971	bow'd
-5.838364	bow'r
-5.838364	bow'rs
-5.838364	bowcase
-5.537333	bowed
-4.537333	bowels
-5.060212	bower
-5.537333	bowing
-4.796971	bowl
-5.838364	bowld
-5.838364	bowler
-5.838364	bowling
-5.236303	bowls
-4.884121	bows
-5.838364	bowsprit
-5.838364	bowstring
-4.516144	box
-5.838364	boxes
-3.267821	boy
-5.537333	boy'
-4.838364	boy's
-3.884121	boyet
-5.838364	boyet'
-5.537333	boyish
-3.975041	boys
-5.361242	boys'
-5.139393	brabant
-4.247299	brabantio
-5.537333	brabble
-5.537333	brabbler
-5.838364	brac'd
-4.662272	brace
-5.060212	bracelet
-5.537333	bracelets
-5.060212	brach
-5.838364	bracy
-4.935274	brag
-5.537333	bragg'd
-5.838364	braggardism
-5.838364	braggards
-4.935274	braggart
-5.537333	braggarts
-5.838364	bragged
-4.993266	bragging
-5.838364	bragless
-4.993266	brags
-5.838364	braid
-5.838364	braided
-3.95755	brain
-4.993266	braind
-5.537333	brained
-5.139393	brainford
-5.838364	brainless
-4.236303	brains
-5.361242	brainsick
-5.838364	brainsickly
-4.935274	brake
-4.583091	brakenbury
-5.838364	brakes
-5.838364	brambles
-5.060212	bran
-5.838364	bran'
-4.692235	branch
-5.838364	branch'd
-4.759182	branches
-5.838364	branchless
-4.993266	brand
-5.361242	branded
-5.361242	brandish
-5.361242	brandish'd
-4.796971	brandon
-4.935274	brands
-5.537333	bras
-4.662272	brass
-5.838364	brassy
-4.935274	brat
-5.838364	brat's
-5.361242	brats
-5.060212	brav'd
-5.537333	brav'ry
-3.674011	brave
-5.537333	braved
-4.294295	bravely
-4.884121	braver
-5.060212	bravery
-5.361242	braves
-5.236303	bravest
-5.139393	braving
-4.759182	brawl
-5.060212	brawling
-5.139393	brawls
-5.139393	brawn
-5.838364	brawns
-5.537333	bray
-5.838364	bray'd
-5.838364	braying
-5.537333	braz'd
-4.759182	brazen
-5.838364	brazier
-4.347002	breach
-5.537333	breaches
-4.476636	bread
-4.884121	breadth
-3.480429	break
-5.838364	break'st
-5.838364	break't
-5.060212	breaker
-4.72442	breakfast
-4.391205	breaking
-4.458152	breaks
-3.879322	breast
-5.537333	breasted
-5.838364	breasting
-4.884121	breasts
-3.552806	breath
-4.516144	breath'd
-4.053034	breathe
-5.139393	breathed
-5.361242	breather
-5.838364	breathers
-4.884121	breathes
-5.838364	breathest
-4.55961	breathing
-4.838364	breathless
-4.993266	breaths
-5.838364	brecknock
-4.194911	bred
-5.537333	breech
-5.838364	breech'd
-4.993266	breeches
-5.838364	breeching
-4.166265	breed
-5.060212	breeder
-5.537333	breeders
-4.458152	breeding
-4.537333	breeds
-5.838364	breeze
-5.838364	breff
-5.838364	bretagne
-5.537333	bretheren
-4.583091	brethren
-5.838364	brethrens
-5.838364	brevis
-5.361242	brevity
-5.236303	brew
-5.361242	brew'd
-5.838364	brewage
-5.537333	brewer's
-5.838364	brewers
-5.537333	brewing
-5.838364	brews
-5.838364	briareus
-5.537333	brib'd
-5.139393	bribe
-5.838364	briber
-5.361242	bribes
-5.537333	brick
-5.838364	bricklayer
-5.838364	bricks
-5.060212	bridal
-4.333213	bride
-5.838364	bride'
-4.72442	bridegroom
-5.361242	bridegroom's
-5.838364	bridegrooms
-5.537333	brides
-4.796971	bridge
-5.537333	bridgenorth
-5.537333	bridges
-5.361242	bridget
-5.139393	bridle
-5.838364	bridled
-3.940737	brief
-5.838364	briefer
-5.838364	briefest
-4.607914	briefly
-5.537333	briefness
-5.060212	brier
-4.935274	briers
-5.838364	brigandine
-3.999514	bright
-5.838364	brighten
-5.236303	brightest
-5.537333	brightly
-5.361242	brightness
-5.060212	brim
-5.838364	brimful
-5.838364	brims
-5.361242	brimstone
-5.838364	brinded
-4.935274	brine
-3.234138	bring
-5.236303	bring'st
-5.361242	bringer
-5.537333	bringeth
-4.662272	bringing
-5.838364	bringings
-4.185151	brings
-5.361242	brinish
-5.537333	brink
-5.236303	brisk
-5.838364	brisky
-5.361242	bristle
-5.537333	bristled
-5.838364	bristly
-5.537333	bristol
-5.236303	bristow
-4.148168	britain
-4.634243	britaine
-5.838364	britaines
-5.838364	britains
-4.935274	british
-4.993266	briton
-4.838364	britons
-5.236303	brittany
-5.361242	brittle
-5.361242	broach
-4.993266	broach'd
-5.838364	broached
-4.607914	broad
-5.838364	broader
-5.838364	broadsides
-5.838364	brocas
-5.838364	brock
-5.838364	brogues
-5.236303	broil
-5.537333	broild
-5.838364	broiling
-4.796971	broils
-3.935274	broke
-5.838364	broke's
-4.10597	broken
-5.060212	broker
-5.838364	broker'
-5.361242	brokers
-5.838364	brokes
-5.838364	broking
-5.236303	brooch
-5.838364	brooch'd
-5.838364	brooches
-4.935274	brood
-5.838364	brooding
-4.02545	brook
-5.361242	brook'd
-5.838364	brook's
-4.993266	brooks
-5.361242	broom
-5.838364	broomstaff
-5.236303	broth
-5.139393	brothel
-3.142007	brother
-5.236303	brother'
-3.981031	brother's
-5.060212	brotherhood
-5.838364	brotherhoods
-5.361242	brotherly
-4.012289	brothers
-5.361242	brothers'
-5.838364	broths
-3.58551	brought
-4.053034	brow
-5.537333	brow'd
-4.516144	brown
-5.361242	browner
-5.838364	brownist
-5.838364	browny
-4.306885	brows
-5.838364	brows'
-5.838364	brows'd
-5.838364	browse
-5.838364	browsing
-5.361242	bruis'd
-4.935274	bruise
-5.236303	bruised
-5.838364	bruises
-5.236303	bruising
-5.236303	bruit
-5.361242	bruited
-5.838364	brundusium
-5.838364	brunt
-5.537333	brush
-5.838364	brush'd
-5.537333	brushes
-5.537333	brute
-5.060212	brutish
-3.209975	brutus
-4.692235	brutus'
-4.993266	bubble
-5.361242	bubbles
-5.838364	bubukles
-4.583091	buck
-5.361242	bucket
-5.537333	buckets
-5.838364	bucking
-3.478528	buckingham
-5.361242	buckingham's
-5.060212	buckle
-5.060212	buckled
-5.060212	buckler
-5.139393	bucklers
-5.838364	bucklersbury
-5.236303	buckles
-4.935274	buckram
-5.838364	bucks
-4.692235	bud
-5.838364	budded
-5.361242	budding
-4.884121	budge
-5.838364	budger
-5.537333	budget
-4.607914	buds
-5.236303	buff
-5.361242	buffet
-5.139393	buffets
-5.537333	bug
-5.361242	bugle
-5.361242	bugs
-4.537333	build
-5.361242	builded
-5.361242	buildeth
-4.884121	building
-5.236303	buildings
-5.236303	builds
-4.634243	built
-4.692235	bulk
-5.838364	bulks
-4.634243	bull
-4.692235	bullcalf
-4.993266	bullen
-5.838364	bullen'
-5.361242	bullens
-5.537333	bullet
-5.838364	bullet's
-5.060212	bullets
-5.838364	bullocks
-5.060212	bulls
-4.662272	bully
-5.838364	bulmer
-5.361242	bulwark
-5.236303	bulwarks
-5.236303	bum
-5.838364	bumbast
-5.838364	bump
-5.838364	bumper
-5.838364	bums
-5.236303	bunch
-5.537333	bunches
-5.537333	bundle
-5.838364	bung
-5.838364	bunghole
-5.838364	bungle
-5.838364	bunting
-5.838364	buoy
-5.838364	buoy'd
-5.139393	bur
-5.838364	burbolt
-5.838364	burd'ned
-4.194911	burden
-5.537333	burdend
-5.838364	burdened
-5.838364	burdening
-5.838364	burdenous
-4.935274	burdens
-5.838364	burgh
-5.838364	burgher
-5.838364	burglary
-5.838364	burgomasters
-5.361242	burgonet
-4.01882	burgundy
-4.607914	burial
-4.12236	buried
-5.838364	burier
-5.838364	buriest
-5.537333	burly
-3.993265	burn
-5.060212	burnd
-5.537333	burnd'
-5.139393	burned
-5.838364	burnet
-5.537333	burneth
-4.166265	burning
-5.537333	burnish'd
-4.42339	burns
-4.537333	burnt
-5.537333	burr
-5.838364	burrows
-5.236303	burs
-4.516144	burst
-5.838364	bursting
-5.139393	burthen
-5.838364	burthens
-5.537333	burton
-4.25858	bury
-5.537333	burying
-4.440423	bush
-5.838364	bush's
-5.838364	bushels
-5.361242	bushes
-4.440423	bushy
-5.236303	busied
-5.537333	busily
-5.361242	busines
-3.537333	business
-5.537333	business'
-5.537333	businesses
-5.838364	buskind
-5.838364	busky
-5.537333	buss
-5.838364	busses
-5.838364	bussing
-5.236303	bustle
-5.838364	bustling
-4.440423	busy
-2.085777	but
-5.838364	but'
-5.838364	butcheed
-4.607914	butcher
-5.361242	butcher'd
-5.236303	butcher's
-5.361242	butchered
-5.537333	butcheries
-5.838364	butcherly
-4.993266	butchers
-5.361242	butchery
-5.236303	butler
-4.72442	butt
-4.838364	butter
-5.838364	buttered
-5.236303	butterflies
-5.361242	butterfly
-5.838364	butterwomans
-5.139393	buttock
-5.838364	buttocks
-5.236303	button
-5.838364	buttond
-5.838364	buttonhole
-5.537333	buttons
-4.796971	butts
-5.838364	buxom
-3.893881	buy
-5.838364	buy'em
-5.537333	buyer
-5.838364	buying
-4.884121	buys
-4.884121	buzz
-5.537333	buzzard
-5.838364	buzzards
-5.139393	buzzing
-2.310734	by
-5.537333	by'
-4.662272	by'r
-4.935274	by't
-5.537333	bye
-5.838364	byzantium
-4.634243	c
-5.537333	c'
-5.537333	c'est
-5.838364	c's
-5.537333	ca
-5.838364	cabbage
-5.838364	cabileros
-4.993266	cabin
-5.838364	cabind
-5.838364	cabins
-5.236303	cable
-5.838364	cables
-5.537333	cackling
-5.838364	caddis
-5.838364	caddisses
-3.893881	cade
-5.838364	cade's
-5.838364	cadence
-5.838364	cadent
-5.838364	cades
-5.838364	caduceus
-4.993266	cadwal
-5.838364	cadwallader
-5.838364	caelius
-5.838364	caelo
-3.168118	caesar
-5.537333	caesar'
-3.993265	caesar's
-5.838364	caesarion
-5.236303	caesars
-5.236303	cage
-5.537333	caged
-5.139393	cain
-5.537333	cains
-5.236303	caithness
-4.796971	caitiff
-5.838364	caitiffs
-3.781459	caius
-5.537333	caius'
-5.838364	caius's
-5.838364	cak'd
-5.236303	cake
-5.838364	cake's
-5.139393	cakes
-5.838364	calaber
-4.838364	calais
-4.884121	calamity
-4.935274	calchas
-5.236303	calchas'
-5.537333	calculate
-5.838364	calen
-4.935274	calendar
-5.838364	calendars
-4.55961	calf
-4.935274	calf's
-4.082489	caliban
-5.838364	calibans
-5.838364	calipolis
-5.838364	cality
-5.361242	caliver
-3.13766	call
-5.838364	callat
-3.628849	calld
-5.361242	calldst
-4.516144	called
-5.361242	callet
-4.634243	calling
-3.92455	calls
-4.838364	callst
-5.236303	callt
-4.347002	calm
-5.236303	calm'd
-5.838364	calmest
-5.361242	calmly
-5.838364	calmness
-4.72442	calpurnia
-5.537333	calpurnia's
-5.838364	calumniate
-5.838364	calumniating
-5.361242	calumnious
-5.361242	calumny
-5.838364	calve's
-5.838364	calved
-5.838364	calves
-5.838364	calves'
-5.838364	calveskins
-5.838364	calydon
-4.458152	cam'st
-4.72442	cambio
-5.537333	cambria
-5.838364	cambrics
-4.55961	cambridge
-5.838364	cambyses'
-3.358357	came
-5.537333	came't
-5.236303	camel
-5.838364	camelot
-5.838364	camels
-5.537333	camest
-3.800937	camillo
-5.537333	camillo's
-5.838364	camlet
-5.838364	camomile
-4.012289	camp
-4.516144	campeius
-5.838364	camping
-5.139393	camps
-2.798949	can
-5.537333	canakin
-5.537333	canaries
-5.060212	canary
-5.139393	cancel
-5.838364	cancelld
-5.838364	cancelled
-5.838364	cancelling
-5.838364	cancels
-5.838364	cancer
-5.838364	candidatus
-5.361242	candied
-4.583091	candle
-5.139393	candles
-5.838364	candles'
-5.361242	candy
-4.583091	canidius
-5.060212	cank'red
-4.537333	canker
-5.838364	cankerblossom
-5.361242	cankers
-5.838364	cannibally
-5.236303	cannibals
-4.662272	cannon
-5.838364	cannoneer
-5.060212	cannons
-5.838364	cannons'
-3.006494	cannot
-5.060212	canon
-5.537333	canoniz'd
-5.838364	canonize
-5.537333	canonized
-5.838364	canons
-5.361242	canopied
-5.537333	canopies
-5.060212	canopy
-3.636966	canst
-5.537333	cant
-4.270162	canterbury
-5.838364	canterbury's
-5.537333	cantle
-5.838364	cantons
-5.838364	canus
-5.838364	canvas
-5.838364	canvass
-5.838364	canzonet
-3.847137	cap
-5.537333	cap'ring
-5.838364	capability
-4.634243	capable
-5.838364	capacities
-4.884121	capacity
-5.361242	caparison
-5.537333	caparisond
-5.838364	capdv'd
-5.236303	cape
-5.838364	cape'
-5.838364	capels
-5.838364	capels'
-5.139393	caper
-5.838364	caper'd
-5.361242	capers
-5.537333	capet
-5.838364	capet's
-4.634243	caphis
-5.537333	capilet
-5.838364	capitaine
-4.759182	capital
-5.838364	capite
-4.236303	capitol
-5.537333	capitulate
-5.838364	capocchia
-4.993266	capon
-5.361242	capons
-5.838364	capp'd
-5.838364	cappadocia
-5.838364	capriccio
-4.607914	caps
-4.796971	capt
-3.653672	captain
-4.361242	captains
-5.537333	captainship
-5.838364	captious
-5.537333	captivate
-5.838364	captivated
-4.759182	captive
-4.884121	captives
-5.060212	captivity
-4.993266	capucius
-4.361242	capulet
-4.884121	capulet's
-5.060212	capulets
-4.306885	car
-5.361242	car'd
-5.838364	car'st
-5.838364	carack
-5.838364	caracks
-5.537333	carat
-5.838364	caraways
-5.537333	carbonado
-5.838364	carbonado'd
-5.361242	carbuncle
-5.838364	carbuncled
-5.537333	carbuncles
-5.537333	carcanet
-5.838364	carcase
-5.838364	carcases
-5.139393	carcass
-5.537333	carcasses
-5.236303	card
-5.838364	card'nal
-5.838364	cardecue
-5.838364	carded
-5.838364	carders
-3.71779	cardinal
-5.838364	cardinally
-4.476636	cardinals
-5.838364	cardmaker
-5.537333	cards
-3.548329	care
-5.838364	care'
-5.838364	care's
-5.838364	cared
-5.139393	career
-5.537333	careers
-4.537333	careful
-4.993266	carefully
-4.72442	careless
-5.139393	carelessly
-5.838364	carelessness
-4.347002	cares
-5.838364	caret
-4.993266	cargo
-5.838364	carl
-4.72442	carlisle
-5.838364	carlot
-5.838364	carman
-5.838364	carmen
-5.361242	carnal
-5.838364	carnally
-5.537333	carnation
-5.838364	carnations
-5.537333	carol
-5.537333	carous'd
-5.537333	carouse
-5.838364	caroused
-5.537333	carouses
-5.537333	carousing
-5.361242	carp
-5.838364	carp'd
-5.139393	carpenter
-5.537333	carpet
-5.838364	carpets
-5.361242	carping
-4.516144	carriage
-5.060212	carriages
-4.333213	carried
-4.993266	carrier
-5.236303	carriers
-4.458152	carries
-4.759182	carrion
-5.537333	carrions
-3.919286	carry
-5.838364	carry'
-5.838364	carry't
-4.884121	carrying
-4.935274	cars
-5.139393	cart
-5.361242	carters
-5.060212	carthage
-5.838364	carts
-5.537333	carv'd
-4.838364	carve
-5.060212	carved
-5.838364	carver
-5.838364	carver's
-5.838364	carves
-5.838364	carving
-5.537333	cas'd
-5.838364	casa
-5.838364	casaer
-4.02545	casca
-5.838364	casca's
-3.834042	case
-4.935274	casement
-5.361242	casements
-4.838364	cases
-5.838364	cash
-5.838364	cashier
-5.361242	cashier'd
-5.838364	casing
-5.838364	cask
-4.72442	casket
-5.838364	casketed
-4.993266	caskets
-5.361242	casque
-5.838364	casques
-5.838364	cassado
-4.55961	cassandra
-5.537333	cassandra's
-5.236303	cassibelan
-3.497919	cassio
-4.884121	cassio's
-3.528733	cassius
-5.139393	cassius'
-5.838364	cassocks
-3.884121	cast
-5.838364	castalion
-5.838364	castaway
-5.838364	castaways
-5.838364	casted
-5.838364	caster
-5.838364	castigate
-5.838364	castigation
-5.838364	castile
-5.838364	castiliano
-5.361242	casting
-3.929878	castle
-5.537333	castle's
-4.993266	castles
-5.361242	casts
-5.537333	casual
-5.838364	casually
-5.838364	casualties
-5.838364	casualty
-4.294295	cat
-5.838364	cataian
-5.236303	catalogue
-5.838364	cataplasm
-5.838364	cataracts
-5.838364	catarrhs
-5.236303	catastrophe
-4.012289	catch
-5.236303	catch'd
-5.838364	catcher
-5.361242	catches
-4.884121	catching
-5.838364	cate
-5.838364	catechising
-5.537333	catechism
-5.537333	catechize
-5.838364	cater
-5.139393	caterpillars
-5.838364	caters
-5.537333	caterwauling
-5.361242	cates
-4.02545	catesby
-5.838364	cathedral
-5.838364	catlike
-5.838364	catling
-4.838364	cato
-5.236303	cato's
-5.060212	cats
-5.139393	cattle
-5.537333	caucasus
-5.537333	caudle
-4.391205	caught
-5.838364	caught'
-4.935274	cauldron
-4.884121	caus'd
-3.368541	cause
-5.838364	caused
-5.537333	causeless
-5.361242	causer
-4.759182	causes
-5.838364	causest
-5.838364	causeth
-5.838364	cautel
-5.537333	cautelous
-5.838364	cautels
-5.838364	cauterizing
-5.139393	caution
-5.838364	cautions
-5.537333	cavaleiro
-5.838364	cavalery
-5.838364	cavaliers
-4.282061	cave
-5.537333	cavern
-5.838364	caverns
-5.060212	caves
-5.838364	caviary
-5.139393	cavil
-5.838364	cavilling
-4.537333	cawdor
-5.838364	cawdor'
-5.838364	cawdron
-5.838364	cawing
-5.537333	ce
-5.361242	ceas'd
-4.22558	cease
-5.838364	cease'
-5.236303	ceases
-5.838364	ceaseth
-4.884121	cedar
-5.838364	cedar's
-5.537333	cedars
-5.838364	cedius
-5.139393	celebrate
-5.537333	celebrated
-5.838364	celebrates
-5.139393	celebration
-5.060212	celerity
-4.692235	celestial
-3.770178	celia
-4.347002	cell
-5.838364	cellarage
-5.838364	cells
-5.838364	celsa
-5.361242	cement
-5.537333	censer
-5.838364	censorinus
-5.537333	censur'd
-4.42339	censure
-5.361242	censured
-5.838364	censurers
-5.236303	censures
-5.838364	censuring
-5.060212	centaur
-5.537333	centaurs
-5.838364	centaurs'
-4.72442	centre
-5.838364	cents
-5.838364	centuries
-5.139393	centurion
-5.838364	centurions
-5.537333	century
-5.236303	cerberus
-5.838364	cerecloth
-5.838364	cerements
-5.838364	ceremonial
-4.935274	ceremonies
-4.993266	ceremonious
-5.838364	ceremoniously
-4.458152	ceremony
-4.935274	ceres
-5.537333	ceres'
-3.650843	certain
-5.838364	certainer
-4.537333	certainly
-5.361242	certainties
-4.993266	certainty
-5.139393	certes
-5.838364	certificate
-5.537333	certified
-5.838364	certifies
-5.838364	certify
-5.838364	ces
-4.634243	cesario
-5.838364	cess
-5.537333	cesse
-5.838364	cestern
-5.537333	cetera
-5.838364	cette
-5.838364	chaces
-5.361242	chaf'd
-5.361242	chafe
-5.139393	chafed
-5.361242	chafes
-4.935274	chaff
-5.838364	chaffless
-5.838364	chafing
-4.074935	chain
-5.537333	chaind
-4.838364	chains
-4.294295	chair
-5.361242	chairs
-5.838364	chalic'd
-5.537333	chalice
-5.838364	chalices
-5.838364	chalk'd
-5.838364	chalks
-5.361242	chalky
-4.884121	challeng'd
-4.204895	challenge
-5.838364	challenged
-5.139393	challenger
-5.838364	challenger's
-5.838364	challengers
-5.838364	challenges
-5.060212	cham
-5.838364	cham's
-3.80898	chamber
-5.838364	chamber'd
-5.838364	chamber's
-5.838364	chamberers
-4.090176	chamberlain
-5.838364	chamberlains
-5.838364	chambermaid
-5.537333	chambermaids
-4.796971	chambers
-5.537333	chameleon
-5.838364	chameleons
-5.838364	champagne
-5.838364	champain
-5.838364	champains
-4.796971	champion
-5.236303	champions
-5.537333	chanc'd
-3.86064	chance
-4.993266	chanced
-4.759182	chancellor
-4.759182	chances
-5.838364	chandler's
-4.391205	chang'd
-3.692235	change
-5.361242	changeable
-5.060212	changed
-5.838364	changeful
-5.060212	changeling
-5.838364	changelings
-5.838364	changer
-4.516144	changes
-5.838364	changest
-4.662272	changing
-4.838364	channel
-5.838364	channels
-5.838364	chanson
-5.537333	chant
-5.537333	chanticleer
-5.838364	chanting
-5.838364	chantry
-5.838364	chants
-5.236303	chaos
-4.935274	chapel
-5.838364	chapeless
-5.838364	chapels
-5.236303	chaplain
-5.838364	chaplains
-5.537333	chapless
-5.838364	chaplet
-5.838364	chapmen
-5.838364	chapmens
-4.993266	chaps
-5.838364	chapter
-4.634243	character
-5.838364	character'd
-5.838364	charactered
-5.838364	characterless
-4.838364	characters
-5.537333	charactery
-5.838364	characts
-5.838364	charbon
-5.838364	chare
-5.838364	chares
-4.476636	charg'd
-3.580685	charge
-4.796971	charged
-5.838364	chargeful
-4.692235	charges
-5.838364	chargeth
-5.838364	charging
-5.838364	chariest
-5.838364	chariness
-5.838364	charing
-4.993266	chariot
-5.537333	chariots
-4.662272	charitable
-5.838364	charitably
-5.838364	charities
-4.148168	charity
-5.838364	charity'
-5.838364	charlemain
-3.813058	charles
-5.838364	charles'
-4.407	charm
-5.139393	charm'd
-5.838364	charm's
-5.060212	charmed
-5.838364	charmer
-5.838364	charmeth
-3.865236	charmian
-5.060212	charming
-5.838364	charmingly
-4.537333	charms
-5.838364	charneco
-5.537333	charnel
-5.838364	charolois
-5.838364	charon
-4.935274	charter
-5.838364	charter'd
-5.361242	charters
-5.537333	chartreux
-5.838364	charybdis
-4.935274	chas'd
-4.375966	chase
-5.537333	chased
-5.838364	chaser
-5.838364	chaseth
-5.838364	chasing
-4.282061	chaste
-5.537333	chastely
-5.537333	chastis'd
-5.139393	chastise
-5.537333	chastised
-4.993266	chastisement
-4.55961	chastity
-5.838364	chastity's
-4.796971	chat
-5.838364	chatham
-4.634243	chatillon
-5.838364	chats
-5.838364	chatt'ring
-5.537333	chattels
-5.361242	chatter
-5.838364	chattering
-5.838364	chattles
-5.838364	chaud
-5.838364	chaunted
-5.838364	chaw'd
-5.838364	chawdron
-5.838364	che
-4.662272	cheap
-5.838364	cheapen
-5.838364	cheaper
-5.838364	cheapest
-5.838364	cheaply
-5.537333	cheapside
-5.236303	cheat
-5.361242	cheated
-5.236303	cheater
-5.537333	cheaters
-5.838364	cheating
-5.838364	cheats
-4.42339	check
-5.139393	check'd
-5.838364	check'ring
-5.838364	checked
-5.838364	checker'd
-5.838364	checking
-4.993266	checks
-4.032184	cheek
-5.537333	cheek'd
-5.838364	cheek's
-4.005855	cheeks
-4.045972	cheer
-5.838364	cheer'
-5.139393	cheer'd
-5.838364	cheer'st
-5.838364	cheered
-5.838364	cheerer
-4.662272	cheerful
-5.060212	cheerfully
-5.361242	cheering
-5.838364	cheerless
-4.884121	cheerly
-5.236303	cheers
-4.72442	cheese
-5.838364	chequer'd
-5.838364	cher
-4.662272	cherish
-4.993266	cherish'd
-5.838364	cherished
-5.537333	cherishing
-5.838364	cherries
-5.060212	cherry
-5.838364	cherrypit
-5.361242	chertsey
-5.838364	cherub
-5.139393	cherubin
-5.236303	cherubins
-5.537333	cheshu
-5.838364	chess
-4.884121	chest
-5.838364	chester
-5.537333	chestnut
-5.838364	chestnuts
-5.060212	chests
-5.838364	chetas
-5.838364	chev'ril
-5.537333	cheval
-5.537333	chevalier
-5.838364	chevaliers
-5.838364	cheveril
-5.537333	chew
-5.838364	chew'd
-5.838364	chewed
-5.838364	chewet
-5.838364	chewing
-5.838364	chez
-5.838364	chi
-5.838364	chick
-5.537333	chicken
-5.236303	chickens
-5.838364	chicurmurco
-4.634243	chid
-5.537333	chid'st
-5.236303	chidden
-4.194911	chide
-5.838364	chiders
-4.935274	chides
-4.838364	chiding
-3.86064	chief
-4.692235	chiefest
-4.838364	chiefly
-5.838364	chien
-3.509984	child
-5.838364	child'
-5.139393	child's
-5.838364	childed
-5.838364	childeric
-5.139393	childhood
-5.838364	childhoods
-5.838364	childing
-4.935274	childish
-5.361242	childishness
-5.537333	childlike
-5.838364	childness
-3.834042	children
-4.796971	childrens
-5.139393	chill
-5.838364	chilling
-5.838364	chimes
-4.884121	chimney
-5.838364	chimney's
-5.537333	chimneys
-5.838364	chimurcho
-4.516144	chin
-5.838364	china
-5.838364	chine
-5.838364	chines
-5.139393	chink
-5.838364	chinks
-5.236303	chins
-5.537333	chipp'd
-5.838364	chipper
-5.838364	chips
-4.175606	chiron
-5.838364	chirping
-5.838364	chirrah
-5.838364	chirurgeonly
-5.838364	chisel
-5.838364	chitopher
-5.838364	chivalrous
-4.884121	chivalry
-5.838364	chivalry'
-4.045972	choice
-5.838364	choicely
-5.838364	choicest
-5.361242	choir
-5.838364	choirs
-4.935274	chok'd
-4.662272	choke
-5.537333	choked
-5.838364	chokes
-5.537333	choking
-4.42339	choler
-4.935274	choleric
-5.838364	cholers
-5.838364	chollors
-3.856092	choose
-5.838364	choose'
-5.838364	chooser
-5.361242	chooses
-4.884121	chooseth
-5.236303	choosing
-4.935274	chop
-5.838364	chopine
-5.361242	chopp'd
-5.838364	chopped
-5.838364	chopping
-5.838364	choppy
-5.537333	chops
-5.537333	chopt
-5.537333	chor
-4.662272	chorus
-4.607914	chose
-4.583091	chosen
-5.537333	chough
-5.361242	choughs
-5.838364	choughs'
-5.139393	chrish
-5.060212	christ
-5.838364	christ'ned
-5.838364	christ'ning
-5.537333	christ's
-5.236303	christen
-4.634243	christendom
-5.838364	christendoms
-5.236303	christening
-5.838364	christenings
-4.032184	christian
-5.838364	christianlike
-4.993266	christians
-5.537333	christmas
-5.838364	christom
-5.060212	christopher
-5.838364	christophero
-4.993266	chronicle
-5.537333	chronicled
-5.838364	chronicler
-5.060212	chronicles
-5.838364	chrysolite
-4.993266	chuck
-5.838364	chud
-5.838364	chuffs
-4.114088	church
-5.838364	church's
-5.139393	churches
-4.993266	churchman
-5.060212	churchmen
-5.838364	churchmens
-4.72442	churchyard
-5.537333	churchyards
-4.935274	churl
-4.634243	churlish
-5.838364	churlishly
-5.537333	churls
-5.838364	chus
-5.361242	cicatrice
-5.838364	cicatrices
-5.537333	cicely
-4.759182	cicero
-5.838364	ciceter
-5.838364	ciel
-5.838364	ciitzens
-5.838364	cilicia
-4.796971	cimber
-5.838364	cimmerian
-5.838364	cincture
-5.236303	cinders
-4.270162	cinna
-5.236303	cinque
-5.236303	cipher
-5.838364	ciphers
-5.838364	circe
-5.838364	circe's
-4.796971	circle
-5.236303	circled
-5.838364	circlets
-5.838364	circling
-5.537333	circuit
-5.838364	circumcised
-5.537333	circumference
-5.838364	circummur'd
-5.838364	circumscrib'd
-5.838364	circumscribed
-5.838364	circumscription
-5.537333	circumspect
-4.347002	circumstance
-5.838364	circumstanced
-4.796971	circumstances
-5.361242	circumstantial
-5.838364	circumvent
-5.537333	circumvention
-5.537333	cistern
-4.993266	citadel
-5.838364	cital
-5.361242	cite
-5.139393	cited
-5.838364	cites
-4.72442	cities
-5.838364	citing
-3.62352	citizen
-3.95755	citizens
-5.838364	cittern
-3.785285	city
-4.838364	city's
-5.361242	civet
-4.194911	civil
-5.060212	civility
-5.838364	civilly
-5.838364	civilst
-5.060212	clad
-4.074935	claim
-5.838364	claim'd
-5.838364	claiming
-4.935274	claims
-5.537333	clamb'ring
-5.838364	clamber
-5.838364	clammer
-5.537333	clamor
-5.838364	clamor'd
-4.884121	clamorous
-5.838364	clamors
-4.72442	clamour
-5.060212	clamours
-5.838364	clang
-5.838364	clangor
-4.72442	clap
-5.838364	clap's
-4.662272	clapp'd
-5.838364	clapped
-5.139393	clapper
-5.838364	clapping
-5.139393	claps
-5.838364	clare
-3.568851	clarence
-5.139393	clarence'
-5.838364	clarence's
-5.236303	claribel
-5.537333	clasp
-5.838364	clasp'd
-5.537333	clasps
-5.838364	clatter
-3.781459	claud
-3.65652	claudio
-5.060212	claudio's
-5.537333	claudius
-5.838364	clause
-5.236303	claw
-5.838364	claw'd
-5.838364	clawed
-5.838364	clawing
-5.361242	claws
-4.662272	clay
-5.838364	clays
-4.476636	clean
-5.838364	cleanliest
-5.236303	cleanly
-5.838364	cleans'd
-5.537333	cleanse
-5.838364	cleansing
-4.090176	clear
-5.060212	clear'd
-5.236303	clearer
-5.838364	clearest
-5.236303	clearly
-5.361242	clearness
-5.236303	clears
-4.796971	cleave
-5.537333	cleaving
-4.993266	cleft
-5.537333	cleitus
-5.838364	clemency
-5.537333	clement
-5.361242	clement's
-4.692235	cleomenes
-3.465451	cleopatra
-4.607914	cleopatra's
-5.838364	clepeth
-5.838364	clept
-5.838364	clerestories
-5.838364	clergy
-5.838364	clergy's
-5.838364	clergyman
-5.361242	clergymen
-4.55961	clerk
-5.838364	clerk's
-5.361242	clerkly
-5.236303	clerks
-5.838364	clew
-5.838364	client
-5.838364	clients
-5.361242	cliff
-3.766482	clifford
-5.236303	clifford's
-5.838364	cliffords
-5.537333	cliffs
-5.361242	clifton
-4.935274	climate
-5.838364	climate's
-5.838364	climature
-4.537333	climb
-5.537333	climb'd
-5.838364	climbed
-5.838364	climber
-5.838364	climbeth
-4.993266	climbing
-5.537333	climbs
-4.993266	clime
-5.537333	cling
-5.361242	clink
-5.838364	clinquant
-4.993266	clip
-5.236303	clipp'd
-5.838364	clipper
-5.838364	clippeth
-5.838364	clipping
-5.537333	clipt
-4.692235	clitus
-5.838364	clo'es
-4.42339	cloak
-5.838364	cloakbag
-5.139393	cloaks
-4.319849	clock
-5.838364	clock's
-5.139393	clocks
-5.537333	clod
-5.838364	cloddy
-5.838364	clodpole
-5.060212	clog
-5.838364	clogging
-5.537333	clogs
-5.139393	cloister
-5.838364	cloister'd
-5.838364	cloistress
-5.838364	cloquence
-5.139393	clos'd
-3.865236	close
-5.236303	closed
-4.935274	closely
-5.838364	closeness
-5.838364	closer
-5.361242	closes
-5.838364	closest
-4.458152	closet
-5.361242	closing
-5.537333	closure
-3.856092	cloten
-4.993266	clotens
-4.634243	cloth
-5.838364	clothair
-5.838364	clotharius
-5.060212	clothe
-4.333213	clothes
-5.838364	clothiers
-5.838364	clothing
-5.838364	clotpoles
-5.537333	clotpoll
-4.440423	cloud
-5.236303	clouded
-5.838364	cloudiness
-4.082489	clouds
-4.838364	cloudy
-5.060212	clout
-5.537333	clouted
-5.838364	clouts
-5.139393	cloven
-5.838364	clover
-5.838364	cloves
-5.838364	clovest
-5.838364	clowder
-3.327819	clown
-5.537333	clownish
-5.361242	clowns
-5.361242	cloy
-5.139393	cloy'd
-5.537333	cloyed
-5.838364	cloying
-5.838364	cloyless
-5.838364	cloyment
-5.838364	cloys
-4.935274	club
-4.884121	clubs
-5.838364	cluck'd
-5.361242	clust'ring
-5.537333	clusters
-5.361242	clutch
-5.537333	clutch'd
-5.838364	cneius
-5.838364	cnemies
-5.139393	co
-5.838364	co'fil
-5.139393	coach
-5.838364	coaches
-5.838364	coachmakers
-5.838364	coact
-5.838364	coactive
-5.838364	coagulate
-4.692235	coal
-4.993266	coals
-5.838364	coarsely
-4.583091	coast
-5.537333	coasting
-5.838364	coasts
-4.375966	coat
-5.361242	coated
-4.537333	coats
-5.838364	coats'
-5.838364	cobble
-5.838364	cobbler
-5.236303	cobham
-5.838364	cobloaf
-4.796971	cobweb
-5.838364	cobwebs
-4.375966	cock
-5.838364	cock'red
-5.838364	cock'rel
-5.838364	cock'rels
-5.838364	cock's
-5.838364	cockatrice
-5.838364	cockatrices
-5.236303	cockle
-5.537333	cockney
-5.361242	cocks
-5.838364	cocksure
-5.838364	coctus
-5.838364	cocytus'
-5.838364	cod's
-5.838364	codding
-5.838364	codling
-5.139393	codpiece
-5.838364	codpieces
-5.838364	cods
-5.838364	coelestibus
-5.838364	coesar's
-5.060212	coeur
-4.993266	coffer
-4.759182	coffers
-4.662272	coffin
-5.838364	coffind
-5.537333	coffins
-4.993266	cog
-5.361242	cogging
-5.838364	cogitation
-5.838364	cogitations
-5.838364	cognition
-5.361242	cognizance
-5.838364	cogscomb
-5.838364	cohabitants
-5.838364	coher'd
-5.838364	cohere
-5.838364	coherence
-5.838364	coherent
-5.838364	cohorts
-5.838364	coif
-5.838364	coign
-4.884121	coil
-5.838364	coils
-4.516144	coin
-5.838364	coinage
-5.537333	coind
-5.838364	coining
-5.537333	coins
-5.537333	col
-5.537333	colbrand
-5.838364	colchos'
-3.583091	cold
-5.838364	cold'
-5.838364	cold'st
-5.060212	colder
-5.236303	coldest
-4.759182	coldly
-5.537333	coldness
-5.838364	coldspur
-5.838364	colebrook
-5.361242	colic
-5.838364	collar
-5.361242	collars
-5.537333	collateral
-5.838364	colleagued
-5.537333	collect
-4.838364	collected
-5.361242	collection
-5.361242	college
-5.838364	colleges
-5.537333	collied
-5.838364	collier
-5.537333	colliers
-5.838364	collop
-5.838364	colme's
-5.838364	colmekill
-5.838364	coloquintida
-5.361242	color
-5.060212	colors
-5.361242	colossus
-3.987105	colour
-4.72442	colour'd
-5.838364	colour's
-5.838364	colourable
-4.993266	coloured
-5.838364	colouring
-4.10597	colours
-5.838364	colours'
-5.236303	colt
-5.838364	colt's
-5.537333	colted
-5.361242	colts
-5.838364	columbine
-5.838364	columbines
-4.634243	colville
-4.634243	com'st
-5.838364	comagene
-5.139393	comb
-5.838364	comb'd
-4.476636	combat
-5.236303	combatants
-5.838364	combated
-5.361242	combating
-5.838364	combinate
-5.361242	combination
-5.537333	combind
-4.993266	combine
-5.236303	combined
-5.537333	combustion
-2.479667	come
-5.361242	come'
-5.838364	comedian
-5.838364	comedians
-4.796971	comedy
-5.838364	comeliness
-5.139393	comely
-5.838364	comer
-5.838364	comers
-3.098001	comes
-5.838364	comes't
-5.838364	comesisters
-4.884121	comest
-5.361242	comet
-5.236303	cometh
-5.537333	comets
-5.838364	comfect
-5.838364	comfit
-5.838364	comfits
-3.610477	comfort
-5.838364	comfort's
-4.796971	comfortable
-5.060212	comforted
-5.537333	comforter
-5.361242	comforting
-5.139393	comfortless
-4.537333	comforts
-5.537333	comic
-5.537333	comical
-3.692235	coming
-5.838364	comings
-3.893881	cominius
-5.838364	cominius'
-5.537333	comma
-3.639706	command
-5.838364	command'
-5.537333	command'st
-5.838364	commande
-4.270162	commanded
-4.884121	commander
-4.993266	commanders
-5.838364	commanders'
-4.935274	commanding
-4.692235	commandment
-5.537333	commandments
-4.407	commands
-5.838364	comme
-5.838364	commenc'd
-5.236303	commence
-5.838364	commenced
-5.838364	commencement
-5.838364	commences
-5.838364	commencing
-3.908945	commend
-4.935274	commendable
-4.935274	commendation
-4.759182	commendations
-4.884121	commended
-5.838364	commending
-4.607914	commends
-4.759182	comment
-5.838364	commentaries
-5.361242	commenting
-5.537333	comments
-5.236303	commerce
-5.838364	commingled
-5.361242	commiseration
-4.204895	commission
-5.838364	commissioners
-5.537333	commissions
-4.282061	commit
-5.838364	commit'st
-5.139393	commits
-5.838364	committ'st
-4.319849	committed
-5.236303	committing
-5.838364	commix
-5.838364	commixtion
-5.537333	commixture
-5.838364	commodious
-5.361242	commodities
-4.607914	commodity
-3.701643	common
-5.838364	commonalty
-4.935274	commoner
-5.139393	commoners
-5.236303	commonly
-4.458152	commons
-5.236303	commons'
-5.838364	commonst
-4.993266	commonweal
-4.42339	commonwealth
-5.060212	commotion
-5.537333	commotions
-5.236303	commune
-5.838364	communicat'st
-5.537333	communicate
-5.537333	communication
-5.838364	communities
-5.838364	community
-5.838364	comonty
-4.796971	compact
-4.838364	companies
-4.319849	companion
-4.662272	companions
-5.838364	companions'
-5.838364	companionship
-3.587944	company
-5.838364	company'
-5.838364	company's
-5.838364	compar'd
-5.537333	comparative
-4.55961	compare
-5.361242	compared
-5.060212	comparison
-4.884121	comparisons
-5.838364	compartner
-4.42339	compass
-5.139393	compass'd
-5.838364	compasses
-5.537333	compassing
-4.935274	compassion
-5.537333	compassionate
-5.537333	compeers
-4.935274	compel
-4.796971	compelld
-5.838364	compelled
-5.838364	compelling
-5.838364	compensation
-5.838364	competence
-5.537333	competency
-5.838364	competent
-5.361242	competitor
-5.139393	competitors
-5.838364	compild
-5.838364	compile
-5.537333	compiled
-4.662272	complain
-5.838364	complaind
-5.838364	complainer
-5.838364	complainest
-5.139393	complaining
-5.838364	complainings
-5.838364	complains
-4.759182	complaint
-4.884121	complaints
-5.361242	complement
-5.838364	complements
-4.583091	complete
-4.282061	complexion
-5.361242	complexions
-5.236303	complices
-5.838364	complies
-4.935274	compliment
-5.838364	complimental
-5.537333	compliments
-5.537333	complot
-5.361242	complots
-5.838364	complotted
-5.537333	comply
-4.935274	compos'd
-5.838364	compose
-5.361242	composed
-4.634243	composition
-5.838364	compost
-5.838364	composture
-5.361242	composure
-4.583091	compound
-4.884121	compounded
-5.060212	compounds
-5.537333	comprehend
-5.838364	comprehended
-5.838364	comprehends
-5.838364	compremises
-5.838364	comprising
-5.838364	compromis'd
-5.361242	compromise
-5.361242	compt
-5.838364	comptible
-5.838364	comptrollers
-4.884121	compulsion
-5.537333	compulsive
-5.838364	compunctious
-5.537333	computation
-5.537333	comrade
-5.838364	comutual
-4.42339	con
-5.361242	concave
-5.838364	concavities
-4.72442	conceal
-5.139393	conceald
-5.236303	concealed
-5.361242	concealing
-5.236303	concealment
-5.838364	concealments
-5.838364	conceals
-4.282061	conceit
-5.838364	conceit's
-4.935274	conceited
-5.838364	conceitless
-5.139393	conceits
-5.060212	conceiv'd
-4.476636	conceive
-5.236303	conceived
-5.537333	conceives
-5.139393	conceiving
-5.060212	conception
-5.838364	conceptions
-5.838364	conceptious
-4.884121	concern
-5.838364	concernancy
-5.838364	concernd
-5.838364	concerneth
-4.759182	concerning
-5.537333	concernings
-4.607914	concerns
-5.838364	conclave
-5.838364	conclud'st
-4.42339	conclude
-4.634243	concluded
-5.060212	concludes
-5.838364	concluding
-4.440423	conclusion
-5.236303	conclusions
-5.838364	concolinel
-4.884121	concord
-5.838364	concubine
-5.838364	concupiscible
-5.838364	concupy
-5.838364	concur
-5.838364	concurring
-5.838364	concurs
-4.692235	condemn
-5.361242	condemnation
-4.375966	condemnd
-4.935274	condemned
-5.537333	condemning
-5.537333	condemns
-5.537333	condescend
-5.537333	condign
-4.130794	condition
-5.838364	conditionally
-5.537333	conditiond
-4.458152	conditions
-5.537333	condole
-5.838364	condolement
-5.838364	condoling
-5.537333	conduce
-4.194911	conduct
-5.537333	conducted
-5.838364	conducting
-5.838364	conductor
-5.537333	conduit
-5.537333	conduits
-5.838364	conected
-5.838364	coney
-5.838364	confection
-5.838364	confectionary
-5.838364	confections
-5.236303	confederacy
-4.993266	confederate
-4.935274	confederates
-4.692235	confer
-4.391205	conference
-5.361242	conferr'd
-5.537333	conferring
-3.793041	confess
-4.607914	confess'd
-5.838364	confess't
-5.537333	confessed
-5.537333	confesses
-5.838364	confesseth
-5.537333	confessing
-4.634243	confession
-5.361242	confessions
-4.884121	confessor
-5.838364	confessor's
-4.692235	confidence
-4.634243	confident
-5.537333	confidently
-4.662272	confind
-4.607914	confine
-5.236303	confined
-5.838364	confineless
-5.838364	confiners
-4.884121	confines
-5.537333	confining
-4.537333	confirm
-4.796971	confirm'd
-5.139393	confirmation
-5.537333	confirmations
-5.838364	confirmed
-5.838364	confirmer
-5.838364	confirmers
-5.838364	confirming
-5.838364	confirmities
-5.236303	confirms
-5.361242	confiscate
-5.838364	confiscated
-5.838364	confixed
-4.993266	conflict
-5.537333	conflicting
-5.838364	conflicts
-5.838364	confluence
-5.838364	conflux
-5.838364	conform
-5.537333	conformable
-4.361242	confound
-4.993266	confounded
-5.236303	confounding
-4.838364	confounds
-5.361242	confront
-5.236303	confronted
-5.236303	confus'd
-5.139393	confused
-5.838364	confusedly
-4.391205	confusion
-5.361242	confusions
-5.838364	confutation
-5.537333	confutes
-5.838364	congeal
-5.236303	congeald
-5.537333	congealed
-5.838364	congealment
-5.838364	congee
-5.537333	conger
-5.838364	congied
-5.838364	congratulate
-5.838364	congreeing
-5.838364	congreeted
-5.838364	congregate
-5.537333	congregated
-5.361242	congregation
-5.838364	congregations
-5.838364	congruent
-5.838364	congruing
-5.838364	conies
-5.537333	conjectural
-5.236303	conjecture
-5.236303	conjectures
-5.236303	conjoind
-5.838364	conjoined
-5.838364	conjoins
-5.537333	conjointly
-5.537333	conjunct
-4.935274	conjunction
-5.838364	conjunctive
-5.361242	conjur'd
-5.139393	conjuration
-5.838364	conjurations
-4.476636	conjure
-5.236303	conjured
-5.139393	conjurer
-5.537333	conjurers
-5.537333	conjures
-5.838364	conjuring
-5.236303	connd
-5.838364	connected
-5.838364	connive
-5.838364	conqu'ring
-4.634243	conquer
-4.796971	conquer'd
-4.993266	conquered
-5.236303	conquering
-4.55961	conqueror
-5.838364	conqueror's
-5.060212	conquerors
-5.361242	conquers
-4.458152	conquest
-5.838364	conquests
-5.838364	conquring
-4.935274	conrade
-5.838364	consanguineous
-5.838364	consanguinity
-5.838364	conscienc'd
-3.813058	conscience
-5.838364	conscience'
-5.236303	consciences
-5.838364	conscionable
-4.935274	consecrate
-5.361242	consecrated
-5.838364	consecrations
-3.92455	consent
-4.935274	consented
-5.236303	consenting
-5.060212	consents
-4.634243	consequence
-5.537333	consequence'
-5.838364	consequences
-5.361242	consequently
-5.838364	conserve
-5.838364	conserved
-5.361242	conserves
-4.175606	consider
-4.884121	consider'd
-5.838364	considerance
-5.838364	considerate
-4.935274	consideration
-5.838364	considerations
-4.935274	considered
-5.361242	considering
-5.838364	considerings
-5.838364	considers
-5.361242	consign
-5.838364	consignd
-5.838364	consigning
-5.537333	consist
-5.838364	consisteth
-5.537333	consisting
-5.361242	consistory
-5.361242	consists
-5.838364	consolate
-5.838364	consolation
-5.537333	consonancy
-5.838364	consonant
-4.838364	consort
-4.993266	consorted
-5.838364	consortest
-5.838364	conspectuities
-5.361242	conspir'd
-4.72442	conspiracy
-5.838364	conspirant
-4.692235	conspirator
-4.935274	conspirators
-5.838364	conspirators'
-4.935274	conspire
-5.838364	conspired
-5.838364	conspirers
-5.838364	conspires
-5.838364	conspiring
-3.981031	constable
-5.537333	constable's
-5.361242	constables
-4.204895	constance
-5.838364	constancies
-4.662272	constancy
-4.236303	constant
-5.838364	constantine
-5.838364	constantinople
-5.139393	constantly
-5.838364	constellation
-5.537333	constitution
-5.838364	constrain
-4.935274	constraind
-5.361242	constrained
-5.838364	constraineth
-5.361242	constrains
-5.060212	constraint
-5.838364	constring'd
-4.993266	construction
-4.796971	construe
-4.458152	consul
-5.838364	consul'
-4.935274	consuls
-5.838364	consulship
-5.236303	consult
-5.838364	consulting
-5.838364	consults
-5.060212	consum'd
-5.838364	consum'st
-4.993266	consume
-5.361242	consumed
-5.838364	consumes
-5.060212	consuming
-5.236303	consummate
-5.537333	consummation
-5.236303	consumption
-5.838364	consumptions
-4.993266	contagion
-4.796971	contagious
-4.72442	contain
-5.361242	containd
-5.060212	containing
-4.796971	contains
-5.537333	contaminate
-5.361242	contaminated
-5.838364	contemn
-5.361242	contemnd
-5.838364	contemndest
-5.838364	contemned
-5.361242	contemning
-5.838364	contemns
-5.838364	contemplate
-4.796971	contemplation
-5.361242	contemplative
-4.194911	contempt
-5.537333	contemptible
-5.361242	contempts
-5.537333	contemptuous
-5.838364	contemptuously
-4.759182	contend
-5.236303	contending
-5.838364	contendon
-3.671046	content
-5.838364	contenta
-4.42339	contented
-5.838364	contenteth
-4.993266	contention
-5.537333	contentious
-5.838364	contentless
-5.838364	contento'
-4.495941	contents
-5.838364	contents'
-5.838364	contest
-5.838364	contestation
-5.838364	continence
-5.537333	continency
-4.759182	continent
-5.361242	continents
-5.838364	continu'd
-4.838364	continual
-5.361242	continually
-4.935274	continuance
-5.537333	continuate
-4.375966	continue
-5.139393	continued
-5.838364	continuer
-4.993266	continues
-5.838364	continuing
-4.495941	contract
-4.796971	contracted
-5.838364	contracting
-5.838364	contraction
-5.139393	contradict
-5.838364	contradicted
-5.361242	contradiction
-5.838364	contradicts
-5.236303	contraries
-5.838364	contrarieties
-5.838364	contrariety
-5.537333	contrarious
-5.838364	contrariously
-4.215114	contrary
-5.838364	contre
-5.537333	contribution
-5.838364	contributors
-5.838364	contrite
-5.060212	contriv'd
-5.060212	contrive
-5.236303	contrived
-5.236303	contriver
-5.537333	contrives
-5.361242	contriving
-4.662272	control
-5.361242	controlld
-5.537333	controller
-5.139393	controlling
-5.236303	controlment
-5.838364	controls
-5.838364	controlt
-4.838364	controversy
-5.361242	contumelious
-5.838364	contumeliously
-5.838364	contumely
-5.838364	contusions
-5.236303	convenience
-5.537333	conveniences
-5.537333	conveniency
-4.607914	convenient
-5.236303	conveniently
-5.537333	convented
-5.838364	conventicles
-5.838364	convents
-5.236303	convers'd
-5.537333	conversant
-4.935274	conversation
-5.838364	conversations
-4.537333	converse
-5.838364	conversed
-5.838364	converses
-5.537333	conversing
-5.838364	conversion
-4.884121	convert
-4.993266	converted
-5.838364	convertest
-5.361242	converting
-5.838364	convertite
-5.838364	convertites
-5.537333	converts
-4.333213	convey
-4.692235	convey'd
-4.993266	conveyance
-5.537333	conveyances
-5.838364	conveyers
-5.838364	conveying
-5.838364	convict
-5.838364	convicted
-5.139393	convince
-5.838364	convinced
-5.838364	convinces
-5.838364	convive
-5.537333	convocation
-4.993266	convoy
-5.838364	convulsions
-5.139393	cony
-4.634243	cook
-5.537333	cook'd
-5.537333	cookery
-5.361242	cooks
-4.407	cool
-5.361242	coold
-5.838364	cooled
-5.060212	cooling
-5.139393	cools
-5.838364	coop'd
-5.838364	coops
-5.361242	cop'd
-5.838364	cop'st
-5.838364	copatain
-4.884121	cope
-5.361242	cophetua
-5.361242	copied
-5.537333	copies
-5.838364	copious
-4.993266	copper
-5.838364	copperspur
-5.838364	coppice
-5.537333	copulation
-5.838364	copulatives
-4.72442	copy
-5.838364	copy's
-4.391205	cor
-5.537333	coragio
-5.537333	coral
-5.838364	corambus
-5.838364	coranto
-5.838364	corantos
-5.838364	corbo
-4.935274	cord
-5.537333	corded
-4.361242	cordelia
-4.884121	cordial
-5.838364	cordis
-4.759182	cords
-5.236303	core
-4.361242	corin
-4.993266	corinth
-3.543897	coriolanus
-5.838364	coriolanus'
-5.838364	coriolanuswho
-4.458152	corioli
-5.537333	cork
-5.838364	corky
-5.236303	cormorant
-3.940737	corn
-5.838364	cornelia
-4.55961	cornelius
-4.55961	corner
-5.838364	corner'd
-5.060212	corners
-5.838364	cornerstone
-4.692235	cornets
-5.537333	cornish
-5.537333	corns
-5.838364	cornuto
-4.583091	cornwall
-5.838364	cornwalls
-5.838364	corollary
-5.537333	coronal
-4.516144	coronation
-4.884121	coronet
-5.361242	coronets
-4.516144	corporal
-5.838364	corporals
-5.537333	corporate
-4.884121	corpse
-5.838364	corpulent
-5.060212	correct
-5.838364	corrected
-5.838364	correcting
-4.583091	correction
-5.838364	correctioner
-5.537333	corrects
-5.838364	correspondent
-5.838364	corresponding
-5.838364	corresponsive
-5.537333	corrigible
-5.838364	corrival
-5.838364	corrivals
-5.838364	corroborate
-5.537333	corrosive
-4.458152	corrupt
-4.634243	corrupted
-5.537333	corrupter
-5.838364	corrupters
-5.838364	corruptible
-5.838364	corruptibly
-5.361242	corrupting
-4.634243	corruption
-5.838364	corruptly
-5.838364	corrupts
-4.407	corse
-5.537333	corses
-5.838364	corslet
-5.838364	cosmo
-4.204895	cost
-3.800937	costard
-5.838364	costard'
-5.838364	costermongers'
-5.838364	costlier
-4.796971	costly
