
\data\
ngram 1=6890
ngram 2=29106

\1-grams:
-4.300769	'	-0.05970065
-4.601799	''all	-0.0601681
-4.601799	''among	-0.05982028
-4.601799	''and	-0.06004857
-4.601799	''but	-0.05917826
-4.601799	''how	-0.06018983
-4.601799	''lo	-0.05735585
-4.601799	''look	-0.05975503
-4.601799	''my	-0.06009204
-4.601799	''now	-0.0576838
-4.300769	''o	-0.05862252
-4.601799	''the	-0.06020069
-3.999739	''tis	-0.1465861
-4.601799	''when	-0.05626092
-4.300769	'a	-0.059929
-4.601799	'adieu'	0.004411165
-4.300769	'alas	-0.05592092
-4.601799	'all	-0.05756358
-3.522618	'and	-0.08929975
-4.601799	'arise	0.004411165
-4.300769	'art	-0.2527981
-4.300769	'as	-0.0577712
-4.601799	'at	-0.06017897
-4.601799	'awake	-0.05626092
-4.601799	'ay	-0.06018983
-4.601799	'behold	-0.05997249
-4.601799	'bonnet	-0.05925448
-3.647557	'but	-0.1376135
-4.300769	'by	-0.05704955
-4.300769	'can	-0.06016809
-4.601799	'cannot'	-0.06008117
-4.601799	'chaste'	-0.06020069
-4.601799	'come	-0.06017897
-4.601799	'courageous	-0.06012464
-4.601799	'daughter	-0.05983116
-4.300769	'dear	-0.2566184
-4.601799	'desire	-0.06009204
-4.601799	'didst	-0.05626092
-4.601799	'disturb	-0.05358867
-4.601799	'do	-0.05622803
-4.601799	'dost	-0.05626092
-4.601799	'em	-0.05977679
-4.601799	'expected	-0.06009204
-4.300769	'fair	-0.06014637
-4.601799	'father'	-0.0569401
-4.601799	'few	-0.06020069
-4.124678	'fie	-0.0601681
-4.601799	'fondling'	-0.0569401
-4.601799	'fool	-0.06020069
-3.647557	'for	-0.05694011
-3.487856	'gainst	-0.05310611
-4.601799	'gan	-0.06010291
-4.601799	'gentle	-0.06009204
-4.300769	'gins	-0.0600703
-4.300769	'give	-0.06018982
-4.601799	'go	-0.06011377
-4.300769	'good	-0.2567053
-4.124678	'had	-0.05816434
-4.601799	'hard	-0.06017897
-4.300769	'hast	-0.2527981
-4.601799	'have	-0.06020069
-4.300769	'he	-0.05648012
-4.601799	'he'	-0.05580022
-4.601799	'her	-0.06017897
-4.124678	'his	-0.06009204
-4.601799	'holla'	-0.05845894
-3.999739	'how	-0.0571918
-3.647557	'i	-0.1317582
-3.756701	'if	-0.07187686
-3.902829	'in	-0.05773843
-4.601799	'is	-0.05955923
-3.999739	'it	-0.3048391
-4.601799	'kill	-0.06020069
-4.601799	'leave	-0.05865524
-4.601799	'lest	-0.06018983
-3.902829	'let	-0.1258132
-4.601799	'lie	-0.06020069
-4.300769	'lo	-0.05924359
-4.601799	'long	-0.05937423
-4.300769	'look	-0.05966802
-4.601799	'love	-0.06020069
-4.601799	'lucrece'	-0.05979853
-4.601799	'madam	-0.05995075
-4.601799	'many	-0.05962451
-4.601799	'mine	-0.06017897
-4.601799	'mis	-0.06020069
-4.601799	'miss	0.004411165
-4.601799	'more	-0.05976591
-3.698709	'my	-0.0591347
-4.601799	'nay	-0.06020069
-4.601799	'nights	-0.06020069
-4.300769	'no	-0.06008117
-4.601799	'no'	0.004411165
-4.124678	'nor	-0.05678684
-4.601799	'not	-0.06020069
-3.999739	'now	-0.05102196
-3.240072	'o	-0.1008244
-4.601799	'o'	-0.05979853
-4.300769	'on	-0.05186444
-4.601799	'over	-0.06020069
-4.601799	'pity'	-0.0569401
-4.601799	'point'st	-0.06018983
-4.124678	'poor	-0.0595266
-4.601799	'pure	-0.0598529
-4.601799	'reward	-0.05622803
-4.601799	'say	-0.06011377
-4.601799	'scape	-0.06020069
-4.601799	'scaped	-0.05735585
-4.601799	'scapeth	-0.05737772
-4.300769	'shall	-0.06011377
-4.601799	'shameful	-0.06014637
-4.300769	'she	-0.05876425
-4.601799	'she's	-0.06018983
-4.601799	'show	-0.06020069
-4.300769	'since	-0.05459131
-4.601799	'small	-0.05983116
-3.756701	'so	-0.05227401
-4.601799	'some	-0.06015724
-4.601799	'sometime	-0.05649108
-4.601799	'stand	-0.06020069
-4.601799	'such	-0.06020069
-4.124678	'sweet	-0.05929803
-4.300769	't	0.009037226
-4.300769	'tarquin	-0.05654586
-3.999739	'that	-0.05154316
-3.560407	'the	-0.05802241
-3.999739	'then	-0.05011111
-4.601799	'therefore	-0.06010291
-4.601799	'these	-0.06018983
-4.601799	'they	-0.05995075
-4.601799	'think	-0.05619514
-3.647557	'this	-0.05657874
-3.698709	'thou	-0.05968978
-4.601799	'though	-0.05999422
-4.601799	'thrice	-0.06015724
-3.999739	'thus	-0.05615128
-4.601799	'thy	-0.06014637
-4.601799	'time's	-0.06005944
-3.07032	'tis	-0.09740063
-4.300769	'to	-0.1533908
-4.601799	'torches	-0.05865524
-4.601799	'twas	-0.06018983
-4.300769	'tween	-0.0535666
-4.601799	'twere	-0.06020069
-3.999739	'twixt	-0.05917827
-4.601799	'unless	-0.05626092
-4.601799	'unruly	-0.06018983
-4.601799	'upon	-0.06014637
-4.601799	'vilia	-0.06020069
-4.601799	'vouchsafe	-0.05626092
-4.300769	'well	-0.05911291
-4.300769	'were	-0.05980941
-3.756701	'what	-0.05274952
-4.124678	'when	-0.05584412
-4.300769	'where	-0.05771657
-4.601799	'who	-0.06009204
-3.698709	'why	-0.09699383
-4.124678	'will	-0.05831712
-4.601799	'will'	0.004411165
-4.300769	'with	-0.0573121
-4.601799	'witness	-0.05735585
-4.601799	'woe	-0.06020069
-4.601799	'yea	-0.059581
-4.300769	'yet	-0.059396
-3.999739	'you	-0.05840441
-4.601799	'young	-0.05664446
-4.601799	'your	-0.06017897
-4.601799	10	-0.05824073
-4.601799	100	-0.05737772
-4.601799	105	-0.059581
-4.601799	110	-0.06012464
-4.601799	115	-0.05926537
-4.601799	120	-0.06017897
-4.601799	125	-0.05873155
-4.601799	130	-0.06018983
-4.601799	135	-0.05701672
-4.601799	140	-0.05942865
-4.601799	145	-0.05900399
-4.601799	15	-0.06020069
-4.601799	150	-0.06014637
-4.601799	155	-0.05358867
-4.601799	160	-0.05918915
-4.601799	165	-0.06014637
-4.601799	170	-0.05701672
-4.601799	175	-0.05824073
-4.601799	180	-0.05876425
-4.601799	185	-0.05756358
-4.601799	190	-0.05876425
-4.601799	195	-0.05851348
-4.601799	20	-0.05982028
-4.601799	200	-0.05900399
-4.601799	205	-0.05975503
-4.601799	210	-0.06000509
-4.601799	215	-0.05619514
-4.601799	220	-0.05916737
-4.601799	225	-0.0601681
-4.601799	230	-0.05737772
-4.601799	235	-0.06012464
-4.601799	240	-0.05928715
-4.601799	245	-0.06012464
-4.601799	25	-0.05358867
-4.601799	250	-0.05851348
-4.601799	255	-0.05664446
-4.601799	260	-0.06010291
-4.601799	265	-0.06011377
-4.601799	270	-0.05735585
-4.601799	275	-0.05925448
-4.601799	280	-0.0601681
-4.601799	285	-0.05934158
-4.601799	290	-0.05943954
-4.601799	295	-0.05358867
-4.601799	30	-0.05976591
-4.601799	300	-0.05962451
-4.601799	305	-0.0601355
-4.601799	310	-0.05664446
-4.601799	315	-0.05925448
-4.601799	320	-0.06020069
-4.601799	325	-0.059581
-4.601799	330	-0.06018983
-4.601799	335	-0.06020069
-4.601799	340	-0.0591347
-4.601799	345	-0.05664446
-4.601799	35	-0.06015724
-4.601799	350	-0.05975503
-4.601799	355	-0.06020069
-4.601799	360	-0.06018983
-4.601799	365	-0.05824073
-4.601799	370	-0.06007031
-4.601799	375	-0.05619514
-4.601799	380	-0.05937423
-4.601799	385	-0.05889504
-4.601799	390	-0.05882965
-4.601799	395	-0.05619514
-4.601799	40	-0.05737772
-4.601799	400	-0.06018983
-4.601799	405	-0.06020069
-4.601799	410	-0.05989639
-4.601799	415	-0.2556936
-4.601799	420	-0.05942865
-4.601799	425	-0.05916737
-4.601799	430	-0.05851348
-4.601799	435	-0.05995075
-4.601799	440	-0.06002683
-4.601799	445	-0.05977679
-4.601799	45	-0.05934158
-4.601799	450	-0.06018983
-4.601799	455	-0.0601355
-4.601799	460	-0.05622803
-4.601799	465	-0.05619514
-4.601799	470	-0.05925448
-4.601799	475	-0.06005944
-4.601799	480	-0.06018983
-4.601799	485	-0.05940688
-4.601799	490	-0.05980941
-4.601799	495	-0.05664446
-4.601799	5	-0.05851348
-4.601799	50	-0.06002683
-4.601799	500	-0.05998336
-4.601799	505	-0.06020069
-4.601799	510	-0.05869885
-4.601799	515	-0.06014637
-4.601799	520	-0.06017897
-4.601799	525	-0.05358867
-4.601799	530	-0.05954836
-4.601799	535	-0.05358867
-4.601799	540	-0.05701672
-4.601799	545	-0.05873155
-4.601799	55	-0.05950483
-4.601799	550	-0.06015724
-4.601799	555	-0.05950483
-4.601799	560	-0.05701672
-4.601799	565	-0.05786952
-4.601799	570	-0.0601355
-4.601799	575	-0.05983116
-4.601799	60	-0.06017897
-4.601799	65	-0.06015724
-4.601799	70	-0.05915648
-4.601799	75	-0.05975503
-4.601799	80	-0.06018983
-4.601799	85	-0.06005944
-4.601799	90	-0.05649108
-4.601799	95	-0.05619514
-0.8593099	</s>
-99	<s>	-0.2312059
-3.902829	abhor	-0.1060908
-3.902829	abide	-0.5221741
-4.601799	able	-0.06007031
-4.601799	abled	-0.0601681
-4.300769	abomination	0.004411165
-4.601799	abominations	0.004411165
-3.647557	about	-0.0680723
-3.756701	above	-0.04176355
-4.601799	abridged	-0.06018983
-4.601799	abridgement	-0.05845894
-4.300769	abroad	-0.05773843
-3.823648	absence	-0.05813158
-4.124678	absent	-0.1783935
-4.601799	absolute	0.004411165
-4.601799	absolutely	-0.06015724
-4.601799	absolution	0.004411165
-4.601799	abstaining	0.004411165
-3.999739	abundance	-0.05938512
-4.601799	abundant	-0.06015724
-3.698709	abuse	-0.7628933
-4.300769	abused	0.004411165
-3.999739	abuses	-0.08200048
-4.601799	abusing	-0.05358867
-4.601799	abysm	-0.06020069
-4.124678	accents	-0.05860072
-4.601799	acceptable	-0.0601681
-4.124678	acceptance	-0.05842622
-4.124678	accessary	-0.05729024
-4.300769	accident	0.007485494
-4.601799	accidents	0.004411165
-4.601799	acclamation	-0.06010291
-4.300769	accompanied	-0.05357763
-4.601799	accomplish'd	-0.05989639
-4.601799	accorded	0.004411165
-4.601799	according	-0.05358867
-3.902829	account	0.00644562
-4.601799	accounted	-0.06012464
-4.601799	accumulate	0.004411165
-4.601799	accursed	0.004411165
-4.601799	accurst'	0.004411165
-4.300769	accuse	-0.05706049
-4.601799	ache	0.004411165
-4.601799	achieve	0.004411165
-4.601799	achilles'	-0.06009204
-4.601799	acknowledge	-0.05757451
-3.902829	acquaintance	-0.05545988
-4.124678	acquainted	-0.1162482
-4.300769	acquit	-0.05776028
-4.601799	across	0.004411165
-3.698709	act	0.01214458
-3.823648	action	-0.0503112
-4.124678	actions	-0.05868795
-4.300769	active	-0.05979853
-4.300769	actor	-0.06009204
-4.601799	actors	-0.05930892
-4.601799	acts	-0.05968978
-4.601799	acture	-0.05841531
-3.999739	add	-0.04761317
-4.124678	added	-0.05980941
-4.300769	adder	0.004436381
-4.601799	adder's	-0.06011377
-4.601799	addeth	-0.05358867
-4.300769	addicted	-0.0560745
-4.601799	adding	-0.05884055
-4.300769	addition	-0.05706049
-4.601799	address'd	-0.06012464
-4.300769	adds	-0.05881875
-4.601799	adieu	0.004411165
-4.124678	adjunct	-0.06001597
-4.601799	admiration	-0.05649108
-4.601799	admire	0.004411165
-3.999739	admired	0.00681309
-4.601799	admires	0.004411165
-4.601799	admit	-0.06018983
-4.601799	admits	-0.05619514
-4.601799	admitted	-0.05962451
-4.601799	ado	-0.05993988
-4.601799	adon	-0.0601681
-3.487856	adonis	-0.01087212
-3.999739	adonis'	-0.05870976
-4.601799	adons	-0.05975503
-4.300769	adore	0.0121061
-4.601799	adored	-0.05737772
-4.601799	adorn	-0.05963539
-4.300769	adorned	0.0121061
-4.124678	adulterate	-0.05691822
-3.999739	advance	-0.2418556
-3.756701	advantage	-0.05273847
-4.601799	adventers	0.004411165
-4.601799	adverse	-0.06018983
-4.124678	advice	0.004600301
-4.124678	advised	-0.05610741
-3.999739	advisedly	-0.1553416
-4.601799	advocate	0.004411165
-4.601799	aetna	-0.06010291
-4.601799	afar	0.004411165
-4.601799	afeard	-0.06017897
-4.601799	affable	-0.06020069
-4.124678	affairs	-0.05343421
-4.601799	affect	-0.05974416
-4.300769	affected	0.004802141
-4.601799	affectedly	0.004411165
-3.823648	affection	-0.05589898
-3.902829	affections	-0.05306992
-4.601799	afflict	-0.05818616
-4.601799	afflicted	-0.06018983
-4.601799	affliction	-0.05995075
-4.601799	afford	0.004411165
-3.999739	affords	-0.5843872
-4.300769	affright	0.005648404
-4.601799	afloat	0.004411165
-4.300769	afraid	0.004411165
-4.601799	afresh	-0.05976591
-3.221588	after	-0.01143462
-4.300769	afterwards	-0.05347834
-3.057731	again	-0.3619385
-4.601799	again'	0.004411165
-3.033598	against	-0.1372185
-3.139401	age	-0.2589777
-4.300769	age's	-0.06011377
-4.300769	aged	-0.05968978
-4.601799	agents	-0.06014637
-4.601799	ages	-0.05900399
-4.601799	aggravate	-0.05578925
-4.601799	ago	0.004411165
-4.300769	agrees	0.004411165
-4.601799	agues	-0.05995075
-3.698709	ah	-0.04768026
-3.902829	aid	-0.3866835
-4.601799	aidance	-0.05980941
-4.601799	aids	-0.05998336
-3.823648	aim	0.009725839
-3.601799	air	-0.1575496
-4.601799	airy	-0.06017897
-4.601799	ajax	-0.06018983
-4.601799	ajax'	-0.05882965
-4.300769	alabaster	-0.06016809
-4.124678	alack	0.01072241
-4.601799	alarm	-0.05977679
-4.300769	alarms	-0.05844803
-4.601799	alarum	-0.06018983
-4.601799	alarums	-0.05649108
-4.124678	alas	-0.05843713
-4.300769	alchemy	-0.192126
-4.601799	alien	-0.06008117
-4.601799	alight	-0.05578925
-4.300769	alike	-0.06011377
-3.823648	alive	-0.2004044
-4.601799	alive'	0.004411165
-2.236311	all	-0.04083888
-4.601799	allayed	0.004411165
-4.601799	allege	-0.05844804
-4.601799	allotted	0.004411165
-4.124678	allow	-0.3695251
-4.601799	almighty	-0.06020069
-3.999739	almost	-0.0596354
-4.601799	aloes	-0.0576838
-4.300769	aloft	-0.05344524
-3.259377	alone	-0.374075
-4.601799	along	-0.05701672
-4.601799	aloof	0.004411165
-4.300769	aloud	-0.192126
-4.300769	already	-0.2566184
-4.601799	alt'ring	-0.05995075
-4.601799	altar	-0.06020069
-4.601799	altars	-0.05896041
-4.124678	alter	-0.1742653
-4.300769	altered	-0.05930892
-4.601799	alters	-0.05622803
-3.487856	although	-0.07587854
-4.601799	alway	-0.06012464
-4.124678	always	-0.05979854
-2.968331	am	-0.101351
-4.601799	am'	-0.05979853
-4.601799	amaze	-0.05358867
-4.124678	amazed	-0.1162734
-4.601799	amazedly	-0.05580022
-4.601799	amazeth	0.004411165
-4.601799	amber	-0.0601355
-4.124678	ambition	0.00489049
-4.601799	ambitious	-0.05983116
-4.300769	ambush	-0.06002683
-4.601799	amen	0.004411165
-4.601799	amend	0.004411165
-4.601799	amended	0.004411165
-4.300769	amends	-0.192126
-4.601799	amid	-0.05756358
-4.124678	amidst	-0.05954836
-4.601799	amis	0.004411165
-4.124678	amiss	-0.1152889
-4.601799	amity	0.004411165
-3.823648	among	0.004840009
-3.902829	amongst	-0.1734996
-4.601799	amorous	-0.06014637
-4.601799	amorously	-0.06020069
-4.601799	ampler	-0.06010291
-4.601799	amplify	0.004411165
-2.929702	an	-0.09727721
-4.601799	anatomized	0.004411165
-4.601799	anchored	-0.06018983
-4.601799	ancient	-0.06020069
-3.999739	anew	-0.03665067
-3.999739	angel	-0.05957012
-4.601799	angels	-0.06018983
-4.300769	anger	-0.05987464
-3.647557	angry	-0.1446584
-4.300769	annexed	-0.05573437
-3.999739	annoy	-0.5843872
-3.698709	anon	-0.06361754
-3.203859	another	-0.05717183
-3.999739	another's	-0.05960276
-3.698709	answer	-0.03974736
-4.601799	answer'd	-0.05756358
-4.601799	answered	-0.05968978
-4.601799	answering	-0.05954836
-4.124678	answers	-0.05805517
-4.601799	anthem	-0.05917826
-4.601799	anticipate	0.004411165
-4.601799	antics	-0.06015724
-3.902829	antique	-0.1280595
-4.601799	antiquities	-0.06020069
-4.601799	antiquity	-0.06020069
-3.27958	any	-0.03169086
-4.601799	apace	0.004411165
-4.601799	apollo	0.004411165
-4.601799	apologies	-0.05968978
-4.601799	appaid	0.004411165
-4.601799	appals	-0.05580022
-4.601799	apparitions	-0.06015724
-4.124678	appeal	0.004650757
-3.756701	appear	-0.3923358
-4.601799	appearance	-0.05987465
-4.601799	appearing	-0.05988552
-3.823648	appears	-0.2703057
-4.601799	appertainings	-0.06014637
-3.823648	appetite	-0.04659821
-4.300769	applause	-0.06018982
-4.601799	apple	-0.05819707
-3.999739	applied	-0.2419564
-4.300769	applying	-0.1584826
-4.601799	apprehension	0.004411165
-4.601799	approach	-0.05927626
-4.124678	approve	-0.2037312
-3.902829	april	-0.05507529
-4.601799	aprils	-0.05998336
-4.601799	apt	-0.05701672
-4.124678	aptly	-0.05991814
-4.300769	aptness	-0.05700577
-4.601799	aqua'	0.004411165
-4.601799	arbitrators	0.004411165
-4.601799	arch	-0.06018983
-4.124678	ardea	-0.05753079
-2.446463	are	-0.07569856
-4.601799	argued	-0.05737772
-3.756701	argument	-0.2418848
-4.601799	arguments	-0.06015724
-4.601799	aright	0.004411165
-4.601799	arise	0.004411165
-4.601799	ariseth	-0.05358867
-4.601799	arising	0.004411165
-4.300769	arm	0.004461594
-4.300769	arm'd	0.0121061
-4.601799	armed	-0.05914559
-4.601799	armour	-0.05917826
-3.425708	arms	-0.09881944
-4.601799	army	-0.06017897
-4.300769	array	0.004411165
-4.300769	arrest	0.005319811
-4.601799	arrival	-0.05911292
-4.601799	arrive	-0.05358867
-4.601799	arrived	0.004411165
-4.601799	arrow	-0.0591347
-2.738477	art	-0.1420934
-4.601799	art'	-0.05979853
-4.601799	art's	-0.05974416
-2.134932	as	-0.1324495
-4.124678	ashamed	0.005370341
-4.300769	ashes	-0.05211908
-4.124678	ashy	-0.1806279
-4.124678	aside	-0.3695251
-4.124678	ask	-0.05399662
-4.601799	ask'd	-0.05756358
-4.300769	askance	-0.05382025
-4.601799	asked	-0.05918915
-4.601799	asks	-0.06005944
-4.300769	asleep	-0.192126
-4.300769	aspect	0.004486814
-4.601799	aspects	-0.05894952
-4.124678	aspire	-0.3695251
-4.601799	aspiring	-0.06020069
-4.300769	assail	0.004474204
-4.300769	assaild	-0.05704955
-4.300769	assailed	0.006445631
-4.601799	assails	0.004411165
-3.999739	assault	-0.05930893
-4.601799	assay	0.004411165
-4.601799	assay'd	-0.05701672
-4.601799	assays	0.004411165
-4.601799	assemble	0.004411165
-4.601799	assist	-0.06012464
-4.601799	assistance	-0.05993988
-4.300769	assuage	0.004411165
-4.601799	assuaged	0.004411165
-4.300769	assure	-0.05754171
-3.823648	assured	-0.1424449
-4.601799	astonish'd	-0.05735585
-4.601799	astonished	0.004411165
-4.601799	astronomy	0.004411165
-4.601799	asunder	0.004411165
-2.606164	at	-0.1201475
-4.601799	attained	0.004411165
-4.124678	attaint	-0.1153
-4.601799	attainted	0.004411165
-4.601799	attempt	-0.05845894
-3.823648	attend	-0.08688287
-4.124678	attended	-0.2125855
-4.601799	attending	-0.0601681
-4.601799	attends	-0.0569401
-4.300769	attention	-0.05980941
-4.601799	attire	0.004411165
-4.300769	attired	-0.06009204
-4.601799	audaciously	0.004411165
-4.601799	audacity	0.004411165
-4.300769	audience	-0.05771657
-3.999739	audit	-0.05652396
-4.124678	aught	-0.05168924
-4.601799	augment	-0.05756358
-4.601799	augmenting	0.004411165
-4.601799	augurs	-0.0601355
-4.601799	auspicious	-0.06004857
-4.300769	author	-0.05311408
-4.124678	authority	-0.1159076
-4.601799	authorized	-0.05989639
-4.601799	authorizing	-0.05578925
-4.601799	authors	-0.05756358
-4.300769	autumn	-0.06016809
-4.300769	avails	-0.0601355
-4.601799	avaunt	-0.06020069
-4.601799	avouched	-0.05997249
-4.601799	awake	0.004411165
-4.601799	awakes	-0.05911292
-4.601799	awaketh	0.004411165
-4.601799	awards	-0.06008117
-3.124678	away	-0.3953465
-4.601799	awe'	0.004411165
-4.601799	awed	-0.06018983
-4.601799	awhile	-0.05851348
-3.823648	ay	-0.05449225
-4.601799	aye	-0.05358867
-4.601799	azure	-0.0601681
-3.902829	babe	-0.05228508
-4.601799	babes	-0.05824073
-3.240072	back	-0.2405704
-4.300769	back'd	-0.06015723
-3.999739	backward	-0.04975514
-3.560407	bad	-0.1264372
-4.601799	badge	-0.0600377
-4.601799	badges	-0.06017897
-4.601799	badness	-0.06015724
-4.300769	bail	0.006091125
-4.601799	bait	0.004411165
-4.601799	baits	-0.05925448
-4.300769	balls	-0.05806608
-4.300769	balm	0.004461594
-4.601799	balmy	-0.05918915
-4.601799	ban	-0.05580022
-4.300769	band	-0.192126
-4.601799	bane	-0.05934158
-4.601799	banish'd	-0.05737772
-4.601799	banished	-0.0600377
-4.601799	banishment	0.004411165
-4.300769	bank	0.004524641
-3.999739	bankrupt	0.01106792
-3.999739	banks	-0.03866888
-4.601799	banner	-0.06020069
-4.601799	banning	-0.05358867
-4.601799	banquet	-0.0601355
-4.601799	bar	0.004411165
-3.647557	bare	-0.05753079
-4.300769	bareness	-0.05952659
-4.601799	bargains	-0.05937423
-3.999739	bark	0.005521983
-4.601799	bark'	0.004411165
-4.601799	barketh	0.004411165
-4.601799	barns	-0.06017897
-4.300769	baron	-0.256727
-4.124678	barr'd	-0.05796782
-3.647557	barren	-0.05892773
-4.300769	bars	0.007485494
-3.397679	base	-0.004020251
-4.124678	basely	-0.05996162
-4.601799	baser	-0.05649108
-4.124678	basest	-0.05997249
-4.300769	bashful	-0.05962451
-3.999739	bastard	-0.05955924
-4.601799	bastards	-0.05358867
-4.601799	bastardy	0.004411165
-4.601799	bat	0.004411165
-4.601799	bate	-0.06018983
-4.601799	bateless	-0.0601681
-4.124678	bath	-0.05749799
-4.601799	bathe	-0.05358867
-4.601799	bathed	-0.0569401
-4.300769	bathes	-0.05979853
-4.601799	batt'ring	-0.05992901
-4.300769	batter	-0.05894951
-4.124678	batter'd	-0.05711521
-4.601799	battery	-0.06018983
-4.601799	battery'	0.004411165
-3.999739	battle	-0.05967891
-4.601799	battle's	-0.06001597
-4.124678	bawd	0.004650757
-4.300769	bay	0.00559783
-4.300769	be'	0.008209795
-4.601799	beaded	-0.06020069
-4.300769	beak	-0.06017896
-4.124678	beams	-0.05803333
-3.139401	bear	-0.2473391
-4.300769	bear'st	-0.05304782
-4.300769	beard	0.007345855
-4.601799	bearer	-0.05824073
-3.647557	bearing	-0.06543719
-3.756701	bears	-0.04221941
-3.902829	beast	-0.0618281
-4.300769	beasts	-0.05917826
-4.300769	beat	-0.05867704
-4.124678	beaten	-0.05691822
-3.902829	beating	-0.1160956
-4.124678	beats	-0.05511925
-3.522618	beauteous	-0.05066673
-3.999739	beauties	0.01000669
-4.300769	beautiful	-0.05961363
-4.601799	beautify	0.004411165
-2.657317	beauty	-0.004964635
-3.323046	beauty's	-0.07402762
-4.601799	became	-0.05358867
-3.823648	because	-0.1370394
-4.601799	beck	0.004411165
-3.902829	become	-0.05014447
-4.300769	becomes	-0.06017896
-4.300769	becoming	-0.05750892
-3.346527	bed	-0.3362613
-4.601799	bedchamber	-0.06017897
-4.601799	bedrid	-0.06010291
-4.124678	beds	-0.1159959
-4.601799	beds'	-0.06020069
-4.601799	bee	-0.06010291
-3.27958	been	-0.04610984
-4.601799	bees	-0.05986378
-4.601799	befalln	-0.05626092
-4.601799	befits	0.004411165
-3.083285	before	-0.1449521
-4.601799	beforehand	-0.06017897
-4.601799	befriends	-0.0589822
-4.300769	beg	-0.05531706
-3.647557	began	-0.1111265
-4.601799	begets	-0.05818616
-4.601799	begets'	0.004411165
-4.601799	begg'd	-0.05756358
-4.300769	beggar	-0.06009204
-4.601799	beggar's	-0.06020069
-3.647557	begin	-0.4302712
-4.300769	beginning	-0.2527323
-3.647557	begins	-0.05931981
-4.601799	begot	-0.06011377
-4.601799	begotten	-0.05900399
-4.601799	begrimed	-0.06018983
-4.601799	begs	-0.0576838
-4.601799	beguile	0.004411165
-4.124678	beguiled	-0.1162734
-4.300769	beguiling	-0.1040514
-3.902829	begun	-0.5221741
-4.601799	behalf	-0.05925448
-4.601799	behavior	-0.06020069
-4.601799	behaviour	-0.05925448
-3.999739	beheld	-0.07416205
-4.601799	behests	0.004411165
-3.756701	behind	-0.2174101
-3.300769	behold	-0.425801
-4.300769	beholding	-0.06004857
-4.124678	beholds	-0.04987754
-4.601799	behoof	0.004411165
-2.67238	being	-0.02788989
-4.601799	beldam	-0.06018983
-4.601799	beldam's	-0.06007031
-4.124678	belied	-0.1157561
-3.999739	believe	-0.09424338
-4.601799	believed	-0.05580022
-4.300769	believing	-0.05420595
-4.124678	bell	-0.3695251
-4.601799	bells	0.004411165
-3.902829	belong	-0.5221741
-4.300769	belongs	0.004928358
-3.756701	beloved	-0.1361081
-4.300769	below	0.0121061
-4.601799	bemoaned	-0.0601355
-4.601799	bend	-0.05358867
-4.300769	bending	-0.05767287
-4.300769	bends	-0.05578924
-4.601799	beneath	-0.06017897
-4.300769	benefit	-0.05961363
-4.124678	bent	0.004739068
-4.601799	bepainted	-0.0576838
-3.999739	bequeath	-0.03539595
-4.601799	bequeath'd	0.004411165
-4.601799	bequest	-0.05999422
-4.300769	bereaves	0.004865251
-3.999739	bereft	-0.2396178
-4.601799	berries	0.004411165
-4.601799	berry	-0.06015724
-4.601799	beseech	-0.05757451
-4.601799	beseech'd	0.004411165
-4.601799	beseechers	-0.06007031
-4.300769	beseem	-0.05576729
-4.601799	beseeming	-0.06017897
-4.601799	beset	0.004411165
-4.601799	beshrew	-0.05911292
-3.902829	beside	-0.3791525
-3.999739	besides	-0.05273847
-3.999739	besiege	-0.05319139
-4.300769	besieged	-0.06009204
-4.601799	besmeared	-0.06020069
-4.601799	besotted	-0.0601681
-2.939042	best	-0.08457521
-4.601799	best'	0.004411165
-4.300769	bestow	0.005496707
-4.300769	bestow'd	0.00454985
-4.601799	bestow'st	0.004411165
-4.300769	betake	0.0067624
-4.601799	bethinking	-0.06020069
-4.601799	betokend	0.004411165
-3.823648	betray	-0.08760832
-4.300769	betray'd	0.004650764
-4.601799	betrayed	-0.05737772
-4.300769	betraying	-0.05868794
-4.601799	betrays	0.004411165
-4.601799	bett'ring	-0.05918915
-3.240072	better	-0.04413934
-4.601799	better'd	-0.05882965
-4.300769	bettered	-0.05313616
-4.601799	bettering	-0.05992901
-3.756701	between	-0.09797982
-4.601799	betwixt	-0.05914559
-4.601799	bevel	0.004411165
-4.601799	bewailed	-0.06015724
-4.601799	beweep	-0.06020069
-4.300769	bewitch'd	-0.05990726
-4.601799	bewitching	-0.0601355
-4.601799	bewray'd	0.004411165
-4.124678	beyond	-0.05753079
-3.756701	bid	-0.05032233
-4.300769	bidding	0.005496711
-4.124678	bide	-0.1157561
-3.601799	bids	-0.3064905
-4.601799	bier	-0.05988552
-4.300769	big	-0.05996161
-4.601799	billing	0.004411165
-4.601799	bills	0.004411165
-4.601799	bin	0.004411165
-4.601799	bind	0.004411165
-3.902829	bird	-0.051521
-3.560407	birds	-0.0009433553
-4.601799	birds'	-0.05979853
-3.698709	birth	-0.03078944
-4.601799	bit	-0.05649108
-4.601799	bites	-0.05964627
-3.823648	bitter	-0.05954835
-4.300769	bitterness	-0.05839349
-4.601799	blab	-0.05925448
-3.221588	black	-0.06004927
-4.601799	black'st	-0.0601355
-4.601799	blackest	-0.05987465
-4.601799	blade	0.004411165
-3.455671	blame	-0.3544182
-4.300769	blamed	-0.05727929
-4.601799	blames	-0.05580022
-4.601799	blanks	-0.05626092
-4.601799	blasted	-0.06020069
-4.601799	blasting	-0.06004857
-4.300769	blasts	-0.06001596
-4.601799	blaze	-0.05993988
-4.601799	blazed	0.004411165
-4.601799	blazon	-0.05927626
-4.601799	blazond	-0.06018983
-3.999739	bleed	-0.5843872
-3.902829	bleeding	-0.05390845
-4.601799	bleeds	0.004411165
-4.601799	blemish	0.004411165
-4.601799	blemish'd	-0.06018983
-4.601799	blemished	-0.05979853
-4.601799	blenches	-0.05993988
-4.601799	blend	0.004411165
-4.601799	bless	0.004411165
-3.560407	blessed	-0.0550423
-4.601799	blessedness	-0.0601681
-4.601799	blesses	-0.05970066
-4.601799	blessing	-0.05954836
-4.300769	blessings	-0.05751985
-3.902829	blest	-0.1781662
-3.560407	blind	-0.1586569
-4.601799	blinded	-0.06004857
-4.300769	blindness	0.004423775
-4.300769	bliss	0.004499421
-2.968331	blood	-0.1610216
-4.124678	bloodless	-0.05879696
-3.647557	bloody	-0.0585462
-4.601799	blooms	-0.0585571
-4.601799	blossoms	-0.06014637
-3.601799	blot	-0.1402418
-4.601799	blots	-0.05869885
-4.601799	blotted	-0.06008117
-4.601799	blotting	-0.06005944
-3.823648	blow	-0.04839687
-4.601799	blow'st	-0.05989639
-3.902829	blown	-0.06271395
-4.124678	blows	0.005067214
-3.999739	blue	0.004537243
-3.902829	blunt	-0.05544889
-4.601799	blunter	-0.05925448
-4.300769	blunting	-0.06005943
-4.601799	blur	-0.05989639
-4.601799	blurr'd	-0.06020069
-3.999739	blush	-0.0358224
-4.124678	blush'd	-0.05256159
-4.124678	blushes	-0.05831712
-3.756701	blushing	-0.05337904
-4.601799	blushless	-0.06018983
-4.601799	blusterer	-0.06020069
-4.601799	blustering	-0.06017897
-3.487856	boar	-0.1059395
-4.601799	boar'	-0.05979853
-4.601799	boar's	-0.06014637
-3.647557	boast	-0.1536072
-4.601799	boasted	-0.06017897
-4.601799	boat	0.004411165
-4.300769	boding	-0.05899309
-3.397679	body	-0.01850815
-3.902829	body's	-0.0595266
-4.601799	boil	0.004411165
-4.601799	boisterous	-0.06020069
-3.601799	bold	-0.2046299
-4.601799	boldness	-0.05737772
-4.601799	bolln	0.004411165
-4.300769	bond	-0.0572246
-4.300769	bondage	-0.05921093
-4.601799	bonded	-0.06014637
-3.999739	bonds	-0.05329074
-4.124678	bone	-0.3695251
-4.601799	boned	-0.05940688
-4.300769	bones	-0.05996161
-4.300769	bonnet	0.004448988
-3.756701	book	-0.2304306
-3.999739	books	-0.2419312
-4.601799	boot	-0.06017897
-4.300769	bootless	-0.0600703
-3.999739	bore	0.0090882
-3.601799	born	-0.1388732
-4.124678	borne	-0.05377616
-3.902829	borrow	-0.384813
-4.124678	borrow'd	-0.05707144
-4.300769	borrowed	-0.05724648
-3.698709	bosom	-0.05164289
-4.300769	bosom's	-0.06017896
-4.124678	bosoms	-0.05992901
-2.989016	both	0.0173774
-4.300769	bottom	-0.06011377
-4.601799	bottomless	-0.06012464
-4.300769	bough	-0.192126
-4.601799	boughs	-0.05756358
-4.601799	bought	0.004411165
-3.698709	bound	-0.06080744
-4.601799	boundeth	-0.05358867
-4.601799	bounding	-0.0601681
-4.124678	boundless	-0.05684158
-4.601799	bounds	-0.05619514
-4.300769	bounteous	-0.06014637
-4.124678	bounty	-0.05802241
-3.698709	bow	-0.315657
-4.601799	bow'd	0.004411165
-4.601799	bowhay	-0.06020069
-4.601799	bows	-0.05580022
-3.647557	boy	-0.07880671
-4.601799	boy'	-0.0569401
-4.300769	brag	-0.05224082
-4.300769	bragg'd	-0.0592327
-4.300769	braided	-0.06011377
-3.647557	brain	-0.181742
-4.601799	braind	-0.06020069
-4.601799	brained	-0.06015724
-3.999739	brains	-0.05757511
-4.300769	brake	0.004537255
-4.601799	brakes	-0.06020069
-4.601799	brambles	-0.06018983
-4.601799	branch	-0.05979853
-4.601799	branches	-0.05993988
-3.902829	brand	-0.05871332
-3.999739	brass	-0.05583315
-4.601799	brav'ry	-0.05756358
-3.999739	brave	-0.05715898
-4.601799	braving	-0.06011377
-4.601799	brawny	-0.06018983
-3.902829	breach	-0.05745427
-4.124678	bread	-0.05334592
-3.522618	break	-0.1404815
-4.601799	breakers	-0.05756358
-4.124678	breaketh	-0.1719203
-4.300769	breaking	-0.05753078
-3.902829	breaks	-0.056239
-3.221588	breast	-0.5844397
-3.999739	breasts	-0.08096349
-3.186826	breath	-0.2450183
-4.601799	breath'd	-0.06007031
-4.124678	breathe	-0.05750893
-4.300769	breathed	0.004688606
-4.601799	breathers	-0.05735585
-4.124678	breathes	-0.0558551
-4.601799	breatheth	-0.05580022
-4.601799	breathing	-0.05993988
-4.601799	breathings	-0.06005944
-4.601799	breathless	-0.05649108
-4.601799	breaths	-0.05911292
-3.601799	bred	-0.6928338
-3.999739	breed	-0.08246758
-4.300769	breeder	-0.05984202
-4.300769	breedeth	-0.05653491
-4.300769	breeding	-0.06017896
-3.823648	breeds	-0.04840957
-4.601799	bridle	-0.06017897
-3.823648	brief	-0.05699483
-4.601799	brief'	0.004411165
-4.601799	brier	-0.05358867
-3.300769	bright	-0.08914045
-4.601799	brightness	-0.05819707
-4.601799	brim	-0.06017897
-4.601799	brine	0.004411165
-3.560407	bring	-0.1342532
-4.124678	brings	-0.05535401
-4.300769	brinish	-0.06015723
-4.601799	bristles	-0.06018983
-4.300769	bristly	-0.06017896
-4.601799	brittle	-0.06012464
-4.124678	broad	-0.05990727
-4.601799	broils	-0.0601355
-4.300769	broke	-0.05949394
-3.999739	broken	-0.08259373
-4.601799	brokers	-0.06020069
-4.300769	brood	0.004575089
-4.300769	brook	-0.192126
-4.601799	brooks	-0.05622803
-4.300769	brother	0.006445631
-3.647557	brought	-0.1627689
-3.455671	brow	-0.6568622
-4.601799	brow's	-0.06020069
-4.601799	browny	-0.06015724
-4.300769	brows	-0.0601029
-4.601799	bruised	-0.06004857
-3.999739	brutus	-0.05816434
-4.601799	bubbling	-0.05786952
-3.823648	bud	-0.1158571
-4.601799	budding	-0.05979853
-3.999739	buds	-0.05733399
-4.601799	build	-0.05358867
-4.300769	builded	0.004751682
-4.300769	building	-0.0601029
-4.601799	buildings	-0.05578925
-4.124678	built	-0.05931981
-4.601799	bulk	-0.05358867
-4.601799	bullet	-0.06020069
-4.601799	bulwarks	-0.06018983
-3.999739	burden	-0.05965715
-4.601799	burdend	-0.05928715
-3.902829	buried	0.008922558
-4.601799	buries	-0.05918915
-4.601799	buriest	-0.05578925
-3.601799	burn	-0.0405321
-4.601799	burnd	-0.05911292
-4.601799	burned	0.004411165
-4.124678	burneth	0.006546967
-3.647557	burning	-0.04043447
-4.601799	burnish'd	-0.06012464
-4.124678	burns	-0.05376513
-4.124678	burnt	-0.1803451
-4.601799	burthen	-0.05914559
-4.601799	burthens	-0.05954836
-4.601799	bury	-0.0601355
-4.601799	burying	-0.06009204
-4.601799	bush	-0.06017897
-4.124678	bushes	-0.05334846
-3.902829	busy	-0.1283422
-2.035952	but	-0.08797953
-4.300769	butcher	-0.06011377
-4.601799	buttock	-0.06001597
-4.300769	buy	-0.05575632
-4.300769	buys	-0.05909113
-2.186826	by	-0.1105133
-4.601799	by'	0.004411165
-4.601799	bypath	-0.06020069
-4.601799	cabin	-0.05917826
-4.300769	cabinet	0.004423775
-4.601799	cabins	-0.05580022
-4.601799	caged	-0.06020069
-4.601799	caitiff	-0.05358867
-3.425708	call	-0.1417063
-3.999739	calld	-0.05826256
-4.300769	called	-0.06015723
-3.647557	calls	-0.02228618
-4.300769	calm	-0.05990726
-3.560407	came	-0.03724059
-4.300769	camp	-0.05767287
-2.682721	can	-0.03877175
-4.300769	cancelld	-0.06014637
-4.601799	cancelled	-0.05978766
-4.601799	candle	-0.06015724
-4.601799	candles	-0.06017897
-3.823648	canker	-0.05991813
-4.601799	cankering	-0.06020069
-4.601799	cannon	-0.06020069
-3.154641	cannot	-0.04489846
-4.601799	canopied	-0.06014637
-4.300769	canopy	-0.08351222
-3.560407	canst	-0.4943172
-4.601799	caparisons	-0.05845894
-4.601799	capitol	-0.06018983
-3.999739	captain	-0.05246207
-4.601799	captivate	-0.05930892
-3.902829	captive	-0.05851348
-4.601799	car	0.004411165
-4.601799	carcanet	0.004411165
-4.601799	carcass	-0.05925448
-3.522618	care	-0.7830652
-4.601799	care's	-0.06015724
-4.601799	cared	-0.05649108
-4.124678	careful	-0.05887324
-4.300769	careless	-0.05929803
-3.999739	cares	-0.079505
-4.300769	carriage	-0.06004857
-4.601799	carries	-0.06001597
-4.124678	carry	0.004877862
-4.601799	cars	-0.05578925
-4.601799	carve	-0.05622803
-4.124678	carved	-0.05632669
-3.756701	case	-0.2180313
-4.601799	casket	-0.05918915
-3.823648	cast	-0.04315554
-4.601799	castalia	-0.06020069
-4.601799	castaway	0.004411165
-4.601799	castles	-0.06012464
-4.601799	cat	-0.05649108
-3.823648	catch	-0.2143906
-4.300769	catching	-0.05767287
-4.601799	caterpillars	-0.05869885
-4.601799	cattle	-0.06017897
-4.300769	caught	0.004436381
-3.647557	cause	-0.02286329
-4.601799	caused	-0.05358867
-4.601799	causeless	-0.06020069
-4.601799	cautels	-0.0576838
-4.124678	cave	-0.05926538
-4.300769	caves	-0.056513
-4.601799	cavil	-0.05914559
-4.601799	cavils	-0.0569401
-4.300769	cease	0.008999005
-4.601799	ceased	-0.05358867
-4.601799	ceaseless	-0.06020069
-4.300769	cedar	-0.06016809
-4.601799	cedar's	-0.0601355
-4.601799	celestial	-0.05992901
-4.601799	cell	-0.05918915
-4.601799	censure	-0.06020069
-4.601799	censures	-0.06020069
-4.601799	centre	-0.0601681
-4.601799	ceremony	-0.05976591
-3.999739	certain	-0.05295946
-4.601799	chafes	-0.05580022
-4.601799	chafing	-0.06007031
-4.601799	chain	0.004411165
-4.601799	chaind	0.004411165
-4.300769	challenge	-0.05832803
-3.902829	chamber	-0.05340111
-4.601799	champaign	-0.0601355
-4.601799	champion	-0.06017897
-3.999739	chance	-0.07933982
-4.601799	chanced	-0.05626092
-3.455671	change	-0.138943
-4.601799	changed	-0.05786952
-4.601799	changes	-0.05996162
-4.300769	changing	-0.05987464
-4.124678	channel	-0.05543791
-4.601799	chant	-0.06020069
-4.300769	chaos	-0.06004857
-4.601799	chaps	-0.0601355
-4.124678	character	0.006141745
-4.601799	character'd	-0.06005944
-4.601799	charactered	-0.0601681
-4.124678	characters	0.005130343
-4.601799	charge	-0.06010291
-4.300769	charged	0.004423775
-4.601799	charging	-0.0601355
-4.601799	chariot	-0.06014637
-4.601799	charitable	-0.06007031
-4.601799	charity	-0.05989639
-4.124678	charm	0.007523581
-4.300769	charm'd	0.004789528
-4.601799	charmed	-0.06000509
-4.300769	charter	-0.05218549
-4.601799	chary	0.004411165
-3.823648	chase	-0.2912445
-4.601799	chasing	0.004411165
-3.823648	chaste	0.006040506
-4.601799	chaste'	0.004411165
-4.601799	chastest	-0.05979853
-3.999739	chastity	-0.07511273
-4.601799	chastity's	-0.06008117
-4.300769	chat	0.004764304
-4.601799	cheap	-0.05851348
-4.601799	cheater	-0.0601681
-4.124678	check	0.007510878
-4.300769	checked	-0.05963539
-3.371351	cheek	-0.002320997
-4.601799	cheek'd	-0.06007031
-3.300769	cheeks	-0.08576737
-3.999739	cheer	-0.2419564
-4.601799	cheered	-0.06018983
-4.601799	cheering	-0.05962451
-4.601799	cheers	-0.05962451
-4.601799	cheque	-0.05979853
-4.601799	cheque'd	-0.05358867
-4.601799	chequer'd	-0.05988552
-4.124678	cherish	-0.2174827
-4.601799	cherubin	-0.0601355
-4.601799	cherubins	-0.05701672
-3.999739	chest	-0.08253066
-4.601799	chid	-0.06011377
-3.698709	chide	-0.08793732
-4.300769	chides	-0.05026674
-4.601799	chiding	-0.05980941
-3.999739	chief	-0.08219472
-4.300769	chiefly	-0.0570386
-3.487856	child	-0.1114578
-4.124678	childish	-0.05966803
-3.999739	children	-0.05840441
-4.124678	childrens	-0.05826256
-4.601799	chill	-0.06020069
-3.999739	chin	-0.5843872
-4.601799	chips	0.004411165
-4.601799	chivalry	0.004411165
-4.300769	choice	-0.06016809
-4.601799	choir	-0.06018983
-4.300769	choirs	0.00559783
-4.601799	choked	-0.05737772
-4.601799	chokes	-0.05580022
-4.601799	choler	-0.05756358
-4.300769	choose	0.009075455
-4.601799	choosing	-0.05664446
-4.601799	chorus	-0.05580022
-4.300769	chose	0.005016714
-4.601799	christ	-0.05889504
-4.601799	chronicle	-0.0601681
-4.300769	churl	-0.05938511
-4.124678	churlish	-0.0601681
-4.601799	churls	-0.05756358
-4.300769	cipher	-0.05758543
-4.300769	circled	-0.06012464
-4.300769	circles	-0.05578924
-4.300769	circuit	-0.05068893
-4.300769	circumstance	0.004423775
-4.601799	circumstances	-0.05992901
-4.601799	cisterns	-0.06020069
-4.601799	cited	-0.05962451
-4.601799	citizen	-0.06018983
-4.124678	city	-0.1163384
-4.124678	civil	-0.05988552
-4.601799	clad	-0.06014637
-4.300769	claim	-0.0601355
-4.601799	claims	-0.05786952
-4.300769	clamours	-0.05324657
-4.601799	clapping	-0.05990726
-4.601799	claps	-0.05580022
-4.601799	claws	0.004411165
-4.601799	clay	0.004411165
-4.601799	clean	-0.06020069
-4.300769	cleanly	-0.0596789
-3.601799	clear	-0.01704598
-4.601799	clear'd	-0.06020069
-4.300769	clearer	0.0049536
-4.601799	clearly	0.004411165
-4.124678	clears	-0.1161851
-4.601799	cleaves	-0.05970066
-4.601799	cleft	-0.06012464
-4.601799	clepes	-0.05818616
-4.601799	clerk	-0.05917826
-4.601799	client	-0.06015724
-4.601799	clients	-0.06020069
-4.601799	climb	0.004411165
-4.300769	climbed	-0.06015723
-4.601799	clip	-0.06020069
-4.300769	cloak	0.004461594
-4.300769	clock	0.004474208
-4.601799	cloister	-0.06007031
-4.601799	cloister'd	0.004411165
-3.902829	close	-0.04981078
-4.601799	closed	-0.05962451
-4.601799	closes	-0.05962451
-4.124678	closet	-0.05815342
-4.300769	closure	-0.2564879
-4.601799	cloth	-0.06010291
-4.601799	clothe	-0.05358867
-3.756701	cloud	-0.0544262
-4.300769	clouded	-0.0535666
-3.647557	clouds	-0.05831712
-4.124678	cloudy	-0.0595266
-4.601799	cloy	-0.05578925
-4.601799	cloy'd	-0.05982028
-4.601799	co	-0.06020069
-3.902829	coal	-0.125102
-4.601799	coals	-0.06017897
-4.601799	coast	0.004411165
-4.601799	coasteth	-0.06011377
-4.300769	coat	-0.192126
-4.601799	cockatrice'	-0.05975503
-4.601799	coffer	-0.06020069
-4.601799	coffers	-0.05962451
-4.601799	coind	-0.0601681
-3.203859	cold	-0.1949203
-4.601799	coldly	-0.05950483
-3.346527	collatine	-0.05521311
-4.601799	collatine'	0.004411165
-4.124678	collatine's	-0.05864434
-3.902829	collatinus	-0.05995075
-4.300769	collatinus'	-0.05820799
-4.124678	collatium	-0.05709333
-3.698709	colour	-0.0523957
-3.999739	colour'd	-0.05255054
-4.601799	coloured	-0.05982028
-4.601799	colours	-0.06000509
-4.601799	colt	-0.06014637
-4.601799	combat	-0.06008117
-4.601799	combined	-0.06020069
-4.601799	combustious	-0.06009204
-3.259377	come	-0.2491026
-4.601799	comely	-0.06020069
-3.647557	comes	0.01618012
-3.698709	comfort	-0.04502203
-4.601799	comfort's	-0.06017897
-4.300769	comfortable	-0.05988552
-4.601799	comforter	-0.06005944
-4.601799	comforteth	-0.06020069
-3.823648	coming	-0.1131584
-3.999739	command	-0.07436778
-4.601799	commanded	-0.05737772
-4.601799	commander	0.004411165
-4.601799	commanders	-0.05993988
-4.601799	commanding	-0.05358867
-4.601799	commence	0.004411165
-3.999739	commend	-0.2392501
-4.300769	commendation	-0.05616223
-4.300769	commended	0.004474208
-4.124678	comment	-0.1153899
-4.601799	commentaries	0.004411165
-4.601799	comments	-0.05987465
-4.124678	commission	-0.1132243
-4.601799	commit	-0.05971153
-4.300769	commits	0.004411165
-4.124678	committed	0.005054593
-4.601799	commix'd	0.004411165
-3.756701	common	-0.05789137
-4.601799	commonwealth	0.004411165
-4.300769	compact	-0.05632669
-4.601799	compacted	0.004411165
-4.601799	company	0.004411165
-3.647557	compare	-0.2016765
-4.300769	compared	-0.05941777
-4.601799	compares	-0.05979853
-4.124678	comparing	-0.05087768
-4.601799	compass	-0.05997249
-4.300769	compass'd	-0.06002683
-4.601799	compassion	0.004411165
-4.601799	compassionate	0.004411165
-4.601799	compeers	-0.05737772
-4.601799	compelled	-0.06020069
-4.601799	compile	0.004411165
-4.601799	compiled	0.004411165
-3.999739	complain	-0.1496208
-4.601799	complaind	0.004411165
-4.300769	complaining	-0.192126
-4.601799	complaint	0.004411165
-4.601799	complemental	-0.06018983
-4.124678	complexion	-0.06010291
-4.601799	complexioned	-0.05945042
-4.601799	composed	-0.0601355
-4.601799	composition	-0.06020069
-4.124678	compound	-0.05562459
-4.300769	compounds	-0.0596789
-4.601799	comprehend	-0.05917826
-4.601799	comprehends	0.004411165
-4.601799	concave	-0.06014637
-4.300769	concealed	-0.05964626
-4.300769	concealing	-0.05942865
-3.698709	conceit	-0.01020154
-4.300769	conceited	-0.06008117
-4.300769	conclude	-0.05977678
-4.300769	concludes	-0.05968978
-4.601799	conclusion	0.004411165
-4.300769	concord	-0.05849166
-4.601799	concourse	-0.05900399
-4.601799	condemnd	-0.06012464
-4.601799	condemned	-0.05578925
-4.124678	condition	-0.05145837
-4.601799	conditions	-0.06018983
-4.601799	conduct	-0.05735585
-4.601799	conduits	-0.0601681
-4.124678	confess	-0.1160211
-4.601799	confessed	-0.05649108
-4.300769	confine	0.004436381
-3.999739	confined	-0.2418503
-4.601799	confirmed	-0.06015724
-3.823648	confound	-0.3773326
-4.300769	confounded	-0.05991813
-4.601799	confounding	-0.06018983
-3.756701	confounds	-0.2366221
-4.300769	confusion	0.007485494
-4.601799	congealed	-0.05974416
-4.601799	conies	-0.06001597
-4.601799	conjugal	-0.05749799
-4.601799	conjures	-0.05818616
-4.124678	conquer	-0.05664446
-4.601799	conquer'd	-0.06018983
-4.601799	conquerors	-0.05358867
-4.601799	conquers	-0.05918915
-3.823648	conquest	-0.05014446
-3.999739	conscience	-0.05968979
-4.601799	consecrate	-0.05757451
-4.601799	consecrated	-0.06018983
-4.601799	consecrations	-0.0601681
-3.902829	consent	-0.06168873
-4.601799	consents	-0.06018983
-4.601799	consider	-0.05954836
-4.601799	consort	-0.06015724
-4.601799	consorted	-0.06015724
-4.601799	conspirator	0.004411165
-4.601799	conspire	0.004411165
-4.124678	constancy	0.004701212
-3.698709	constant	-0.05186444
-4.601799	conster	-0.05841531
-4.601799	constraind	-0.06015724
-4.601799	construes	-0.05756358
-4.601799	consuls	0.004411165
-4.601799	consulting	-0.05983116
-4.601799	consum'st	-0.05578925
-4.300769	consume	-0.05335695
-4.601799	consumes	0.004411165
-4.601799	consummation	-0.06014637
-4.601799	contain	0.004411165
-4.300769	contains	-0.192126
-4.601799	contemplation	0.004411165
-4.124678	contend	-0.3695251
-4.124678	contending	-0.05966803
-3.647557	content	-0.5679678
-3.999739	contented	0.007498186
-4.601799	contenting	-0.05619514
-4.124678	contents	-0.3695251
-4.124678	continual	-0.05997249
-4.601799	continuance	-0.06020069
-4.300769	contracted	-0.05916737
-4.601799	contradict	0.004411165
-4.601799	contraries	-0.05915648
-4.300769	contrary	-0.06002683
-4.601799	contrite	-0.06008117
-4.601799	contrives	0.004411165
-3.823648	control	-0.377831
-4.300769	controlld	0.004411165
-4.300769	controlled	0.005610473
-4.124678	controlling	0.006597649
-4.601799	controls	-0.05358867
-4.601799	controversy	-0.06011377
-4.300769	conversation	-0.05580022
-4.300769	convert	-0.192126
-4.300769	converted	-0.05630476
-4.601799	convertest	0.004411165
-4.601799	convertite	0.004411165
-4.601799	converts	-0.05993988
-4.601799	convey'd	0.004411165
-4.601799	cool	-0.06007031
-4.601799	coold	0.004411165
-4.601799	cooling	-0.05358867
-4.601799	cools	-0.05622803
-4.601799	cope	-0.05818616
-4.601799	coped	-0.0601681
-4.601799	copesmate	-0.06015724
-4.601799	copious	-0.06020069
-4.601799	copse	-0.06020069
-4.300769	copy	-0.05816433
-3.999739	coral	-0.05950484
-4.601799	corn	-0.06020069
-4.601799	correspondence	-0.05951571
-3.999739	corrupt	-0.03800123
-4.124678	corrupted	0.005155601
-4.601799	corrupting	-0.06020069
-4.300769	cost	-0.05866614
-4.601799	costly	-0.06017897
-4.601799	costs	0.004411165
-4.601799	couch	-0.0569401
-4.601799	coucheth	-0.06018983
-2.989016	could	-0.2621812
-4.124678	couldst	-0.05601966
-4.124678	counsel	-0.05671018
-4.601799	counsels	-0.05358867
-3.999739	count	-0.05885145
-4.300769	counted	-0.05914559
-4.300769	countenance	-0.05355557
-4.124678	counterfeit	-0.1111753
-4.601799	counterfeits	-0.05986378
-4.601799	counterpart	-0.05876425
-4.300769	counting	-0.05794597
-4.601799	countless	-0.06014637
-4.601799	country	-0.06018983
-4.601799	country's	-0.06020069
-4.601799	couplement	-0.05987465
-3.999739	courage	0.01229862
-4.601799	courageously	-0.06014637
-3.698709	course	-0.05680873
-4.300769	courser	-0.05791321
-4.601799	courser's	-0.0601681
-4.300769	courses	-0.05916737
-4.300769	court	-0.05890593
-4.601799	court'sies	-0.05580022
-4.601799	courtesy	-0.05916737
-4.601799	courting	-0.0601681
-4.601799	courts	-0.05845894
-3.999739	cover	-0.03950033
-4.601799	coverlet	-0.05934158
-4.601799	covers	-0.05964627
-4.601799	covet	-0.05865524
-4.601799	covetous	-0.05649108
-3.756701	coward	-0.04175156
-4.601799	cowards	-0.06020069
-4.124678	coy	0.004625529
-4.601799	cozening	-0.06018983
-4.601799	crack'd	-0.05982028
-4.601799	cradle	-0.05995075
-4.124678	craft	0.00647096
-4.601799	cranks	-0.06017897
-4.601799	crannies	-0.05996162
-4.124678	crave	-0.3695251
-4.601799	craved	-0.05786952
-4.300769	created	0.006091125
-4.601799	creating	-0.05954836
-4.124678	creation	-0.0584044
-3.999739	creature	0.006002538
-3.823648	creatures	-0.05769472
-4.601799	credent	-0.06000509
-4.124678	credit	-0.05509727
-4.300769	credulous	0.004915737
-3.999739	creep	0.004890483
-4.124678	creeping	-0.06004857
-4.601799	creeps	0.004411165
-4.601799	crept	0.004411165
-3.999739	crest	0.006078463
-4.601799	crests	-0.06020069
-4.601799	crew	0.004411165
-4.300769	cried	-0.05995074
-3.560407	cries	-0.2037372
-3.698709	crime	-0.7610606
-4.601799	crimeful	-0.05945042
-4.601799	crimes	-0.06010291
-4.124678	crimson	-0.05915648
-4.601799	critic	-0.06020069
-3.902829	crooked	-0.05999423
-4.601799	crop	-0.06015724
-4.300769	crops	0.004436381
-3.902829	cross	-0.06050863
-4.300769	crossed	-0.192126
-4.124678	crosses	-0.05982029
-4.300769	crow	-0.05761822
-4.601799	crown	-0.05998336
-4.300769	crowned	0.004499421
-4.601799	crowning	-0.06009204
-4.601799	crowns	-0.06005944
-4.601799	crows	-0.0601355
-3.698709	cruel	-0.07173999
-4.601799	cruelly	-0.06020069
-4.601799	crush	-0.05949395
-4.601799	crushed	-0.06018983
-4.601799	crusheth	-0.06018983
-3.647557	cry	-0.1350533
-4.300769	crying	-0.05912381
-3.756701	crystal	-0.05817525
-4.601799	cuckoos	-0.06020069
-3.823648	cunning	-0.1113597
-4.601799	cup	0.004411165
-4.300769	cupid	-0.06011377
-4.601799	cupid's	-0.06012464
-4.601799	curb	-0.05942865
-3.647557	cure	-0.1105212
-4.300769	cured	0.004411165
-4.601799	cureless	-0.06012464
-4.601799	cures	-0.05622803
-3.902829	curious	-0.05852439
-4.601799	curled	-0.06014637
-4.300769	curls	0.007345855
-4.124678	current	-0.0557673
-3.823648	curse	-0.07950792
-4.601799	cursed	-0.06020069
-4.601799	curst	0.004411165
-4.601799	curtain	-0.06012464
-4.601799	curtains	-0.05928715
-4.601799	curvets	-0.06018983
-4.601799	customs	-0.05622803
-4.300769	cut	-0.05776028
-4.601799	cynthia	-0.05964627
-4.124678	daily	-0.05971153
-4.601799	dainties	-0.06007031
-4.601799	daisy	-0.06015724
-4.300769	dale	-0.192126
-4.601799	dallied	-0.05925448
-4.300769	dally	0.004461594
-4.601799	damasked	-0.05988552
-3.902829	dame	-0.3868096
-4.601799	damm'd	-0.05962451
-4.601799	damned	-0.06020069
-4.601799	damps	-0.06020069
-4.601799	dance	-0.06018983
-4.300769	dancing	-0.06018982
-4.601799	dandling	0.004411165
-3.823648	danger	-0.01939037
-4.601799	dangerous	-0.06014637
-4.300769	dangers	-0.2501259
-4.601799	dank	-0.05993988
-4.601799	dapper	-0.06020069
-4.601799	dardan	-0.05918915
-3.698709	dare	-0.1921174
-4.300769	dares	-0.2527652
-4.601799	darest	-0.05869885
-4.601799	daring	-0.0601681
-3.425708	dark	-0.07428912
-4.601799	darken	-0.05580022
-4.601799	darkening	-0.05578925
-4.601799	darkens	-0.06009204
-4.601799	darkest	-0.05963539
-4.601799	darkly	-0.05999422
-3.823648	darkness	0.01030051
-4.601799	darksome	-0.06015724
-4.601799	darling	-0.0601681
-4.124678	dart	0.007536277
-4.300769	darts	-0.05674303
-3.756701	date	-0.2312202
-4.300769	dateless	-0.05940688
-4.601799	dates	-0.05865524
-4.124678	daughter	-0.05072616
-4.300769	daughter'	-0.05968978
-4.300769	daughters	-0.05575632
-4.601799	daunts	-0.05927626
-2.877523	day	-0.237812
-4.601799	day'	-0.05979853
-4.300769	day's	-0.05979853
-3.186826	days	-0.3237318
-4.601799	dazzleth	-0.05927626
-4.601799	dazzling	-0.05990726
-2.97855	dead	-0.2381936
-3.823648	deadly	-0.05988552
-4.300769	deaf	-0.05984202
-4.601799	dealing	-0.0601681
-3.057731	dear	-0.1983515
-3.999739	dearer	-0.08237924
-4.124678	dearest	-0.05630478
-4.601799	dearly	0.004411165
-4.124678	dearth	-0.1162734
-4.601799	dearths	-0.05845894
-2.732568	death	-0.07675752
-3.698709	death's	-0.05957012
-4.300769	deaths	-0.05860072
-4.601799	debarred	-0.06018983
-3.999739	debate	-0.08153287
-4.601799	debated	-0.05965715
-4.601799	debaters	0.004411165
-4.601799	debateth	-0.06008117
-4.601799	debating	-0.05986378
-3.823648	debt	-0.2894468
-4.300769	debtor	0.004587699
-4.601799	debtors	-0.06011377
-3.522618	decay	-1.074505
-4.601799	decay'd	-0.05991814
-4.300769	decayed	0.005661041
-4.601799	decays	0.004411165
-4.124678	decease	-0.3695251
-4.124678	deceased	-0.2109144
-4.300769	deceit	-0.05818616
-4.601799	deceitful	-0.05664446
-4.601799	deceits	-0.05943954
-4.300769	deceive	-0.192126
-4.124678	deceived	0.004713826
-4.601799	deceives	0.004411165
-4.601799	deceivest	0.004411165
-4.300769	deceiving	-0.05820799
-4.601799	december's	-0.06018983
-4.601799	deck	-0.05358867
-4.601799	decks	-0.0601681
-4.601799	declare	0.004411165
-4.300769	declined	-0.05982028
-4.601799	decrease	0.004411165
-4.300769	decree	-0.192126
-4.601799	decrees	-0.06010291
-4.300769	decrepit	-0.0597224
-4.601799	dedicate	-0.06017897
-4.601799	dedicated	-0.0598529
-4.601799	dedicating	-0.06020069
-3.560407	deed	-0.1979466
-3.487856	deeds	-0.3959422
-4.601799	deem	0.004411165
-4.300769	deemed	0.004411165
-4.601799	deems	0.004411165
-3.124678	deep	-0.01976677
-4.601799	deep'st	-0.06017897
-4.300769	deeper	-0.05963539
-4.601799	deepest	-0.06011377
-4.300769	deeply	-0.06017896
-3.999739	deer	-0.08221515
-4.601799	deface	0.004411165
-4.300769	defaced	0.004411165
-4.601799	defamations	-0.06007031
-3.999739	defame	-0.5843872
-4.601799	defeat	0.004411165
-4.601799	defeated	0.004411165
-4.601799	defeature	0.004411165
-4.124678	defect	-0.3695251
-4.300769	defects	0.004966222
-4.300769	defence	0.005458802
-4.300769	defend	-0.05133253
-4.601799	defendant	-0.05819707
-4.601799	defends	0.004411165
-4.601799	defense	0.004411165
-4.124678	defiled	-0.2081499
-4.601799	defiling	0.004411165
-4.601799	define	0.004411165
-4.601799	deflower	0.004411165
-4.601799	deformed	-0.05876425
-4.601799	deformed'st	-0.0601681
-4.601799	defy	0.004411165
-4.601799	degenerate	0.004411165
-4.601799	degree	0.004411165
-4.601799	deified	0.004411165
-4.601799	deity	-0.0601355
-4.601799	delay	-0.05818616
-4.601799	delayed	-0.06020069
-4.124678	delays	-0.3695251
-4.601799	delicious	-0.06020069
-3.300769	delight	-0.8177924
-4.601799	delight'	0.004411165
-4.601799	delighted	0.004411165
-4.124678	delightful	-0.05741053
-4.601799	delighting	0.004411165
-4.300769	delights	-0.05997248
-4.601799	deliver	-0.06018983
-4.601799	delivered	-0.05786952
-4.601799	delivers	0.004411165
-4.601799	delves	-0.06020069
-4.601799	delving	-0.06020069
-4.601799	demand	-0.05818616
-4.601799	demanded	-0.06011377
-4.601799	demeanor	-0.06014637
-4.601799	demure	-0.05977679
-4.300769	denial	-0.1112107
-4.601799	denies	-0.06015724
-4.601799	denote	0.004411165
-4.124678	deny	0.01082475
-4.124678	depart	-0.3695251
-4.300769	departed	-0.05997248
-4.601799	departest	0.004411165
-4.601799	departs	-0.06004857
-4.601799	depend	0.004411165
-4.601799	depending	0.004411165
-4.124678	depends	-0.1153899
-4.601799	deprive	-0.05818616
-4.601799	deprived	0.004411165
-4.601799	deprives	0.004411165
-4.601799	derive	0.004411165
-4.601799	derived	0.004411165
-4.601799	descant'st	-0.05996162
-4.124678	descended	0.01228578
-4.601799	descending	-0.05986378
-4.601799	describe	-0.06007031
-4.601799	descried	-0.06011377
-4.601799	descriptions	-0.06015724
-3.902829	desert	-0.06196743
-4.601799	desertful	-0.06010291
-3.902829	deserts	-0.1348598
-4.601799	deserv'st	-0.05997249
-3.902829	deserve	-0.1412934
-4.601799	deserved	-0.06004857
-4.601799	deserves	-0.06018983
-4.124678	deserving	-0.05157245
-4.300769	design	-0.192126
-4.601799	designs	-0.05996162
-3.010735	desire	-0.3669469
-4.601799	desire'	0.004411165
-3.999739	desired	-0.1534387
-3.823648	desires	-0.1915274
-4.601799	desiring	-0.05735585
-3.698709	despair	-0.2450437
-4.601799	despairing	-0.06018983
-3.756701	desperate	-0.04750132
-4.124678	despise	-0.3695251
-4.124678	despised	-0.07669963
-4.601799	despising	-0.06018983
-3.601799	despite	-0.01491946
-4.601799	despitefully	-0.0601355
-4.601799	destined	-0.05982028
-4.601799	destinies	-0.05845894
-4.300769	destiny	-0.192126
-4.601799	destitute	-0.05995075
-3.902829	destroy	-0.2565746
-4.601799	destroyed	0.004411165
-4.601799	destroys	0.004411165
-4.601799	destruction	-0.06011377
-4.300769	detain	-0.05415087
-4.601799	detained	-0.06020069
-4.601799	determinate	0.004411165
-4.601799	determination	-0.05865524
-4.601799	determined	0.004411165
-4.601799	determining	-0.05756358
-4.601799	detest	0.004411165
-4.601799	detract	0.004411165
-4.601799	detraction	-0.0601681
-4.601799	detriment	0.004411165
-4.124678	device	-0.05526213
-3.902829	devil	-0.5221741
-4.601799	devils	-0.06009204
-3.999739	devise	-0.08183625
-4.601799	devised	0.004411165
-4.601799	deviseth	-0.06018983
-4.601799	devon	-0.06020069
-4.601799	devoted	-0.06011377
-4.601799	devour	-0.05580022
-4.124678	devouring	0.008540571
-4.300769	devours	0.0121061
-4.300769	dew	-0.1112531
-4.601799	dew'd	-0.05915648
-4.601799	dewy	-0.05945042
-4.601799	dexterity	0.004411165
-4.124678	dial	-0.05056002
-4.601799	dialect	-0.06018983
-4.601799	dialogued	-0.05818616
-4.601799	dials	-0.06018983
-4.601799	diamond	-0.05973328
-4.601799	dian	-0.06017897
-4.601799	dians	-0.05735585
-4.601799	diapason	-0.05989639
-2.537341	did	-0.07455178
-3.698709	didst	-0.167903
-3.096649	die	-0.2152384
-3.698709	died	-0.01090837
-4.601799	died'st	-0.0601355
-3.902829	dies	-0.1752683
-4.601799	diest	-0.06010291
-4.601799	diet	-0.06005944
-4.601799	dieted	-0.05993988
-4.300769	difference	0.00446159
-4.300769	different	-0.05988552
-4.601799	dig	-0.05988552
-4.601799	digestion	-0.06020069
-4.300769	dignified	-0.192126
-4.601799	dignifies	-0.05358867
-4.124678	dignity	-0.3695251
-4.601799	digression	-0.05664446
-4.601799	digs	-0.06018983
-3.698709	dim	-0.1006134
-4.601799	diminish'd	0.004411165
-4.601799	dimm'd	-0.06018983
-4.300769	dimmed	0.00444898
-4.601799	dimple	0.004411165
-4.601799	dimpled	-0.0601681
-4.601799	dint	0.004411165
-4.124678	dire	-0.05978766
-4.601799	directed	0.004411165
-4.601799	direction'	0.004411165
-4.601799	directly	-0.05991814
-4.300769	direful	-0.05935246
-4.601799	dirge	-0.05580022
-4.601799	disabled	0.004411165
-4.601799	disarmed	0.004411165
-4.601799	disbursed	0.004411165
-4.601799	discased	-0.05619514
-4.601799	discern	0.004411165
-4.601799	discharge	-0.05884055
-4.601799	discharged	-0.06020069
-4.601799	disciplined	-0.06014637
-4.601799	discloses	0.004411165
-4.601799	discolour'd	-0.06002683
-4.601799	discomfort	-0.05914559
-3.902829	discontent	-0.1759309
-4.601799	discontents	0.004411165
-4.300769	discord	-0.05999422
-3.999739	discourse	0.01110632
-4.601799	discourses	-0.05995075
-4.300769	discovery	0.009534448
-4.601799	discreet	0.004411165
-3.522618	disdain	-0.7228878
-4.601799	disdaind	-0.06018983
-4.601799	disdained	-0.06020069
-4.601799	disdaineth	0.004411165
-4.601799	disdainfully	-0.05894952
-4.601799	disdains	-0.06020069
-4.601799	disease	0.004411165
-4.601799	diseased	-0.05995075
-4.601799	disgest	-0.05701672
-3.455671	disgrace	-0.3598052
-4.124678	disgraced	-0.3695251
-4.601799	disgraceful	-0.0601355
-4.124678	disguise	-0.3695251
-4.601799	disguised	0.004411165
-4.300769	dishevelld	-0.2566836
-3.999739	dishonour	-0.05507529
-4.601799	dishonoured	0.004411165
-4.601799	disjoind	-0.0601681
-4.601799	disliking	-0.05930892
-4.601799	dismal	-0.06011377
-4.300769	dismay'd	-0.192126
-4.601799	dismount	0.004411165
-4.601799	disorder	-0.06014637
-4.601799	dispatch	0.004411165
-4.601799	dispatcheth	-0.06018983
-4.601799	dispensation	0.004411165
-4.124678	dispense	-0.3695251
-4.601799	disperse	0.004411165
-4.300769	dispersed	0.004537255
-4.601799	displacest	-0.06018983
-4.300769	display	-0.192126
-4.601799	display'd	0.004411165
-4.601799	disports	-0.06018983
-4.601799	disposed	-0.05992901
-4.601799	disposing	-0.05580022
-3.999739	disposition	-0.07488167
-4.601799	dispraise	-0.05619514
-4.601799	disprove	-0.05756358
-4.300769	disputation	0.0049536
-4.601799	dissemble	0.004411165
-4.300769	dissension	0.004461594
-4.601799	dissentious	-0.06014637
-4.601799	dissolution	0.004411165
-4.601799	dissolve	-0.05845894
-4.601799	dissolved	-0.06005944
-4.601799	dissolves	-0.06020069
-4.601799	dissuade	-0.05884055
-4.124678	distance	-0.05680874
-4.601799	distant	-0.06012464
-4.601799	distemperature	-0.05735585
-4.601799	distempered	-0.06015724
-4.601799	distempering	-0.05992901
-4.601799	distillation	-0.06005944
-4.124678	distilled	0.007866547
-4.601799	distilling	-0.06017897
-4.601799	distinguish	-0.05851348
-4.601799	distract	-0.06018983
-4.601799	distractedly	-0.06020069
-4.601799	distraction	-0.05735585
-4.300769	distress	-0.06017896
-4.300769	distress'd	-0.192126
-4.601799	disturb	-0.06020069
-4.300769	disturbed	-0.05976591
-4.601799	disturbing	-0.06014637
-4.601799	disunioned	-0.06017897
-4.601799	ditty	0.004411165
-4.601799	dive	-0.06020069
-4.601799	divert	-0.05992901
-4.601799	diverted	-0.05756358
-4.124678	divide	-0.1162229
-4.601799	divided	-0.05977679
-4.601799	dividing	0.004411165
-4.601799	divination	0.004411165
-3.823648	divine	-0.3780075
-4.601799	diviner	-0.06020069
-4.601799	divining	-0.05882965
-4.300769	divorce	0.004448988
-2.458785	do	-0.05524114
-4.601799	doctor	-0.06017897
-4.300769	doe	0.005420886
-4.601799	doer	-0.0601681
-4.601799	dog	-0.05876425
-4.601799	dogs	-0.06018983
-3.902829	doing	-0.05506429
-4.300769	doleful	-0.06012464
-4.300769	dolour	-0.06004857
-4.601799	dominion	0.004411165
-3.170436	done	-0.2542428
-4.601799	done'	-0.05979853
-3.601799	doom	-0.9968089
-4.601799	doom'	0.004411165
-3.999739	door	-0.2376487
-4.601799	doors	-0.06001597
-3.057731	dost	-0.2642303
-4.601799	dotage	-0.05979853
-3.823648	dote	-0.5202705
-4.601799	dotes	-0.05851348
-4.601799	doteth	0.004411165
-2.334628	doth	-0.07661969
-3.823648	doting	-0.02168766
-3.698709	double	-0.01476442
-4.601799	doubled	0.004411165
-4.601799	doubles	0.004411165
-4.601799	doubly	-0.06001597
-3.999739	doubt	-0.2419312
-4.300769	doubting	-0.05999422
-4.124678	dove	0.004486807
-3.902829	doves	-0.05172046
-3.259377	down	-0.05326113
-4.601799	downright	0.004411165
-4.601799	downs	0.004411165
-4.300769	downward	-0.05929803
-4.601799	dowry	-0.06014637
-4.601799	drained	-0.05358867
-3.823648	draw	0.01939142
-3.698709	drawn	-0.01951785
-4.300769	draws	-0.05941777
-3.999739	dread	-0.08299229
-4.601799	dreadeth	0.004411165
-3.902829	dreadful	-0.05964627
-4.601799	dreadfully	-0.06020069
-4.601799	dreading	-0.06017897
-3.823648	dream	-0.1105789
-4.124678	dreams	-0.05640342
-4.601799	dregs	-0.05943954
-4.601799	drench'd	0.004411165
-4.601799	drenched	-0.06011377
-4.601799	dress	-0.05358867
-4.601799	dressed	-0.0576838
-4.601799	dressing	-0.05977679
-4.601799	dressings	-0.0601681
-3.823648	drew	-0.373878
-4.601799	dries	-0.05962451
-3.823648	drink	-0.02214565
-4.300769	drinks	-0.2561617
-4.300769	drive	-0.06012464
-4.601799	driven	-0.0601681
-4.601799	drives	-0.06017897
-4.601799	droop	-0.05987465
-4.124678	drop	-0.05870975
-4.601799	dropp'd	-0.06008117
-4.601799	dropping	-0.06015724
-3.756701	drops	-0.0384242
-4.601799	dropt	0.004411165
-4.601799	dross	0.004411165
-3.999739	drown	-0.05565753
-4.601799	drownd	0.004411165
-4.300769	drowns	-0.0600703
-4.601799	drugs	-0.06018983
-4.601799	drum	-0.06020069
-4.601799	drumming	-0.05911292
-3.999739	drunken	-0.05751986
-3.647557	dry	-0.07436326
-4.601799	ducks	-0.05701672
-3.698709	due	-0.02473655
-4.601799	dugs	-0.05869885
-3.601799	dull	-0.07547446
-4.601799	dully	-0.05989639
-4.601799	dulness	0.004411165
-3.455671	dumb	-0.04653553
-4.601799	dumbly	-0.0569401
-4.601799	dumps	-0.05824073
-4.300769	dun	0.004940975
-4.300769	during	-0.05741052
-4.300769	durst	-0.05621706
-3.823648	dust	-0.1386917
-4.300769	duteous	-0.05893862
-4.300769	duties	0.008120783
-3.601799	duty	-0.0679351
-3.698709	dwell	-0.3173717
-4.601799	dwelld	0.004411165
-4.601799	dwellers	-0.06008117
-4.601799	dwelling	-0.05968978
-4.300769	dwells	0.005319811
-4.601799	dye	0.004411165
-4.300769	dyed	-0.192126
-4.601799	dyer's	-0.05959187
-3.823648	dying	-0.05621706
-2.968331	each	-0.1240907
-4.124678	eager	-0.05879696
-4.601799	eagles	-0.06015724
-3.522618	ear	-0.1674159
-4.601799	ear's	-0.05988552
-4.300769	earl	-0.256727
-3.902829	early	-0.059581
-4.601799	earnest	-0.05930892
-3.560407	ears	-0.05748705
-3.203859	earth	-0.0135038
-3.823648	earth's	-0.02258699
-4.124678	earthly	-0.05975504
-4.601799	earthquake	-0.06015724
-4.601799	earthy	-0.06017897
-4.300769	ease	-0.06017896
-4.601799	easeth	-0.05938512
-4.601799	easily	-0.06018983
-4.601799	easing	-0.0598529
-4.601799	east	0.004411165
-4.601799	eastern	-0.05974416
-4.601799	easy	-0.05964627
-3.999739	eat	-0.1049236
-4.601799	eater	-0.05989639
-4.300769	eating	-0.05962451
-4.601799	eats	-0.05962451
-4.300769	ebbs	-0.05927625
-4.601799	ebon	-0.06017897
-4.601799	echo	-0.0601681
-4.300769	echoes	-0.06004857
-4.601799	eclipse	-0.06018983
-4.601799	eclipsed	-0.05664446
-4.300769	eclipses	-0.05996161
-4.601799	ecstasy	0.004411165
-4.601799	eddy	-0.06020069
-3.999739	edge	0.01349419
-4.300769	education	-0.05979853
-3.698709	effect	-0.1668055
-4.300769	effecting	-0.192126
-3.902829	effects	-0.053092
-4.601799	effectually	-0.05968978
-4.601799	eisel	-0.06007031
-3.823648	either	-0.05213015
-4.124678	either's	-0.05971153
-4.601799	elbows	-0.05756358
-4.601799	elder	-0.05925448
-4.601799	elegy	0.004411165
-4.601799	element	0.004411165
-4.300769	elements	-0.05507528
-4.300769	eloquence	0.004562475
-3.455671	else	-0.0751053
-4.124678	elsewhere	0.009738587
-4.601799	elysium	-0.06014637
-4.601799	embarked	-0.05995075
-4.601799	embassage	0.004411165
-4.601799	embassy	-0.05749799
-4.601799	embers	-0.0601355
-3.902829	embrace	-0.256733
-4.124678	embracements	-0.05556969
-4.300769	embracing	0.004448988
-4.601799	emerald	-0.05934158
-4.601799	eminence	-0.0601681
-4.601799	eminent	-0.06020069
-4.601799	employed	-0.0600377
-4.601799	emptied	-0.0576838
-3.698709	empty	-0.2468568
-4.601799	emulation	-0.05756358
-4.601799	enacted	0.004411165
-4.601799	encamp'd	-0.06010291
-4.601799	enchained	0.004411165
-4.601799	enchanted	-0.05997249
-4.300769	enchanting	-0.0601029
-4.601799	enclose	0.004411165
-4.601799	enclosed	0.004411165
-4.601799	encloses	0.004411165
-4.601799	encompass	-0.05818616
-4.601799	encompass'd	-0.06018983
-4.601799	encompassed	-0.06005944
-4.124678	encounter	-0.05162203
-4.601799	encouragement	0.004411165
-4.601799	encouraging	-0.06017897
-4.601799	encrimsond	-0.06017897
-3.07032	end	-0.3043759
-4.601799	endangered	-0.05989639
-4.601799	endeared	-0.0576838
-4.601799	endeavor	-0.05819707
-4.124678	endeavors	-0.06008118
-4.124678	ended	-0.2278237
-4.601799	ender	0.004411165
-3.999739	ending	0.009840705
-4.300769	endless	-0.05982028
-4.601799	endowed	-0.0569401
-4.300769	ends	0.008209795
-4.300769	endure	-0.192126
-4.601799	endure'	0.004411165
-4.300769	endured	-0.192126
-4.124678	enemies	-0.1162608
-4.124678	enemy	0.01009609
-4.601799	enfeebled	-0.05914559
-3.902829	enforced	-0.05417291
-4.601799	enforcement	-0.05964627
-4.601799	enfranchising	-0.05358867
-4.601799	engine	-0.05580022
-4.300769	engirt	-0.05357763
-4.601799	engirts	-0.05664446
-4.601799	engraft	-0.05982028
-4.601799	engrafted	-0.05735585
-4.601799	engraven	-0.05959187
-4.601799	engrossed	0.004411165
-4.124678	enjoy	-0.05086657
-4.601799	enjoy'	0.004411165
-4.601799	enjoy'd	-0.05619514
-4.300769	enjoyed	-0.05179798
-4.601799	enjoyer	-0.06012464
-4.601799	enlarged	0.004411165
-4.601799	enlighten	-0.05757451
-4.300769	enmity	-0.192126
-4.601799	ennoble	-0.05971153
-3.756701	enough	-0.05129927
-4.601799	enpatron	0.004411165
-4.124678	enraged	0.006129086
-4.124678	enrich	-0.05516322
-4.601799	enriched	-0.05737772
-4.601799	enroll	-0.05979853
-4.601799	ensconce	-0.05975503
-4.601799	ensconced	-0.05358867
-4.601799	ensign	-0.05988552
-4.601799	ensnare	0.004411165
-4.601799	ensnared	-0.05757451
-4.300769	ensue	0.004549854
-4.601799	ensues	0.004411165
-4.601799	ensuing	0.004411165
-4.124678	enter	-0.05040912
-4.601799	enterprise	0.004411165
-4.300769	enters	-0.05911291
-3.999739	entertain	-0.0376941
-4.601799	entertaind	-0.05974416
-4.601799	entertained	-0.0601681
-4.601799	entertainment	-0.05649108
-4.601799	entice	0.004411165
-4.601799	entices	0.004411165
-4.601799	entitled	-0.05578925
-4.300769	entomb	-0.192126
-4.300769	entombed	0.004524641
-4.601799	entombs	-0.05580022
-4.601799	entrance	-0.05580022
-4.601799	entreat	-0.05757451
-4.300769	entreats	0.004423775
-4.601799	envious	-0.06020069
-3.823648	envy	-0.05492135
-4.601799	enwrapped	-0.05970066
-4.601799	epitaph	-0.05911292
-4.124678	equal	-0.05978766
-4.601799	equally	-0.05619514
-4.601799	equipage	0.004411165
-3.221588	ere	-0.1347571
-4.601799	erewhile	-0.06017897
-4.601799	err	-0.06012464
-4.601799	erred	0.004411165
-4.124678	error	-0.05583315
-3.823648	errors	-0.04912034
-4.601799	erst	-0.05786952
-4.300769	espied	0.004461594
-4.601799	espoused	-0.05882965
-4.601799	espy	0.004411165
-4.601799	esquire	0.004411165
-4.601799	essays	-0.06015724
-4.124678	estate	-0.116286
-4.300769	esteem	-0.192126
-4.124678	esteemed	-0.2048956
-4.601799	esteeming	0.004411165
-4.601799	esteems	-0.05959187
-4.601799	estimation	-0.05876425
-3.647557	eternal	-0.05654588
-3.999739	eternity	-0.2418556
-4.601799	eve's	-0.06020069
-2.894229	even	-0.2252485
-4.601799	evening	-0.0591347
-4.601799	event	0.004411165
-4.601799	events	0.004411165
-3.022016	ever	-0.02044791
-4.300769	everlasting	-0.06017896
-4.124678	evermore	-0.06015724
-2.816469	every	-0.1806219
-4.601799	everything	0.004411165
-4.300769	everywhere	0.004411165
-4.601799	evidence	-0.06009204
-3.698709	evil	-0.2659372
-4.601799	evils	-0.06020069
-4.601799	exact	-0.06009204
-4.601799	example	-0.05626092
-4.601799	examples	-0.06007031
-3.999739	exceed	-0.2419186
-4.601799	exceeded	-0.05737772
-4.124678	exceeds	0.01214459
-4.601799	excel	-0.0601355
-4.601799	excelld	0.004411165
-4.300769	excellence	-0.192126
-4.300769	excellent	0.004486807
-4.601799	excelleth	-0.05955923
-4.601799	excelling	0.004411165
-4.601799	except	0.004411165
-4.124678	excess	-0.116286
-4.601799	excessive	-0.05996162
-4.601799	exchanged	0.004411165
-4.601799	exchequer	-0.0589822
-4.300769	exclaim	-0.08493776
-4.601799	exclaiming	-0.06018983
-4.300769	exclaims	-0.05900399
-4.601799	exclamation	0.004411165
-3.455671	excuse	-0.05620446
-4.601799	excuse'	0.004411165
-4.601799	excuse's	-0.06020069
-3.999739	excuses	-0.0750999
-4.601799	executest	-0.06020069
-4.601799	executor	0.004411165
-4.601799	exempt	-0.05786952
-4.300769	exercise	0.007726796
-4.601799	exhaled	-0.06018983
-4.601799	exile	0.004411165
-4.300769	exiled	-0.05999422
-4.601799	expect	0.004411165
-4.601799	expectation	0.004411165
-4.124678	expecting	0.006293654
-4.601799	expel	0.004411165
-4.300769	expense	0.004575089
-4.300769	experience	-0.05971153
-4.601799	experienced	-0.0600377
-4.601799	expiate	0.004411165
-4.601799	expire	0.004411165
-4.601799	expired	0.004411165
-4.601799	exploits	-0.06018983
-3.823648	express	-0.2886088
-4.601799	express'd	0.004411165
-4.124678	expressed	-0.3695251
-4.601799	expressing	-0.06008117
-4.601799	expressly	-0.06009204
-4.601799	extant	-0.05955923
-4.601799	extemporally	-0.06015724
-4.300769	extend	-0.192126
-4.601799	extenuate	0.004411165
-4.601799	extern	-0.06010291
-4.601799	external	-0.05993988
-4.601799	extincture	-0.05896041
-4.601799	extinguishing	-0.05358867
-4.601799	extolled	-0.06020069
-4.124678	extreme	0.005029336
-4.124678	extremes	-0.1162608
-4.300769	extremity	0.005610473
-2.682721	eye	-0.2578531
-4.124678	eye's	-0.05988552
-4.601799	eyeballs	-0.05358867
-4.601799	eyed	0.004411165
-4.601799	eyelids	-0.05916737
-2.497996	eyes	-0.1637741
-4.300769	eyes'	-0.06016809
-4.601799	eyesight	-0.05977679
-3.999739	eyne	-0.241906
-2.845924	face	-0.1886556
-4.601799	face's	-0.06015724
-3.902829	faced	-0.05997249
-3.756701	faces	-0.3179136
-4.300769	fact	0.004461583
-4.601799	faculty	-0.05737772
-4.300769	fade	-0.192126
-4.601799	fadeth	-0.06017897
-4.300769	fading	-0.06009204
-4.601799	fain	-0.05934158
-3.647557	faint	-0.02344552
-4.601799	fainted	0.004411165
-4.300769	faintly	-0.05688537
-4.300769	faints	-0.05576729
-2.66228	fair	-0.05285759
-3.902829	fairer	-0.1777198
-3.902829	fairest	-0.0596354
-4.601799	fairing	-0.05983116
-4.601799	fairy	-0.06020069
-3.823648	faith	-0.05248418
-4.601799	faiths	0.004411165
-4.300769	falchion	-0.05982028
-4.601799	falcon	-0.06020069
-4.601799	falcons	-0.06020069
-3.487856	fall	-0.1030628
-4.601799	fall'	0.004411165
-4.300769	falleth	-0.0597224
-4.601799	falling	-0.06020069
-4.601799	falln	-0.0601355
-3.756701	falls	0.006521627
-4.601799	falls'	-0.06009204
-2.968331	false	-0.005656287
-4.124678	falsehood	-0.05978766
-4.601799	falsely	-0.05851348
-4.601799	falseness	-0.05996162
-4.601799	faltering	-0.0601681
-3.397679	fame	-0.08590735
-4.601799	famed	0.004411165
-4.601799	familiar	-0.06020069
-4.601799	family	-0.06010291
-4.601799	famine	-0.05918915
-4.601799	famish	-0.05927626
-4.601799	famished	-0.05977679
-4.601799	famous	-0.05619514
-4.601799	famoused	-0.06008117
-4.601799	fan	-0.06014637
-4.601799	fancies	-0.0601681
-4.300769	fancy	-0.06016809
-4.601799	fancy's	-0.06008117
-4.601799	fangled	-0.05982028
-4.601799	fangs	-0.05358867
-4.601799	fanning	-0.0601681
-4.601799	fantastic	-0.06012464
-4.601799	fantasy	0.004411165
-3.170436	far	-0.1957463
-4.124678	fares	-0.112983
-4.124678	farewell	0.00950893
-4.601799	faring	-0.05982028
-3.999739	farther	-0.1461722
-4.300769	farthest	-0.05759636
-3.999739	fashion	-0.3530958
-3.455671	fast	-0.203761
-4.601799	fastend	-0.05580022
-4.601799	fastened	-0.05358867
-4.601799	fastens	-0.05917826
-4.300769	faster	-0.05924359
-4.601799	fastly	-0.06014637
-4.601799	fat	-0.06014637
-4.300769	fatal	-0.06016809
-3.823648	fate	-0.1422589
-4.601799	fate's	-0.06020069
-3.397679	father	0.01091975
-4.300769	father's	-0.05928714
-4.601799	fathers	-0.06020069
-3.522618	fault	-0.03405324
-4.601799	fault's	-0.0601681
-4.601799	faultful	-0.06008117
-3.560407	faults	-0.0732961
-4.601799	faulty	-0.06014637
-4.601799	favored	-0.06015724
-3.902829	favour	0.01053059
-4.124678	favour'd	-0.05972241
-4.601799	favours	-0.05786952
-4.300769	fawn	-0.05935246
-4.601799	fawneth	-0.06001597
-2.968331	fear	-0.1837811
-3.999739	fear'd	-0.04991091
-4.601799	fear's	-0.06018983
-4.601799	feareth	-0.0601681
-3.756701	fearful	-0.05648013
-4.300769	fearfully	-0.06015723
-3.902829	fearing	-0.05691822
-3.601799	fears	-0.1205016
-4.124678	feast	0.005142972
-4.601799	feast'	0.004411165
-4.300769	feasting	-0.05979853
-4.300769	feasts	-0.05390844
-4.601799	feat	-0.06020069
-4.601799	feather	0.004411165
-4.300769	feather'd	-0.06011377
-4.601799	feathered	-0.06014637
-4.300769	feathers	-0.06011377
-4.601799	feature	0.004411165
-4.601799	featured	-0.2547233
-3.756701	fed	-0.2339602
-3.823648	fee	-0.2071407
-3.999739	feeble	-0.146597
-3.823648	feed	-0.04444036
-4.601799	feed'st	-0.05578925
-4.601799	feeder	-0.05976591
-4.601799	feedeth	-0.06020069
-4.124678	feeding	0.00749819
-3.756701	feeds	-0.02562089
-3.756701	feel	-0.08166037
-3.647557	feeling	-0.08517154
-4.300769	feelingly	-0.05691821
-4.300769	feels	-0.192126
-4.601799	feelst	-0.05993988
-4.601799	feil	-0.06005944
-3.601799	fell	-0.05386434
-4.601799	fellow	-0.05358867
-4.601799	fellowship	-0.05978766
-3.902829	felt	0.00785384
-4.601799	female	-0.06012464
-4.601799	females	-0.05865524
-4.601799	fence	-0.05988552
-4.601799	fester	-0.06011377
-4.300769	fever	0.004436381
-4.601799	fevers	-0.06020069
-4.300769	few	0.004411165
-3.999739	fickle	-0.05928715
-4.601799	fie	-0.06010291
-4.601799	fie'	-0.05649108
-3.902829	field	-0.3791525
-4.601799	field's	-0.0601681
-4.601799	fields	-0.06020069
-4.300769	fiend	-0.192126
-4.601799	fiends	0.004411165
-4.124678	fiery	-0.05880785
-3.522618	fight	-0.5965661
-4.300769	fighting	-0.1112514
-4.601799	fights	-0.05845894
-4.601799	figure	-0.05844804
-4.300769	figured	-0.05091096
-4.300769	figures	-0.05998335
-4.601799	figuring	-0.05841531
-4.601799	filching	-0.05989639
-4.601799	filed	0.004411165
-4.601799	filial	-0.05974416
-3.999739	fill	-0.08174779
-4.124678	filled	-0.10882
-4.601799	fillet	-0.05917826
-4.601799	filleth	0.004411165
-4.601799	filling	0.004411165
-4.601799	filth	-0.05988552
-3.221588	find	-0.2842818
-3.823648	finding	-0.05248418
-3.756701	finds	-0.09915641
-4.300769	fine	-0.05998335
-4.300769	finger	-0.06018982
-3.999739	fingers	-0.09689584
-3.139401	fire	-0.1691725
-4.601799	fire'	0.004411165
-4.601799	fired	0.004411165
-4.124678	fires	-0.05965715
-4.124678	firm	-0.05915648
-3.27958	first	-0.01261509
-4.601799	fisher	-0.05619514
-4.601799	fishes	-0.06018983
-4.601799	fist	-0.05819707
-3.823648	fit	-0.05975503
-4.300769	fits	0.004411165
-4.601799	fitted	0.004411165
-4.601799	fittest	-0.06004857
-4.124678	five	-0.06003771
-4.601799	fix	-0.06012464
-4.124678	fix'd	-0.3695251
-4.124678	fixed	-0.05992901
-3.902829	flame	-0.05649109
-4.300769	flaming	-0.05968978
-4.601799	flank	-0.06007031
-4.601799	flap	-0.06020069
-4.601799	flash'd	-0.05993988
-4.601799	flatly	-0.06018983
-3.756701	flatter	-0.09365974
-4.601799	flatterer	-0.06020069
-4.300769	flattering	-0.05989639
-4.300769	flatters	-0.05562459
-4.124678	flattery	-0.05336456
-4.601799	flavus	-0.06020069
-4.601799	flaws	-0.06020069
-3.999739	fled	-0.5843872
-4.300769	fleece	-0.05527311
-4.601799	fleet	-0.06011377
-4.601799	fleet'st	0.004411165
-4.300769	fleeting	-0.05995074
-3.698709	flesh	0.01673748
-4.601799	flew	0.004411165
-3.902829	flies	0.01531313
-3.999739	flight	-0.2419564
-4.300769	flint	-0.06004857
-4.300769	flinty	-0.05942865
-4.601799	float	0.004411165
-4.601799	flock	-0.06018983
-3.756701	flood	-0.2949005
-4.601799	flourish	-0.05992901
-4.300769	flow	0.009075455
-4.601799	flow'd	-0.06020069
-3.455671	flower	-0.1143806
-4.300769	flower'	0.004890494
-3.487856	flowers	-0.0585226
-4.601799	flows	-0.06017897
-4.601799	fluxive	-0.05882965
-3.487856	fly	-0.4098355
-4.601799	foam	-0.0591347
-3.698709	foe	-0.949819
-3.756701	foes	-0.2978787
-4.601799	foggy	-0.05945042
-4.601799	foil	0.004411165
-4.601799	foild	-0.06011377
-4.601799	foiled	0.004411165
-4.601799	foison	-0.06014637
-4.601799	foist	-0.05942865
-3.902829	fold	0.005332436
-4.300769	folded	-0.05961363
-4.300769	folds	-0.05681968
-4.601799	follies	-0.05865524
-4.124678	follow	0.008375145
-4.601799	followed	-0.05701672
-4.601799	following	-0.05918915
-4.124678	follows	-0.05686348
-3.756701	folly	-0.03512254
-4.601799	folly's	-0.05983116
-3.601799	fond	0.01068405
-4.601799	fondly	-0.05894952
-4.300769	food	-0.08651695
-3.756701	fool	-0.06471132
-4.601799	fool'	-0.05979853
-4.124678	foolish	-0.05884055
-3.902829	fools	-0.02863277
-3.647557	foot	-0.009465292
-4.601799	footed	-0.05918915
-4.300769	footing	-0.05995074
-4.601799	for't	-0.05987465
-4.601799	forbade	-0.05980941
-4.300769	forbear	0.004448988
-4.601799	forbears	0.004411165
-3.999739	forbid	-0.07916186
-4.601799	forbidden	-0.06018983
-4.601799	forbiddings	-0.05976591
-4.601799	forbod	-0.06012464
-3.560407	force	-0.1841441
-3.601799	forced	-0.05706049
-4.601799	forceless	-0.06007031
-4.601799	forces	-0.06020069
-4.601799	fords	0.004411165
-3.999739	fore	-0.06013551
-4.601799	forego	-0.05756358
-4.601799	foregone	0.004411165
-4.601799	forehead	-0.05578925
-4.601799	foreshowing	-0.05851348
-4.601799	foresight	-0.05976591
-4.300769	forestall	-0.05491035
-4.601799	foretell	-0.05982028
-4.124678	forever	0.004638143
-4.300769	forfeit	-0.05660064
-4.300769	forged	-0.0598529
-4.300769	forgeries	0.004411165
-4.601799	forgery	-0.06020069
-3.999739	forget	-0.05947219
-4.601799	forget'st	-0.05664446
-4.601799	forgetful	-0.06005944
-4.601799	forgetfulness	0.004411165
-4.601799	forgetting	-0.06018983
-4.601799	forging	-0.05995075
-4.601799	forgive	-0.05578925
-4.601799	forgoing	-0.06012464
-3.999739	forgot	-0.07884389
-4.601799	forgotten	0.004411165
-3.902829	forlorn	-0.1759309
-3.522618	form	-0.05343421
-4.300769	form'd	-0.0560745
-3.999739	former	-0.05901489
-4.300769	forms	0.00448681
-3.999739	forsake	-0.1484255
-4.601799	forsaken	0.004411165
-4.124678	forsook	-0.2124446
-3.999739	forsworn	-0.2388185
-4.300769	fort	-0.0589822
-3.203859	forth	-0.0732322
-4.601799	forthwith	-0.05649108
-4.300769	fortify	0.00559783
-4.601799	fortress'd	-0.05786952
-3.647557	fortune	-0.07437934
-3.999739	fortune's	-0.05955924
-3.999739	fortunes	-0.05998337
-4.601799	forty	-0.06018983
-4.300769	forward	-0.05989639
-4.601799	forwards	-0.05869885
-4.601799	fought	0.004411165
-3.057731	foul	-0.009108514
-4.601799	fouler	-0.06005944
-3.522618	found	-0.007245891
-4.601799	foundation	-0.06015724
-4.601799	fount	0.004411165
-4.124678	fountain	-0.05979854
-4.124678	fountains	-0.05930892
-4.601799	founts	-0.06018983
-4.124678	four	0.005913973
-4.300769	fowl	-0.05993987
-4.601799	fox	-0.05756358
-4.601799	fragrant	-0.06008117
-4.300769	frail	-0.06002683
-4.300769	frailer	-0.0601355
-4.300769	frailties	-0.05968978
-3.823648	frame	-0.2806185
-4.124678	framed	-0.1132369
-4.601799	framing	-0.05757451
-4.601799	frank	-0.0569401
-4.300769	frantic	-0.05974416
-4.601799	franticly	-0.0569401
-4.300769	fraud	0.006445631
-3.371351	free	-0.3904007
-4.300769	freed	-0.05121054
-4.124678	freedom	-0.05974416
-4.601799	freezing	-0.05993988
-4.601799	freezings	-0.0585571
-4.601799	frenzies	-0.06015724
-4.601799	frenzy	-0.05970066
-4.601799	frequent	-0.05998336
-3.323046	fresh	-0.04669979
-4.601799	fresher	-0.06018983
-4.124678	fret	-0.3695251
-4.300769	frets	0.005319811
-3.221588	friend	-0.2007549
-4.601799	friend'	0.004411165
-4.601799	friend's	-0.05911292
-4.300769	friendly	-0.0600377
-3.560407	friends	-0.3769436
-3.902829	friendship	-0.05842622
-4.300769	friendship's	-0.06011377
-3.999739	fright	-0.1409324
-4.601799	frighted	-0.0601681
-2.269361	from	-0.1397167
-4.601799	front	-0.05819707
-4.300769	frost	-0.05891683
-4.601799	frosts	-0.06000509
-4.601799	frosty	-0.05978766
-4.601799	froth	-0.06018983
-4.601799	frothy	-0.0601681
-4.124678	froward	-0.116286
-3.902829	frown	-0.1194821
-4.300769	frowns	-0.05961363
-4.601799	frownst	-0.05626092
-4.300769	frozen	-0.05615127
-4.124678	fruit	-0.1155415
-4.601799	fruitful	-0.06020069
-4.300769	fruitless	-0.06014637
-4.601799	fry	-0.06020069
-4.601799	fuel	0.004411165
-3.999739	fulfil	-0.2417799
-4.601799	fulfilld	0.004411165
-3.096649	full	-0.06566675
-4.601799	fume	0.004411165
-4.601799	fumes	0.004411165
-4.601799	function	-0.06020069
-4.601799	funeral	-0.06020069
-4.300769	furnace	-0.05978766
-4.601799	furnished	-0.05977679
-4.601799	furrows	-0.05999422
-4.124678	further	0.005054589
-4.601799	furtherance	-0.05749799
-3.999739	fury	-0.05137689
-4.300769	gage	0.004411165
-3.560407	gain	-0.1945381
-4.601799	gained	0.004411165
-4.601799	gainer	-0.05979853
-4.601799	gainful	-0.06017897
-4.300769	gaining	0.006015196
-4.601799	gains	0.004411165
-3.999739	gait	-0.1559629
-4.601799	gall	-0.05578925
-4.601799	galled	-0.06014637
-4.601799	galls	-0.05580022
-4.300769	gan	-0.06009204
-4.300769	gaol	0.004499413
-4.601799	gaping	-0.0601355
-4.601799	gardens	-0.05900399
-4.601799	garment	-0.05993988
-4.601799	garments	-0.059581
-4.601799	garments'	-0.06020069
-4.601799	gashes	-0.05918915
-3.902829	gate	-0.3868222
-4.601799	gates	-0.06015724
-4.601799	gather'd	-0.05756358
-4.601799	gathered	0.004411165
-4.124678	gaudy	-0.05966803
-4.124678	gav'st	-0.05497634
-3.203859	gave	-0.04093111
-4.601799	gavest	-0.06017897
-4.124678	gay	-0.3695251
-4.124678	gaze	0.00568632
-3.902829	gazed	-0.02797941
-4.601799	gazer	-0.06008117
-4.300769	gazers	-0.06000509
-4.300769	gazes	0.004612919
-4.300769	gazeth	0.008209795
-3.823648	gazing	-0.113038
-4.601799	gems	0.004411165
-3.756701	general	-0.05889504
-4.601799	generality	-0.05955923
-4.601799	genius	-0.05756358
-3.186826	gentle	-0.06216649
-4.124678	gentleman	-0.1152889
-4.601799	gentlest	-0.05988552
-4.300769	gently	-0.05873155
-4.601799	gentry	-0.05927626
-4.601799	gestures	-0.06012464
-3.647557	get	-0.1557377
-4.124678	ghastly	-0.05936335
-4.601799	ghost	0.004411165
-4.300769	giddy	-0.0600703
-3.902829	gift	-0.05088878
-4.601799	gifts	-0.05991814
-4.601799	gild	0.004411165
-4.601799	gild'st	-0.05965715
-3.999739	gilded	-0.05318034
-4.300769	gilding	-0.05991813
-4.601799	gills	0.004411165
-4.601799	girl'	-0.05979853
-4.601799	girths	-0.05649108
-2.929702	give	-0.125716
-4.124678	given	-0.05627188
-3.300769	gives	-0.018259
-3.999739	giving	-0.05687443
-4.601799	giving'	0.004411165
-4.300769	glad	0.004436381
-4.601799	gladly	0.004411165
-4.124678	glance	-0.05951571
-3.397679	glass	-0.1005543
-4.601799	glasses	-0.05918915
-4.601799	glassy	-0.06020069
-4.300769	glazed	-0.05948306
-4.601799	gleam'd	-0.05993988
-4.601799	glides	-0.05649108
-4.601799	glittering	-0.0600377
-4.601799	globes	-0.06018983
-4.601799	gloomy	-0.05996162
-4.601799	glories	0.004411165
-4.601799	glorifies	-0.06010291
-4.124678	glorious	-0.05672113
-4.601799	gloriously	-0.05999422
-3.455671	glory	-0.1451283
-4.601799	gloss	-0.06008117
-4.124678	glove	-0.05868795
-4.300769	glow	0.004486814
-4.601799	glow'd	0.004411165
-4.300769	glowing	-0.05902578
-4.601799	glows	0.004411165
-4.601799	glued	-0.06007031
-4.124678	glutton	0.009266637
-4.601799	gnats	-0.05865524
-3.560407	go	-0.1628725
-3.647557	god	-0.05673209
-4.601799	goddess	-0.05977679
-4.124678	gods	-0.05911292
-3.823648	goes	-0.1967703
-4.601799	goest	-0.06020069
-4.601799	goeth	-0.06011377
-4.124678	going	-0.05055566
-3.698709	gold	-0.08091628
-3.397679	golden	-0.05732306
-3.259377	gone	-0.6311796
-4.601799	gone'	-0.05979853
-2.999739	good	-0.125213
-3.999739	goodly	-0.05978767
-3.902829	goodness	-0.05008887
-4.601799	gore	0.004411165
-4.601799	gored	-0.05914559
-4.601799	gorge	-0.06020069
-4.601799	gorged	-0.06020069
-4.124678	got	-0.05114334
-4.601799	gouty	-0.06020069
-4.601799	govern	-0.06020069
-4.601799	governd	-0.05818616
-4.601799	governess	-0.06017897
-4.124678	government	-0.116286
-4.601799	governs	-0.06009204
-3.203859	grace	-0.2048546
-4.300769	graced	0.007701389
-3.756701	graces	-0.2291027
-3.823648	gracious	0.009100933
-4.601799	graciously	-0.05926537
-4.601799	graff	-0.05876425
-4.601799	grained	-0.06020069
-3.902829	grant	0.01384192
-4.601799	grant'st	-0.05844804
-4.601799	granted	0.004411165
-4.601799	granteth	0.004411165
-4.601799	granting	0.004411165
-4.601799	grape	-0.05916737
-4.601799	grapes	0.004411165
-3.902829	grass	0.008527841
-4.601799	gratis	-0.06011377
-3.455671	grave	-0.3278572
-4.601799	graver	-0.06015724
-4.300769	graves	0.004587695
-4.601799	gray	-0.05999422
-4.601799	graze	-0.0598529
-4.601799	grazed	-0.05358867
-3.346527	great	-0.06808108
-3.425708	greater	-0.01343648
-4.300769	greatest	-0.05973328
-4.601799	greatness	-0.0601355
-4.601799	greece	0.004411165
-4.601799	greedy	-0.06020069
-4.124678	greeks	-0.05830621
-3.560407	green	-0.2047474
-4.124678	greet	0.004890498
-4.601799	greeteth	-0.05757451
-4.601799	greets	-0.05990726
-3.756701	grew	-0.1142336
-4.601799	grey	-0.05999422
-3.110438	grief	-0.1285802
-4.124678	grief's	-0.05945042
-4.124678	griefs	-0.05849167
-4.601799	grievance	-0.05358867
-4.601799	grievances	-0.06020069
-4.601799	grieve	-0.0591347
-4.601799	grieved	-0.0591347
-4.601799	grieves	-0.05973328
-4.601799	grieves'	0.004411165
-4.601799	grieving	-0.05998336
-4.601799	grievous	-0.06007031
-3.823648	grim	0.004537255
-4.601799	grin	-0.0598529
-4.601799	grind	0.004411165
-4.601799	gripe's	-0.06012464
-4.601799	griping	-0.06018983
-3.647557	groan	-0.2668127
-3.601799	groans	-0.1453663
-4.601799	groin	0.004411165
-3.999739	groom	-0.0827829
-4.601799	grooms	-0.05865524
-3.999739	gross	-0.05959188
-4.300769	grossly	-0.06016809
-3.601799	ground	-0.2288573
-4.300769	grounded	-0.06004857
-4.601799	grounds	-0.06020069
-4.124678	grove	0.004562471
-3.560407	grow	-0.4679259
-4.124678	grow'st	-0.3695251
-3.999739	growing	0.00486524
-4.124678	grown	-0.05653492
-3.823648	grows	-0.08939102
-3.999739	growth	-0.07972091
-4.601799	growth's	-0.06012464
-4.300769	guard	0.004486814
-4.601799	guarded	-0.06015724
-4.601799	guards	-0.06017897
-4.124678	guess	-0.05595385
-3.902829	guest	-0.5221741
-4.300769	guests	0.004423775
-4.300769	guide	-0.192126
-4.601799	guided	-0.05737772
-4.124678	guides	-0.05726836
-3.902829	guilt	-0.05701673
-3.999739	guiltless	-0.05603064
-3.455671	guilty	-0.06013739
-4.601799	guise	0.004411165
-4.601799	gulf	-0.05965715
-4.601799	gulls	-0.05818616
-4.601799	gun	0.004411165
-4.601799	gush	-0.05993988
-4.601799	gust	-0.05819707
-4.300769	gusts	-0.05979853
-4.601799	gyves	0.004411165
-3.999739	habit	-0.05965715
-4.601799	habitation	-0.06018983
-4.601799	habitude	-0.05993988
-2.726738	had	-0.0866543
-3.999739	hadst	-0.05485537
-4.601799	hail	-0.05358867
-3.823648	hair	-0.3778184
-4.601799	hairless	-0.05959187
-3.999739	hairs	-0.08159609
-4.601799	hairy	-0.06020069
-3.999739	half	-0.05606354
-4.300769	halt	0.004461594
-4.601799	hammer'd	-0.06014637
-4.601799	hammered	-0.06014637
-2.845924	hand	-0.1385038
-4.601799	hand'	-0.0601355
-4.601799	hand's	-0.06018983
-4.601799	handled	-0.06017897
-4.601799	handling	0.004411165
-4.601799	handmaids	-0.05979853
-3.756701	hands	-0.05715897
-3.756701	hang	-0.1247307
-3.902829	hanging	-0.05183122
-4.601799	hangs	-0.06018983
-4.300769	hap	-0.05721366
-4.124678	hapless	-0.05882965
-3.999739	haply	-0.05858982
-4.124678	happier	-0.05869885
-4.601799	happies	-0.05950483
-3.999739	happiness	-0.2419564
-3.371351	happy	0.002623521
-4.601799	harbour	-0.0601681
-3.425708	hard	-0.04637563
-4.601799	hard'	0.004411165
-4.601799	harden	-0.05991814
-4.601799	hardend	-0.06010291
-4.124678	harder	-0.1796919
-4.300769	hardest	-0.06002683
-4.601799	hare	0.004411165
-4.601799	harken	-0.05873155
-3.999739	harm	-0.08153202
-4.300769	harm'd	0.004411165
-3.902829	harmless	-0.05946131
-4.124678	harmony	-0.05903668
-4.124678	harms	-0.116286
-4.601799	harsh	-0.06010291
-4.601799	harshsounding	0.004411165
-4.124678	harvest	-0.05332385
-4.601799	has	-0.05997249
-3.203859	hast	-0.1779054
-3.560407	haste	-0.1541015
-4.601799	haste'	0.004411165
-4.601799	hasten	-0.05756358
-4.300769	hasteth	-0.05357763
-4.601799	hastily	-0.06020069
-4.601799	hasting	-0.06014637
-4.601799	hasty	-0.06002683
-4.300769	hat	-0.192126
-4.601799	hatch	-0.06020069
-3.371351	hate	-0.2620783
-4.300769	hate'	-0.0545803
-4.601799	hate's	-0.0601681
-4.300769	hated	-0.05700577
-3.756701	hateful	-0.05879696
-4.601799	hatefully	-0.0591347
-4.601799	hates	-0.05989639
-4.601799	hateth	-0.05757451
-2.541101	hath	-0.03443241
-4.601799	hatred	-0.05955923
-4.601799	haunted	0.004411165
-2.419956	have	-0.1290276
-3.425708	having	-0.09437652
-4.601799	havings	-0.05968978
-4.601799	hawk	0.004411165
-4.300769	hawks	-0.0601355
-4.601799	hazard	-0.0589822
-2.069045	he	-0.04197855
-4.601799	he'	-0.0569401
-4.601799	he's	-0.06018983
-4.601799	he'this	-0.05945042
-3.203859	head	-0.3539099
-4.601799	headlong	-0.0601681
-3.999739	heads	-0.1414508
-4.601799	healeth	0.004411165
-4.601799	heals	-0.0600377
-4.124678	health	-0.06321765
-4.300769	healthful	-0.05997248
-3.240072	hear	-0.08927403
-4.300769	hear'st	-0.05623899
-3.823648	heard	-0.05726836
-4.601799	hearers	-0.06014637
-3.902829	hearing	-0.02598996
-4.601799	hearkens	-0.05358867
-3.823648	hears	-0.1135522
-4.601799	hearsay	-0.05955923
-4.601799	hearsed	0.004411165
-2.597478	heart	-0.1389546
-4.601799	heart'	-0.0601355
-3.647557	heart's	-0.05891684
-4.601799	hearted	-0.06000509
-4.601799	heartens	-0.05962451
-4.601799	heartily	-0.06020069
-4.300769	heartless	-0.06011377
-3.601799	hearts	-0.03955173
-3.487856	heat	-0.03480943
-4.601799	heathenish	-0.0601681
-4.601799	heating	-0.05974416
-4.601799	heats	-0.2565966
-4.300769	heave	-0.05578924
-4.300769	heaved	-0.2561617
-3.154641	heaven	-0.03775986
-3.698709	heavenly	-0.101288
-3.487856	heavens	-0.094485
-4.300769	heaveth	0.005092472
-4.300769	heavily	-0.05412884
-4.601799	heaviness	0.004411165
-4.601799	heaviness'	0.004411165
-3.425708	heavy	-0.05605258
-4.300769	hector	-0.06016809
-4.300769	hecuba	-0.05971153
-4.601799	hedge	-0.06014637
-4.601799	heed	-0.05983116
-4.300769	heedful	-0.05962451
-4.601799	heedfully	-0.05819707
-4.601799	heels	0.004411165
-3.999739	height	-0.05973329
-4.300769	heinous	-0.05991813
-3.999739	heir	-0.08208889
-3.823648	held	-0.08694611
-4.300769	helens	-0.05999422
-3.487856	hell	-0.2452924
-3.487856	help	-0.06941896
-4.601799	helpful	-0.06020069
-4.601799	helpless	-0.06014637
-4.300769	hemm'd	-0.05754171
-4.601799	hems	0.004411165
-3.647557	hence	0.008807924
-4.601799	hence'	0.004411165
-4.300769	henceforth	-0.05590995
-4.601799	henry	-0.06020069
-1.995418	her	-0.06049632
-4.300769	herald	-0.06016809
-4.601799	heraldry	-0.06009204
-4.601799	herb	-0.06018983
-4.300769	herd	0.004461583
-4.601799	herdmen	-0.06020069
-4.601799	herds	0.004411165
-2.97855	here	-0.1003904
-4.601799	here'	0.004411165
-4.601799	here's	-0.06001597
-4.124678	hereafter	-0.05715897
-4.124678	herein	-0.0557234
-4.601799	heretic	0.004411165
-4.300769	hers	-0.05471235
-3.425708	herself	-0.06479369
-3.756701	hid	-0.02455618
-4.124678	hidden	-0.05738866
-3.647557	hide	-0.2058376
-4.124678	hideous	-0.05935246
-4.124678	hides	-0.0526832
-3.999739	hiding	0.009776883
-4.124678	hie	-0.05308467
-4.300769	hied	-0.05785859
-4.300769	hies	-0.192126
-3.259377	high	-0.0419592
-4.124678	higher	0.004600301
-4.601799	highly	-0.06015724
-4.601799	highmost	-0.06018983
-4.601799	hild	0.004411165
-4.124678	hill	-0.1152889
-4.601799	hillocks	-0.06020069
-4.124678	hills	-0.05547086
-2.332286	him	-0.0702953
-3.139401	himself	-0.1431752
-4.601799	hind	-0.06005944
-4.601799	hinder	-0.06017897
-4.601799	hindering	-0.05756358
-4.601799	hindmost	-0.06012464
-4.601799	hips	0.004411165
-4.601799	hired	-0.05701672
-1.820044	his	-0.04727133
-4.601799	hiss	0.004411165
-4.300769	hisses	0.00559783
-4.601799	history	0.004411165
-4.601799	hit	0.004411165
-4.124678	hither	0.007764898
-4.601799	hits	0.004411165
-4.124678	hive	-0.08130855
-4.601799	hoard	-0.05927626
-4.601799	hoards	-0.06010291
-4.601799	hoarsely	-0.06011377
-4.601799	hoisted	-0.06017897
-3.371351	hold	-0.06490903
-4.601799	holding	-0.06009204
-3.698709	holds	-0.281084
-4.601799	hole	0.004411165
-4.601799	holes	-0.06017897
-4.601799	holiest	-0.0601355
-3.999739	hollow	-0.06005944
-4.601799	hollows	-0.05873155
-3.756701	holy	-0.05973329
-4.601799	homage	-0.05358867
-3.647557	home	0.02067212
-4.601799	homely	-0.06020069
-3.999739	honest	-0.05927626
-3.999739	honesty	-0.05186445
-3.756701	honey	-0.05708238
-3.756701	honor	-0.05180907
-4.300769	honorable	0.004423775
-4.601799	honored	-0.06020069
-4.601799	honors	-0.06020069
-3.186826	honour	0.02406771
-4.601799	honour'd	-0.05845894
-4.124678	honour's	-0.1783608
-4.124678	honourable	-0.06010291
-4.300769	honoured	0.005370349
-4.601799	honouring	0.004411165
-4.601799	honours	-0.05358867
-4.601799	hoodwinks	-0.05882965
-4.601799	hoof	-0.05649108
-4.300769	hooks	-0.192126
-3.259377	hope	-0.0526659
-4.300769	hopeful	-0.05991813
-4.300769	hopeless	-0.06018982
-3.902829	hopes	-0.05734492
-4.300769	hoping	-0.05868794
-4.300769	horn	-0.192126
-3.487856	horse	-0.07315464
-4.601799	horses	0.004411165
-4.601799	hospitality	0.004411165
-4.300769	host	0.004764304
-4.601799	hostess	-0.06020069
-3.346527	hot	-0.06569453
-4.300769	hotly	-0.06018982
-4.601799	hound	-0.05845894
-3.823648	hounds	-0.04122315
-3.425708	hour	-0.1205424
-4.601799	hour's	-0.06010291
-4.601799	hourly	-0.06017897
-3.323046	hours	-0.1384743
-4.124678	house	-0.05971153
-4.601799	household's	-0.06005944
-4.601799	houses	-0.05982028
-4.601799	hover'd	0.004411165
-4.601799	hovering	-0.06001597
-2.67238	how	-0.1262859
-4.601799	howling	0.004411165
-3.756701	hue	-0.1692452
-4.601799	hued	-0.06020069
-4.601799	hues	-0.05358867
-3.902829	huge	-0.06005944
-4.601799	hugely	-0.06020069
-4.601799	hum	-0.05997249
-4.601799	human	-0.06009204
-4.300769	humanity	-0.0561403
-3.999739	humble	-0.05692916
-4.601799	humbly	-0.05819707
-4.601799	humor	-0.05824073
-3.999739	humour	-0.05478937
-4.124678	hundred	-0.06008118
-4.124678	hung	-0.05354454
-4.601799	hunger	-0.05737772
-4.601799	hungry	-0.0601355
-4.124678	hunt	-0.05850257
-4.300769	hunted	-0.0583062
-4.300769	hunting	-0.05634861
-4.601799	hurls	0.004411165
-4.601799	hurries	-0.05580022
-4.124678	hurt	-0.05117727
-4.601799	hurting	-0.06014637
-3.487856	husband	-0.08777208
-3.902829	husband's	-0.05687443
-4.300769	husbandry	0.004739068
-4.601799	hush	-0.05945042
-4.601799	hush'd	-0.0598529
-4.601799	huswife	-0.06014637
-4.601799	hymn	-0.06020069
-4.300769	hymns	-0.05786952
-4.601799	i'	-0.05979853
-3.300769	i'll	-0.08134064
-4.601799	idiots	-0.05865524
-3.756701	idle	-0.1070433
-4.601799	idly	-0.06008117
-4.300769	idol	-0.05971153
-4.601799	idolatry	0.004411165
-2.468261	if	-0.0893072
-4.124678	ignorance	0.007510878
-4.300769	ignorantly	-0.06017896
-4.601799	ilion	-0.0601681
-3.045497	ill	-0.2709136
-4.601799	illiterate	-0.05977679
-4.601799	illness	-0.06018983
-4.300769	ills	-0.05940688
-4.601799	illumined	-0.05580022
-4.601799	illustrious	-0.05974416
-3.560407	image	-0.06808387
-4.300769	images	-0.05885144
-4.124678	imaginary	-0.05650204
-3.999739	imagination	-0.0787833
-4.124678	imagine	-0.05224082
-4.300769	imagined	-0.192126
-4.124678	imitate	-0.05086657
-4.601799	imitated	-0.05995075
-4.601799	immaculate	-0.06020069
-4.601799	immodest	-0.06020069
-4.601799	immodestly	-0.05987465
-4.124678	immortal	-0.1795285
-4.601799	immortality	-0.05968978
-4.601799	immunity	0.004411165
-4.300769	immure	-0.05934157
-4.300769	immured	-0.08302021
-4.601799	impair	-0.05622803
-4.601799	impanelled	0.004411165
-4.300769	impart	0.004411165
-4.601799	imparteth	0.004411165
-4.601799	impartial	-0.06020069
-4.601799	impatience	-0.06020069
-4.601799	impatient	-0.06007031
-4.601799	impeached	-0.06012464
-4.300769	impediments	-0.05732304
-4.601799	imperfect	-0.0601355
-4.601799	imperious	-0.06018983
-4.124678	impiety	-0.1148464
-4.300769	impious	-0.0600703
-4.601799	impleach'd	0.004411165
-4.601799	import	-0.06020069
-4.601799	importune	-0.05757451
-4.601799	imposition	0.004411165
-4.601799	impregnable	-0.05865524
-4.601799	impressest	-0.05851348
-3.999739	impression	0.004713837
-4.601799	imprint	-0.05845894
-4.601799	imprinted	0.004411165
-4.300769	imprisond	-0.059929
-4.601799	imprisoned	-0.06014637
-4.300769	impure	-0.06018982
-4.601799	impurity	-0.05819707
-4.601799	imputations	-0.06018983
-4.601799	impute	0.004411165
-4.601799	incaged	-0.05358867
-4.601799	incapable	-0.05882965
-4.601799	incense	-0.05664446
-4.601799	incertainties	-0.0589822
-4.601799	incertainty	0.004411165
-4.601799	incest	-0.06018983
-4.300769	inclination	0.004411165
-4.601799	incline	0.004411165
-4.601799	inclined	0.004411165
-4.601799	including	-0.0576838
-4.601799	income	-0.05974416
-4.601799	incomparable	-0.0601681
-4.601799	inconstant	-0.05977679
-4.601799	incorporate	-0.05865524
-3.756701	increase	-0.2334493
-4.601799	increaseful	-0.06018983
-4.300769	increasing	0.004575089
-4.601799	incur	0.004411165
-3.902829	indeed	-0.1784448
-4.601799	indenting	-0.05997249
-4.601799	indigest	0.004411165
-4.601799	indirectly	-0.06010291
-3.999739	infamy	-0.5843872
-4.124678	infamy'	-0.3695251
-4.601799	infant	-0.06020069
-4.300769	infant's	-0.05905845
-4.601799	infect	-0.05926537
-4.601799	infected	-0.06017897
-3.902829	infection	0.00851512
-4.601799	inferior	-0.05991814
-4.601799	infirmities	0.004411165
-4.601799	infirmity	0.004411165
-4.601799	inflamed	-0.06009204
-4.601799	inflaming	-0.06015724
-4.601799	inflict	0.004411165
-4.124678	influence	-0.05922182
-4.601799	inform	-0.06010291
-4.601799	informed	-0.06017897
-4.601799	informer	-0.05735585
-4.601799	infringed	-0.06014637
-4.601799	infused	-0.06020069
-4.601799	infusing	-0.05927626
-4.601799	inhabit	-0.06009204
-4.601799	inhearse	0.004411165
-4.601799	inherit	-0.06007031
-4.601799	inheritors	-0.05735585
-4.124678	iniquity	-0.2286859
-4.300769	injuries	0.00559783
-3.999739	injurious	-0.05948307
-4.124678	injury	0.00523138
-4.601799	injustice	-0.06020069
-3.999739	ink	-0.1013513
-4.601799	innated	-0.05786952
-4.300769	innocence	0.006749727
-4.601799	innocent	-0.05990726
-4.601799	inordinate	0.004411165
-4.601799	insert	0.004411165
-4.601799	insinuate	0.004411165
-4.601799	instance	-0.05993988
-4.601799	instant	-0.06018983
-4.601799	instead	-0.05976591
-4.601799	instigate	0.004411165
-4.601799	instinct	-0.06017897
-4.300769	instrument	-0.08505109
-4.601799	insufficiency	-0.05911292
-4.601799	insulter	-0.06020069
-4.601799	insulting	-0.06018983
-4.601799	insurrection	0.004411165
-4.601799	intelligence	0.004411165
-3.999739	intend	-0.0824171
-4.300769	intending	-0.05735585
-4.601799	intendments	-0.06008117
-4.601799	intends	0.004411165
-4.300769	intent	0.004411165
-4.300769	interchange	-0.05953747
-3.823648	interest	0.0142286
-4.601799	interim	-0.0601355
-4.601799	intermixed'	0.004411165
-4.601799	interrupted	0.004411165
-4.601799	intituled	0.004411165
-3.346527	into	-0.07640301
-4.601799	intrude	-0.0601355
-4.601799	inundation	-0.05882965
-4.601799	inured	-0.06009204
-4.601799	invasion	0.004411165
-4.601799	invective	-0.05980941
-4.601799	inveigh	-0.05980941
-4.300769	invent	-0.192126
-3.756701	invention	-0.05789137
-4.601799	inventions	-0.05756358
-4.601799	invised	-0.06020069
-4.124678	invisible	-0.0815259
-4.601799	invite	-0.05925448
-4.601799	invited	0.004411165
-4.601799	invitements	-0.06007031
-4.601799	inviting	-0.05918915
-4.601799	invocate	0.004411165
-4.601799	invocations	0.004411165
-4.601799	invoked	-0.05757451
-3.560407	inward	-0.06457023
-4.601799	ireful	-0.06017897
-4.300769	iron	-0.06014637
-4.601799	irrefragable	-0.06011377
-4.601799	is'	0.004411165
-4.124678	is't	-0.05191981
-4.601799	island	-0.06020069
-3.902829	issue	-0.09187644
-4.601799	issueless	-0.06000509
-4.601799	issues	-0.06015724
-4.300769	it'	0.004411165
-4.601799	italy	0.004411165
-4.601799	its	-0.05952659
-3.647557	itself	-0.05211909
-3.902829	ivory	-0.05939601
-4.601799	jacks	-0.06018983
-4.124678	jade	0.009930067
-4.601799	jar	0.004411165
-4.601799	javelins	-0.06015724
-4.124678	jealous	-0.0592436
-3.823648	jealousy	-0.2919514
-4.601799	jeering	-0.06020069
-4.601799	jennet	-0.0601681
-4.300769	jest	-0.192126
-4.601799	jet	0.004411165
-3.698709	jewel	0.0235347
-4.124678	jewels	-0.06009204
-4.601799	john	-0.06020069
-4.124678	join	-0.05826256
-4.300769	joint	-0.06016809
-4.124678	jointly	-0.05961364
-4.124678	joints	-0.05885145
-4.300769	jollity	-0.09574228
-4.601799	jot	-0.06020069
-4.300769	journey	-0.05970065
-4.601799	jove	0.004411165
-4.601799	jove'	-0.05979853
-3.346527	joy	-0.1127596
-4.601799	joyed	0.004411165
-4.601799	joyless	-0.0601681
-4.300769	joys	-0.0601355
-3.999739	judge	-0.05744334
-4.601799	judgement	-0.06014637
-3.823648	judgment	-0.05569046
-4.601799	judicious	-0.06009204
-4.601799	juice	0.004411165
-4.300769	jump	-0.05917826
-4.601799	junes	-0.06020069
-4.601799	junius	-0.0601681
-3.560407	just	-0.1224843
-4.300769	justice	-0.05954835
-4.601799	justify	-0.06002683
-3.999739	justly	-0.05852439
-4.124678	keen	-0.2087986
-3.346527	keep	-0.04633662
-4.601799	keep'st	-0.06009204
-4.601799	keeping	-0.06020069
-3.823648	keeps	-0.04475193
-4.601799	ken	-0.06014637
-3.601799	kept	-0.1113013
-4.601799	key	0.004411165
-3.487856	kill	-0.6284743
-4.601799	kill'	0.004411165
-3.698709	killd	-0.1525352
-4.601799	killd'	0.004411165
-4.601799	killed	0.004411165
-4.300769	killing	-0.05854619
-4.124678	kills	-0.05043345
-3.203859	kind	-0.3193555
-4.601799	kinder	-0.05358867
-4.601799	kindle	-0.06017897
-4.124678	kindled	-0.055372
-4.601799	kindly	-0.05737772
-4.124678	kindness	0.005180854
-4.601799	kindred	-0.0600377
-3.999739	kinds	-0.1449923
-3.647557	king	-0.1589659
-4.601799	king's	-0.06010291
-4.300769	kingdom	-0.0601029
-4.601799	kingly	-0.06018983
-3.601799	kings	-0.2042097
-4.601799	kings'	-0.06018983
-4.601799	kinsman	-0.05983116
-4.601799	kinsmen	-0.0601355
-3.240072	kiss	-0.0778762
-4.601799	kiss'	0.004411165
-4.601799	kiss'd	-0.06005944
-4.601799	kissed	-0.05358867
-3.902829	kisses	0.01100392
-3.902829	kissing	0.007041331
-4.601799	knee	-0.0601681
-4.601799	kneel	-0.06007031
-4.601799	kneels	0.004411165
-4.601799	knees	-0.05841531
