
\data\
ngram 1=6890

\1-grams:
-4.300769	'
-4.601799	''all
-4.601799	''among
-4.601799	''and
-4.601799	''but
-4.601799	''how
-4.601799	''lo
-4.601799	''look
-4.601799	''my
-4.601799	''now
-4.300769	''o
-4.601799	''the
-3.999739	''tis
-4.601799	''when
-4.300769	'a
-4.601799	'adieu'
-4.300769	'alas
-4.601799	'all
-3.522618	'and
-4.601799	'arise
-4.300769	'art
-4.300769	'as
-4.601799	'at
-4.601799	'awake
-4.601799	'ay
-4.601799	'behold
-4.601799	'bonnet
-3.647557	'but
-4.300769	'by
-4.300769	'can
-4.601799	'cannot'
-4.601799	'chaste'
-4.601799	'come
-4.601799	'courageous
-4.601799	'daughter
-4.300769	'dear
-4.601799	'desire
-4.601799	'didst
-4.601799	'disturb
-4.601799	'do
-4.601799	'dost
-4.601799	'em
-4.601799	'expected
-4.300769	'fair
-4.601799	'father'
-4.601799	'few
-4.124678	'fie
-4.601799	'fondling'
-4.601799	'fool
-3.647557	'for
-3.487856	'gainst
-4.601799	'gan
-4.601799	'gentle
-4.300769	'gins
-4.300769	'give
-4.601799	'go
-4.300769	'good
-4.124678	'had
-4.601799	'hard
-4.300769	'hast
-4.601799	'have
-4.300769	'he
-4.601799	'he'
-4.601799	'her
-4.124678	'his
-4.601799	'holla'
-3.999739	'how
-3.647557	'i
-3.756701	'if
-3.902829	'in
-4.601799	'is
-3.999739	'it
-4.601799	'kill
-4.601799	'leave
-4.601799	'lest
-3.902829	'let
-4.601799	'lie
-4.300769	'lo
-4.601799	'long
-4.300769	'look
-4.601799	'love
-4.601799	'lucrece'
-4.601799	'madam
-4.601799	'many
-4.601799	'mine
-4.601799	'mis
-4.601799	'miss
-4.601799	'more
-3.698709	'my
-4.601799	'nay
-4.601799	'nights
-4.300769	'no
-4.601799	'no'
-4.124678	'nor
-4.601799	'not
-3.999739	'now
-3.240072	'o
-4.601799	'o'
-4.300769	'on
-4.601799	'over
-4.601799	'pity'
-4.601799	'point'st
-4.124678	'poor
-4.601799	'pure
-4.601799	'reward
-4.601799	'say
-4.601799	'scape
-4.601799	'scaped
-4.601799	'scapeth
-4.300769	'shall
-4.601799	'shameful
-4.300769	'she
-4.601799	'she's
-4.601799	'show
-4.300769	'since
-4.601799	'small
-3.756701	'so
-4.601799	'some
-4.601799	'sometime
-4.601799	'stand
-4.601799	'such
-4.124678	'sweet
-4.300769	't
-4.300769	'tarquin
-3.999739	'that
-3.560407	'the
-3.999739	'then
-4.601799	'therefore
-4.601799	'these
-4.601799	'they
-4.601799	'think
-3.647557	'this
-3.698709	'thou
-4.601799	'though
-4.601799	'thrice
-3.999739	'thus
-4.601799	'thy
-4.601799	'time's
-3.07032	'tis
-4.300769	'to
-4.601799	'torches
-4.601799	'twas
-4.300769	'tween
-4.601799	'twere
-3.999739	'twixt
-4.601799	'unless
-4.601799	'unruly
-4.601799	'upon
-4.601799	'vilia
-4.601799	'vouchsafe
-4.300769	'well
-4.300769	'were
-3.756701	'what
-4.124678	'when
-4.300769	'where
-4.601799	'who
-3.698709	'why
-4.124678	'will
-4.601799	'will'
-4.300769	'with
-4.601799	'witness
-4.601799	'woe
-4.601799	'yea
-4.300769	'yet
-3.999739	'you
-4.601799	'young
-4.601799	'your
-4.601799	10
-4.601799	100
-4.601799	105
-4.601799	110
-4.601799	115
-4.601799	120
-4.601799	125
-4.601799	130
-4.601799	135
-4.601799	140
-4.601799	145
-4.601799	15
-4.601799	150
-4.601799	155
-4.601799	160
-4.601799	165
-4.601799	170
-4.601799	175
-4.601799	180
-4.601799	185
-4.601799	190
-4.601799	195
-4.601799	20
-4.601799	200
-4.601799	205
-4.601799	210
-4.601799	215
-4.601799	220
-4.601799	225
-4.601799	230
-4.601799	235
-4.601799	240
-4.601799	245
-4.601799	25
-4.601799	250
-4.601799	255
-4.601799	260
-4.601799	265
-4.601799	270
-4.601799	275
-4.601799	280
-4.601799	285
-4.601799	290
-4.601799	295
-4.601799	30
-4.601799	300
-4.601799	305
-4.601799	310
-4.601799	315
-4.601799	320
-4.601799	325
-4.601799	330
-4.601799	335
-4.601799	340
-4.601799	345
-4.601799	35
-4.601799	350
-4.601799	355
-4.601799	360
-4.601799	365
-4.601799	370
-4.601799	375
-4.601799	380
-4.601799	385
-4.601799	390
-4.601799	395
-4.601799	40
-4.601799	400
-4.601799	405
-4.601799	410
-4.601799	415
-4.601799	420
-4.601799	425
-4.601799	430
-4.601799	435
-4.601799	440
-4.601799	445
-4.601799	45
-4.601799	450
-4.601799	455
-4.601799	460
-4.601799	465
-4.601799	470
-4.601799	475
-4.601799	480
-4.601799	485
-4.601799	490
-4.601799	495
-4.601799	5
-4.601799	50
-4.601799	500
-4.601799	505
-4.601799	510
-4.601799	515
-4.601799	520
-4.601799	525
-4.601799	530
-4.601799	535
-4.601799	540
-4.601799	545
-4.601799	55
-4.601799	550
-4.601799	555
-4.601799	560
-4.601799	565
-4.601799	570
-4.601799	575
-4.601799	60
-4.601799	65
-4.601799	70
-4.601799	75
-4.601799	80
-4.601799	85
-4.601799	90
-4.601799	95
-0.8593099	</s>
-99	<s>
-3.902829	abhor
-3.902829	abide
-4.601799	able
-4.601799	abled
-4.300769	abomination
-4.601799	abominations
-3.647557	about
-3.756701	above
-4.601799	abridged
-4.601799	abridgement
-4.300769	abroad
-3.823648	absence
-4.124678	absent
-4.601799	absolute
-4.601799	absolutely
-4.601799	absolution
-4.601799	abstaining
-3.999739	abundance
-4.601799	abundant
-3.698709	abuse
-4.300769	abused
-3.999739	abuses
-4.601799	abusing
-4.601799	abysm
-4.124678	accents
-4.601799	acceptable
-4.124678	acceptance
-4.124678	accessary
-4.300769	accident
-4.601799	accidents
-4.601799	acclamation
-4.300769	accompanied
-4.601799	accomplish'd
-4.601799	accorded
-4.601799	according
-3.902829	account
-4.601799	accounted
-4.601799	accumulate
-4.601799	accursed
-4.601799	accurst'
-4.300769	accuse
-4.601799	ache
-4.601799	achieve
-4.601799	achilles'
-4.601799	acknowledge
-3.902829	acquaintance
-4.124678	acquainted
-4.300769	acquit
-4.601799	across
-3.698709	act
-3.823648	action
-4.124678	actions
-4.300769	active
-4.300769	actor
-4.601799	actors
-4.601799	acts
-4.601799	acture
-3.999739	add
-4.124678	added
-4.300769	adder
-4.601799	adder's
-4.601799	addeth
-4.300769	addicted
-4.601799	adding
-4.300769	addition
-4.601799	address'd
-4.300769	adds
-4.601799	adieu
-4.124678	adjunct
-4.601799	admiration
-4.601799	admire
-3.999739	admired
-4.601799	admires
-4.601799	admit
-4.601799	admits
-4.601799	admitted
-4.601799	ado
-4.601799	adon
-3.487856	adonis
-3.999739	adonis'
-4.601799	adons
-4.300769	adore
-4.601799	adored
-4.601799	adorn
-4.300769	adorned
-4.124678	adulterate
-3.999739	advance
-3.756701	advantage
-4.601799	adventers
-4.601799	adverse
-4.124678	advice
-4.124678	advised
-3.999739	advisedly
-4.601799	advocate
-4.601799	aetna
-4.601799	afar
-4.601799	afeard
-4.601799	affable
-4.124678	affairs
-4.601799	affect
-4.300769	affected
-4.601799	affectedly
-3.823648	affection
-3.902829	affections
-4.601799	afflict
-4.601799	afflicted
-4.601799	affliction
-4.601799	afford
-3.999739	affords
-4.300769	affright
-4.601799	afloat
-4.300769	afraid
-4.601799	afresh
-3.221588	after
-4.300769	afterwards
-3.057731	again
-4.601799	again'
-3.033598	against
-3.139401	age
-4.300769	age's
-4.300769	aged
-4.601799	agents
-4.601799	ages
-4.601799	aggravate
-4.601799	ago
-4.300769	agrees
-4.601799	agues
-3.698709	ah
-3.902829	aid
-4.601799	aidance
-4.601799	aids
-3.823648	aim
-3.601799	air
-4.601799	airy
-4.601799	ajax
-4.601799	ajax'
-4.300769	alabaster
-4.124678	alack
-4.601799	alarm
-4.300769	alarms
-4.601799	alarum
-4.601799	alarums
-4.124678	alas
-4.300769	alchemy
-4.601799	alien
-4.601799	alight
-4.300769	alike
-3.823648	alive
-4.601799	alive'
-2.236311	all
-4.601799	allayed
-4.601799	allege
-4.601799	allotted
-4.124678	allow
-4.601799	almighty
-3.999739	almost
-4.601799	aloes
-4.300769	aloft
-3.259377	alone
-4.601799	along
-4.601799	aloof
-4.300769	aloud
-4.300769	already
-4.601799	alt'ring
-4.601799	altar
-4.601799	altars
-4.124678	alter
-4.300769	altered
-4.601799	alters
-3.487856	although
-4.601799	alway
-4.124678	always
-2.968331	am
-4.601799	am'
-4.601799	amaze
-4.124678	amazed
-4.601799	amazedly
-4.601799	amazeth
-4.601799	amber
-4.124678	ambition
-4.601799	ambitious
-4.300769	ambush
-4.601799	amen
-4.601799	amend
-4.601799	amended
-4.300769	amends
-4.601799	amid
-4.124678	amidst
-4.601799	amis
-4.124678	amiss
-4.601799	amity
-3.823648	among
-3.902829	amongst
-4.601799	amorous
-4.601799	amorously
-4.601799	ampler
-4.601799	amplify
-2.929702	an
-4.601799	anatomized
-4.601799	anchored
-4.601799	ancient
-3.999739	anew
-3.999739	angel
-4.601799	angels
-4.300769	anger
-3.647557	angry
-4.300769	annexed
-3.999739	annoy
-3.698709	anon
-3.203859	another
-3.999739	another's
-3.698709	answer
-4.601799	answer'd
-4.601799	answered
-4.601799	answering
-4.124678	answers
-4.601799	anthem
-4.601799	anticipate
-4.601799	antics
-3.902829	antique
-4.601799	antiquities
-4.601799	antiquity
-3.27958	any
-4.601799	apace
-4.601799	apollo
-4.601799	apologies
-4.601799	appaid
-4.601799	appals
-4.601799	apparitions
-4.124678	appeal
-3.756701	appear
-4.601799	appearance
-4.601799	appearing
-3.823648	appears
-4.601799	appertainings
-3.823648	appetite
-4.300769	applause
-4.601799	apple
-3.999739	applied
-4.300769	applying
-4.601799	apprehension
-4.601799	approach
-4.124678	approve
-3.902829	april
-4.601799	aprils
-4.601799	apt
-4.124678	aptly
-4.300769	aptness
-4.601799	aqua'
-4.601799	arbitrators
-4.601799	arch
-4.124678	ardea
-2.446463	are
-4.601799	argued
-3.756701	argument
-4.601799	arguments
-4.601799	aright
-4.601799	arise
-4.601799	ariseth
-4.601799	arising
-4.300769	arm
-4.300769	arm'd
-4.601799	armed
-4.601799	armour
-3.425708	arms
-4.601799	army
-4.300769	array
-4.300769	arrest
-4.601799	arrival
-4.601799	arrive
-4.601799	arrived
-4.601799	arrow
-2.738477	art
-4.601799	art'
-4.601799	art's
-2.134932	as
-4.124678	ashamed
-4.300769	ashes
-4.124678	ashy
-4.124678	aside
-4.124678	ask
-4.601799	ask'd
-4.300769	askance
-4.601799	asked
-4.601799	asks
-4.300769	asleep
-4.300769	aspect
-4.601799	aspects
-4.124678	aspire
-4.601799	aspiring
-4.300769	assail
-4.300769	assaild
-4.300769	assailed
-4.601799	assails
-3.999739	assault
-4.601799	assay
-4.601799	assay'd
-4.601799	assays
-4.601799	assemble
-4.601799	assist
-4.601799	assistance
-4.300769	assuage
-4.601799	assuaged
-4.300769	assure
-3.823648	assured
-4.601799	astonish'd
-4.601799	astonished
-4.601799	astronomy
-4.601799	asunder
-2.606164	at
-4.601799	attained
-4.124678	attaint
-4.601799	attainted
-4.601799	attempt
-3.823648	attend
-4.124678	attended
-4.601799	attending
-4.601799	attends
-4.300769	attention
-4.601799	attire
-4.300769	attired
-4.601799	audaciously
-4.601799	audacity
-4.300769	audience
-3.999739	audit
-4.124678	aught
-4.601799	augment
-4.601799	augmenting
-4.601799	augurs
-4.601799	auspicious
-4.300769	author
-4.124678	authority
-4.601799	authorized
-4.601799	authorizing
-4.601799	authors
-4.300769	autumn
-4.300769	avails
-4.601799	avaunt
-4.601799	avouched
-4.601799	awake
-4.601799	awakes
-4.601799	awaketh
-4.601799	awards
-3.124678	away
-4.601799	awe'
-4.601799	awed
-4.601799	awhile
-3.823648	ay
-4.601799	aye
-4.601799	azure
-3.902829	babe
-4.601799	babes
-3.240072	back
-4.300769	back'd
-3.999739	backward
-3.560407	bad
-4.601799	badge
-4.601799	badges
-4.601799	badness
-4.300769	bail
-4.601799	bait
-4.601799	baits
-4.300769	balls
-4.300769	balm
-4.601799	balmy
-4.601799	ban
-4.300769	band
-4.601799	bane
-4.601799	banish'd
-4.601799	banished
-4.601799	banishment
-4.300769	bank
-3.999739	bankrupt
-3.999739	banks
-4.601799	banner
-4.601799	banning
-4.601799	banquet
-4.601799	bar
-3.647557	bare
-4.300769	bareness
-4.601799	bargains
-3.999739	bark
-4.601799	bark'
-4.601799	barketh
-4.601799	barns
-4.300769	baron
-4.124678	barr'd
-3.647557	barren
-4.300769	bars
-3.397679	base
-4.124678	basely
-4.601799	baser
-4.124678	basest
-4.300769	bashful
-3.999739	bastard
-4.601799	bastards
-4.601799	bastardy
-4.601799	bat
-4.601799	bate
-4.601799	bateless
-4.124678	bath
-4.601799	bathe
-4.601799	bathed
-4.300769	bathes
-4.601799	batt'ring
-4.300769	batter
-4.124678	batter'd
-4.601799	battery
-4.601799	battery'
-3.999739	battle
-4.601799	battle's
-4.124678	bawd
-4.300769	bay
-4.300769	be'
-4.601799	beaded
-4.300769	beak
-4.124678	beams
-3.139401	bear
-4.300769	bear'st
-4.300769	beard
-4.601799	bearer
-3.647557	bearing
-3.756701	bears
-3.902829	beast
-4.300769	beasts
-4.300769	beat
-4.124678	beaten
-3.902829	beating
-4.124678	beats
-3.522618	beauteous
-3.999739	beauties
-4.300769	beautiful
-4.601799	beautify
-2.657317	beauty
-3.323046	beauty's
-4.601799	became
-3.823648	because
-4.601799	beck
-3.902829	become
-4.300769	becomes
-4.300769	becoming
-3.346527	bed
-4.601799	bedchamber
-4.601799	bedrid
-4.124678	beds
-4.601799	beds'
-4.601799	bee
-3.27958	been
-4.601799	bees
-4.601799	befalln
-4.601799	befits
-3.083285	before
-4.601799	beforehand
-4.601799	befriends
-4.300769	beg
-3.647557	began
-4.601799	begets
-4.601799	begets'
-4.601799	begg'd
-4.300769	beggar
-4.601799	beggar's
-3.647557	begin
-4.300769	beginning
-3.647557	begins
-4.601799	begot
-4.601799	begotten
-4.601799	begrimed
-4.601799	begs
-4.601799	beguile
-4.124678	beguiled
-4.300769	beguiling
-3.902829	begun
-4.601799	behalf
-4.601799	behavior
-4.601799	behaviour
-3.999739	beheld
-4.601799	behests
-3.756701	behind
-3.300769	behold
-4.300769	beholding
-4.124678	beholds
-4.601799	behoof
-2.67238	being
-4.601799	beldam
-4.601799	beldam's
-4.124678	belied
-3.999739	believe
-4.601799	believed
-4.300769	believing
-4.124678	bell
-4.601799	bells
-3.902829	belong
-4.300769	belongs
-3.756701	beloved
-4.300769	below
-4.601799	bemoaned
-4.601799	bend
-4.300769	bending
-4.300769	bends
-4.601799	beneath
-4.300769	benefit
-4.124678	bent
-4.601799	bepainted
-3.999739	bequeath
-4.601799	bequeath'd
-4.601799	bequest
-4.300769	bereaves
-3.999739	bereft
-4.601799	berries
-4.601799	berry
-4.601799	beseech
-4.601799	beseech'd
-4.601799	beseechers
-4.300769	beseem
-4.601799	beseeming
-4.601799	beset
-4.601799	beshrew
-3.902829	beside
-3.999739	besides
-3.999739	besiege
-4.300769	besieged
-4.601799	besmeared
-4.601799	besotted
-2.939042	best
-4.601799	best'
-4.300769	bestow
-4.300769	bestow'd
-4.601799	bestow'st
-4.300769	betake
-4.601799	bethinking
-4.601799	betokend
-3.823648	betray
-4.300769	betray'd
-4.601799	betrayed
-4.300769	betraying
-4.601799	betrays
-4.601799	bett'ring
-3.240072	better
-4.601799	better'd
-4.300769	bettered
-4.601799	bettering
-3.756701	between
-4.601799	betwixt
-4.601799	bevel
-4.601799	bewailed
-4.601799	beweep
-4.300769	bewitch'd
-4.601799	bewitching
-4.601799	bewray'd
-4.124678	beyond
-3.756701	bid
-4.300769	bidding
-4.124678	bide
-3.601799	bids
-4.601799	bier
-4.300769	big
-4.601799	billing
-4.601799	bills
-4.601799	bin
-4.601799	bind
-3.902829	bird
-3.560407	birds
-4.601799	birds'
-3.698709	birth
-4.601799	bit
-4.601799	bites
-3.823648	bitter
-4.300769	bitterness
-4.601799	blab
-3.221588	black
-4.601799	black'st
-4.601799	blackest
-4.601799	blade
-3.455671	blame
-4.300769	blamed
-4.601799	blames
-4.601799	blanks
-4.601799	blasted
-4.601799	blasting
-4.300769	blasts
-4.601799	blaze
-4.601799	blazed
-4.601799	blazon
-4.601799	blazond
-3.999739	bleed
-3.902829	bleeding
-4.601799	bleeds
-4.601799	blemish
-4.601799	blemish'd
-4.601799	blemished
-4.601799	blenches
-4.601799	blend
-4.601799	bless
-3.560407	blessed
-4.601799	blessedness
-4.601799	blesses
-4.601799	blessing
-4.300769	blessings
-3.902829	blest
-3.560407	blind
-4.601799	blinded
-4.300769	blindness
-4.300769	bliss
-2.968331	blood
-4.124678	bloodless
-3.647557	bloody
-4.601799	blooms
-4.601799	blossoms
-3.601799	blot
-4.601799	blots
-4.601799	blotted
-4.601799	blotting
-3.823648	blow
-4.601799	blow'st
-3.902829	blown
-4.124678	blows
-3.999739	blue
-3.902829	blunt
-4.601799	blunter
-4.300769	blunting
-4.601799	blur
-4.601799	blurr'd
-3.999739	blush
-4.124678	blush'd
-4.124678	blushes
-3.756701	blushing
-4.601799	blushless
-4.601799	blusterer
-4.601799	blustering
-3.487856	boar
-4.601799	boar'
-4.601799	boar's
-3.647557	boast
-4.601799	boasted
-4.601799	boat
-4.300769	boding
-3.397679	body
-3.902829	body's
-4.601799	boil
-4.601799	boisterous
-3.601799	bold
-4.601799	boldness
-4.601799	bolln
-4.300769	bond
-4.300769	bondage
-4.601799	bonded
-3.999739	bonds
-4.124678	bone
-4.601799	boned
-4.300769	bones
-4.300769	bonnet
-3.756701	book
-3.999739	books
-4.601799	boot
-4.300769	bootless
-3.999739	bore
-3.601799	born
-4.124678	borne
-3.902829	borrow
-4.124678	borrow'd
-4.300769	borrowed
-3.698709	bosom
-4.300769	bosom's
-4.124678	bosoms
-2.989016	both
-4.300769	bottom
-4.601799	bottomless
-4.300769	bough
-4.601799	boughs
-4.601799	bought
-3.698709	bound
-4.601799	boundeth
-4.601799	bounding
-4.124678	boundless
-4.601799	bounds
-4.300769	bounteous
-4.124678	bounty
-3.698709	bow
-4.601799	bow'd
-4.601799	bowhay
-4.601799	bows
-3.647557	boy
-4.601799	boy'
-4.300769	brag
-4.300769	bragg'd
-4.300769	braided
-3.647557	brain
-4.601799	braind
-4.601799	brained
-3.999739	brains
-4.300769	brake
-4.601799	brakes
-4.601799	brambles
-4.601799	branch
-4.601799	branches
-3.902829	brand
-3.999739	brass
-4.601799	brav'ry
-3.999739	brave
-4.601799	braving
-4.601799	brawny
-3.902829	breach
-4.124678	bread
-3.522618	break
-4.601799	breakers
-4.124678	breaketh
-4.300769	breaking
-3.902829	breaks
-3.221588	breast
-3.999739	breasts
-3.186826	breath
-4.601799	breath'd
-4.124678	breathe
-4.300769	breathed
-4.601799	breathers
-4.124678	breathes
-4.601799	breatheth
-4.601799	breathing
-4.601799	breathings
-4.601799	breathless
-4.601799	breaths
-3.601799	bred
-3.999739	breed
-4.300769	breeder
-4.300769	breedeth
-4.300769	breeding
-3.823648	breeds
-4.601799	bridle
-3.823648	brief
-4.601799	brief'
-4.601799	brier
-3.300769	bright
-4.601799	brightness
-4.601799	brim
-4.601799	brine
-3.560407	bring
-4.124678	brings
-4.300769	brinish
-4.601799	bristles
-4.300769	bristly
-4.601799	brittle
-4.124678	broad
-4.601799	broils
-4.300769	broke
-3.999739	broken
-4.601799	brokers
-4.300769	brood
-4.300769	brook
-4.601799	brooks
-4.300769	brother
-3.647557	brought
-3.455671	brow
-4.601799	brow's
-4.601799	browny
-4.300769	brows
-4.601799	bruised
-3.999739	brutus
-4.601799	bubbling
-3.823648	bud
-4.601799	budding
-3.999739	buds
-4.601799	build
-4.300769	builded
-4.300769	building
-4.601799	buildings
-4.124678	built
-4.601799	bulk
-4.601799	bullet
-4.601799	bulwarks
-3.999739	burden
-4.601799	burdend
-3.902829	buried
-4.601799	buries
-4.601799	buriest
-3.601799	burn
-4.601799	burnd
-4.601799	burned
-4.124678	burneth
-3.647557	burning
-4.601799	burnish'd
-4.124678	burns
-4.124678	burnt
-4.601799	burthen
-4.601799	burthens
-4.601799	bury
-4.601799	burying
-4.601799	bush
-4.124678	bushes
-3.902829	busy
-2.035952	but
-4.300769	butcher
-4.601799	buttock
-4.300769	buy
-4.300769	buys
-2.186826	by
-4.601799	by'
-4.601799	bypath
-4.601799	cabin
-4.300769	cabinet
-4.601799	cabins
-4.601799	caged
-4.601799	caitiff
-3.425708	call
-3.999739	calld
-4.300769	called
-3.647557	calls
-4.300769	calm
-3.560407	came
-4.300769	camp
-2.682721	can
-4.300769	cancelld
-4.601799	cancelled
-4.601799	candle
-4.601799	candles
-3.823648	canker
-4.601799	cankering
-4.601799	cannon
-3.154641	cannot
-4.601799	canopied
-4.300769	canopy
-3.560407	canst
-4.601799	caparisons
-4.601799	capitol
-3.999739	captain
-4.601799	captivate
-3.902829	captive
-4.601799	car
-4.601799	carcanet
-4.601799	carcass
-3.522618	care
-4.601799	care's
-4.601799	cared
-4.124678	careful
-4.300769	careless
-3.999739	cares
-4.300769	carriage
-4.601799	carries
-4.124678	carry
-4.601799	cars
-4.601799	carve
-4.124678	carved
-3.756701	case
-4.601799	casket
-3.823648	cast
-4.601799	castalia
-4.601799	castaway
-4.601799	castles
-4.601799	cat
-3.823648	catch
-4.300769	catching
-4.601799	caterpillars
-4.601799	cattle
-4.300769	caught
-3.647557	cause
-4.601799	caused
-4.601799	causeless
-4.601799	cautels
-4.124678	cave
-4.300769	caves
-4.601799	cavil
-4.601799	cavils
-4.300769	cease
-4.601799	ceased
-4.601799	ceaseless
-4.300769	cedar
-4.601799	cedar's
-4.601799	celestial
-4.601799	cell
-4.601799	censure
-4.601799	censures
-4.601799	centre
-4.601799	ceremony
-3.999739	certain
-4.601799	chafes
-4.601799	chafing
-4.601799	chain
-4.601799	chaind
-4.300769	challenge
-3.902829	chamber
-4.601799	champaign
-4.601799	champion
-3.999739	chance
-4.601799	chanced
-3.455671	change
-4.601799	changed
-4.601799	changes
-4.300769	changing
-4.124678	channel
-4.601799	chant
-4.300769	chaos
-4.601799	chaps
-4.124678	character
-4.601799	character'd
-4.601799	charactered
-4.124678	characters
-4.601799	charge
-4.300769	charged
-4.601799	charging
-4.601799	chariot
-4.601799	charitable
-4.601799	charity
-4.124678	charm
-4.300769	charm'd
-4.601799	charmed
-4.300769	charter
-4.601799	chary
-3.823648	chase
-4.601799	chasing
-3.823648	chaste
-4.601799	chaste'
-4.601799	chastest
-3.999739	chastity
-4.601799	chastity's
-4.300769	chat
-4.601799	cheap
-4.601799	cheater
-4.124678	check
-4.300769	checked
-3.371351	cheek
-4.601799	cheek'd
-3.300769	cheeks
-3.999739	cheer
-4.601799	cheered
-4.601799	cheering
-4.601799	cheers
-4.601799	cheque
-4.601799	cheque'd
-4.601799	chequer'd
-4.124678	cherish
-4.601799	cherubin
-4.601799	cherubins
-3.999739	chest
-4.601799	chid
-3.698709	chide
-4.300769	chides
-4.601799	chiding
-3.999739	chief
-4.300769	chiefly
-3.487856	child
-4.124678	childish
-3.999739	children
-4.124678	childrens
-4.601799	chill
-3.999739	chin
-4.601799	chips
-4.601799	chivalry
-4.300769	choice
-4.601799	choir
-4.300769	choirs
-4.601799	choked
-4.601799	chokes
-4.601799	choler
-4.300769	choose
-4.601799	choosing
-4.601799	chorus
-4.300769	chose
-4.601799	christ
-4.601799	chronicle
-4.300769	churl
-4.124678	churlish
-4.601799	churls
-4.300769	cipher
-4.300769	circled
-4.300769	circles
-4.300769	circuit
-4.300769	circumstance
-4.601799	circumstances
-4.601799	cisterns
-4.601799	cited
-4.601799	citizen
-4.124678	city
-4.124678	civil
-4.601799	clad
-4.300769	claim
-4.601799	claims
-4.300769	clamours
-4.601799	clapping
-4.601799	claps
-4.601799	claws
-4.601799	clay
-4.601799	clean
-4.300769	cleanly
-3.601799	clear
-4.601799	clear'd
-4.300769	clearer
-4.601799	clearly
-4.124678	clears
-4.601799	cleaves
-4.601799	cleft
-4.601799	clepes
-4.601799	clerk
-4.601799	client
-4.601799	clients
-4.601799	climb
-4.300769	climbed
-4.601799	clip
-4.300769	cloak
-4.300769	clock
-4.601799	cloister
-4.601799	cloister'd
-3.902829	close
-4.601799	closed
-4.601799	closes
-4.124678	closet
-4.300769	closure
-4.601799	cloth
-4.601799	clothe
-3.756701	cloud
-4.300769	clouded
-3.647557	clouds
-4.124678	cloudy
-4.601799	cloy
-4.601799	cloy'd
-4.601799	co
-3.902829	coal
-4.601799	coals
-4.601799	coast
-4.601799	coasteth
-4.300769	coat
-4.601799	cockatrice'
-4.601799	coffer
-4.601799	coffers
-4.601799	coind
-3.203859	cold
-4.601799	coldly
-3.346527	collatine
-4.601799	collatine'
-4.124678	collatine's
-3.902829	collatinus
-4.300769	collatinus'
-4.124678	collatium
-3.698709	colour
-3.999739	colour'd
-4.601799	coloured
-4.601799	colours
-4.601799	colt
-4.601799	combat
-4.601799	combined
-4.601799	combustious
-3.259377	come
-4.601799	comely
-3.647557	comes
-3.698709	comfort
-4.601799	comfort's
-4.300769	comfortable
-4.601799	comforter
-4.601799	comforteth
-3.823648	coming
-3.999739	command
-4.601799	commanded
-4.601799	commander
-4.601799	commanders
-4.601799	commanding
-4.601799	commence
-3.999739	commend
-4.300769	commendation
-4.300769	commended
-4.124678	comment
-4.601799	commentaries
-4.601799	comments
-4.124678	commission
-4.601799	commit
-4.300769	commits
-4.124678	committed
-4.601799	commix'd
-3.756701	common
-4.601799	commonwealth
-4.300769	compact
-4.601799	compacted
-4.601799	company
-3.647557	compare
-4.300769	compared
-4.601799	compares
-4.124678	comparing
-4.601799	compass
-4.300769	compass'd
-4.601799	compassion
-4.601799	compassionate
-4.601799	compeers
-4.601799	compelled
-4.601799	compile
-4.601799	compiled
-3.999739	complain
-4.601799	complaind
-4.300769	complaining
-4.601799	complaint
-4.601799	complemental
-4.124678	complexion
-4.601799	complexioned
-4.601799	composed
-4.601799	composition
-4.124678	compound
-4.300769	compounds
-4.601799	comprehend
-4.601799	comprehends
-4.601799	concave
-4.300769	concealed
-4.300769	concealing
-3.698709	conceit
-4.300769	conceited
-4.300769	conclude
-4.300769	concludes
-4.601799	conclusion
-4.300769	concord
-4.601799	concourse
-4.601799	condemnd
-4.601799	condemned
-4.124678	condition
-4.601799	conditions
-4.601799	conduct
-4.601799	conduits
-4.124678	confess
-4.601799	confessed
-4.300769	confine
-3.999739	confined
-4.601799	confirmed
-3.823648	confound
-4.300769	confounded
-4.601799	confounding
-3.756701	confounds
-4.300769	confusion
-4.601799	congealed
-4.601799	conies
-4.601799	conjugal
-4.601799	conjures
-4.124678	conquer
-4.601799	conquer'd
-4.601799	conquerors
-4.601799	conquers
-3.823648	conquest
-3.999739	conscience
-4.601799	consecrate
-4.601799	consecrated
-4.601799	consecrations
-3.902829	consent
-4.601799	consents
-4.601799	consider
-4.601799	consort
-4.601799	consorted
-4.601799	conspirator
-4.601799	conspire
-4.124678	constancy
-3.698709	constant
-4.601799	conster
-4.601799	constraind
-4.601799	construes
-4.601799	consuls
-4.601799	consulting
-4.601799	consum'st
-4.300769	consume
-4.601799	consumes
-4.601799	consummation
-4.601799	contain
-4.300769	contains
-4.601799	contemplation
-4.124678	contend
-4.124678	contending
-3.647557	content
-3.999739	contented
-4.601799	contenting
-4.124678	contents
-4.124678	continual
-4.601799	continuance
-4.300769	contracted
-4.601799	contradict
-4.601799	contraries
-4.300769	contrary
-4.601799	contrite
-4.601799	contrives
-3.823648	control
-4.300769	controlld
-4.300769	controlled
-4.124678	controlling
-4.601799	controls
-4.601799	controversy
-4.300769	conversation
-4.300769	convert
-4.300769	converted
-4.601799	convertest
-4.601799	convertite
-4.601799	converts
-4.601799	convey'd
-4.601799	cool
-4.601799	coold
-4.601799	cooling
-4.601799	cools
-4.601799	cope
-4.601799	coped
-4.601799	copesmate
-4.601799	copious
-4.601799	copse
-4.300769	copy
-3.999739	coral
-4.601799	corn
-4.601799	correspondence
-3.999739	corrupt
-4.124678	corrupted
-4.601799	corrupting
-4.300769	cost
-4.601799	costly
-4.601799	costs
-4.601799	couch
-4.601799	coucheth
-2.989016	could
-4.124678	couldst
-4.124678	counsel
-4.601799	counsels
-3.999739	count
-4.300769	counted
-4.300769	countenance
-4.124678	counterfeit
-4.601799	counterfeits
-4.601799	counterpart
-4.300769	counting
-4.601799	countless
-4.601799	country
-4.601799	country's
-4.601799	couplement
-3.999739	courage
-4.601799	courageously
-3.698709	course
-4.300769	courser
-4.601799	courser's
-4.300769	courses
-4.300769	court
-4.601799	court'sies
-4.601799	courtesy
-4.601799	courting
-4.601799	courts
-3.999739	cover
-4.601799	coverlet
-4.601799	covers
-4.601799	covet
-4.601799	covetous
-3.756701	coward
-4.601799	cowards
-4.124678	coy
-4.601799	cozening
-4.601799	crack'd
-4.601799	cradle
-4.124678	craft
-4.601799	cranks
-4.601799	crannies
-4.124678	crave
-4.601799	craved
-4.300769	created
-4.601799	creating
-4.124678	creation
-3.999739	creature
-3.823648	creatures
-4.601799	credent
-4.124678	credit
-4.300769	credulous
-3.999739	creep
-4.124678	creeping
-4.601799	creeps
-4.601799	crept
-3.999739	crest
-4.601799	crests
-4.601799	crew
-4.300769	cried
-3.560407	cries
-3.698709	crime
-4.601799	crimeful
-4.601799	crimes
-4.124678	crimson
-4.601799	critic
-3.902829	crooked
-4.601799	crop
-4.300769	crops
-3.902829	cross
-4.300769	crossed
-4.124678	crosses
-4.300769	crow
-4.601799	crown
-4.300769	crowned
-4.601799	crowning
-4.601799	crowns
-4.601799	crows
-3.698709	cruel
-4.601799	cruelly
-4.601799	crush
-4.601799	crushed
-4.601799	crusheth
-3.647557	cry
-4.300769	crying
-3.756701	crystal
-4.601799	cuckoos
-3.823648	cunning
-4.601799	cup
-4.300769	cupid
-4.601799	cupid's
-4.601799	curb
-3.647557	cure
-4.300769	cured
-4.601799	cureless
-4.601799	cures
-3.902829	curious
-4.601799	curled
-4.300769	curls
-4.124678	current
-3.823648	curse
-4.601799	cursed
-4.601799	curst
-4.601799	curtain
-4.601799	curtains
-4.601799	curvets
-4.601799	customs
-4.300769	cut
-4.601799	cynthia
-4.124678	daily
-4.601799	dainties
-4.601799	daisy
-4.300769	dale
-4.601799	dallied
-4.300769	dally
-4.601799	damasked
-3.902829	dame
-4.601799	damm'd
-4.601799	damned
-4.601799	damps
-4.601799	dance
-4.300769	dancing
-4.601799	dandling
-3.823648	danger
-4.601799	dangerous
-4.300769	dangers
-4.601799	dank
-4.601799	dapper
-4.601799	dardan
-3.698709	dare
-4.300769	dares
-4.601799	darest
-4.601799	daring
-3.425708	dark
-4.601799	darken
-4.601799	darkening
-4.601799	darkens
-4.601799	darkest
-4.601799	darkly
-3.823648	darkness
-4.601799	darksome
-4.601799	darling
-4.124678	dart
-4.300769	darts
-3.756701	date
-4.300769	dateless
-4.601799	dates
-4.124678	daughter
-4.300769	daughter'
-4.300769	daughters
-4.601799	daunts
-2.877523	day
-4.601799	day'
-4.300769	day's
-3.186826	days
-4.601799	dazzleth
-4.601799	dazzling
-2.97855	dead
-3.823648	deadly
-4.300769	deaf
-4.601799	dealing
-3.057731	dear
-3.999739	dearer
-4.124678	dearest
-4.601799	dearly
-4.124678	dearth
-4.601799	dearths
-2.732568	death
-3.698709	death's
-4.300769	deaths
-4.601799	debarred
-3.999739	debate
-4.601799	debated
-4.601799	debaters
-4.601799	debateth
-4.601799	debating
-3.823648	debt
-4.300769	debtor
-4.601799	debtors
-3.522618	decay
-4.601799	decay'd
-4.300769	decayed
-4.601799	decays
-4.124678	decease
-4.124678	deceased
-4.300769	deceit
-4.601799	deceitful
-4.601799	deceits
-4.300769	deceive
-4.124678	deceived
-4.601799	deceives
-4.601799	deceivest
-4.300769	deceiving
-4.601799	december's
-4.601799	deck
-4.601799	decks
-4.601799	declare
-4.300769	declined
-4.601799	decrease
-4.300769	decree
-4.601799	decrees
-4.300769	decrepit
-4.601799	dedicate
-4.601799	dedicated
-4.601799	dedicating
-3.560407	deed
-3.487856	deeds
-4.601799	deem
-4.300769	deemed
-4.601799	deems
-3.124678	deep
-4.601799	deep'st
-4.300769	deeper
-4.601799	deepest
-4.300769	deeply
-3.999739	deer
-4.601799	deface
-4.300769	defaced
-4.601799	defamations
-3.999739	defame
-4.601799	defeat
-4.601799	defeated
-4.601799	defeature
-4.124678	defect
-4.300769	defects
-4.300769	defence
-4.300769	defend
-4.601799	defendant
-4.601799	defends
-4.601799	defense
-4.124678	defiled
-4.601799	defiling
-4.601799	define
-4.601799	deflower
-4.601799	deformed
-4.601799	deformed'st
-4.601799	defy
-4.601799	degenerate
-4.601799	degree
-4.601799	deified
-4.601799	deity
-4.601799	delay
-4.601799	delayed
-4.124678	delays
-4.601799	delicious
-3.300769	delight
-4.601799	delight'
-4.601799	delighted
-4.124678	delightful
-4.601799	delighting
-4.300769	delights
-4.601799	deliver
-4.601799	delivered
-4.601799	delivers
-4.601799	delves
-4.601799	delving
-4.601799	demand
-4.601799	demanded
-4.601799	demeanor
-4.601799	demure
-4.300769	denial
-4.601799	denies
-4.601799	denote
-4.124678	deny
-4.124678	depart
-4.300769	departed
-4.601799	departest
-4.601799	departs
-4.601799	depend
-4.601799	depending
-4.124678	depends
-4.601799	deprive
-4.601799	deprived
-4.601799	deprives
-4.601799	derive
-4.601799	derived
-4.601799	descant'st
-4.124678	descended
-4.601799	descending
-4.601799	describe
-4.601799	descried
-4.601799	descriptions
-3.902829	desert
-4.601799	desertful
-3.902829	deserts
-4.601799	deserv'st
-3.902829	deserve
-4.601799	deserved
-4.601799	deserves
-4.124678	deserving
-4.300769	design
-4.601799	designs
-3.010735	desire
-4.601799	desire'
-3.999739	desired
-3.823648	desires
-4.601799	desiring
-3.698709	despair
-4.601799	despairing
-3.756701	desperate
-4.124678	despise
-4.124678	despised
-4.601799	despising
-3.601799	despite
-4.601799	despitefully
-4.601799	destined
-4.601799	destinies
-4.300769	destiny
-4.601799	destitute
-3.902829	destroy
-4.601799	destroyed
-4.601799	destroys
-4.601799	destruction
-4.300769	detain
-4.601799	detained
-4.601799	determinate
-4.601799	determination
-4.601799	determined
-4.601799	determining
-4.601799	detest
-4.601799	detract
-4.601799	detraction
-4.601799	detriment
-4.124678	device
-3.902829	devil
-4.601799	devils
-3.999739	devise
-4.601799	devised
-4.601799	deviseth
-4.601799	devon
-4.601799	devoted
-4.601799	devour
-4.124678	devouring
-4.300769	devours
-4.300769	dew
-4.601799	dew'd
-4.601799	dewy
-4.601799	dexterity
-4.124678	dial
-4.601799	dialect
-4.601799	dialogued
-4.601799	dials
-4.601799	diamond
-4.601799	dian
-4.601799	dians
-4.601799	diapason
-2.537341	did
-3.698709	didst
-3.096649	die
-3.698709	died
-4.601799	died'st
-3.902829	dies
-4.601799	diest
-4.601799	diet
-4.601799	dieted
-4.300769	difference
-4.300769	different
-4.601799	dig
-4.601799	digestion
-4.300769	dignified
-4.601799	dignifies
-4.124678	dignity
-4.601799	digression
-4.601799	digs
-3.698709	dim
-4.601799	diminish'd
-4.601799	dimm'd
-4.300769	dimmed
-4.601799	dimple
-4.601799	dimpled
-4.601799	dint
-4.124678	dire
-4.601799	directed
-4.601799	direction'
-4.601799	directly
-4.300769	direful
-4.601799	dirge
-4.601799	disabled
-4.601799	disarmed
-4.601799	disbursed
-4.601799	discased
-4.601799	discern
-4.601799	discharge
-4.601799	discharged
-4.601799	disciplined
-4.601799	discloses
-4.601799	discolour'd
-4.601799	discomfort
-3.902829	discontent
-4.601799	discontents
-4.300769	discord
-3.999739	discourse
-4.601799	discourses
-4.300769	discovery
-4.601799	discreet
-3.522618	disdain
-4.601799	disdaind
-4.601799	disdained
-4.601799	disdaineth
-4.601799	disdainfully
-4.601799	disdains
-4.601799	disease
-4.601799	diseased
-4.601799	disgest
-3.455671	disgrace
-4.124678	disgraced
-4.601799	disgraceful
-4.124678	disguise
-4.601799	disguised
-4.300769	dishevelld
-3.999739	dishonour
-4.601799	dishonoured
-4.601799	disjoind
-4.601799	disliking
-4.601799	dismal
-4.300769	dismay'd
-4.601799	dismount
-4.601799	disorder
-4.601799	dispatch
-4.601799	dispatcheth
-4.601799	dispensation
-4.124678	dispense
-4.601799	disperse
-4.300769	dispersed
-4.601799	displacest
-4.300769	display
-4.601799	display'd
-4.601799	disports
-4.601799	disposed
-4.601799	disposing
-3.999739	disposition
-4.601799	dispraise
-4.601799	disprove
-4.300769	disputation
-4.601799	dissemble
-4.300769	dissension
-4.601799	dissentious
-4.601799	dissolution
-4.601799	dissolve
-4.601799	dissolved
-4.601799	dissolves
-4.601799	dissuade
-4.124678	distance
-4.601799	distant
-4.601799	distemperature
-4.601799	distempered
-4.601799	distempering
-4.601799	distillation
-4.124678	distilled
-4.601799	distilling
-4.601799	distinguish
-4.601799	distract
-4.601799	distractedly
-4.601799	distraction
-4.300769	distress
-4.300769	distress'd
-4.601799	disturb
-4.300769	disturbed
-4.601799	disturbing
-4.601799	disunioned
-4.601799	ditty
-4.601799	dive
-4.601799	divert
-4.601799	diverted
-4.124678	divide
-4.601799	divided
-4.601799	dividing
-4.601799	divination
-3.823648	divine
-4.601799	diviner
-4.601799	divining
-4.300769	divorce
-2.458785	do
-4.601799	doctor
-4.300769	doe
-4.601799	doer
-4.601799	dog
-4.601799	dogs
-3.902829	doing
-4.300769	doleful
-4.300769	dolour
-4.601799	dominion
-3.170436	done
-4.601799	done'
-3.601799	doom
-4.601799	doom'
-3.999739	door
-4.601799	doors
-3.057731	dost
-4.601799	dotage
-3.823648	dote
-4.601799	dotes
-4.601799	doteth
-2.334628	doth
-3.823648	doting
-3.698709	double
-4.601799	doubled
-4.601799	doubles
-4.601799	doubly
-3.999739	doubt
-4.300769	doubting
-4.124678	dove
-3.902829	doves
-3.259377	down
-4.601799	downright
-4.601799	downs
-4.300769	downward
-4.601799	dowry
-4.601799	drained
-3.823648	draw
-3.698709	drawn
-4.300769	draws
-3.999739	dread
-4.601799	dreadeth
-3.902829	dreadful
-4.601799	dreadfully
-4.601799	dreading
-3.823648	dream
-4.124678	dreams
-4.601799	dregs
-4.601799	drench'd
-4.601799	drenched
-4.601799	dress
-4.601799	dressed
-4.601799	dressing
-4.601799	dressings
-3.823648	drew
-4.601799	dries
-3.823648	drink
-4.300769	drinks
-4.300769	drive
-4.601799	driven
-4.601799	drives
-4.601799	droop
-4.124678	drop
-4.601799	dropp'd
-4.601799	dropping
-3.756701	drops
-4.601799	dropt
-4.601799	dross
-3.999739	drown
-4.601799	drownd
-4.300769	drowns
-4.601799	drugs
-4.601799	drum
-4.601799	drumming
-3.999739	drunken
-3.647557	dry
-4.601799	ducks
-3.698709	due
-4.601799	dugs
-3.601799	dull
-4.601799	dully
-4.601799	dulness
-3.455671	dumb
-4.601799	dumbly
-4.601799	dumps
-4.300769	dun
-4.300769	during
-4.300769	durst
-3.823648	dust
-4.300769	duteous
-4.300769	duties
-3.601799	duty
-3.698709	dwell
-4.601799	dwelld
-4.601799	dwellers
-4.601799	dwelling
-4.300769	dwells
-4.601799	dye
-4.300769	dyed
-4.601799	dyer's
-3.823648	dying
-2.968331	each
-4.124678	eager
-4.601799	eagles
-3.522618	ear
-4.601799	ear's
-4.300769	earl
-3.902829	early
-4.601799	earnest
-3.560407	ears
-3.203859	earth
-3.823648	earth's
-4.124678	earthly
-4.601799	earthquake
-4.601799	earthy
-4.300769	ease
-4.601799	easeth
-4.601799	easily
-4.601799	easing
-4.601799	east
-4.601799	eastern
-4.601799	easy
-3.999739	eat
-4.601799	eater
-4.300769	eating
-4.601799	eats
-4.300769	ebbs
-4.601799	ebon
-4.601799	echo
-4.300769	echoes
-4.601799	eclipse
-4.601799	eclipsed
-4.300769	eclipses
-4.601799	ecstasy
-4.601799	eddy
-3.999739	edge
-4.300769	education
-3.698709	effect
-4.300769	effecting
-3.902829	effects
-4.601799	effectually
-4.601799	eisel
-3.823648	either
-4.124678	either's
-4.601799	elbows
-4.601799	elder
-4.601799	elegy
-4.601799	element
-4.300769	elements
-4.300769	eloquence
-3.455671	else
-4.124678	elsewhere
-4.601799	elysium
-4.601799	embarked
-4.601799	embassage
-4.601799	embassy
-4.601799	embers
-3.902829	embrace
-4.124678	embracements
-4.300769	embracing
-4.601799	emerald
-4.601799	eminence
-4.601799	eminent
-4.601799	employed
-4.601799	emptied
-3.698709	empty
-4.601799	emulation
-4.601799	enacted
-4.601799	encamp'd
-4.601799	enchained
-4.601799	enchanted
-4.300769	enchanting
-4.601799	enclose
-4.601799	enclosed
-4.601799	encloses
-4.601799	encompass
-4.601799	encompass'd
-4.601799	encompassed
-4.124678	encounter
-4.601799	encouragement
-4.601799	encouraging
-4.601799	encrimsond
-3.07032	end
-4.601799	endangered
-4.601799	endeared
-4.601799	endeavor
-4.124678	endeavors
-4.124678	ended
-4.601799	ender
-3.999739	ending
-4.300769	endless
-4.601799	endowed
-4.300769	ends
-4.300769	endure
-4.601799	endure'
-4.300769	endured
-4.124678	enemies
-4.124678	enemy
-4.601799	enfeebled
-3.902829	enforced
-4.601799	enforcement
-4.601799	enfranchising
-4.601799	engine
-4.300769	engirt
-4.601799	engirts
-4.601799	engraft
-4.601799	engrafted
-4.601799	engraven
-4.601799	engrossed
-4.124678	enjoy
-4.601799	enjoy'
-4.601799	enjoy'd
-4.300769	enjoyed
-4.601799	enjoyer
-4.601799	enlarged
-4.601799	enlighten
-4.300769	enmity
-4.601799	ennoble
-3.756701	enough
-4.601799	enpatron
-4.124678	enraged
-4.124678	enrich
-4.601799	enriched
-4.601799	enroll
-4.601799	ensconce
-4.601799	ensconced
-4.601799	ensign
-4.601799	ensnare
-4.601799	ensnared
-4.300769	ensue
-4.601799	ensues
-4.601799	ensuing
-4.124678	enter
-4.601799	enterprise
-4.300769	enters
-3.999739	entertain
-4.601799	entertaind
-4.601799	entertained
-4.601799	entertainment
-4.601799	entice
-4.601799	entices
-4.601799	entitled
-4.300769	entomb
-4.300769	entombed
-4.601799	entombs
-4.601799	entrance
-4.601799	entreat
-4.300769	entreats
-4.601799	envious
-3.823648	envy
-4.601799	enwrapped
-4.601799	epitaph
-4.124678	equal
-4.601799	equally
-4.601799	equipage
-3.221588	ere
-4.601799	erewhile
-4.601799	err
-4.601799	erred
-4.124678	error
-3.823648	errors
-4.601799	erst
-4.300769	espied
-4.601799	espoused
-4.601799	espy
-4.601799	esquire
-4.601799	essays
-4.124678	estate
-4.300769	esteem
-4.124678	esteemed
-4.601799	esteeming
-4.601799	esteems
-4.601799	estimation
-3.647557	eternal
-3.999739	eternity
-4.601799	eve's
-2.894229	even
-4.601799	evening
-4.601799	event
-4.601799	events
-3.022016	ever
-4.300769	everlasting
-4.124678	evermore
-2.816469	every
-4.601799	everything
-4.300769	everywhere
-4.601799	evidence
-3.698709	evil
-4.601799	evils
-4.601799	exact
-4.601799	example
-4.601799	examples
-3.999739	exceed
-4.601799	exceeded
-4.124678	exceeds
-4.601799	excel
-4.601799	excelld
-4.300769	excellence
-4.300769	excellent
-4.601799	excelleth
-4.601799	excelling
-4.601799	except
-4.124678	excess
-4.601799	excessive
-4.601799	exchanged
-4.601799	exchequer
-4.300769	exclaim
-4.601799	exclaiming
-4.300769	exclaims
-4.601799	exclamation
-3.455671	excuse
-4.601799	excuse'
-4.601799	excuse's
-3.999739	excuses
-4.601799	executest
-4.601799	executor
-4.601799	exempt
-4.300769	exercise
-4.601799	exhaled
-4.601799	exile
-4.300769	exiled
-4.601799	expect
-4.601799	expectation
-4.124678	expecting
-4.601799	expel
-4.300769	expense
-4.300769	experience
-4.601799	experienced
-4.601799	expiate
-4.601799	expire
-4.601799	expired
-4.601799	exploits
-3.823648	express
-4.601799	express'd
-4.124678	expressed
-4.601799	expressing
-4.601799	expressly
-4.601799	extant
-4.601799	extemporally
-4.300769	extend
-4.601799	extenuate
-4.601799	extern
-4.601799	external
-4.601799	extincture
-4.601799	extinguishing
-4.601799	extolled
-4.124678	extreme
-4.124678	extremes
-4.300769	extremity
-2.682721	eye
-4.124678	eye's
-4.601799	eyeballs
-4.601799	eyed
-4.601799	eyelids
-2.497996	eyes
-4.300769	eyes'
-4.601799	eyesight
-3.999739	eyne
-2.845924	face
-4.601799	face's
-3.902829	faced
-3.756701	faces
-4.300769	fact
-4.601799	faculty
-4.300769	fade
-4.601799	fadeth
-4.300769	fading
-4.601799	fain
-3.647557	faint
-4.601799	fainted
-4.300769	faintly
-4.300769	faints
-2.66228	fair
-3.902829	fairer
-3.902829	fairest
-4.601799	fairing
-4.601799	fairy
-3.823648	faith
-4.601799	faiths
-4.300769	falchion
-4.601799	falcon
-4.601799	falcons
-3.487856	fall
-4.601799	fall'
-4.300769	falleth
-4.601799	falling
-4.601799	falln
-3.756701	falls
-4.601799	falls'
-2.968331	false
-4.124678	falsehood
-4.601799	falsely
-4.601799	falseness
-4.601799	faltering
-3.397679	fame
-4.601799	famed
-4.601799	familiar
-4.601799	family
-4.601799	famine
-4.601799	famish
-4.601799	famished
-4.601799	famous
-4.601799	famoused
-4.601799	fan
-4.601799	fancies
-4.300769	fancy
-4.601799	fancy's
-4.601799	fangled
-4.601799	fangs
-4.601799	fanning
-4.601799	fantastic
-4.601799	fantasy
-3.170436	far
-4.124678	fares
-4.124678	farewell
-4.601799	faring
-3.999739	farther
-4.300769	farthest
-3.999739	fashion
-3.455671	fast
-4.601799	fastend
-4.601799	fastened
-4.601799	fastens
-4.300769	faster
-4.601799	fastly
-4.601799	fat
-4.300769	fatal
-3.823648	fate
-4.601799	fate's
-3.397679	father
-4.300769	father's
-4.601799	fathers
-3.522618	fault
-4.601799	fault's
-4.601799	faultful
-3.560407	faults
-4.601799	faulty
-4.601799	favored
-3.902829	favour
-4.124678	favour'd
-4.601799	favours
-4.300769	fawn
-4.601799	fawneth
-2.968331	fear
-3.999739	fear'd
-4.601799	fear's
-4.601799	feareth
-3.756701	fearful
-4.300769	fearfully
-3.902829	fearing
-3.601799	fears
-4.124678	feast
-4.601799	feast'
-4.300769	feasting
-4.300769	feasts
-4.601799	feat
-4.601799	feather
-4.300769	feather'd
-4.601799	feathered
-4.300769	feathers
-4.601799	feature
-4.601799	featured
-3.756701	fed
-3.823648	fee
-3.999739	feeble
-3.823648	feed
-4.601799	feed'st
-4.601799	feeder
-4.601799	feedeth
-4.124678	feeding
-3.756701	feeds
-3.756701	feel
-3.647557	feeling
-4.300769	feelingly
-4.300769	feels
-4.601799	feelst
-4.601799	feil
-3.601799	fell
-4.601799	fellow
-4.601799	fellowship
-3.902829	felt
-4.601799	female
-4.601799	females
-4.601799	fence
-4.601799	fester
-4.300769	fever
-4.601799	fevers
-4.300769	few
-3.999739	fickle
-4.601799	fie
-4.601799	fie'
-3.902829	field
-4.601799	field's
-4.601799	fields
-4.300769	fiend
-4.601799	fiends
-4.124678	fiery
-3.522618	fight
-4.300769	fighting
-4.601799	fights
-4.601799	figure
-4.300769	figured
-4.300769	figures
-4.601799	figuring
-4.601799	filching
-4.601799	filed
-4.601799	filial
-3.999739	fill
-4.124678	filled
-4.601799	fillet
-4.601799	filleth
-4.601799	filling
-4.601799	filth
-3.221588	find
-3.823648	finding
-3.756701	finds
-4.300769	fine
-4.300769	finger
-3.999739	fingers
-3.139401	fire
-4.601799	fire'
-4.601799	fired
-4.124678	fires
-4.124678	firm
-3.27958	first
-4.601799	fisher
-4.601799	fishes
-4.601799	fist
-3.823648	fit
-4.300769	fits
-4.601799	fitted
-4.601799	fittest
-4.124678	five
-4.601799	fix
-4.124678	fix'd
-4.124678	fixed
-3.902829	flame
-4.300769	flaming
-4.601799	flank
-4.601799	flap
-4.601799	flash'd
-4.601799	flatly
-3.756701	flatter
-4.601799	flatterer
-4.300769	flattering
-4.300769	flatters
-4.124678	flattery
-4.601799	flavus
-4.601799	flaws
-3.999739	fled
-4.300769	fleece
-4.601799	fleet
-4.601799	fleet'st
-4.300769	fleeting
-3.698709	flesh
-4.601799	flew
-3.902829	flies
-3.999739	flight
-4.300769	flint
-4.300769	flinty
-4.601799	float
-4.601799	flock
-3.756701	flood
-4.601799	flourish
-4.300769	flow
-4.601799	flow'd
-3.455671	flower
-4.300769	flower'
-3.487856	flowers
-4.601799	flows
-4.601799	fluxive
-3.487856	fly
-4.601799	foam
-3.698709	foe
-3.756701	foes
-4.601799	foggy
-4.601799	foil
-4.601799	foild
-4.601799	foiled
-4.601799	foison
-4.601799	foist
-3.902829	fold
-4.300769	folded
-4.300769	folds
-4.601799	follies
-4.124678	follow
-4.601799	followed
-4.601799	following
-4.124678	follows
-3.756701	folly
-4.601799	folly's
-3.601799	fond
-4.601799	fondly
-4.300769	food
-3.756701	fool
-4.601799	fool'
-4.124678	foolish
-3.902829	fools
-3.647557	foot
-4.601799	footed
-4.300769	footing
-4.601799	for't
-4.601799	forbade
-4.300769	forbear
-4.601799	forbears
-3.999739	forbid
-4.601799	forbidden
-4.601799	forbiddings
-4.601799	forbod
-3.560407	force
-3.601799	forced
-4.601799	forceless
-4.601799	forces
-4.601799	fords
-3.999739	fore
-4.601799	forego
-4.601799	foregone
-4.601799	forehead
-4.601799	foreshowing
-4.601799	foresight
-4.300769	forestall
-4.601799	foretell
-4.124678	forever
-4.300769	forfeit
-4.300769	forged
-4.300769	forgeries
-4.601799	forgery
-3.999739	forget
-4.601799	forget'st
-4.601799	forgetful
-4.601799	forgetfulness
-4.601799	forgetting
-4.601799	forging
-4.601799	forgive
-4.601799	forgoing
-3.999739	forgot
-4.601799	forgotten
-3.902829	forlorn
-3.522618	form
-4.300769	form'd
-3.999739	former
-4.300769	forms
-3.999739	forsake
-4.601799	forsaken
-4.124678	forsook
-3.999739	forsworn
-4.300769	fort
-3.203859	forth
-4.601799	forthwith
-4.300769	fortify
-4.601799	fortress'd
-3.647557	fortune
-3.999739	fortune's
-3.999739	fortunes
-4.601799	forty
-4.300769	forward
-4.601799	forwards
-4.601799	fought
-3.057731	foul
-4.601799	fouler
-3.522618	found
-4.601799	foundation
-4.601799	fount
-4.124678	fountain
-4.124678	fountains
-4.601799	founts
-4.124678	four
-4.300769	fowl
-4.601799	fox
-4.601799	fragrant
-4.300769	frail
-4.300769	frailer
-4.300769	frailties
-3.823648	frame
-4.124678	framed
-4.601799	framing
-4.601799	frank
-4.300769	frantic
-4.601799	franticly
-4.300769	fraud
-3.371351	free
-4.300769	freed
-4.124678	freedom
-4.601799	freezing
-4.601799	freezings
-4.601799	frenzies
-4.601799	frenzy
-4.601799	frequent
-3.323046	fresh
-4.601799	fresher
-4.124678	fret
-4.300769	frets
-3.221588	friend
-4.601799	friend'
-4.601799	friend's
-4.300769	friendly
-3.560407	friends
-3.902829	friendship
-4.300769	friendship's
-3.999739	fright
-4.601799	frighted
-2.269361	from
-4.601799	front
-4.300769	frost
-4.601799	frosts
-4.601799	frosty
-4.601799	froth
-4.601799	frothy
-4.124678	froward
-3.902829	frown
-4.300769	frowns
-4.601799	frownst
-4.300769	frozen
-4.124678	fruit
-4.601799	fruitful
-4.300769	fruitless
-4.601799	fry
-4.601799	fuel
-3.999739	fulfil
-4.601799	fulfilld
-3.096649	full
-4.601799	fume
-4.601799	fumes
-4.601799	function
-4.601799	funeral
-4.300769	furnace
-4.601799	furnished
-4.601799	furrows
-4.124678	further
-4.601799	furtherance
-3.999739	fury
-4.300769	gage
-3.560407	gain
-4.601799	gained
-4.601799	gainer
-4.601799	gainful
-4.300769	gaining
-4.601799	gains
-3.999739	gait
-4.601799	gall
-4.601799	galled
-4.601799	galls
-4.300769	gan
-4.300769	gaol
-4.601799	gaping
-4.601799	gardens
-4.601799	garment
-4.601799	garments
-4.601799	garments'
-4.601799	gashes
-3.902829	gate
-4.601799	gates
-4.601799	gather'd
-4.601799	gathered
-4.124678	gaudy
-4.124678	gav'st
-3.203859	gave
-4.601799	gavest
-4.124678	gay
-4.124678	gaze
-3.902829	gazed
-4.601799	gazer
-4.300769	gazers
-4.300769	gazes
-4.300769	gazeth
-3.823648	gazing
-4.601799	gems
-3.756701	general
-4.601799	generality
-4.601799	genius
-3.186826	gentle
-4.124678	gentleman
-4.601799	gentlest
-4.300769	gently
-4.601799	gentry
-4.601799	gestures
-3.647557	get
-4.124678	ghastly
-4.601799	ghost
-4.300769	giddy
-3.902829	gift
-4.601799	gifts
-4.601799	gild
-4.601799	gild'st
-3.999739	gilded
-4.300769	gilding
-4.601799	gills
-4.601799	girl'
-4.601799	girths
-2.929702	give
-4.124678	given
-3.300769	gives
-3.999739	giving
-4.601799	giving'
-4.300769	glad
-4.601799	gladly
-4.124678	glance
-3.397679	glass
-4.601799	glasses
-4.601799	glassy
-4.300769	glazed
-4.601799	gleam'd
-4.601799	glides
-4.601799	glittering
-4.601799	globes
-4.601799	gloomy
-4.601799	glories
-4.601799	glorifies
-4.124678	glorious
-4.601799	gloriously
-3.455671	glory
-4.601799	gloss
-4.124678	glove
-4.300769	glow
-4.601799	glow'd
-4.300769	glowing
-4.601799	glows
-4.601799	glued
-4.124678	glutton
-4.601799	gnats
-3.560407	go
-3.647557	god
-4.601799	goddess
-4.124678	gods
-3.823648	goes
-4.601799	goest
-4.601799	goeth
-4.124678	going
-3.698709	gold
-3.397679	golden
-3.259377	gone
-4.601799	gone'
-2.999739	good
-3.999739	goodly
-3.902829	goodness
-4.601799	gore
-4.601799	gored
-4.601799	gorge
-4.601799	gorged
-4.124678	got
-4.601799	gouty
-4.601799	govern
-4.601799	governd
-4.601799	governess
-4.124678	government
-4.601799	governs
-3.203859	grace
-4.300769	graced
-3.756701	graces
-3.823648	gracious
-4.601799	graciously
-4.601799	graff
-4.601799	grained
-3.902829	grant
-4.601799	grant'st
-4.601799	granted
-4.601799	granteth
-4.601799	granting
-4.601799	grape
-4.601799	grapes
-3.902829	grass
-4.601799	gratis
-3.455671	grave
-4.601799	graver
-4.300769	graves
-4.601799	gray
-4.601799	graze
-4.601799	grazed
-3.346527	great
-3.425708	greater
-4.300769	greatest
-4.601799	greatness
-4.601799	greece
-4.601799	greedy
-4.124678	greeks
-3.560407	green
-4.124678	greet
-4.601799	greeteth
-4.601799	greets
-3.756701	grew
-4.601799	grey
-3.110438	grief
-4.124678	grief's
-4.124678	griefs
-4.601799	grievance
-4.601799	grievances
-4.601799	grieve
-4.601799	grieved
-4.601799	grieves
-4.601799	grieves'
-4.601799	grieving
-4.601799	grievous
-3.823648	grim
-4.601799	grin
-4.601799	grind
-4.601799	gripe's
-4.601799	griping
-3.647557	groan
-3.601799	groans
-4.601799	groin
-3.999739	groom
-4.601799	grooms
-3.999739	gross
-4.300769	grossly
-3.601799	ground
-4.300769	grounded
-4.601799	grounds
-4.124678	grove
-3.560407	grow
-4.124678	grow'st
-3.999739	growing
-4.124678	grown
-3.823648	grows
-3.999739	growth
-4.601799	growth's
-4.300769	guard
-4.601799	guarded
-4.601799	guards
-4.124678	guess
-3.902829	guest
-4.300769	guests
-4.300769	guide
-4.601799	guided
-4.124678	guides
-3.902829	guilt
-3.999739	guiltless
-3.455671	guilty
-4.601799	guise
-4.601799	gulf
-4.601799	gulls
-4.601799	gun
-4.601799	gush
-4.601799	gust
-4.300769	gusts
-4.601799	gyves
-3.999739	habit
-4.601799	habitation
-4.601799	habitude
-2.726738	had
-3.999739	hadst
-4.601799	hail
-3.823648	hair
-4.601799	hairless
-3.999739	hairs
-4.601799	hairy
-3.999739	half
-4.300769	halt
-4.601799	hammer'd
-4.601799	hammered
-2.845924	hand
-4.601799	hand'
-4.601799	hand's
-4.601799	handled
-4.601799	handling
-4.601799	handmaids
-3.756701	hands
-3.756701	hang
-3.902829	hanging
-4.601799	hangs
-4.300769	hap
-4.124678	hapless
-3.999739	haply
-4.124678	happier
-4.601799	happies
-3.999739	happiness
-3.371351	happy
-4.601799	harbour
-3.425708	hard
-4.601799	hard'
-4.601799	harden
-4.601799	hardend
-4.124678	harder
-4.300769	hardest
-4.601799	hare
-4.601799	harken
-3.999739	harm
-4.300769	harm'd
-3.902829	harmless
-4.124678	harmony
-4.124678	harms
-4.601799	harsh
-4.601799	harshsounding
-4.124678	harvest
-4.601799	has
-3.203859	hast
-3.560407	haste
-4.601799	haste'
-4.601799	hasten
-4.300769	hasteth
-4.601799	hastily
-4.601799	hasting
-4.601799	hasty
-4.300769	hat
-4.601799	hatch
-3.371351	hate
-4.300769	hate'
-4.601799	hate's
-4.300769	hated
-3.756701	hateful
-4.601799	hatefully
-4.601799	hates
-4.601799	hateth
-2.541101	hath
-4.601799	hatred
-4.601799	haunted
-2.419956	have
-3.425708	having
-4.601799	havings
-4.601799	hawk
-4.300769	hawks
-4.601799	hazard
-2.069045	he
-4.601799	he'
-4.601799	he's
-4.601799	he'this
-3.203859	head
-4.601799	headlong
-3.999739	heads
-4.601799	healeth
-4.601799	heals
-4.124678	health
-4.300769	healthful
-3.240072	hear
-4.300769	hear'st
-3.823648	heard
-4.601799	hearers
-3.902829	hearing
-4.601799	hearkens
-3.823648	hears
-4.601799	hearsay
-4.601799	hearsed
-2.597478	heart
-4.601799	heart'
-3.647557	heart's
-4.601799	hearted
-4.601799	heartens
-4.601799	heartily
-4.300769	heartless
-3.601799	hearts
-3.487856	heat
-4.601799	heathenish
-4.601799	heating
-4.601799	heats
-4.300769	heave
-4.300769	heaved
-3.154641	heaven
-3.698709	heavenly
-3.487856	heavens
-4.300769	heaveth
-4.300769	heavily
-4.601799	heaviness
-4.601799	heaviness'
-3.425708	heavy
-4.300769	hector
-4.300769	hecuba
-4.601799	hedge
-4.601799	heed
-4.300769	heedful
-4.601799	heedfully
-4.601799	heels
-3.999739	height
-4.300769	heinous
-3.999739	heir
-3.823648	held
-4.300769	helens
-3.487856	hell
-3.487856	help
-4.601799	helpful
-4.601799	helpless
-4.300769	hemm'd
-4.601799	hems
-3.647557	hence
-4.601799	hence'
-4.300769	henceforth
-4.601799	henry
-1.995418	her
-4.300769	herald
-4.601799	heraldry
-4.601799	herb
-4.300769	herd
-4.601799	herdmen
-4.601799	herds
-2.97855	here
-4.601799	here'
-4.601799	here's
-4.124678	hereafter
-4.124678	herein
-4.601799	heretic
-4.300769	hers
-3.425708	herself
-3.756701	hid
-4.124678	hidden
-3.647557	hide
-4.124678	hideous
-4.124678	hides
-3.999739	hiding
-4.124678	hie
-4.300769	hied
-4.300769	hies
-3.259377	high
-4.124678	higher
-4.601799	highly
-4.601799	highmost
-4.601799	hild
-4.124678	hill
-4.601799	hillocks
-4.124678	hills
-2.332286	him
-3.139401	himself
-4.601799	hind
-4.601799	hinder
-4.601799	hindering
-4.601799	hindmost
-4.601799	hips
-4.601799	hired
-1.820044	his
-4.601799	hiss
-4.300769	hisses
-4.601799	history
-4.601799	hit
-4.124678	hither
-4.601799	hits
-4.124678	hive
-4.601799	hoard
-4.601799	hoards
-4.601799	hoarsely
-4.601799	hoisted
-3.371351	hold
-4.601799	holding
-3.698709	holds
-4.601799	hole
-4.601799	holes
-4.601799	holiest
-3.999739	hollow
-4.601799	hollows
-3.756701	holy
-4.601799	homage
-3.647557	home
-4.601799	homely
-3.999739	honest
-3.999739	honesty
-3.756701	honey
-3.756701	honor
-4.300769	honorable
-4.601799	honored
-4.601799	honors
-3.186826	honour
-4.601799	honour'd
-4.124678	honour's
-4.124678	honourable
-4.300769	honoured
-4.601799	honouring
-4.601799	honours
-4.601799	hoodwinks
-4.601799	hoof
-4.300769	hooks
-3.259377	hope
-4.300769	hopeful
-4.300769	hopeless
-3.902829	hopes
-4.300769	hoping
-4.300769	horn
-3.487856	horse
-4.601799	horses
-4.601799	hospitality
-4.300769	host
-4.601799	hostess
-3.346527	hot
-4.300769	hotly
-4.601799	hound
-3.823648	hounds
-3.425708	hour
-4.601799	hour's
-4.601799	hourly
-3.323046	hours
-4.124678	house
-4.601799	household's
-4.601799	houses
-4.601799	hover'd
-4.601799	hovering
-2.67238	how
-4.601799	howling
-3.756701	hue
-4.601799	hued
-4.601799	hues
-3.902829	huge
-4.601799	hugely
-4.601799	hum
-4.601799	human
-4.300769	humanity
-3.999739	humble
-4.601799	humbly
-4.601799	humor
-3.999739	humour
-4.124678	hundred
-4.124678	hung
-4.601799	hunger
-4.601799	hungry
-4.124678	hunt
-4.300769	hunted
-4.300769	hunting
-4.601799	hurls
-4.601799	hurries
-4.124678	hurt
-4.601799	hurting
-3.487856	husband
-3.902829	husband's
-4.300769	husbandry
-4.601799	hush
-4.601799	hush'd
-4.601799	huswife
-4.601799	hymn
-4.300769	hymns
-4.601799	i'
-3.300769	i'll
-4.601799	idiots
-3.756701	idle
-4.601799	idly
-4.300769	idol
-4.601799	idolatry
-2.468261	if
-4.124678	ignorance
-4.300769	ignorantly
-4.601799	ilion
-3.045497	ill
-4.601799	illiterate
-4.601799	illness
-4.300769	ills
-4.601799	illumined
-4.601799	illustrious
-3.560407	image
-4.300769	images
-4.124678	imaginary
-3.999739	imagination
-4.124678	imagine
-4.300769	imagined
-4.124678	imitate
-4.601799	imitated
-4.601799	immaculate
-4.601799	immodest
-4.601799	immodestly
-4.124678	immortal
-4.601799	immortality
-4.601799	immunity
-4.300769	immure
-4.300769	immured
-4.601799	impair
-4.601799	impanelled
-4.300769	impart
-4.601799	imparteth
-4.601799	impartial
-4.601799	impatience
-4.601799	impatient
-4.601799	impeached
-4.300769	impediments
-4.601799	imperfect
-4.601799	imperious
-4.124678	impiety
-4.300769	impious
-4.601799	impleach'd
-4.601799	import
-4.601799	importune
-4.601799	imposition
-4.601799	impregnable
-4.601799	impressest
-3.999739	impression
-4.601799	imprint
-4.601799	imprinted
-4.300769	imprisond
-4.601799	imprisoned
-4.300769	impure
-4.601799	impurity
-4.601799	imputations
-4.601799	impute
-4.601799	incaged
-4.601799	incapable
-4.601799	incense
-4.601799	incertainties
-4.601799	incertainty
-4.601799	incest
-4.300769	inclination
-4.601799	incline
-4.601799	inclined
-4.601799	including
-4.601799	income
-4.601799	incomparable
-4.601799	inconstant
-4.601799	incorporate
-3.756701	increase
-4.601799	increaseful
-4.300769	increasing
-4.601799	incur
-3.902829	indeed
-4.601799	indenting
-4.601799	indigest
-4.601799	indirectly
-3.999739	infamy
-4.124678	infamy'
-4.601799	infant
-4.300769	infant's
-4.601799	infect
-4.601799	infected
-3.902829	infection
-4.601799	inferior
-4.601799	infirmities
-4.601799	infirmity
-4.601799	inflamed
-4.601799	inflaming
-4.601799	inflict
-4.124678	influence
-4.601799	inform
-4.601799	informed
-4.601799	informer
-4.601799	infringed
-4.601799	infused
-4.601799	infusing
-4.601799	inhabit
-4.601799	inhearse
-4.601799	inherit
-4.601799	inheritors
-4.124678	iniquity
-4.300769	injuries
-3.999739	injurious
-4.124678	injury
-4.601799	injustice
-3.999739	ink
-4.601799	innated
-4.300769	innocence
-4.601799	innocent
-4.601799	inordinate
-4.601799	insert
-4.601799	insinuate
-4.601799	instance
-4.601799	instant
-4.601799	instead
-4.601799	instigate
-4.601799	instinct
-4.300769	instrument
-4.601799	insufficiency
-4.601799	insulter
-4.601799	insulting
-4.601799	insurrection
-4.601799	intelligence
-3.999739	intend
-4.300769	intending
-4.601799	intendments
-4.601799	intends
-4.300769	intent
-4.300769	interchange
-3.823648	interest
-4.601799	interim
-4.601799	intermixed'
-4.601799	interrupted
-4.601799	intituled
-3.346527	into
-4.601799	intrude
-4.601799	inundation
-4.601799	inured
-4.601799	invasion
-4.601799	invective
-4.601799	inveigh
-4.300769	invent
-3.756701	invention
-4.601799	inventions
-4.601799	invised
-4.124678	invisible
-4.601799	invite
-4.601799	invited
-4.601799	invitements
-4.601799	inviting
-4.601799	invocate
-4.601799	invocations
-4.601799	invoked
-3.560407	inward
-4.601799	ireful
-4.300769	iron
-4.601799	irrefragable
-4.601799	is'
-4.124678	is't
-4.601799	island
-3.902829	issue
-4.601799	issueless
-4.601799	issues
-4.300769	it'
-4.601799	italy
-4.601799	its
-3.647557	itself
-3.902829	ivory
-4.601799	jacks
-4.124678	jade
-4.601799	jar
-4.601799	javelins
-4.124678	jealous
-3.823648	jealousy
-4.601799	jeering
-4.601799	jennet
-4.300769	jest
-4.601799	jet
-3.698709	jewel
-4.124678	jewels
-4.601799	john
-4.124678	join
-4.300769	joint
-4.124678	jointly
-4.124678	joints
-4.300769	jollity
-4.601799	jot
-4.300769	journey
-4.601799	jove
-4.601799	jove'
-3.346527	joy
-4.601799	joyed
-4.601799	joyless
-4.300769	joys
-3.999739	judge
-4.601799	judgement
-3.823648	judgment
-4.601799	judicious
-4.601799	juice
-4.300769	jump
-4.601799	junes
-4.601799	junius
-3.560407	just
-4.300769	justice
-4.601799	justify
-3.999739	justly
-4.124678	keen
-3.346527	keep
-4.601799	keep'st
-4.601799	keeping
-3.823648	keeps
-4.601799	ken
-3.601799	kept
-4.601799	key
-3.487856	kill
-4.601799	kill'
-3.698709	killd
-4.601799	killd'
-4.601799	killed
-4.300769	killing
-4.124678	kills
-3.203859	kind
-4.601799	kinder
-4.601799	kindle
-4.124678	kindled
-4.601799	kindly
-4.124678	kindness
-4.601799	kindred
-3.999739	kinds
-3.647557	king
-4.601799	king's
-4.300769	kingdom
-4.601799	kingly
-3.601799	kings
-4.601799	kings'
-4.601799	kinsman
-4.601799	kinsmen
-3.240072	kiss
-4.601799	kiss'
-4.601799	kiss'd
-4.601799	kissed
-3.902829	kisses
-3.902829	kissing
-4.601799	knee
-4.601799	kneel
-4.601799	kneels
-4.601799	knees
-4.601799	knell
-3.698709	knew
-3.560407	knife
-4.601799	knife's
-4.124678	knighthood
-4.601799	knights
-3.999739	knit
-4.601799	knocks
-4.601799	knot
-2.999739	know
-4.124678	know'st
-3.698709	knowing
-3.823648	knowledge
-3.999739	known
-3.397679	knows
-4.601799	labor
-4.601799	labors
-3.902829	labour
-4.601799	labour'd
-4.124678	labouring
-4.601799	labours
-4.601799	labyrinth
-4.601799	lace
-3.823648	lack
-4.601799	lack'd
-4.300769	lacked
-4.601799	lackey
-4.124678	lacking
-4.601799	laden
-4.300769	ladies
-4.124678	lady
-4.601799	lady's
-3.823648	laid
-4.601799	lain
-3.902829	lamb
-4.300769	lambs
-3.999739	lame
-4.601799	lameness
-4.300769	lament
-3.999739	lamentable
-4.601799	lamentations
-4.601799	lamented
-4.300769	lamenting
-4.601799	laments
-4.300769	lamp
-4.300769	lamps
-4.601799	lance
-4.124678	land
-4.601799	landlord
-4.300769	language
-4.601799	languished
-4.601799	languisheth
-4.300769	languishment
-4.601799	lank
-4.601799	lap
-4.601799	lapse
-3.823648	large
-4.601799	largeness
-4.601799	largess
-4.601799	lark
-4.601799	lascivious
-3.300769	last
-3.999739	lasting
-4.124678	latch
-3.522618	late
-4.601799	late'
-4.601799	lattice
-4.300769	laud
-4.601799	laugh
-4.601799	laugh'd
-4.601799	laugher
-4.601799	laughs
-4.601799	laundering
-3.560407	law
-3.823648	lawful
-4.124678	lawn
-4.124678	laws
-3.455671	lay
-3.823648	lays
-4.601799	lazy
-4.124678	lead
-4.300769	leaden
-4.601799	leaders
-4.300769	leadeth
-4.601799	leading
-4.124678	leads
-4.300769	leaf
-3.999739	league
-3.902829	lean
-4.601799	leand
-4.601799	leaning
-3.999739	leap
-4.601799	leap'd
-4.601799	leaped
-4.300769	leaps
-3.902829	learn
-4.601799	learnd
-4.300769	learned
-4.601799	learned's
-3.902829	learning
-4.124678	lease
-4.601799	leases
-3.601799	least
-4.601799	leathern
-3.240072	leave
-4.601799	leave'
-3.522618	leaves
-4.300769	leaving
-4.601799	lechers
-4.601799	lectures
-4.124678	led
-3.455671	left
-4.601799	leg
-4.300769	legacy
-4.601799	legions
-4.124678	legs
-3.823648	leisure
-4.601799	leisurely
-4.601799	leisures
-3.397679	lend
-4.601799	lendeth
-4.300769	lending
-3.647557	lends
-3.999739	length
-4.601799	lengthened
-4.601799	lengths
-3.823648	lent
-3.756701	less
-3.999739	lesser
-4.124678	lesson
-3.560407	lest
-2.782255	let
-4.300769	lets
-4.124678	letter
-4.601799	letters
-4.300769	level
-4.601799	leveled
-4.300769	levelld
-4.300769	lewd
-4.124678	liberty
-4.601799	licking
-4.601799	lids
-3.323046	lie
-3.110438	lies
-4.601799	lies'
-2.750541	life
-3.756701	life's
-4.300769	lifeless
-4.300769	lifts
-2.968331	light
-4.601799	light's
-4.601799	lighteth
-4.300769	lightless
-4.601799	lightning
-4.124678	lights
-4.601799	liked
-4.601799	likely
-4.300769	likeness
-4.601799	liker
-4.601799	likes
-4.300769	likewise
-4.124678	liking
-4.300769	lilies
-3.999739	lily
-4.601799	lily's
-4.300769	limb
-4.601799	limbecks
-4.300769	limbs
-4.601799	limed
-4.300769	limit
-4.601799	limits
-4.601799	limn
-4.601799	limning
-4.601799	limping
-3.999739	line
-4.601799	linen
-3.601799	lines
-4.601799	linger
-4.601799	lingering
-4.124678	lion
-4.601799	lions
-4.601799	lip
-3.083285	lips
-4.300769	lips'
-4.601799	liquid
-3.999739	list
-3.999739	listening
-4.601799	lists
-3.300769	little
-2.999739	live
-3.371351	lived
-4.601799	lived'st
-4.601799	livelihood
-3.999739	lively
-4.601799	liver
-4.300769	liveries
-3.902829	livery
-3.346527	lives
-4.601799	livest
-3.560407	living
-3.425708	lo
-4.300769	load
-4.601799	loan
-3.902829	loathed
-3.902829	loathsome
-4.601799	lock
-4.601799	lock'd
-4.601799	locked
-3.902829	locks
-4.601799	lode
-4.601799	lodge
-3.999739	lodged
-4.124678	lofty
-3.057731	long
-3.647557	longer
-4.601799	longest
-4.300769	longing
-4.300769	longs
-2.999739	look
-4.601799	look'
-4.124678	look'd
-4.601799	look'st
-4.300769	looked
-4.601799	looketh
-3.999739	looking
-3.203859	looks
-4.601799	loop
-3.999739	loose
-3.522618	lord
-4.601799	lordly
-3.902829	lords
-4.601799	lords'
-4.124678	lordship
-3.560407	lose
-4.601799	loseth
-4.124678	losing
-3.487856	loss
-4.601799	losses
-3.397679	lost
-4.601799	lot
-4.124678	loud
-4.601799	lour'st
-4.601799	louring
-3.902829	lov'st
-2.2056	love
-4.124678	love'
-2.989016	love's
-3.601799	loved
-4.601799	loveliness
-3.560407	lovely
-4.124678	lover
-4.601799	lover'd
-4.300769	lover's
-4.124678	lovers
-4.300769	lovers'
-3.522618	loves
-3.487856	loving
-3.647557	low
-4.124678	lower
-4.601799	lowly
-4.124678	loyal
-4.601799	lucius
-4.601799	luck
-3.240072	lucrece
-3.560407	lucrece'
-4.300769	lucretia
-4.601799	lucretia's
-4.300769	lucretius
-4.601799	lucretius'
-4.601799	lungs
-4.601799	lure
-4.124678	lurk
-4.601799	lurk'
-4.601799	lurk'd
-4.300769	lurking
-4.601799	lurks
-3.170436	lust
-3.999739	lust's
-4.124678	lustful
-4.601799	lustily
-3.999739	lusty
-4.601799	luxury
-4.601799	lying
-3.522618	mad
-4.601799	madding
-2.920558	made
-4.124678	madly
-4.300769	madness
-3.560407	maid
-4.601799	maid'
-3.756701	maiden
-4.601799	maidens'
-4.601799	maids
-4.601799	maim
-4.124678	main
-4.601799	maintain
-4.601799	maintaind
-4.300769	maintained
-3.823648	majesty
-4.601799	majesty's
-4.300769	mak'st
-2.597478	make
-4.601799	makeless
-3.154641	makes
-4.601799	makes'
-4.124678	makest
-4.300769	maketh
-3.425708	making
-4.124678	maladies
-4.601799	malcontent
-3.999739	malice
-3.221588	man
-4.300769	manage
-4.300769	mane
-4.601799	mangling
-4.601799	manifold
-4.124678	manly
-3.999739	manner
-3.999739	manners
-3.756701	mans
-4.124678	mansion
-4.601799	mantle
-4.601799	manual
-3.045497	many
-4.601799	many's
-3.999739	map
-4.300769	mar
-3.999739	marble
-4.300769	march
-4.300769	march'd
-4.601799	marcheth
-4.601799	marching
-4.601799	mare'
-4.601799	margents
-4.601799	marigold
-4.601799	marigolds
-4.601799	marjoram
-3.560407	mark
-4.601799	marketh
-4.300769	marking
-4.300769	marks
-4.601799	marr'd
-4.300769	marriage
-4.300769	married
-4.300769	marrow
-4.601799	mars
-4.601799	martial
-4.601799	martyr'd
-4.300769	marvel
-4.601799	mask
-4.124678	masked
-4.601799	masonry
-3.823648	master
-4.300769	master'd
-4.300769	mastering
-4.601799	match
-4.601799	match'
-4.601799	matcheth
-4.601799	mate
-4.601799	mated
-3.560407	matter
-4.601799	maund
-4.601799	maw
-2.715309	may
-4.601799	mayest
-3.601799	mayst
-4.601799	maze
-4.300769	me'
-4.601799	mead
-4.601799	meadows
-4.601799	meads
-4.601799	meager
-4.601799	meagre
-3.756701	mean
-4.601799	meaner
-4.300769	meaning
-3.823648	means
-4.601799	meant
-4.601799	meantime
-4.300769	measure
-4.300769	measured
-4.601799	measures
-4.601799	mediators
-4.601799	medicine
-4.601799	meditation
-4.601799	meed
-4.601799	meek
-3.902829	meet
-4.124678	meeting
-4.601799	meetness
-4.601799	meets
-4.300769	melancholy
-4.601799	mellow
-4.300769	melodious
-4.601799	melody
-4.124678	melt
-4.601799	melted
-4.124678	melting
-4.300769	melts
-4.124678	memorable
-4.601799	memorial
-3.560407	memory
-2.97855	men
-4.124678	mend
-4.601799	mended
-3.647557	mens
-4.601799	merchandized
-4.601799	merchant
-4.601799	merciful
-4.300769	merciless
-4.300769	mercy
-4.300769	merely
-3.601799	merit
-4.601799	meritorious
-4.601799	merits
-4.601799	mermaid
-4.300769	mermaid's
-3.999739	merry
-4.601799	messenger
-4.300769	messengers
-4.300769	met
-4.601799	metal
-3.999739	methinks
-4.601799	method
-4.601799	methods
-4.601799	metre
-4.601799	mettle
-4.601799	mid
-4.601799	midday
-4.601799	middle
-4.601799	midnight
-4.601799	midst
-2.885796	might
-4.124678	mightier
-4.601799	mightily
-3.999739	mightst
-4.300769	mighty
-4.601799	mihi
-4.601799	milch
-3.698709	mild
-4.601799	mildness
-4.300769	miles
-4.601799	milk
-4.601799	millioned
-4.601799	millions
-4.601799	mimics
-2.999739	mind
-4.601799	mind's
-4.601799	minded
-4.601799	mindful
-3.698709	minds
-4.601799	minds'
-2.610573	mine
-4.300769	mine'
-4.601799	mingle
-4.124678	mingled
-4.601799	mingling
-4.601799	minister
-4.601799	ministret
-4.300769	minority
-4.601799	minstrels
-4.124678	minute
-4.300769	minute's
-3.902829	minutes
-4.124678	miracle
-4.601799	mire
-4.601799	miretur
-4.601799	mirror
-4.124678	mirth
-4.601799	miscalled
-4.601799	mischance
-4.601799	mischances
-4.300769	mischief
-4.601799	mischiefs
-4.601799	misconstruction
-4.300769	misdeeds
-4.601799	miseries
-4.300769	misery
-4.300769	misfortune
-4.601799	misgoverning
-4.601799	mishaps
-4.601799	misled
-4.601799	misplaced
-4.601799	misprision
-4.601799	miss'd
-4.300769	missed
-4.601799	missing
-4.300769	mist
-4.300769	mistake
-4.300769	mistakes
-4.601799	mistaking
-4.300769	mistook
-3.647557	mistress
-3.823648	mistress'
-3.999739	mistrust
-4.601799	mistrustful
-4.601799	mists
-4.300769	misty
-4.300769	mix'd
-4.601799	mixed
-3.756701	moan
-3.902829	moans
-3.756701	mock
-4.601799	mocking
-4.601799	model
-4.601799	moderation
-4.601799	modern
-3.756701	modest
-4.601799	modestly
-3.999739	modesty
-3.999739	moe
-4.300769	moiety
-4.300769	moist
-4.601799	moistend
-4.124678	moisture
-4.124678	moment
-4.601799	momentary
-4.300769	monarch's
-4.601799	monarchs
-4.300769	monarchy
-4.601799	monsters
-4.601799	months
-3.999739	monument
-4.300769	monuments
-4.124678	mood
-4.601799	moods
-4.300769	moody
-3.823648	moon
-4.300769	moralize
-2.497996	more
-4.601799	more'
-3.756701	morn
-3.756701	morning
-4.300769	morning's
-3.560407	morrow
-3.455671	mortal
-4.300769	mortality
-4.601799	mortgaged
-2.958347	most
-4.601799	mot
-4.300769	mote
-3.999739	mother
-4.300769	mother's
-4.601799	mothers
-4.601799	mothers'
-3.823648	motion
-4.601799	motives
-4.601799	motley
-4.601799	moulds
-4.300769	mount
-3.902829	mountain
-4.601799	mountains
-4.124678	mounted
-4.601799	mounting
-4.601799	mounts
-4.124678	mourn
-4.300769	mourner
-4.300769	mourners
-4.601799	mournful
-3.823648	mourning
-4.601799	mouse
-3.999739	mouth
-4.601799	mouth'd
-4.124678	mouths
-4.124678	move
-3.902829	moved
-4.601799	mover
-4.300769	moves
-4.124678	moving
-4.601799	mow
-3.045497	much
-3.999739	mud
-4.601799	muffled
-4.124678	murd'rous
-4.124678	murder
-4.300769	murder'd
-4.601799	murder's
-4.300769	murder'st
-4.601799	murdered
-4.601799	murderous
-4.601799	murders
-4.601799	murmur
-4.601799	murther
-3.455671	muse
-4.601799	muses
-3.698709	music
-4.601799	musing
-2.920558	must
-4.300769	muster
-4.601799	mustering
-3.902829	mute
-4.124678	mutiny
-3.999739	mutual
-4.601799	myrtle
-3.522618	myself
-4.601799	myself'
-4.300769	nails
-4.124678	naked
-3.022016	name
-4.601799	nameless
-4.601799	naming
-4.601799	napkin
-4.300769	narcissus
-4.601799	narrow
-4.300769	nativity
-3.221588	nature
-3.601799	nature's
-3.999739	nay
-3.560407	ne'er
-3.902829	near
-4.601799	nearer
-4.601799	nearly
-4.300769	necessary
-3.756701	neck
-4.601799	neck'd
-4.601799	nectar
-3.756701	need
-4.601799	need'st
-4.601799	needeth
-4.601799	needing
-4.300769	needle
-3.756701	needs
-4.601799	needy
-4.124678	neglect
-4.300769	neglected
-4.300769	negligence
-4.601799	neigh
-4.601799	neighbors
-4.601799	neighbour
-4.300769	neighs
-3.756701	neither
-4.601799	nerves
-4.300769	nest
-4.601799	nestor
-4.601799	nestor's
-4.601799	nests
-4.601799	net
-2.869406	never
-3.045497	new
-4.300769	newer
-4.300769	newly
-4.124678	news
-4.124678	next
-4.300769	nice
-4.124678	niggard
-4.601799	niggarding
-4.124678	nigh
-2.756701	night
-3.999739	night'
-3.999739	night's
-3.999739	nightly
-4.124678	nights
-4.300769	nimble
-4.601799	nimbly
-4.300769	nine
-2.392284	no
-4.601799	no'
-3.823648	noble
-4.300769	noblemen
-4.300769	nobleness
-4.601799	nobler
-4.601799	nobly
-4.124678	noise
-4.601799	non
-3.259377	none
-4.124678	noon
-2.657317	nor
-4.601799	nose
-4.601799	nostril
-4.601799	nostrils
-2.039506	not
-4.601799	notary
-3.756701	note
-4.124678	noted
-4.601799	noteth
-3.139401	nothing
-4.300769	notice
-3.647557	nought
-4.601799	novel
-2.548721	now
-4.601799	nowhere
-4.124678	number
-4.601799	numbered
-3.999739	numbers
-4.601799	numbs
-4.300769	nun
-4.601799	nuns
-3.823648	nurse
-4.601799	nurse's
-4.601799	nursed
-4.601799	nursest
-4.601799	nurseth
-4.601799	nurtured
-4.601799	nuzzling
-4.601799	nymph
-4.300769	nymphs
-2.624076	o
-3.346527	o'er
-4.601799	o'ercharged
-4.601799	o'erflows
-4.601799	o'ergrown
-4.601799	o'erpressed
-4.601799	o'ersways
-4.601799	o'ertake
-4.601799	o'erwhelming
-4.300769	o'erworn
-4.601799	oak's
-3.823648	oath
-4.300769	oaths
-4.601799	oaths'
-4.300769	obdurate
-4.601799	obedience
-4.124678	obey
-4.601799	obey'd
-4.601799	obeyed
-4.300769	obeys
-4.124678	object
-3.902829	objects
-4.601799	oblation
-4.601799	oblations
-3.999739	oblivion
-4.601799	oblivious
-4.601799	obloquy
-4.601799	obscure
-4.300769	obscured
-4.601799	obscurely
-4.601799	obscures
-4.601799	obscurity
-4.300769	obsequious
-4.300769	observed
-4.601799	obtain
-4.601799	obtaind
-4.601799	obtaining
-4.124678	occasion
-3.756701	ocean
-4.601799	odd
-4.300769	odour
-4.601799	odours
-3.601799	off
-3.756701	offence
-3.999739	offences
-4.300769	offend
-4.601799	offended'
-4.601799	offender's
-4.300769	offenders
-4.601799	offense
-4.601799	offenseless
-4.300769	offer
-4.601799	offering
-4.601799	offers
-3.999739	office
-4.601799	offices
-4.601799	offspring
-3.487856	oft
-3.455671	often
-4.601799	oftentimes
-4.601799	oil
-2.999739	old
-4.601799	older
-4.601799	olives
-3.221588	once
-2.501429	one
-4.300769	one's
-4.601799	ones
-3.259377	only
-4.300769	onset
-4.601799	onward
-4.601799	onwards
-4.601799	opal
-4.124678	ope
-3.647557	open
-4.601799	open'
-3.999739	opend
-4.300769	opens
-3.999739	opinion
-4.601799	opinions
-3.902829	opportunity
-4.601799	oppress'd
-3.999739	oppressed
-4.601799	oppressor
-2.394974	or
-4.124678	orator
-4.601799	orators
-4.300769	oratory
-4.601799	orb
-4.601799	orbed
-4.601799	orbs
-4.601799	orchards
-4.601799	ordain
-4.601799	ordained
-4.601799	ordered
-4.601799	ordering
-4.300769	orient
-4.601799	origin
-3.823648	ornament
-3.999739	ornaments
-4.601799	orphan
-4.601799	orphans
-4.601799	orpheus
-4.601799	orts
-2.989016	other
-4.601799	other'
-4.124678	other's
-3.455671	others
-3.647557	others'
-3.045497	our
-4.124678	ours
-2.920558	out
-4.601799	outbraves
-4.601799	outcast
-4.601799	outcry
-4.124678	outlive
-4.601799	outrage
-4.601799	outrageous
-4.601799	outright
-4.300769	outruns
-4.601799	outside
-4.601799	outstripped
-3.601799	outward
-4.601799	outwardly
-4.601799	outwards
-4.601799	outwore
-4.601799	outworn
-4.601799	oven
-3.522618	over
-4.300769	overcome
-4.601799	overflow
-4.601799	overgone
-4.601799	overlook
-4.601799	overpass
-4.601799	overruled
-4.601799	oversee
-4.601799	overshoot
-4.601799	overslipp'd
-4.601799	oversway'd
-4.601799	overswayed
-4.300769	overthrow
-4.601799	overthrown
-4.601799	overturn
-4.601799	overweening
-4.601799	ow'st
-3.756701	owe
-4.601799	owed
-4.300769	owes
-4.300769	owl
-4.601799	owls'
-2.802459	own
-4.601799	owner
-4.300769	owner's
-4.601799	owners
-3.999739	pace
-4.601799	paces
-4.601799	pack
-4.601799	page
-4.601799	pages
-4.300769	paid
-3.522618	pain
-4.601799	paind
-4.300769	painful
-4.300769	pains
-4.601799	paint
-3.560407	painted
-3.647557	painter
-4.300769	painter's
-3.698709	painting
-4.300769	pair
-4.124678	palate
-3.221588	pale
-4.601799	paleness
-4.601799	palfrey
-4.601799	palm
-4.601799	palmers'
-4.601799	pamphlet
-4.601799	pangs
-4.601799	panteth
-4.300769	panting
-4.601799	pants
-4.124678	paper
-4.300769	papers
-4.601799	paradise
-4.601799	parallels
-4.601799	parasites
-4.300769	parcels
-4.601799	parching
-4.124678	pardon
-4.601799	parents
-4.601799	paris
-4.300769	park
-4.601799	parley
-4.601799	parling
-3.057731	part
-4.601799	partake
-4.601799	partial
-4.601799	partially
-4.601799	particular
-4.601799	particulars
-4.601799	parting
-4.601799	partly
-4.601799	partner
-4.601799	partners
-3.560407	parts
-4.300769	party
-3.999739	pass
-4.124678	passage
-4.300769	passed
-4.601799	passenger
-4.300769	passing
-3.560407	passion
-3.823648	passions
-3.425708	past
-4.601799	patent
-4.300769	path
-3.902829	patience
-4.124678	patient
-4.601799	patiently
-4.601799	patron
-3.999739	pattern
-4.601799	patternd
-4.601799	patterns
-3.999739	pause
-4.601799	pawn
-4.601799	pawnd
-4.601799	paws
-3.698709	pay
-4.124678	paying
-4.601799	payment
-4.124678	pays
-3.823648	peace
-4.601799	peace'
-4.300769	peaceful
-4.300769	pearl
-4.300769	pearls
-4.601799	peasants
-4.601799	pebbled
-4.300769	peculiar
-4.300769	peeld
-3.999739	peep
-4.601799	peep'd
-4.300769	peeping
-4.601799	peer
-4.601799	peering
-4.601799	peerless
-4.601799	peers
-4.601799	pelleted
-4.601799	pelt
-3.522618	pen
-4.300769	pencil
-4.601799	pencilld
-4.601799	penetrable
-4.601799	pennd
-4.601799	pens
-4.601799	pensived
-4.601799	pensiveness
-4.300769	pent
-4.601799	penury
-3.999739	people
-4.601799	people's
-4.601799	perceiv'st
-4.300769	perceive
-4.601799	perceived
-4.601799	perceiving
-4.601799	perchance
-3.698709	perfect
-4.601799	perfect'st
-3.823648	perfection
-4.300769	perfections
-4.300769	perforce
-4.300769	perfumed
-4.300769	perfumes
-4.601799	perhaps
-4.300769	period
-4.601799	perish
-3.999739	perjured
-4.300769	perjury
-4.300769	permit
-3.999739	perpetual
-4.601799	perplex'd
-4.601799	persever
-4.601799	person
-4.601799	personal
-4.601799	persons
-4.601799	perspective
-3.999739	persuade
-4.601799	persuasion
-4.300769	perused
-4.601799	perverse
-4.601799	pervert
-4.601799	pestilence
-4.601799	peter
-4.601799	petitioners
-4.124678	petty
-4.124678	philomel
-4.300769	phoenix
-4.300769	phrase
-4.601799	phraseless
-4.601799	phrygian
-3.999739	physic
-4.300769	physician
-4.601799	physicians
-4.601799	physiognomy
-4.601799	pick
-4.300769	picks
-3.647557	picture
-4.601799	picture's
-4.601799	pictured
-4.300769	piece
-4.601799	pieced
-4.601799	pied
-4.601799	pierced
-4.601799	piercing
-4.124678	piety
-4.601799	pikes
-4.124678	pilgrimage
-4.601799	pillage
-4.300769	pillow
-4.601799	pilot
-3.756701	pine
-4.601799	pined
-4.124678	pines
-4.601799	pineth
-4.601799	pining
-4.601799	pioner
-4.601799	pipe
-4.601799	pipes
-4.601799	pirates
-4.300769	pitch
-4.601799	pitch'd
-4.300769	pitchy
-4.300769	piteous
-4.601799	pith
-4.601799	pitied
-4.601799	pities
-4.601799	pitiful
-4.601799	pits
-3.323046	pity
-4.300769	pitying
-3.240072	place
-4.601799	placed
-4.300769	places
-3.902829	plague
-4.601799	plagues
-3.756701	plain
-4.601799	plaining
-4.601799	plaintful
-4.601799	plaints
-4.601799	plaits
-4.601799	plantest
-4.601799	planting
-4.300769	plants
-4.601799	plaster
-4.601799	platted
-4.601799	plausibly
-3.756701	play
-4.601799	play'd
-4.601799	play'st
-4.601799	played
-4.300769	playing
-4.300769	plays
-3.999739	plea
-3.999739	plead
-4.601799	pleadeth
-3.823648	pleading
-4.601799	pleads
-4.124678	pleasant
-3.902829	please
-3.999739	pleased
-4.300769	pleasing
-4.601799	pleasurable
-3.487856	pleasure
-4.300769	pleasures
-4.601799	plena
-4.601799	plenitude
-4.601799	plenteous
-3.999739	plenty
-4.124678	plight
-4.601799	plods
-4.300769	plot
-4.601799	plots
-4.601799	plotting
-4.601799	ploughman
-3.823648	pluck
-4.124678	pluck'd
-4.601799	pluck'st
-4.601799	plucks
-4.601799	plum
-4.601799	plume
-4.601799	plump
-4.601799	plunging
-4.601799	plus
-4.601799	pluto
-4.601799	pocula
-4.601799	poesy
-4.300769	poet
-4.601799	poet's
-4.300769	poets
-3.902829	point
-4.601799	pointed
-4.601799	points
-4.300769	poison
-4.124678	poisond
-4.601799	poisoned
-4.601799	poisoning
-4.300769	poisonous
-4.601799	policies
-3.999739	policy
-4.601799	polished
-4.601799	politic
-4.300769	pollute
-4.601799	polluted
-4.601799	pollution
-4.300769	pomp
-2.885796	poor
-4.601799	poorer
-4.300769	poorly
-4.300769	popular
-4.300769	portal
-4.601799	portion
-4.601799	posied
-3.999739	possess
-4.601799	possess'd
-4.124678	possessed
-4.601799	possesseth
-4.300769	possessing
-3.999739	possession
-4.601799	possibilited
-4.124678	post
-4.601799	posted
-3.756701	posterity
-4.601799	posting
-4.601799	potential
-4.601799	potions
-4.601799	pour
-4.601799	pour'st
-4.601799	pouted
-4.300769	poverty
-3.323046	power
-4.601799	power's
-4.300769	powerful
-3.999739	powers
-4.601799	practised
-3.110438	praise
-3.902829	praised
-3.999739	praises
-4.300769	praising
-3.999739	pray
-4.601799	prayer
-4.124678	prayers
-4.300769	prays
-4.601799	preach
-4.601799	preach'd
-4.124678	precedent
-4.601799	precepts
-3.522618	precious
-4.601799	predecease
-4.300769	predestinated
-4.601799	predict
-4.601799	prefer
-4.601799	prefiguring
-4.601799	premeditate
-4.124678	prepare
-4.124678	prepares
-4.601799	preposterously
-4.300769	presage
-4.601799	presagers
-4.601799	prescience
-4.601799	prescriptions
-4.300769	presence
-3.560407	present
-4.601799	present'st
-4.300769	presenteth
-4.300769	presently
-4.601799	presents
-4.300769	preserve
-4.601799	president
-4.124678	press
-4.300769	press'd
-4.601799	presume
-4.601799	presuming
-4.601799	pretense
-4.601799	prettily
-3.823648	pretty
-4.601799	prevailed
-3.999739	prevent
-4.601799	prevent'st
-4.601799	prevented
-3.560407	prey
-4.601799	preys
-3.823648	priam
-3.999739	priam's
-4.601799	price
-4.601799	priceless
-4.601799	prick
-4.601799	prick'd
-4.601799	pricked
-4.601799	pricks
-3.240072	pride
-3.756701	prime
-4.601799	primrose
-4.124678	princely
-4.124678	princes
-4.601799	princess
-4.601799	principal
-4.300769	print
-4.601799	priority
-3.902829	prison
-4.300769	prisond
-3.999739	prisoner
-3.756701	private
-4.601799	privilage
-4.124678	privilege
-4.601799	privileged
-4.601799	privily
-3.999739	prize
-4.300769	prized
-4.601799	prizing
-3.999739	proceed
-4.601799	proceeding
-4.300769	proceedings
-4.124678	proceeds
-4.601799	process
-4.601799	proclaim'd
-4.601799	proclaims
-4.601799	procured
-4.300769	prodigal
-4.601799	prodigies
-4.300769	profane
-3.999739	profaned
-4.601799	professed
-4.300769	profit
-4.601799	profited
-4.601799	profitless
-4.601799	profound
-4.601799	progenitors
-4.601799	prognosticate
-4.300769	progress
-4.124678	promise
-4.300769	promised
-4.300769	prompt
-4.300769	prone
-4.601799	proneness
-4.601799	pronounced
-3.756701	proof
-4.601799	proofs
-4.300769	prop
-4.300769	proper
-4.601799	properties
-4.300769	prophecies
-4.300769	prophesy
-4.601799	prophetic
-4.601799	proportionable
-4.300769	proportiond
-4.300769	proposed
-4.601799	prosperous
-4.601799	protest
-4.300769	protestation
-4.601799	protested
-3.110438	proud
-4.601799	prouder
-4.601799	proudest
-3.323046	prove
-3.902829	proved
-4.124678	proves
-4.601799	provide
-4.601799	provided
-4.601799	providence
-4.300769	proving
-4.300769	provoke
-4.601799	provokest
-4.601799	pry
-4.601799	pry'st
-3.698709	public
-4.300769	publish
-4.601799	publisher
-4.601799	publius
-4.601799	puddle
-4.601799	puddle's
-4.601799	puffs
-4.601799	pulses
-4.601799	pupil
-4.601799	purblind
-3.999739	purchase
-4.601799	purchased
-4.601799	purchasing
-3.203859	pure
-4.601799	purer
-4.300769	purge
-4.601799	purging
-4.601799	purified
-4.601799	purify
-4.124678	purity
-4.601799	purld
-4.601799	purloind
-3.999739	purple
-3.647557	purpose
-4.601799	purposed
-4.300769	pursue
-4.601799	pursuers
-4.601799	pursues
-4.601799	pursuing
-4.300769	pursuit
-4.601799	push
-4.601799	push'd
-3.397679	put
-4.601799	putrified
-4.300769	puts
-4.601799	pyramids
-4.601799	pyrrhus
-4.601799	pyrrhus'
-4.300769	quake
-4.601799	quakes
-4.601799	quaking
-4.601799	qualified
-4.601799	qualify
-4.300769	qualities
-3.823648	quality
-3.999739	queen
-4.601799	queen'
-3.902829	quench
-4.601799	quest
-3.902829	question
-4.601799	questionable
-4.601799	questioned
-4.601799	questions
-3.647557	quick
-4.601799	quicker
-3.823648	quickly
-3.823648	quiet
-4.601799	quietly
-4.601799	quietus
-3.999739	quill
-4.601799	quills
-4.601799	quit
-3.823648	quite
-4.601799	quiver'st
-4.601799	quote
-3.022016	quoth
-4.601799	race
-4.601799	races
-4.601799	radiance
-3.346527	rage
-4.601799	rages
-4.124678	ragged
-4.601799	raging
-4.300769	rail
-4.601799	raild
-4.601799	raiment
-3.560407	rain
-4.601799	rainbows
-4.601799	raind
-4.601799	raineth
-4.300769	raining
-4.601799	rains
-4.601799	rainy
-4.300769	raise
-4.601799	raised
-4.601799	ram
-4.300769	ran
-4.601799	rancor
-4.300769	random
-4.601799	range
-4.601799	ranged
-3.823648	rank
-4.601799	ranked
-3.823648	ranks
-4.601799	ransack'd
-4.124678	ransom
-4.601799	ransoms
-4.124678	rape
-3.823648	rare
-4.601799	rarely
-4.601799	rarest
-4.601799	rarities
-4.601799	rascal
-4.601799	rase
-4.601799	rased
-3.999739	rash
-3.999739	rate
-3.999739	rather
-4.601799	rave
-4.601799	raven
-4.601799	ravens'
-4.601799	ravish
-4.601799	ravished
-4.300769	ravisher
-4.300769	ravishment
-4.601799	raw
-4.300769	razed
-4.601799	re
-4.601799	reach
-3.647557	read
-4.601799	readily
-3.999739	ready
-4.300769	real
-4.601799	reap
-4.601799	rears
-3.300769	reason
-3.902829	reasons
-4.601799	reaves
-4.124678	rebel
-4.300769	rebuked
-4.601799	recalld
-4.300769	receipt
-4.601799	receiv'st
-4.124678	receive
-4.601799	received
-3.823648	receives
-4.601799	receivest
-4.601799	receiving
-4.601799	recite
-4.601799	recketh
-4.601799	reckon
-4.300769	reckoned
-4.300769	reckoning
-4.601799	recompense
-4.601799	recompensed
-4.601799	reconciled
-3.999739	record
-4.601799	recount
-4.601799	recounting
-4.601799	recreant
-4.601799	recreate
-4.601799	recured
-4.601799	recures
-3.124678	red
-4.601799	redeem
-4.601799	redemption
-4.601799	redoubled
-4.601799	redress'
-4.601799	reedy
-4.601799	reek
-4.601799	reek'd
-4.601799	reeking
-4.601799	reeks
-4.601799	reeleth
-4.300769	refined
-4.601799	reflect
-4.601799	reft
-4.601799	refuse
-4.601799	refusest
-3.902829	regard
-4.300769	region
-3.999739	register
-4.601799	registers
-3.902829	rehearse
-3.902829	reign
-4.601799	reignd
-4.601799	reigned
-4.300769	reigns
-3.999739	rein
-4.601799	rejected
-4.601799	rejoice
-4.601799	rejoicing
-4.300769	releasing
-4.601799	relenteth
-4.601799	relenting
-4.601799	relief
-4.601799	relier
-4.601799	relieve
-4.601799	relieved
-4.601799	religion
-4.601799	religions
-4.300769	religious
-3.601799	remain
-4.300769	remaind
-4.601799	remaineth
-4.601799	remaining
-3.823648	remains
-4.124678	remedy
-4.124678	remember
-4.601799	remember'd
-3.999739	remembered
-4.601799	remembering
-3.999739	remembrance
-4.601799	remission
-4.601799	remorse
-4.601799	remorse'
-4.601799	remorseless
-4.601799	remote
-3.756701	remove
-4.601799	remove'
-3.999739	removed
-4.601799	remover
-4.601799	removing
-3.999739	render
-4.300769	renew
-4.601799	renewed
-4.601799	renewest
-4.601799	renews
-4.601799	rent
-4.300769	rents
-4.124678	repair
-4.601799	repay
-4.601799	repeal
-4.601799	repeat
-4.601799	repel
-4.601799	repent
-4.300769	repentant
-4.601799	repetition
-4.601799	repine
-4.601799	replenish
-4.601799	replete
-4.601799	replication
-4.601799	replied
-3.999739	replies
-4.124678	report
-4.124678	repose
-4.601799	reposed
-4.601799	reprehend
-4.601799	reprehends
-3.756701	reproach
-4.601799	reproach's
-4.601799	reprobate
-4.601799	reproof
-4.124678	reprove
-4.601799	reproving
-3.902829	reputation
-4.601799	repute
-4.300769	request
-4.601799	require
-4.601799	requiring
-4.300769	resemble
-3.999739	resembling
-4.300769	reserve
-4.300769	reserved
-4.601799	resign
-4.300769	resistance
-4.601799	resisteth
-3.999739	resolution
-4.300769	resolved
-4.601799	resolving
-4.300769	resort
-4.601799	resounding
-4.601799	resounds
-3.601799	respect
-4.601799	respected
-4.300769	respecting
-4.601799	respective
-3.999739	respects
-4.601799	respose
-3.323046	rest
-4.601799	restful
-4.601799	resting
-4.300769	restless
-4.300769	restore
-4.601799	restored
-4.601799	restrain
-4.601799	rests
-4.601799	resty
-4.601799	resuming
-4.601799	retain
-4.601799	retention
-3.999739	retire
-4.601799	retired
-4.124678	retires
-4.601799	retiring
-3.560407	return
-4.601799	returned
-4.300769	revealed
-4.601799	revelling
-4.300769	revels
-3.902829	revenge
-4.124678	revenged
-4.601799	revengeful
-4.601799	revenging
-4.601799	revenues
-4.300769	reverend
-4.601799	review
-4.601799	reviewest
-4.601799	revives
-4.601799	reviving
-4.601799	revolt
-4.601799	revolution
-4.601799	revolving
-4.601799	rewarded
-4.601799	reworded
-4.601799	rhetoric
-3.823648	rhyme
-4.601799	rhymers
-4.601799	rhymes
-3.346527	rich
-4.601799	richer
-4.300769	riches
-4.601799	richest
-4.601799	richly
-4.300769	rid
-3.999739	ride
-3.999739	rider
-4.601799	rider's
-4.300769	ridges
-4.601799	ridgeway
-4.300769	ridiculous
-4.300769	rifled
-3.240072	right
-4.601799	rightful
-4.124678	rightly
-4.300769	rights
-4.601799	rigol
-4.300769	rigor
-4.601799	rigour
-4.601799	rigour'
-4.601799	ring
-4.124678	rings
-4.300769	riot
-4.601799	ripe
-4.601799	ripen
-4.124678	riper
-3.902829	rise
-4.300769	rising
-4.601799	rite
-3.999739	river
-4.601799	rivers
-4.601799	roaring
-4.601799	rob
-4.124678	robb'd
-4.601799	robbed
-4.300769	robbery
-4.601799	robbing
-4.601799	robe
-4.601799	robs
-4.124678	rock
-4.601799	rock'd
-4.300769	rocks
-4.300769	rocky
-4.300769	roe
-4.300769	roll
-4.601799	rolld
-4.601799	rolling
-3.698709	roman
-4.300769	romans
-3.698709	rome
-4.601799	rome'
-4.601799	rondure
-4.601799	roof
-3.756701	root
-4.601799	roots
-3.522618	rose
-3.522618	roses
-4.601799	rosy
-4.601799	rot
-4.601799	rotted
-3.999739	rotten
-3.823648	rough
-3.647557	round
-4.300769	rouse
-4.601799	rouseth
-4.601799	royally
-4.601799	ruby
-4.601799	rud'st
-3.823648	rude
-4.124678	rudely
-4.300769	rudeness
-4.601799	ruffian
-4.601799	ruffle
-3.999739	ruin
-4.300769	ruinate
-4.601799	ruind
-4.300769	ruined
-4.601799	ruining
-4.601799	ruins
-4.300769	rule
-4.601799	ruled
-4.601799	rules
-4.601799	ruling
-4.601799	ruminate
-4.601799	rumored
-3.999739	run
-4.601799	running
-3.823648	runs
-4.601799	runst
-4.124678	rushes
-4.601799	rushing
-4.601799	rust
-4.300769	ruth
-4.601799	s
-4.601799	s'ere
-4.124678	sable
-4.300769	sack'd
-3.999739	sacred
-4.601799	sacrifice
-3.124678	sad
-4.601799	sadder
-4.601799	saddle
-3.823648	sadly
-4.300769	sadness
-4.601799	safe
-4.601799	safer
-4.601799	safest
-4.300769	sage
-3.27958	said
-4.124678	sail
-4.124678	saint
-4.601799	saints
-3.756701	saith
-3.455671	sake
-4.124678	salt
-4.601799	salutation
-4.601799	salutes
-4.124678	salve
-4.601799	salving
-3.371351	same
-4.601799	sanctified
-4.300769	sands
-4.601799	sang
-3.902829	sap
-4.601799	sapphire
-4.124678	sat
-4.601799	satiety
-4.601799	satire
-4.601799	satisfaction
-4.601799	satisfied
-4.601799	sauces
-4.601799	saucily
-4.601799	saucy
-4.601799	savage
-3.601799	save
-4.601799	saved
-4.300769	savour
-3.455671	saw
-4.601799	sawn
-2.894229	say
-4.601799	say'
-4.300769	saying
-3.487856	says
-4.124678	scale
-4.601799	scalps
-4.601799	scan
-3.999739	scandal
-4.601799	scanted
-4.601799	scantly
-4.601799	scapes
-4.300769	scar
-4.300769	scarce
-4.601799	scarcely
-4.300769	scarlet
-4.601799	scars
-4.601799	scent
-4.601799	sceptre
-4.601799	schedule
-4.601799	schedules
-4.124678	school
-4.300769	schools
-3.823648	scope
-4.601799	scorch
-4.300769	score
-3.698709	scorn
-4.300769	scorned
-4.300769	scornful
-4.601799	scornfully
-4.300769	scorning
-4.601799	scorns
-4.601799	scourge
-4.601799	scowling
-4.601799	scowls
-4.601799	scraps
-4.124678	scratch
-4.601799	scratch'd
-4.601799	scroll
-4.601799	scuds
-3.999739	scythe
-4.601799	scythed
-3.647557	sea
-4.601799	sea's
-4.124678	seal
-4.601799	seald
-4.300769	sealed
-4.601799	sealing
-4.300769	seals
-4.601799	sear'd
-4.601799	search
-4.300769	season
-4.601799	seasond
-4.601799	seasoned
-4.300769	seasons
-4.601799	seasons'
-3.902829	seat
-4.601799	seated
-3.902829	second
-4.300769	seconds
-4.601799	secrecies
-4.601799	secrecy
-3.823648	secret
-4.601799	secrets
-4.300769	secure
-4.601799	secured
-4.601799	securely
-4.601799	seducing
-2.809408	see
-4.601799	see'st
-4.601799	seeded
-4.300769	seeds
-3.601799	seeing
-3.601799	seek
-4.601799	seeking
-3.823648	seeks
-4.601799	seeled
-3.27958	seem
-3.560407	seem'd
-4.300769	seem'st
-4.124678	seemed
-4.300769	seemeth
-3.698709	seeming
-4.601799	seemly
-3.487856	seems
-3.240072	seen
-3.560407	sees
-4.124678	seest
-4.601799	seeting
-4.300769	seize
-4.601799	seized
-3.999739	seldom
-2.628671	self
-4.601799	self's
-4.124678	sell
-4.601799	selling
-4.601799	sells
-3.902829	semblance
-4.300769	send
-4.601799	send'st
-3.647557	sense
-4.300769	senseless
-3.902829	senses
-4.300769	sensible
-4.300769	sensual
-3.999739	sent
-4.300769	sentence
-4.300769	sentinel
-4.601799	separable
-4.601799	separation
-4.601799	sepulcher
-4.601799	sepulchred
-4.300769	sepulchres
-4.601799	sequent
-4.300769	serpent
-4.124678	servant
-4.601799	servant's
-4.300769	serve
-4.601799	served
-4.601799	serves
-4.601799	service
-4.601799	services
-3.902829	servile
-4.601799	servilely
-4.300769	serving
-4.601799	servitors
-4.601799	servius
-4.601799	sessions
-3.186826	set
-4.601799	set'st
-3.823648	sets
-4.601799	settled
-3.823648	several
-4.300769	severe
-4.601799	severer
-4.601799	sex
-4.300769	sextus
-3.756701	shade
-3.455671	shadow
-4.601799	shadow's
-3.823648	shadows
-4.300769	shady
-3.902829	shake
-4.300769	shaken
-3.902829	shakes
-4.300769	shakespeare
-4.124678	shaking
-2.477948	shall
-4.300769	shallow
-4.601799	shallowest
-3.323046	shalt
-2.885796	shame
-4.601799	shame'
-4.300769	shame's
-4.124678	shamed
-4.124678	shameful
-4.601799	shamefully
-4.300769	shames
-4.601799	shaming
-3.560407	shape
-4.601799	shapeless
-4.601799	shapen
-4.300769	shapes
-4.601799	share
-4.601799	sharing
-3.698709	sharp
-4.601799	sharpened
-4.601799	sharply
-2.124678	she
-4.601799	she's
-3.999739	sheathed
-4.601799	sheaved
-4.124678	shed
-4.300769	sheds
-4.300769	sheep
-4.601799	sheet
-4.601799	sheets
-4.601799	shelly
-4.601799	shelter
-4.601799	shelves
-4.300769	shepherds
-4.300769	shield
-4.601799	shielded
-4.601799	shift
-4.124678	shifting
-4.300769	shifts
-3.756701	shine
-3.902829	shines
-3.902829	shining
-4.601799	shivered
-4.601799	shocks
-4.601799	shone
-4.601799	shook
-4.124678	shoot
-4.601799	shooteth
-4.601799	shop
-3.823648	shore
-3.397679	short
-4.601799	shorten
-4.601799	shortened
-4.601799	shortly
-4.601799	shot
-2.610573	should
-4.601799	shoulder
-3.698709	shouldst
-3.057731	show
-3.823648	show'd
-4.601799	show'st
-4.124678	showers
-4.124678	showing
-4.300769	shown
-3.455671	shows
-4.601799	shrewd
-4.601799	shriek
-4.601799	shrieking
-4.601799	shrieks
-4.601799	shrill
-4.601799	shrine
-4.601799	shrinks
-4.601799	shrub's
-4.601799	shrubs
-4.601799	shrunk
-4.601799	shudder
-3.999739	shun
-4.601799	shunnd
-4.601799	shunning
-4.601799	shuts
-3.455671	sick
-4.601799	sicken
-4.601799	sickle's
-4.601799	sickly
-4.300769	sickness
-3.455671	side
-4.300769	sides
-3.999739	siege
-3.999739	sigh
-4.601799	sigh'd
-4.601799	sighing
-3.522618	sighs
-3.124678	sight
-4.601799	sighted
-4.300769	sightless
-3.999739	sights
-3.902829	signs
-3.902829	silence
-4.124678	silent
-4.601799	silk
-4.300769	silken
-3.823648	silly
-3.560407	silver
-4.601799	silvered
-4.601799	similes
-4.300769	simois'
-3.698709	simple
-4.300769	simplicity
-4.601799	simply
-3.110438	sin
-2.989016	since
-4.601799	sincere
-4.601799	sincerely
-4.601799	sinewy
-3.999739	sinful
-3.601799	sing
-4.300769	sing'st
-4.300769	single
-3.999739	singleness
-4.300769	sings
-4.601799	singular
-4.601799	sink
-4.601799	sinketh
-4.601799	sinking
-4.601799	sinks
-3.999739	sinon
-4.300769	sinons
-4.124678	sins
-3.823648	sire
-4.601799	sister
-4.601799	sistering
-3.756701	sit
-4.300769	sith
-3.698709	sits
-4.601799	situation
-4.601799	size
-4.601799	sized
-4.124678	skies
-4.601799	skilful
-3.371351	skill
-4.601799	skilld
-4.300769	skin
-3.601799	sky
-4.601799	slack'd
-4.601799	slacker
-4.601799	slackly
-3.647557	slain
-4.601799	slaketh
-3.999739	slander
-4.300769	slander's
-4.601799	slandered
-4.601799	slandering
-4.300769	slanderous
-4.601799	slaughter
-4.124678	slaughter'd
-4.601799	slaughterhouse
-3.522618	slave
-4.124678	slaves
-4.300769	slavish
-3.756701	slay
-3.647557	sleep
-3.902829	sleeping
-3.999739	sleeps
-4.601799	sleided
-4.601799	slept
-4.300769	slew
-4.601799	slides
-4.300769	slight
-4.601799	slip
-4.601799	slips
-3.601799	slow
-4.601799	sluggard
-4.601799	sluices
-4.601799	slumber
-4.601799	slumbers
-4.601799	sluttish
-4.601799	sly
-3.823648	small
-4.601799	smallest
-4.601799	smarts
-4.601799	smear
-4.601799	smeared
-3.647557	smell
-4.601799	smelling
-4.601799	smells
-3.999739	smile
-4.300769	smiled
-4.300769	smiles
-4.124678	smiling
-4.601799	smilingly
-3.823648	smoke
-4.601799	smoking
-4.601799	smoky
-4.124678	smooth
-4.601799	smoothing
-4.601799	smoothness
-4.124678	smother
-4.124678	smother'd
-4.601799	smother'st
-4.601799	smothering
-4.601799	snare
-4.601799	snares
-4.601799	sneaking
-4.601799	sneaped
-4.601799	snorts
-4.601799	snout
-4.601799	snouted
-3.756701	snow
-4.601799	snowed
-4.601799	snuffing
-2.087252	so
-3.999739	so'
-4.601799	sobbing
-4.124678	sober
-4.601799	sobriety
-4.601799	sobs
-4.300769	society
-4.601799	sod
-3.487856	soft
-4.601799	soften
-4.601799	softly
-4.124678	soil
-4.601799	sold
-4.601799	sole
-4.124678	solemn
-4.601799	solicited
-2.720986	some
-4.300769	something
-3.323046	sometime
-3.902829	sometimes
-3.601799	son
-3.756701	song
-4.300769	songs
-4.601799	sonnets
-3.999739	sons
-3.601799	soon
-4.300769	sooner
-4.601799	soonest
-4.601799	soothed
-4.601799	soothing
-3.999739	sore
-4.601799	sore'
-4.601799	sores
-3.057731	sorrow
-3.902829	sorrow's
-4.300769	sorrows
-4.300769	sorry
-4.124678	sort
-4.601799	sorteth
-4.601799	sorts
-3.560407	sought
-3.323046	soul
-3.560407	souls
-3.698709	sound
-4.601799	soundly
-3.823648	sounds
-3.756701	sour
-4.601799	sourest
-4.601799	souring
-4.300769	sourly
-4.601799	sours
-4.300769	southampton
-3.698709	sovereign
-4.601799	sovereignty
-4.124678	space
-4.601799	spacious
-4.601799	spake
-4.601799	spare
-4.300769	sparing
-4.601799	sparkling
-4.601799	sparks
-4.601799	sparrows'
-3.323046	speak
-3.823648	speaking
-3.902829	speaks
-4.300769	spear
-4.601799	spear's
-4.300769	special
-4.601799	specially
-4.601799	spectacle
-4.124678	speech
-4.601799	speechless
-3.560407	speed
-4.601799	speedeth
-4.601799	speedy
-3.601799	spend
-4.601799	spend'st
-4.601799	spending
-4.300769	spends
-3.522618	spent
-4.601799	spent'
-4.300769	spheres
-4.124678	spied
-4.124678	spies
-4.601799	spill
-4.601799	spilld
-4.601799	spilld'
-4.601799	spilt
-4.601799	spinning
-3.487856	spirit
-3.999739	spirits
-3.560407	spite
-4.601799	spleen
-4.601799	spleens
-4.601799	splendor
-4.601799	splendour
-3.823648	spoil
-4.601799	spoild
-4.601799	spoils
-4.601799	spoke
-4.601799	spongy
-3.999739	sport
-4.601799	sport'
-4.601799	sporting
-4.300769	sportive
-4.601799	sports
-4.300769	spot
-4.601799	spotless
-4.601799	spots
-4.300769	spotted
-4.300769	spread
-4.601799	spreading
-4.300769	spright
-3.371351	spring
-4.601799	springing
-4.124678	springs
-4.300769	sprite
-4.300769	sprung
-4.300769	spur
-4.601799	spurns
-4.601799	spurnst
-4.601799	spurring
-4.300769	spy
-4.601799	stabbed
-4.601799	staff
-3.999739	stage
-3.601799	stain
-4.601799	stain'
-3.823648	staind
-3.999739	stained
-4.300769	staineth
-4.124678	stains
-4.601799	stale
-4.300769	stalk
-4.601799	stalks
-4.601799	stalled
-4.300769	stamp
-4.601799	stamp'd
-4.601799	stamped
-4.601799	stamps
-3.397679	stand
-4.300769	standing
-3.698709	stands
-3.698709	star
-4.300769	stares
-4.300769	staring
-3.647557	stars
-4.601799	start
-4.601799	starteth
-3.999739	starts
-4.601799	starved
-3.323046	state
-4.601799	statue
-4.601799	statues
-4.601799	statute
-3.425708	stay
-4.300769	stay'd
-4.601799	staying
-4.300769	stays
-4.601799	steadfast
-4.124678	steady
-3.560407	steal
-4.300769	stealeth
-3.902829	stealing
-4.300769	steals
-4.601799	stealth
-4.601799	steam
-3.902829	steed
-3.823648	steel
-4.601799	steeld
-4.601799	steeled
-4.300769	steep
-4.601799	steepy
-4.601799	stelled
-4.300769	steps
-3.999739	stern
-4.601799	stewards
-4.601799	stick'st
-4.300769	sticks
-4.601799	stifle
-2.624076	still
-4.601799	stilld
-4.601799	stillitory
-3.902829	sting
-4.300769	stir
-4.601799	stirred
-4.300769	stirring
-4.601799	stirs
-4.601799	stock
-3.999739	stole
-3.902829	stoln
-3.601799	stone
-4.601799	stone's
-3.999739	stones
-4.601799	stonish'd
-3.522618	stood
-4.601799	stoop
-4.300769	stoops
-3.698709	stop
-4.300769	stopp'd
-4.601799	stopped
-3.999739	stops
-4.300769	stopt
-3.487856	store
-4.601799	store's
-4.601799	stores
-4.601799	stories
-4.300769	storm
-4.601799	storming
-4.124678	storms
-4.124678	stormy
-3.647557	story
-4.601799	stout
-4.601799	stoutly
-4.601799	stove
-4.601799	stows
-4.601799	straggling
-3.522618	straight
-4.124678	strain
-4.601799	strained
-4.601799	strains
-4.601799	strait
-4.601799	strand
-3.487856	strange
-4.601799	strangely
-4.601799	strangeness
-3.999739	stranger
-4.601799	strangle
-4.300769	straw
-4.601799	stray
-4.300769	stream
-4.601799	stream'd
-4.124678	streams
-3.560407	strength
-4.601799	strength's
-4.601799	strengthened
